ODFQMVNQHVIBYT
784 100 100 100 100 100 26 
-0.0523
0.4387
0.3018
-0.414397
-0.24786
-0.808537
-0.487549
0.459218
0.584638
0.684332
-0.226842
-0.107665
-0.337797
-0.178038
-0.233637
0.208871
0.42076
-0.0374431
-0.0661746
0.83799
-0.18301
-0.293672
-0.0890814
-0.314202
0.492499
-0.38
0.371
0.4704
0.0838
0.73841
0.831462
0.981493
0.540595
0.492802
0.91886
0.548967
0.319259
0.448718
-0.0232605
1.00045
-0.256186
0.010046
0.446493
-0.604183
1.03336
0.663793
-0.0684706
-0.383031
0.621041
0.011797
0.00255825
-0.896032
0.677995
0.701364
0.724322
-0.477797
-0.5801
0.264635
0.751119
0.831231
0.728203
-0.171502
0.501658
0.163653
-0.0979368
1.12506
-0.559695
0.649647
-0.209025
-0.740648
1.15424
0.528262
0.963334
-0.0655772
-0.190359
0.83538
-0.193466
0.160126
0.423896
0.552429
0.0415678
-0.240859
-0.711226
-0.565423
0.82
-0.718902
-0.887455
-0.263455
0.477076
-0.299562
0.385435
0.28381
1.14744
0.721206
0.0546913
0.0139781
1.27166
0.72617
-0.240587
1.31635
1.08943
0.451859
0.410711
0.25706
0.170335
-0.80778
0.470436
-0.0648643
-0.973127
0.706375
-0.0818046
0.0740664
0.2385
0.527318
-0.776767
0.31262
-0.276075
-1.00479
0.895356
0.96092
0.554894
0.00665222
0.047585
-0.0956421
0.570151
0.89433
0.752518
0.946881
-0.176829
1.29633
-0.197892
0.640579
-0.165185
-0.720622
-0.447344
0.264802
-0.016268
-0.0570741
0.529781
0.741314
-0.5183
0.883285
0.214001
0.162156
0.721957
0.89839
0.493482
0.441907
-0.203124
1.07539
-0.465357
-0.613647
-0.284049
0.609029
-0.663503
1.36361
0.421045
-0.54038
0.760539
-0.159454
-0.758316
0.640163
0.427259
-1.05767
-0.731092
-0.828066
-0.788324
-0.473583
0.1629
-0.336216
0.279654
0.12511
0.392116
-0.62523
-0.00455239
-0.796281
0.411156
0.584999
0.049096
0.522379
0.783058
0.0690666
1.12794
0.705629
-0.0310069
-0.388589
0.204179
0.967117
0.246039
-0.126297
0.219016
-0.156623
-0.922287
0.463048
-0.599926
-0.2527
-0.9342
-0.356143
0.0830568
-0.449741
-0.227476
-0.00390446
-0.457232
1.09494
0.147717
-0.68
0.557115
-0.990402
-0.991877
-0.198459
-0.475515
0.365234
-0.535888
1.31647
0.0181574
0.236959
0.157577
-0.281064
0.521442
-0.910389
-0.176868
-0.905417
0.36996
0.1941
-0.3956
-0.747393
-0.265003
1.14102
0.434185
-0.124106
-0.605698
0.416395
-0.48798
0.0420279
-0.542251
-0.982235
-0.0146012
-1.06823
0.0850836
-0.861365
-0.408912
0.612106
-0.448875
-0.703683
0.637377
0.353326
0.160507
-0.460025
0.380415
0.0708227
-0.670009
-0.0484471
0.3477
0.390875
0.661701
-0.387163
0.85733
-0.244713
0.749896
0.440984
0.272206
0.524858
-0.292867
-0.389542
-0.161047
-0.0990323
-0.0847294
-0.888589
-0.566144
0.641947
0.36713
0.0140796
0.443229
0.29568
0.520875
-0.933633
-0.447246
-0.796529
-0.918135
-0.561621
0.5131
-0.0235484
0.0558172
0.601765
0.641124
-0.17782
-0.0061078
0.0637015
0.327891
0.433885
0.334814
0.324565
-0.229852
-1.4795
-0.94383
-0.0897614
0.0902659
0.0709284
0.0757993
-0.630221
-0.432278
-0.756506
-1.08066
-0.967736
0.624678
0.779917
-0.913127
-0.7309
-0.0035
0.12297
0.381464
0.437529
0.51272
0.71755
-0.367152
-0.440085
0.290585
-0.164321
-0.906192
-1.01493
-0.826965
-0.147011
-0.0655842
0.159987
-1.05789
-0.111895
-0.37594
-0.401899
0.173639
0.083581
-0.0527442
0.624329
1.33603
0.64731
0.24924
-0.7011
0.9293
-0.0278579
-0.348695
1.18179
1.08305
0.694142
0.371246
1.00479
0.299694
0.247966
0.409286
-0.800483
0.0229931
-0.177355
-0.37957
0.755063
-0.778861
-0.122606
-0.732943
-0.719181
-0.64379
0.552159
-0.482046
-0.121801
1.10489
-0.0231867
-0.379006
0.716
-0.8123
-0.475709
0.617404
-0.772558
0.6777
0.89274
-0.157782
-0.135974
0.775911
0.136812
-0.278488
0.213845
-0.5104
-0.786342
0.180498
0.00569831
-0.526906
-0.489049
-0.259609
0.759877
-0.0233048
-0.168294
-0.156158
-0.709755
-0.554952
-0.101414
-0.169357
-0.5378
-0.215706
0.884873
1.01005
0.483557
0.83488
0.384716
0.713754
0.588979
-0.603196
0.414966
0.383869
0.256451
-0.322192
1.21045
0.611428
0.653909
0.350783
-0.984529
0.415701
-1.18877
-0.571923
-0.466826
-0.651521
0.567932
0.945743
1.00404
-0.012231
-0.549229
-0.316491
-0.826403
-0.268994
1.01504
-0.571944
0.402396
-0.0161617
-0.187358
-0.223829
0.146582
-0.258842
0.396302
-0.373388
0.929368
-0.43637
-0.267987
0.436739
0.145856
-0.0350281
-0.0704097
-0.391122
-0.0936382
0.535171
-0.881701
0.862256
-0.736296
-0.129954
0.213395
-0.26675
-0.506543
0.498007
1.02552
-0.607321
0.935007
1.35407
-0.545331
0.86222
0.567366
-0.973264
0.741435
0.949942
0.0281657
0.034072
0.00615202
-0.229803
0.981899
0.138021
0.691486
0.845682
-0.571134
0.218236
0.077975
0.772838
-0.69629
-0.559063
0.777964
0.000200284
-0.713767
-0.408674
1.24189
0.72133
0.255198
0.747651
-0.783324
-0.615922
-0.718276
-0.533788
0.185557
-0.450487
0.0258407
1.33714
1.43123
0.346881
-0.343516
-0.234987
-0.284332
-0.0799569
0.158128
-0.506298
-0.609864
-0.0333448
0.81996
-0.257411
0.274807
0.147276
0.745406
1.30327
-0.371663
0.0977372
0.559995
-0.370953
0.00203588
0.733986
-0.752621
-0.727132
0.492149
-0.0257269
0.793947
-0.491389
0.820695
0.427457
0.439422
0.746446
1.08203
-0.501819
-0.507133
0.133971
0.634787
0.425055
-0.949008
0.64538
0.4267
0.3417
-0.83426
0.0944015
0.193843
0.556867
0.586142
-0.097672
-0.535468
0.973169
-0.250921
-0.957793
-0.618177
-0.124066
0.0957722
-0.340453
0.555698
1.33755
-0.0329652
1.10636
-0.243718
-0.396597
0.419259
-0.724917
0.653286
0.0266243
-0.389953
0.966263
0.8278
-0.2966
0.0214153
0.692404
0.99593
0.210696
-0.456812
0.238324
0.815428
-0.64298
0.861645
0.577648
-0.0452545
-0.154079
-0.150869
0.176865
0.617249
0.160867
-0.100905
1.02214
-0.817387
0.60263
0.401821
0.776181
0.859408
-0.695686
-0.222128
-0.634398
-0.1324
0.527284
-0.626833
0.11253
1.22137
-0.0907471
0.119064
0.987915
0.385036
-0.47369
-0.257077
-0.301586
0.813467
-0.416481
0.510749
-0.703833
0.58727
0.571126
-0.218994
0.939737
0.265524
-0.527136
-0.623315
-0.841865
-0.960243
-0.321106
0.233831
0.687878
0.8293
-0.304783
-0.730093
0.724469
-0.38263
-0.0136448
-0.118739
-0.377983
0.586418
0.730562
-0.623386
-0.387159
-0.477169
-0.697775
-0.96985
-0.234651
-0.622862
0.548343
0.372623
0.798634
0.472373
0.809729
-0.549576
0.259453
-0.964176
-1.16411
-0.225771
-0.593165
-0.1745
0.299749
0.755023
1.12093
-0.517496
-0.0225265
0.0916582
1.1892
-0.470628
0.153611
-0.208594
-0.658202
-0.0524321
0.392449
0.0130402
0.148431
-0.362294
1.14638
0.960608
0.613674
0.915962
-0.0346325
0.879794
-0.169394
0.568096
0.488542
0.437588
0.435388
-0.5022
-0.10908
0.295727
-0.10129
0.9815
-0.799888
0.867783
0.311264
-0.0271933
0.832212
0.632896
-0.680132
-0.169735
-1.04366
-0.361585
0.259003
-0.00247604
1.07233
-0.33749
-0.736829
-0.33306
0.373296
0.137363
-0.725788
-0.169096
-0.809786
0.118399
0.530463
-0.8095
0.624863
-0.14795
-0.204099
0.428631
0.813945
-0.520837
0.158343
-0.206197
-0.533757
0.85088
0.713289
0.922389
-0.241811
-0.87217
-0.690051
-0.13907
0.963118
0.720482
0.461322
0.720492
0.107319
-0.403546
-0.391692
-0.985239
-0.107845
0.656621
0.5563
0.712
0.530803
-0.134994
-0.65988
0.739256
-0.0792007
0.997168
0.246839
0.375434
-0.861857
-0.175604
-0.825973
0.850019
0.0156727
0.824273
0.871855
-0.494423
-0.0864495
0.575026
-0.335043
-0.206633
-0.235266
0.942623
0.605118
0.14301
0.869007
0.0275723
0.690508
-0.3777
-0.6476
0.122
-0.6903
0.77394
0.192116
-0.0095988
0.550656
-0.793773
0.655727
0.0575702
0.885717
-0.3446
-0.686291
-0.602477
-0.429477
0.464314
-0.0727724
0.322414
0.562
-0.4681
-0.6594
-0.116375
-0.4199
-0.5685
-0.5439
0.4224
0.3774
0.309
-0.4366
-0.2536
-0.9872
0.243116
0.690065
0.903001
0.183235
0.300231
-0.836147
0.711836
-0.261343
-0.585838
0.774761
0.362817
-0.904034
0.953065
-0.608648
-0.333043
-0.258907
-0.129295
0.882512
-0.235194
-0.473606
0.110402
-0.320799
-0.0622
0.0575
-0.8252
-0.6668
-0.050247
-0.363276
0.324499
-0.391688
0.142455
-0.370476
-0.910257
-0.179399
-0.119563
-0.331433
-0.666982
0.459406
-0.803145
-0.994607
-0.527219
0.82769
-0.254666
0.158481
-0.993474
-0.508542
0.89648
-0.875673
-0.53298
0.542985
0.769157
-0.0523492
-0.182699
-0.8012
0.829984
-0.898526
0.00932695
-0.0458982
-0.234649
-0.76564
-0.172503
1.01735
0.897771
-0.841295
-0.176541
-0.534493
0.49963
-0.643716
0.661809
-0.14971
-0.956507
-0.762979
-0.799484
0.845797
-0.259288
-0.922583
0.794414
-0.654126
0.661
-0.765417
0.668704
0.1915
0.356311
-0.419936
0.884843
-0.623102
-0.0319659
0.930671
-0.190285
0.330782
0.771555
0.31667
-0.512282
-0.476199
-0.670485
-1.07696
-0.488521
-0.0830536
-0.0695534
-0.561858
-0.843237
-0.968937
-0.170899
0.683189
-0.0454887
0.112371
0.193254
0.526396
0.944216
-0.5685
0.338629
0.905288
0.622071
-0.108398
-0.773568
0.456844
-0.484364
-0.813538
-0.0169189
0.619239
-0.357229
-0.158023
0.398757
-0.507914
-1.25463
0.061865
0.57956
-1.24199
-0.646923
-0.202943
0.525849
-0.287577
-0.0858509
0.19045
-0.875421
0.952909
-0.571359
-0.7036
0.945446
-0.659255
-0.0939427
-0.555683
0.0179362
-0.586262
-0.282964
0.39019
0.0688838
-0.503915
-0.0341022
-0.356603
-0.398938
0.0803278
0.410819
0.444751
-0.0915422
-0.630366
0.869322
-0.68187
-0.631189
0.361671
-0.24682
-0.36017
0.70758
0.696047
0.70618
0.2269
0.122562
-0.875408
-0.322505
0.494873
-0.281384
0.752582
-1.09022
0.28746
-0.647916
-0.493872
-0.038011
-0.0204302
-0.356203
-0.280971
0.249449
0.554746
-0.180889
-0.703373
0.543174
-0.307162
-0.496349
0.779098
-0.365745
-0.586453
0.325272
0.680231
-0.0503
0.415
0.609604
0.601941
-1.02455
-1.02296
0.423094
-0.0257173
0.275583
-0.66029
0.444079
-0.627022
0.255362
-1.03924
-0.0420915
-0.198909
-0.449518
0.301352
-0.402968
0.155658
-0.823979
-0.09641
-1.07367
-0.473202
-0.673678
-0.102335
-0.186711
0.198434
-0.5752
0.0521
-0.667566
-0.795298
-0.370662
0.186516
-1.04009
-0.629845
0.921771
-0.415721
-0.497299
-0.839105
-0.45445
-0.92326
0.996662
-0.665532
-0.532029
0.370182
0.798439
0.69112
0.105959
-0.385572
0.726675
0.245196
0.144377
0.597172
-0.326402
-0.229637
-0.794988
-0.4184
0.836816
-0.384524
0.76954
0.6927
-0.31079
-0.843802
-0.281101
1.01111
0.551006
-0.459258
-0.000995342
1.01025
-0.17819
1.2801
0.842543
-0.358085
-0.201527
-0.0728265
-0.713841
-0.322147
-0.253818
-0.667088
-0.609589
0.313099
-0.947592
-0.935997
-0.207212
0.7515
0.278859
0.500459
0.30074
-0.804337
0.204235
-0.229072
-0.498533
0.975119
0.911871
0.516796
-0.587635
0.201219
0.0237329
0.409172
0.956178
-0.642478
0.914229
-0.19615
-0.584765
0.143226
-0.230778
-0.0486304
0.696463
0.848435
-0.127482
-0.214293
-0.6509
0.4045
0.336097
0.575942
-0.435251
-0.0659108
0.603883
0.985855
0.282904
-0.375115
0.460524
0.932968
-0.046
0.419471
0.218672
0.374609
1.10035
0.0468676
-0.1087
-0.442022
0.42091
-0.0734667
-0.231851
0.272507
0.780265
-0.167838
0.527561
0.731147
0.9639
-0.5356
0.490085
0.955334
0.839445
0.319874
0.358973
0.424413
0.209527
-0.429688
0.289096
-0.62552
-0.267035
0.0473817
-0.777417
0.402151
-0.0190345
0.757085
-0.471777
-0.729677
-0.310733
-0.536316
0.25713
0.729165
0.656771
-0.534932
-0.305521
-0.19035
0.0495017
0.394
-0.0223606
-0.675718
0.211191
0.410355
-0.759449
0.763911
0.251928
-0.015095
0.576455
0.802932
-0.183016
0.00918309
0.738778
0.113162
0.418831
-0.895504
0.128167
-0.701373
0.21408
-0.210088
-0.226963
0.750182
-0.803274
0.792815
-0.197531
-0.683083
0.8845
-0.609867
0.936573
0.556416
-0.515316
0.717612
-0.794683
-0.135981
-0.0817133
-0.322206
0.0753008
0.298528
0.827643
0.119281
0.212687
0.681319
-0.320405
-0.272903
0.214338
-0.0736891
-0.747037
0.314533
0.360252
-0.192102
-0.535769
-0.966172
-0.211556
-0.513439
-0.336417
-0.210957
-0.580067
0.561386
-1.11184
0.756944
0.760692
0.106874
0.452322
0.644473
0.672321
0.109551
-0.331024
0.711977
0.729123
-0.0199284
0.761651
-0.222031
-0.441444
-0.866609
0.570108
0.628265
-0.0403566
-0.0865093
-0.809384
0.214484
0.596626
-0.763873
-0.149674
0.784514
0.602644
-0.0351405
0.498466
0.311652
-0.603324
0.544957
-0.721655
0.478105
0.984175
-0.27711
-0.292912
-0.743368
-0.578796
0.127104
-0.186515
-0.796499
-0.991332
-0.479091
0.115984
-0.765497
0.909677
0.4496
0.06755
0.846572
0.194104
-0.426578
0.936424
0.111203
0.30163
0.515196
0.813129
-0.700596
0.459807
0.137784
0.733347
-0.676042
1.14321
0.591239
0.515596
1.23288
-0.339366
0.839618
-1.10053
-1.06476
-1.17296
-0.714959
-0.295032
-0.675112
0.313292
-0.322723
0.28364
-0.585392
0.454658
0.541179
0.297529
0.847765
-0.120788
-0.174398
0.704447
-0.191175
-0.841905
0.24555
-0.411564
-0.386947
1.14378
1.07564
0.205817
1.38297
-0.149251
-0.429073
-0.287463
-1.26052
-0.450819
-0.303111
0.363702
-0.236889
0.781697
0.371627
-0.764827
0.561811
0.930943
0.0775116
-0.282
0.9215
0.562055
-0.0343622
-0.818524
-1.05675
-0.477701
-0.453954
0.990617
-0.435593
-0.693493
0.0299418
0.953387
0.328543
0.385534
0.401781
0.278064
0.766803
-0.16733
0.634887
0.267555
0.741594
0.00219652
-0.366167
0.868274
0.277814
0.89608
0.571019
0.3802
-0.0045
0.488565
-0.231657
-0.72634
0.40327
0.140877
0.337812
0.736334
-0.945291
0.488992
0.37273
-0.90124
0.095104
-0.139938
-0.154948
-0.732054
-0.866648
0.517538
-0.3278
0.0804823
0.550745
0.814567
0.176984
-0.650817
-0.759066
0.842881
0.515908
-0.5465
0.494816
-0.0552035
-0.234911
0.526462
-0.445255
-0.0421905
-0.342112
-0.941015
-0.648684
-0.644621
0.556792
-0.0216164
0.427605
0.182437
0.121891
-0.235955
1.04542
0.673454
0.265887
0.488528
-0.555401
0.456418
0.941777
-0.899525
-0.248162
-0.519702
0.842537
-0.3031
0.33928
0.505398
0.50014
-0.633701
0.889329
0.0463128
0.615794
-0.0817184
0.590429
-0.623158
-0.636441
0.545351
-0.603572
0.135465
0.360019
-0.0400264
0.993013
0.440015
-0.899802
-0.605291
-0.114099
0.0921418
-0.846076
0.768613
0.316831
0.320467
-0.711971
0.1534
-0.937277
-0.327889
-0.0712719
0.461845
-0.543909
-0.112175
-0.781785
-0.364697
-0.844562
0.954438
-0.514721
1.00919
0.635425
0.325243
-0.0160993
-0.00657511
-0.184445
-0.491117
1.04892
-0.0336591
0.0320144
0.176148
0.887374
0.042254
0.415211
0.769891
0.0372287
-0.8635
0.841119
-0.436669
0.954543
0.293723
-0.483087
-0.558692
0.352921
-0.362841
-0.302819
0.0135806
-0.751016
0.00444261
1.02748
0.623375
-0.314419
0.806119
0.900166
0.96552
0.912837
0.84596
0.323345
-0.0326756
0.814726
-0.581322
-0.893401
-0.99696
0.224059
0.3705
-0.957772
-0.958471
-0.0298035
0.794143
0.771899
-0.791105
0.872787
-0.277916
-0.647008
0.262311
0.629683
-0.929671
-0.261937
-0.243606
-0.294551
0.274925
0.631151
-0.0523878
-0.583758
-0.274074
0.764811
0.490232
-0.747077
0.983386
0.169849
-0.381554
0.659255
-0.6345
0.320501
-0.709766
-0.0363311
-0.801636
-0.872554
-0.836513
0.613231
0.674817
-0.392789
-0.683692
0.404084
-0.209451
-0.0117346
0.0431133
0.276023
0.166722
0.525356
0.222915
-0.89787
0.389804
-0.61666
0.4692
-0.183354
0.00888169
0.515092
-0.110996
-0.531424
0.9464
-0.6131
-0.1413
0.2358
-0.844176
0.936169
0.886654
-0.247809
0.987109
-0.422617
-0.546801
-0.166657
-0.5231
-0.691801
-0.394215
-0.272115
0.221485
-0.583304
-0.2946
0.9561
0.2743
0.9207
0.260914
0.989852
0.9875
0.5307
-0.6462
-0.1409
-0.8228
-0.2531
-0.7436
0.1406
0.6405
-0.0925534
-0.352538
-0.575632
0.656073
0.883253
0.0745758
-0.723163
0.821354
-0.494618
-0.592317
-0.0259008
-0.0420012
0.774403
-0.833003
-0.85587
0.0300091
-0.149171
0.769972
-0.3198
-0.547501
-0.4146
-0.0108
0.8117
0.8271
0.7937
0.940301
-0.718326
0.570851
0.737381
-0.928437
-0.930307
-0.790212
0.0339355
0.381993
-0.604258
-0.58111
0.941269
-0.0573088
0.0355796
-0.661536
-0.787883
-0.281308
-0.756781
0.944887
-0.304056
-0.112835
0.297114
-0.792843
-0.6614
-0.58707
0.320402
-0.4541
0.5989
-0.556636
0.103735
-0.138165
0.109508
0.340735
-0.871394
-0.330306
-0.490643
-0.204585
0.566751
-0.840628
-0.496712
0.442965
-0.0157375
0.393105
0.419577
-0.321851
-0.0843942
0.292059
0.573665
0.579764
0.766317
-0.372821
0.0737728
0.0135782
-0.2593
-0.0865218
-0.2049
0.4384
0.249585
0.697188
-0.330404
-0.2989
-0.213622
-0.801892
-1.0781
-0.863859
-0.612004
-0.795291
-0.575804
0.230942
0.382989
-0.147879
0.583721
0.246404
-0.735635
-0.2891
-1.15374
-0.712777
0.6364
-0.333988
0.130256
-0.954661
-0.307015
0.0557602
0.361
-0.963068
0.615209
0.873531
-0.692511
0.349243
0.284782
-0.67697
-0.00780172
0.768035
0.290239
-0.307911
1.02049
0.218587
0.163816
-0.923705
0.324275
-0.714035
-0.569352
-1.14423
-1.14286
-0.338391
-0.892636
0.910541
0.779329
0.273524
0.597486
-0.212402
0.1613
-0.584892
0.297145
-0.773519
-0.894518
0.28104
0.0798172
0.643849
-0.53416
0.84963
-0.556233
-0.289482
0.814159
-0.603262
-0.46333
-0.234411
-0.686687
-0.504859
-1.25552
-0.847845
0.199654
0.67751
-0.758428
-0.139063
0.816915
-0.251509
-0.0925574
0.235184
-0.558
-0.732533
-0.881346
-0.786218
0.825184
0.206412
-0.417569
-0.840037
0.483794
-0.657225
-0.440649
-0.0470055
0.936415
-0.460844
-0.151821
0.0601525
0.613315
-0.198677
0.812574
-0.941306
-0.666535
-0.107034
0.0362778
0.208626
-0.155052
0.348267
-0.94075
0.8724
0.5025
-0.750995
0.555037
-1.09907
0.430279
-1.06963
0.723663
-0.828167
-0.14387
0.501346
-0.099642
0.407884
-0.0169654
0.803607
-0.635334
-0.541019
-0.593514
-0.331731
-0.539665
0.297175
0.229151
0.75243
0.208882
-0.195583
0.0185125
-0.236809
-0.721272
0.2575
0.4608
-0.584863
-0.490981
0.541881
-0.101234
-0.673885
0.343097
-0.371028
0.505454
0.308108
-0.0806512
-0.614568
0.916191
0.72573
-0.598766
1.12827
-0.0279482
-0.746071
-1.01074
0.532858
0.710883
-0.569055
0.285701
-0.198328
-0.277071
-0.324254
0.816369
-0.997095
-0.4006
-0.574433
-0.366167
0.546878
-0.757655
0.311999
-0.600046
-0.3516
0.362416
-1.08049
0.49833
-0.382094
0.260119
-0.0361728
-0.652591
-0.0465394
-0.736174
-0.0451892
-0.366938
-0.841641
0.655735
0.174881
0.149123
0.0423877
-0.117631
0.598061
-0.625318
0.101966
0.7621
-0.204942
0.640595
-0.620352
-0.512131
0.839872
0.629233
0.828964
0.396538
0.119345
-0.834952
-0.528794
0.293364
0.539009
-0.486191
0.567967
0.361616
0.527634
-0.668845
0.347949
-0.282226
-0.691883
0.50554
0.400823
0.398669
-0.643649
-0.907942
0.5411
-0.7129
-0.933431
0.775182
-0.758544
-0.141438
-0.3398
-0.398885
-0.211813
0.451245
-0.236132
-0.0648128
0.280038
0.0165495
0.0242651
0.374172
-0.48403
0.991602
-0.247404
0.615401
-0.272451
0.495397
0.86571
-0.264705
-0.253855
0.716396
-0.146497
-0.935546
0.3032
0.6105
0.0854138
-0.683442
0.902166
-0.135192
0.142455
-0.877858
-0.513225
0.134698
-0.111546
0.53387
0.832446
-0.570472
1.24832
-0.586117
-0.200518
-0.364103
0.0772939
-0.676194
-0.447657
-0.357803
-0.0818984
-0.00279838
-0.559755
0.954751
-0.885925
-0.297011
0.862768
0.76
0.339002
0.232419
-0.220081
0.653099
0.00618449
-0.298823
0.0781413
-0.33884
0.116106
-0.144895
-0.00398098
0.947165
0.271806
0.910831
-0.211144
-0.349006
0.654823
0.0428946
-0.855175
1.0145
0.322371
0.0445857
0.634914
-0.337296
0.0628634
0.714626
0.6859
-0.0524149
0.363177
-0.233222
-0.555562
-0.642494
-0.771513
-0.0387768
-0.503183
0.313299
0.65744
-0.406755
-0.107421
0.371691
0.0536399
0.121295
-0.469391
0.636234
0.260174
0.251488
-0.532789
0.101169
-0.480596
0.889857
0.42281
0.876238
-0.256475
-0.101043
-0.127377
0.400537
0.218037
0.636244
-0.264849
-1.28075
0.204004
0.139686
0.757507
0.615109
0.484607
0.0993432
0.977454
-0.367503
-0.268101
0.619007
0.388709
-0.242442
-0.742956
-1.10693
-0.415441
0.184924
-0.921986
0.361126
-0.355482
1.0115
0.559528
-0.502205
0.310286
-0.358406
-0.806155
-0.526935
-0.7625
-0.290564
-0.132537
0.40192
-0.286758
1.04048
0.372466
0.101409
-0.29615
-0.279444
0.319613
0.468117
-0.827763
0.479949
-0.53714
-1.52225
-1.16527
-0.170854
-0.626025
-0.348167
-0.198896
0.039438
-0.916531
-0.669467
-0.441905
0.236839
-0.860606
-0.918717
-0.117241
-0.803498
-1.10807
0.344398
0.210781
0.258235
0.626681
0.711254
0.38706
0.0482033
-0.962704
-0.9092
-1.0157
-0.0807603
-1.04267
-0.638087
-0.72882
-0.647298
-0.974218
-0.681226
0.387334
0.0437134
0.476884
-0.361391
-0.0133969
0.770784
-0.926362
0.0130666
-1.22547
0.192076
-0.179251
0.753472
-0.683038
-1.00458
0.530544
0.489177
0.122347
-0.28066
-0.215569
-0.847139
0.958131
-0.694641
-0.161379
-0.610311
-1.08723
-1.1308
0.0454341
0.733096
-0.325061
-0.569952
0.993264
-0.887919
0.0269
-0.3284
-0.392326
0.277116
-0.244089
-1.14102
0.184308
-1.1307
0.788842
-0.480378
0.525424
-0.115028
-0.950459
-0.0569335
0.66636
0.817446
0.0591814
-0.143831
-0.721342
0.0582213
-0.919034
0.833921
0.0180852
-0.311431
0.442578
-0.26987
-0.097077
0.601821
-0.4841
-0.1721
0.118254
0.492121
-1.19106
-0.530836
0.501113
-0.727162
-0.512313
0.0404353
-0.371723
0.737034
0.222528
0.514752
-0.77927
0.0539337
0.612879
-0.221836
0.726268
-0.517456
-0.612177
-0.739207
-0.338458
0.932894
-0.653568
0.251225
-0.0284425
0.707125
0.1785
0.3538
-0.27529
0.567077
-0.84756
-0.440709
-0.542917
-1.25347
0.393603
-0.727841
-0.944749
-0.360995
-0.601321
-0.159054
-0.418349
0.287808
-0.510418
0.591999
-0.83892
-0.750605
0.745078
-0.747671
-0.577976
0.752475
0.281888
-0.65461
0.954056
-0.885605
0.5964
-0.175016
0.750891
-0.131772
-0.946836
0.34119
-0.734402
0.451532
-1.04139
-0.533132
-0.0578488
-0.827812
1.1014
0.718915
0.958562
0.261673
-0.458746
0.677184
-0.146917
-1.10833
0.926844
-0.743356
-0.631167
0.313416
-1.00935
-0.581935
0.521934
-0.383057
0.3065
-0.00901315
-0.489029
-0.845291
-0.555315
-0.365767
-1.03669
-1.11932
-0.372636
-0.959526
-0.0742202
0.633519
-0.00873463
-0.087869
-0.151579
0.342564
0.336306
-0.129119
0.0115264
-0.0974606
-0.768548
0.0220593
-0.785842
-0.916789
0.299576
-0.362215
-0.27155
0.897948
0.6883
-0.376223
-0.920333
-0.200884
-0.292088
0.128793
-2.15781e-05
-0.396884
0.723749
-0.756121
-0.583138
-0.889257
0.768067
-0.29572
0.754695
0.0574995
-0.0322974
0.804871
-0.790671
0.0297836
-0.347725
-0.436659
-0.221615
0.308988
-0.836047
-0.0555724
0.224058
0.434904
0.4529
-0.0859137
-0.769496
0.607739
0.275407
-0.232701
-0.221732
-0.118817
-0.70071
-0.966029
0.65965
0.700695
-0.392666
-0.130012
0.343952
0.833839
-0.525439
0.267885
0.335942
0.275701
0.392151
-0.114916
0.460465
0.468566
-0.823298
0.415895
-0.319682
-0.660592
-0.1132
0.9847
-0.35297
-0.548326
-0.893653
-0.368325
-0.838187
-0.22691
0.559356
0.810434
0.606187
0.089891
0.454615
-0.208634
-0.48172
-0.67638
-0.0514793
-0.3402
-0.221743
-0.715753
-0.987914
-0.62078
0.555491
-0.245132
0.846072
0.376379
-0.731567
-0.282466
0.0163
-0.1264
-0.5511
-0.4792
-0.585499
-0.811079
-0.272119
-0.0768019
0.61553
-0.808912
-0.0818362
0.458081
0.4271
0.979201
-0.0206011
0.755399
0.421507
-0.461698
-0.3651
0.115
0.5006
0.6117
0.685265
-0.978881
0.269
0.931
-0.432
-0.0415
0.2434
0.6921
0.6357
0.7105
-0.687308
0.5086
0.510606
0.897696
-0.00532325
-0.765044
0.733584
0.977594
-0.92509
-0.638084
0.0582022
0.179031
-0.133073
0.79786
0.608244
-0.0020067
-0.409148
0.180933
0.593455
-0.133688
-0.3913
-0.7879
-0.9961
0.58
-0.6342
0.3237
0.180905
0.58992
-0.809789
-0.963624
-0.173431
-0.686263
-0.0532841
-0.86803
-0.947125
-0.373257
0.503486
-0.186107
-0.486572
0.900411
-0.088947
0.95688
0.939786
0.312959
-0.441358
0.964205
0.220088
0.18105
0.75032
-0.230378
0.168867
0.351789
-0.6717
-0.9354
-0.92722
-0.914818
-0.32178
0.110322
-0.894454
0.36903
-0.532971
0.0887325
-0.217592
-0.285837
-0.68473
-1.04644
0.673465
-0.676686
-0.0577668
0.823055
-0.465016
-0.699409
0.493953
0.562433
0.244407
0.299404
0.322823
-0.917716
-0.0679861
-0.186316
0.7256
0.9272
-0.336912
-0.604849
-0.40672
-0.221813
-0.177998
-0.630051
-0.63612
0.85562
-0.584056
0.701896
0.955623
0.359519
0.594631
-0.885826
-0.426617
0.508581
-0.642191
1.19188
0.566829
-0.431571
0.849232
-0.291835
-0.655068
-0.700614
0.764369
0.777046
-0.778717
-0.7972
-0.287429
0.0647523
-0.827208
0.53751
-0.647307
0.129234
0.452065
1.03099
0.371612
0.180416
-0.622737
0.0489293
-0.50482
-1.12954
-0.243821
0.018942
-0.0783093
0.78381
-0.602853
0.0933935
-0.124202
0.129368
0.1261
-0.0181704
0.417996
-0.971296
0.55619
0.8244
0.406121
0.314554
-0.786757
0.127537
-0.581393
-0.911557
-0.165942
1.22342
0.469003
0.621393
0.591501
0.31713
-0.674319
0.198141
0.177611
-0.0877707
0.128927
-0.0539091
0.55491
0.238756
-0.42727
-0.578221
0.0975487
-0.275242
-1.05445
0.367536
-0.31222
0.4205
-0.443167
-0.223907
-0.959551
0.711922
0.974177
-0.521892
0.891816
0.428931
-0.0809269
-0.287097
0.306701
0.615308
-0.398203
-0.876224
-0.524268
-0.204817
-0.158381
-0.675314
-0.52344
0.210401
-0.349731
0.68236
0.526788
0.30317
-0.07854
-0.426685
0.6145
-0.0308
0.950479
0.796919
0.208251
-0.52844
0.472916
0.284555
-0.463688
-0.106754
-0.0772217
0.76569
1.09667
-0.566182
-0.34251
-0.365674
-0.920581
-0.919123
0.591316
-0.28165
0.25559
0.114531
0.0678354
0.600809
0.294241
0.309255
-0.143848
-0.398705
0.7986
0.2375
-0.35768
0.553056
-0.513925
0.649584
-0.609952
0.688549
0.58535
0.180735
1.30178
0.33192
-0.0437213
-0.217954
-0.448186
0.63885
-0.0073645
0.177696
-0.422769
0.720391
0.393219
-0.715115
0.480495
-0.357656
-0.507948
0.352651
0.35241
0.302913
0.369657
-0.2109
0.0674603
-0.380219
1.04457
-0.51426
0.65746
0.239445
0.56333
0.844904
-0.278272
1.50423
0.133868
0.167183
-0.598938
0.362279
-0.0557381
-0.904041
-0.663963
-0.00541513
-0.259762
-0.163919
-0.1445
0.236599
0.447115
-0.391128
0.61318
0.463628
0.476254
-0.4806
-0.0221353
0.222528
-0.72148
0.463417
0.474272
-0.615761
-0.513383
0.188587
-0.100475
1.44414
0.876976
-0.891105
0.130893
-0.421413
-0.95875
0.363839
-0.965141
0.62089
-0.267174
-0.27253
0.386244
-0.39991
-0.0268081
-0.449476
0.67159
0.702063
-0.3174
-0.1177
-0.661502
-0.478938
0.935293
0.515309
-0.0720765
0.0133052
-0.404277
1.26299
1.02378
1.09903
-0.105988
-0.305783
-0.240906
-0.727873
-0.0742709
-0.108111
-0.073331
-1.0412
0.0682257
-0.399023
0.522406
0.372153
-0.360356
0.938903
-0.890169
0.00054785
0.9004
-0.8117
-0.995055
0.924553
-0.906559
0.551265
-0.629986
0.923837
1.12065
1.28522
0.113472
-0.171559
-0.323677
-0.0777521
-0.848295
0.442912
-0.883758
-0.659086
-0.00503331
0.666073
-1.05564
0.822522
0.310546
-0.309592
0.0444238
0.508319
0.0500243
0.766436
-0.726404
0.926
-0.554848
-0.113459
0.51131
0.630465
0.759567
0.372361
0.411866
0.929314
0.0857997
0.599498
-0.883474
-0.207874
-0.729536
-0.685311
-0.632005
0.331172
-0.950354
-0.394405
-0.395562
0.0217047
-0.791007
0.358321
-0.00653467
-0.461765
-0.171235
-0.890014
-0.4134
0.432394
-0.000889222
-1.0868
-0.0114539
0.308653
0.454327
0.39154
1.5133
-0.303432
0.553328
0.326777
-0.0591503
0.101952
-0.741031
-0.675484
0.521012
0.138882
0.115315
-0.152742
0.116281
-0.469082
0.530686
-0.652691
-0.188938
0.829798
0.106096
-0.0635766
-0.969331
-0.00145147
0.851047
0.962911
-0.42651
0.637519
-0.424027
0.884224
-0.113417
-0.665927
0.186692
-0.575598
-1.58632
-0.834165
-0.279927
0.0575862
0.743839
-0.504692
-0.132669
0.0829594
-0.662198
-0.575497
0.451766
0.396536
-0.283296
0.362701
1.15698
0.180149
0.858894
0.151299
-0.822071
-0.900592
-0.493972
0.533982
-0.757134
-0.333037
-0.994683
-0.642853
-1.23345
-0.865209
-0.269169
-0.0724893
0.441638
0.338969
-1.20416
-0.299024
0.825325
-0.386686
-0.0248235
0.460037
0.0214464
0.151395
0.610246
0.472781
1.01542
0.744803
-0.997469
-0.470711
0.258731
0.597945
0.547081
0.112866
-0.720669
-0.0946854
0.602752
-0.70198
-0.50173
-1.5358
-1.30118
0.149899
-0.684254
-1.2457
-0.70614
0.141993
-0.608006
0.58179
0.608274
0.547938
-0.317972
-0.336352
-0.325399
0.245435
-0.353435
-0.58603
0.740004
0.815576
-0.871752
0.604924
0.292298
-0.566159
-0.163002
0.579682
-0.747317
-0.596142
-0.0480521
-0.109059
-0.465641
-1.15097
-0.615334
0.489095
0.108436
-0.467359
0.675061
-0.249902
-0.417056
0.0497246
0.768941
0.373667
0.0626376
0.570041
1.30473
0.551042
-0.9818
-0.3192
0.876969
-0.173706
0.284923
-0.771855
-0.850855
0.617381
-0.2124
-0.0507322
0.212144
-0.464559
-0.768151
-1.01651
-0.771263
-0.599412
-0.288868
0.772757
-0.146326
0.999765
-0.126915
0.709385
0.0578089
-0.370947
0.160146
1.02316
-0.353772
-0.626762
-0.9273
0.3075
-0.686418
0.675392
0.307288
0.497816
0.769059
0.226037
-0.830614
0.0113048
-0.0529483
-0.300105
0.0318018
0.40372
-0.559033
-0.125961
0.390368
1.05883
-0.536357
-0.120049
0.0618301
-0.632477
-0.273423
0.63874
0.254395
-0.347336
0.674146
-0.582181
0.9025
-0.744423
0.209758
-0.6815
-0.541684
0.681315
-0.416503
-0.0309873
-0.0648934
-0.179729
0.403489
-1.21763
-0.111872
-0.677531
-0.17619
0.396234
0.700994
0.22401
0.407642
0.274551
-0.541287
0.907083
0.552125
-0.45609
-0.384086
0.697546
0.425198
-0.148102
-0.76
-0.88942
-0.448961
-0.973602
-0.308113
-0.848982
0.310016
-0.235243
-1.00175
-0.232928
0.284789
-0.890668
-0.148171
0.129109
0.492703
-0.653576
-0.34025
0.735603
-0.78288
0.290955
-0.28389
-0.724627
-0.32852
-0.701999
-0.806764
-0.143154
0.576533
-0.356422
0.0571
0.5764
-0.16068
-0.557024
0.26604
-0.198237
-0.810118
-0.631575
0.12584
0.311806
-1.30161
-1.00308
0.540002
-0.0713602
-0.107883
0.114291
0.192266
0.258019
0.644131
0.889001
1.0308
0.0515565
-0.00771981
0.556157
0.402702
0.451532
0.859543
-0.820247
0.7849
-0.0612005
0.0479269
-0.218198
-0.425675
0.415843
0.178305
0.673954
0.395035
0.0383236
-0.890155
-0.134466
-0.549564
-0.317487
0.0558228
0.807047
-0.632594
-0.46197
-0.645153
-0.353635
-0.254795
0.692734
1.02089
0.0660656
0.699978
-0.151957
-1.0072
-0.907043
0.3932
-0.0925003
0.0340561
-0.833952
0.0882458
-0.924835
0.224517
-0.917348
0.453211
0.722314
0.0191842
-0.437332
-1.03265
0.818009
0.819989
-0.767531
0.299241
0.287007
-0.939327
0.550982
0.354392
-0.54401
-0.223431
-0.153492
0.295005
0.912988
0.919983
0.433014
-0.5025
0.5947
0.675611
-0.863992
-0.441638
-0.248483
0.697973
-0.827848
-0.245947
0.335885
0.962188
0.653974
-0.0463397
-0.166623
-0.578968
-0.783107
0.769819
-0.195983
-0.435166
0.513207
0.871505
0.31807
-0.533336
0.983528
0.896221
-0.42162
-0.854163
0.0689348
-0.1608
-0.6164
-0.2093
-0.0016
-0.886437
0.559149
0.970991
0.292791
0.648266
0.0579798
0.613045
-0.445854
-0.1638
0.279
-0.874077
0.867622
0.8915
0.1369
-0.907893
0.237
0.5876
0.4604
-0.801345
-0.545499
0.4911
0.3934
-0.1637
-0.1217
0.5582
0.1217
0.2608
0.7684
0.622
-0.519982
0.00827382
-0.554982
-0.905315
-0.187113
0.632441
0.072793
0.0731237
0.196931
0.48892
-0.228957
-0.877674
0.964813
-0.486739
-0.148134
0.19232
0.213024
0.189083
-0.578576
-0.8632
-0.6215
0.8298
0.9984
0.5504
0.7482
0.867499
-0.527074
-0.510544
-0.0652478
0.205318
0.162182
0.726538
0.213974
-0.900304
0.382975
-0.562228
-0.129448
-0.831841
0.317907
0.559502
0.453136
-0.159373
0.0565892
0.0152036
0.279038
0.748299
0.806777
0.749959
-0.466397
0.00473406
-0.598497
0.9599
-0.0439
0.645389
-0.884563
-0.701225
0.77508
-0.460077
-0.924766
-0.160191
0.372594
-0.170501
-0.130892
0.0298956
0.880898
0.745486
0.69845
0.0439135
0.873102
-0.186635
0.678932
-0.766707
0.544841
0.593133
-0.163279
-0.431627
0.750211
0.259427
-0.183018
0.996525
0.423
-0.692667
0.316677
-0.336381
0.796031
-0.567179
-0.471366
-0.464083
0.858446
-0.629407
0.676265
0.365974
0.315729
-0.20673
-0.643752
0.502352
0.0232358
0.32258
0.656104
-0.975787
0.225367
-0.548775
-0.659974
-0.13083
0.147984
0.191772
0.769771
0.0686269
0.1752
-0.42359
-0.953089
-0.944062
0.0349659
0.313572
0.317708
0.438593
-0.256309
0.941125
-0.744254
-0.342052
-0.310499
0.0162983
0.835772
0.00447053
0.921208
-0.550224
0.595516
0.318863
-0.500347
-0.459698
0.0292416
-0.43382
-0.373993
-0.36702
-0.408673
0.243089
-0.9365
-0.52523
0.683032
-0.682451
-0.375726
-0.524756
0.382153
-0.179772
0.492791
-0.829793
0.41511
0.456648
0.186593
0.227492
0.6377
-0.932448
0.0190877
0.598058
-0.115993
-0.365143
0.129003
-0.0571871
-0.116728
-0.561706
0.238414
0.00987873
-0.991696
-0.575181
-0.1544
0.555797
0.176203
-0.746907
0.292537
-0.502717
-0.32672
0.913565
1.07029
-0.241889
0.585667
0.807666
-0.528024
-0.39976
-0.023599
-0.432513
0.389787
-0.982971
-0.300823
1.08503
1.11937
0.458617
-0.492597
0.577698
0.713837
-0.266883
0.357689
-0.9351
-0.1646
-0.867668
-0.43805
-1.0288
0.446938
-0.0697871
0.176877
0.530295
-0.361738
0.309647
-0.709658
0.462491
-0.294202
0.749006
-0.886285
0.489621
-0.486449
-0.17217
-0.176968
0.346773
0.285974
0.0410217
-0.0245254
0.910853
-0.656115
-0.671908
-0.740509
-0.045
0.9623
0.609753
0.103474
0.247916
-0.00253227
0.384928
-1.16859
0.863629
-0.60525
0.899078
0.725022
0.449578
0.118124
-0.839482
-0.342686
-1.07984
0.52926
-0.984017
1.06352
0.200699
0.867856
0.0172873
0.245805
1.03287
0.809303
0.598942
-0.877545
-0.135188
-0.5531
-0.82381
-0.122305
-0.751801
-0.870216
0.712076
-0.799908
0.338799
0.390034
-0.347372
0.313798
0.865535
0.112497
0.263767
-0.610573
0.034126
-0.954628
0.546277
-0.476623
-0.0948922
0.907204
0.673895
1.22494
0.622168
0.578538
0.742956
-0.0535539
0.281609
0.8391
0.300235
0.599591
-0.641513
0.203399
0.940879
-0.578189
0.217314
0.199603
1.05259
-0.0201496
0.541565
-1.17056
0.735034
-0.575193
0.578771
-0.627923
-1.34391
-0.939187
0.421054
-0.324152
-0.22265
1.2193
1.32352
0.0949793
0.429648
-0.436523
-0.5267
0.3131
-0.746817
-0.275673
0.401774
-0.23773
-0.498222
0.583001
-0.0458973
-0.0897808
0.471984
-0.623159
-0.162123
-0.012571
0.493054
-0.120338
0.7039
0.041291
-0.989184
0.0792914
-0.940232
-0.572198
0.965101
0.171627
0.134266
0.978746
0.516331
0.244048
0.4934
0.7198
-0.0358436
0.222974
-0.0177765
-0.725345
0.623874
-0.672087
-0.247786
0.623965
0.173081
-1.05111
0.895171
-0.765898
-1.11211
-0.186726
-0.128268
-0.10631
-0.154796
-0.168903
-0.639804
-0.389913
-0.342003
-0.00868801
1.17681
-0.208489
0.0617039
-0.390527
0.813141
-0.7212
0.572381
-0.345895
-0.382491
-0.279288
-0.346578
0.952969
0.556727
0.0321494
-0.0560643
-0.600293
0.291914
0.392282
-0.3851
-0.0061819
0.566551
-0.604217
-1.12384
-0.377173
-0.592948
-0.481693
-0.152774
0.293093
-0.277661
-0.249116
0.31071
-0.774692
-0.957
0.247972
-0.300186
0.0339234
0.944261
-0.870882
-0.411196
0.724696
0.135482
-0.263261
-0.214039
-0.0500499
0.347693
-0.868545
-0.109229
-0.207875
-0.341142
0.361812
0.356108
-1.20923
-1.20915
-0.0778194
-0.406601
-0.128903
-0.626641
-1.01874
0.0128044
-0.673748
0.145569
0.142718
0.104915
-0.469278
0.298242
0.470032
-0.0825317
0.173047
0.619123
0.832352
-0.779756
-0.200668
0.871841
0.0720056
0.810894
-0.190656
-0.168922
-0.853261
-0.0674154
-0.325013
-1.15603
0.458119
-0.572375
-1.14496
0.205906
0.0143281
-0.478886
-0.640523
-0.0965316
-0.00535808
0.773733
-0.196775
-0.00503454
0.780856
0.352454
0.850374
0.82258
0.149392
0.255676
-0.10845
-0.539498
0.120971
0.111152
0.46533
0.961989
-0.808225
0.215358
-0.911898
0.068312
-0.602172
-0.374042
-0.807365
-0.489165
-1.62457
0.244568
-0.274407
0.877503
0.39487
0.413586
0.0305196
1.02425
-0.0505814
-0.492702
-0.159224
0.266973
0.489654
-0.507151
-0.348078
0.561039
0.343671
0.139202
-0.791112
0.300667
-0.615895
-0.790937
0.132819
-0.0556282
-0.560278
0.448671
-0.451522
-0.513599
-1.57968
-1.2707
-0.91601
-0.0517016
-0.346598
-0.346931
0.0206409
-0.559042
0.676748
0.453142
-0.415644
0.209075
0.452408
-0.733824
0.369659
-0.429585
0.711123
0.17085
0.801501
-0.570747
-1.07131
-1.41931
-0.28162
-0.524709
-0.676795
-1.1228
-0.45817
-1.15807
-0.855601
-0.57141
-0.729116
0.9724
-0.5971
0.152087
-0.161882
-0.666851
-0.55201
0.551482
0.122187
0.421688
0.378419
-0.374824
0.160645
-0.383792
0.402067
-0.589331
-0.66411
-0.761465
-0.430059
-1.443
-1.14863
-0.586764
-1.3871
-0.915432
-0.008116
-1.19631
0.0725181
0.613977
0.142722
-0.0001
0.9491
0.247681
-0.823948
0.00545133
-0.362633
-0.203697
-0.18538
0.166945
1.12406
0.422786
-0.767667
1.22339
-0.151663
0.693157
0.281306
0.0742636
-1.43886
-0.128806
-1.71771
-0.585537
-0.778553
-0.366772
-1.36265
-1.04103
-0.24674
-1.04835
-0.530846
-0.6184
-0.144116
0.122334
0.794808
0.44392
-0.0274271
-0.46715
0.996767
0.0118174
-0.808913
0.391373
0.923751
-0.00249408
0.516852
-0.240049
-0.84767
0.447849
-0.0028367
-0.0953486
-0.184308
-1.15657
-0.694119
-1.55419
-0.492836
-1.01188
-0.841572
-0.124592
0.118178
0.3252
-0.964681
0.621286
-0.9521
-0.198318
0.731076
0.386463
-0.811008
0.544997
-0.227726
0.813177
-0.0557351
-0.0702785
-0.452115
0.289744
0.331
-1.00391
0.0322379
-1.59998
-1.35504
0.125845
-1.06492
-0.801135
-0.484367
-0.434951
-1.03632
-0.132163
-0.231304
0.4874
-0.375845
0.711664
0.68448
-0.71529
-0.422371
-0.294176
0.791954
0.257493
-0.641889
0.668087
0.189047
1.12357
-0.204561
0.965255
-0.82355
-0.660439
-0.103654
-1.43482
-0.373072
-1.34778
-0.0716916
0.482104
0.498785
-0.555515
0.270002
-0.52822
-0.123408
0.2217
-0.45448
0.0245535
0.731569
-0.123166
0.540666
-0.076914
0.94227
-0.578398
1.22597
-0.371132
-0.362738
0.587752
0.695246
0.596073
0.887582
0.438978
0.261255
-0.286174
-0.890703
-0.677133
0.438983
-1.10956
-1.14329
-0.109296
-0.891875
0.0415852
-0.087095
-0.7517
-0.616747
0.170992
-0.603305
-0.885448
-0.0745151
0.180387
-0.975679
-0.590921
-0.626752
-0.4883
-0.601606
0.278404
-0.14972
0.439458
0.833576
-0.906645
-0.683289
-0.382752
-0.959795
0.341907
-0.459504
-0.594984
0.0814659
-0.537639
-0.696464
-0.652299
-0.173843
0.0174
-0.7975
-0.21362
0.0562107
0.854707
0.117695
-0.807382
-0.711875
0.788861
0.515092
-0.550826
0.380283
-0.97974
-0.559488
0.8077
0.201969
0.146062
-0.0881171
0.542189
0.397547
-0.173528
0.35202
0.200994
-0.781434
0.926817
0.726094
-0.558908
-0.739405
0.7815
-0.5476
-0.093
-0.663
0.156568
-0.38907
0.426203
0.768362
-0.220829
0.402232
0.944874
0.304864
0.8681
-0.71
-0.494207
-0.783036
0.4148
-0.0777
-0.725094
0.1475
-0.9666
-0.5659
-0.033423
0.657952
-0.4555
-0.2771
0.1488
-0.025
-0.5079
-0.91
-0.806
-0.089
0.633101
-0.293793
-0.95885
-0.234837
-0.0741531
-0.264018
-0.107447
0.396962
-0.461106
0.626147
0.223097
0.198963
-0.799462
-0.753954
-0.411033
-0.560076
-0.0204207
0.83902
-0.140276
-0.869986
-0.729104
-0.0535018
-0.6366
0.3285
-0.4865
-0.5567
0.812612
-0.871391
-0.216067
0.623041
-0.333848
-0.273996
-0.305436
0.224142
0.350589
0.00771609
-0.947346
0.605258
0.379546
0.094366
0.952462
-0.150835
0.274079
-0.210106
-0.960192
0.037183
-0.667878
0.872845
0.806474
-0.809385
0.438982
0.366287
-0.5621
0.8245
0.556626
0.0530099
-0.77984
-0.0200012
0.745133
0.107735
-0.932195
-0.211988
-0.631216
0.553688
0.0899786
0.699209
-0.814916
0.424137
0.320569
0.51239
0.136259
0.0203194
0.290022
-0.451937
0.799126
-0.266794
-0.306361
0.649801
0.269893
-0.902729
0.690483
-0.8091
-0.33376
0.521145
0.455652
-0.796871
-0.293164
-0.597668
0.972315
0.850753
-0.23438
-0.0359425
-0.123286
-0.397579
0.964956
-0.655328
0.290325
1.12512
-0.580156
1.05087
0.991105
-0.125407
0.136974
1.28129
-0.345458
-0.343335
-0.284366
-0.182587
0.450982
0.6932
0.649472
-0.488479
-0.79991
0.231783
-0.382508
0.465771
0.549346
-0.39872
-0.13081
0.296991
-0.38621
-0.85996
-0.95455
-0.594751
0.288987
0.264039
0.383679
0.809423
-0.537063
1.11748
0.622472
1.12047
1.08287
-0.0164691
0.77957
0.0470367
0.666897
0.2033
-0.99104
-0.0882449
-0.145831
0.172386
0.655112
0.67992
0.454501
0.424055
0.897388
0.30315
-0.0169135
0.290529
0.552882
0.00404622
-0.546857
-0.449105
1.08219
1.14528
-0.553201
-0.159974
0.695322
0.24877
-0.623405
0.0764176
0.720706
0.364984
0.3283
0.9975
-0.0822591
0.932271
-0.163391
0.921732
0.189208
-0.183775
0.253986
-0.599302
-0.0946463
0.390676
0.346438
0.843944
-0.494249
-0.178632
-0.498137
-0.215627
0.248691
-0.658492
0.450547
0.137797
0.795945
0.668032
0.975554
1.21462
-0.452104
-0.0198508
0.1232
-0.4011
0.345641
-0.257755
0.728913
-0.737874
-0.559513
-0.018004
0.197026
-0.319742
0.755866
0.785365
0.686948
0.920278
-0.94921
-0.965187
-0.0661433
0.386072
0.197549
0.439936
0.978522
-0.320297
0.906682
0.927181
-0.187875
0.605432
0.404045
0.675556
0.1186
-0.1099
0.132284
-0.623052
0.559651
0.89593
-0.636607
0.271436
-0.799687
0.574183
-0.588672
-0.579525
0.683408
-0.337637
0.198198
-0.65529
-0.379446
-0.278496
-0.134001
-0.0679848
0.0406742
-0.763641
-0.0812623
0.532625
-0.141422
0.978471
1.0537
0.988682
-0.792495
-0.3389
0.312542
0.465895
0.117602
0.591937
0.671669
0.132877
0.787593
0.115567
0.646348
0.25085
-0.510164
-0.327911
-0.971467
0.080314
-0.737636
-0.127239
0.0987105
-0.983027
0.0612667
-1.00967
0.951635
-0.546027
0.723115
-0.220301
0.209041
-0.342272
-0.583879
0.9431
-0.330568
-0.218218
-0.787574
-0.90566
0.132668
0.0475315
0.387931
0.760794
-0.862589
0.546203
-0.848235
-0.765599
0.91631
0.0934269
0.785862
-0.725063
0.662974
-0.480336
-0.0671653
-0.200664
-0.968945
-0.23439
0.706039
-0.304991
-0.388875
0.288174
-0.962
-0.1186
-0.971811
-0.846298
0.579846
0.901513
0.85485
-0.384698
0.30687
0.328583
0.862025
0.726034
-0.10043
-0.373562
0.540089
0.761354
1.00762
0.402407
-0.78522
-0.434534
-0.101278
-0.144102
-0.558284
-0.611132
0.540987
0.557629
0.374458
0.319515
0.986
0.8537
0.205689
1.01548
-0.0966948
0.545915
-0.290585
0.00469647
0.211631
-0.918298
-0.748353
0.927277
-0.555983
-0.0511647
-0.307298
0.496199
1.07272
0.92423
0.499493
0.660995
0.0480684
-0.0172267
-0.634749
-0.869192
0.848696
-0.406173
0.461437
-0.191497
0.469
-0.773
0.336506
-0.18547
-0.129551
0.781179
0.501762
0.902692
0.138535
0.0470124
-0.156539
-0.744003
-0.0939891
0.832542
0.205141
-0.0106671
-0.204806
1.1591
0.357798
-0.764408
0.48145
-0.631606
-0.965053
-1.02595
0.175337
0.0990237
-0.67591
-0.417149
0.9225
-0.637105
-0.0969246
0.755847
-0.766051
-0.0448209
0.851951
0.788452
-0.297377
0.372001
-1.05742
0.524892
0.415234
0.154036
-0.116239
0.824181
-0.214192
1.29036
0.167099
1.07775
-0.774734
0.483016
-0.355269
-0.329869
-0.554429
-0.410916
0.618793
0.827915
0.232973
-0.672617
0.259432
0.698157
0.785475
-0.753053
-0.103561
-0.580003
0.239259
-0.148813
-0.398952
0.0557013
0.0194046
0.586324
0.815134
0.364164
-0.403871
1.39307
0.83233
-0.442298
-1.14192
-0.882922
0.130212
-0.0424067
0.0773663
0.754503
0.171572
-0.984802
-0.935805
0.879875
-0.137568
0.465763
0.400745
-0.719054
0.897703
0.471765
-0.397873
-0.740746
0.250307
-0.00723519
0.170291
-0.32772
0.450282
-0.0229249
1.01091
0.476482
-0.48467
-0.283041
0.147669
0.103851
0.288637
-0.163431
0.729715
-0.608786
-0.033784
0.257217
-0.86033
-0.3506
-0.761938
0.00271429
-0.416843
0.0258571
-0.511499
-0.450384
-0.261938
-0.21016
0.577503
-0.749449
-0.158434
-0.268327
0.530374
-0.32322
-0.664399
-0.476401
0.580431
-0.538377
-0.875332
-0.409516
-0.531111
-0.513437
0.0397846
-0.105111
-0.422556
0.453076
0.502316
-0.264509
0.400611
1.06842
-0.289965
-0.18116
0.846958
-0.135409
1.09741
-0.717897
0.40588
0.517131
-0.584736
0.00982999
1.12715
0.893931
-0.114998
-0.944597
0.0443259
-0.840933
-0.318078
0.37493
0.412829
-0.161486
-0.981036
0.607561
0.745625
-0.481609
-0.9998
0.0047
0.547239
0.807684
0.884477
0.77409
0.0363576
-0.372892
-0.211373
0.024759
-0.115644
-0.13303
-0.0450412
-0.398645
0.291373
-0.829256
0.292013
-0.730501
-0.435027
-0.870893
-0.0972743
0.784571
-0.934489
-0.664684
0.733648
-0.442326
-0.0888779
-0.483166
-0.7362
0.6621
-0.964713
0.385136
-0.0664357
0.618812
-0.442753
0.668572
0.713701
0.7364
-0.20062
0.914409
0.674711
0.0236155
0.247922
0.0988214
0.0175601
0.406004
-0.10232
-0.840734
-0.839293
-0.337838
0.660366
0.345652
-0.227857
1.07353
1.05283
0.992428
-0.4864
0.7473
0.862905
0.77408
0.641628
-0.767957
0.863453
0.514892
0.852596
-0.621263
0.0713229
0.0586446
0.570607
0.447887
0.6291
-0.809584
-0.0171425
-0.769092
0.137651
-0.078052
-0.658939
-0.674633
0.366099
-0.92301
-0.144042
-0.120862
-0.696497
-0.572773
0.281
0.2799
0.549484
-0.201793
-0.499596
-0.93705
0.615121
-0.145555
0.00246054
0.501807
0.640389
0.547653
-0.506466
-0.307339
-0.9367
-1.02431
0.321264
-0.585298
0.465169
-1.25764
-0.796982
-0.797729
0.813738
0.0160663
0.869267
0.844905
0.604957
-0.398763
0.868
-0.410411
-0.744719
-0.708649
-0.395313
-0.386801
-0.810242
0.698095
0.518093
0.601435
0.899589
-0.640681
-0.465947
-0.229573
0.135611
0.374132
-0.000869163
0.420427
-0.230021
0.0961376
0.184016
-0.737788
0.0170172
-0.0506621
0.649107
-0.591475
0.815111
0.0772314
0.2576
-0.573319
0.0988588
-0.324861
0.0308765
-0.00123178
0.0540788
-0.406001
0.257482
-0.169816
0.273011
0.297124
-0.323868
-0.520446
-0.823945
-0.123495
0.309248
-0.95036
0.891877
-0.57197
0.288968
0.304482
0.0853149
0.616476
-0.726717
0.106723
0.35545
-0.855789
0.0514
-0.779411
-0.00948226
-0.85658
0.173381
-0.732693
0.80194
-0.555415
-0.660587
1.03878
-0.576613
-0.460052
1.11547
-0.701556
0.203157
-0.155924
0.929785
0.841702
-0.163508
-0.664555
-0.433566
-0.100128
0.0603802
-0.770674
0.780377
0.701859
0.138149
0.807459
0.433
0.1229
-0.426653
-0.292796
-0.272285
-0.758328
0.0870283
-0.440383
-0.360664
0.105193
-0.972548
-0.0137506
-0.536697
0.839928
-0.292473
0.274658
0.254282
-0.801747
-0.615579
-0.622478
0.968311
-0.110594
-0.751506
-0.593107
0.675552
0.288369
0.939195
0.423106
-0.4105
0.2893
0.7035
0.5348
-0.898464
0.529553
-0.147362
0.0361041
-0.604283
-0.986236
0.849104
-0.589198
-0.1792
-0.715785
-0.0868173
0.425983
-0.310618
-0.413656
0.656101
0.9667
-0.0512
0.606
-0.687702
-0.3644
-0.8839
0.6537
-0.925
0.6398
0.9974
-0.4277
0.5522
0.6204
0.6576
-0.00737878
0.856089
0.0525881
-0.904574
0.981634
0.484663
-0.132564
-0.586775
-0.880434
-0.654102
0.343244
-0.352705
0.219081
0.929524
-0.633912
-0.170818
-0.798691
0.242444
-0.520022
0.199996
-0.133602
0.4945
-0.8188
0.9166
0.5248
0.243399
0.62603
-0.889448
0.415156
-0.755339
-0.482725
0.783317
-0.154817
0.70582
0.906028
-0.790192
0.58236
0.181828
0.909327
-0.420468
-0.910603
0.446949
-0.370221
-0.0939071
-0.442715
-0.337715
-0.384529
-0.553065
-0.218729
0.595417
-0.0504282
0.676494
0.9514
-0.401397
0.421947
-0.333717
0.484799
0.505711
-0.92995
-0.165243
-0.652856
-0.749236
-0.713885
-1.05666
-0.664908
-0.200518
-0.121725
0.404016
-0.282499
-0.262184
-0.57241
0.184747
-0.666925
-1.02048
0.487612
-0.589852
0.694744
-0.537797
0.0112295
0.451358
-0.8146
-0.31599
0.218893
0.0621449
0.110587
0.457259
-0.305312
-0.681003
-0.978805
-1.07806
0.815075
0.129989
-1.12503
0.57772
0.123345
-0.709923
0.729536
-0.929421
-0.868999
-0.894989
-1.15317
0.310788
-0.0593808
-0.535141
-0.475355
0.629995
0.00830546
-0.347548
0.0418
-0.32771
-0.957045
0.0803623
0.614776
-0.851961
-0.0209729
0.673956
0.82624
0.265328
-0.0871343
-0.866372
0.0874064
-0.558502
0.48825
-1.0024
-0.184023
-0.768684
0.702629
0.201792
0.410742
0.276925
-0.326316
0.535016
0.464342
0.530444
0.877609
-0.445909
0.3806
0.623687
0.892945
0.0476174
1.07394
-0.197624
-0.246477
0.885604
0.0373704
-0.919947
-0.981415
-0.675776
-0.818228
-0.273168
-1.19533
-0.384912
-0.333258
0.432385
-0.668018
-0.857066
-0.129513
-1.07294
0.227757
-0.898944
-0.300031
-0.994056
-0.408619
0.406597
-0.5368
-0.09978
-0.579004
-0.288061
-0.70007
0.0736167
-0.159768
0.504899
-0.805385
-0.30484
0.639863
0.547781
0.639949
-0.132605
0.748512
0.667877
-0.291594
-1.22233
-1.0865
-0.0572324
-1.0758
-1.10458
-1.20157
0.670637
0.305408
0.353685
-0.230627
-0.069
-0.4985
-0.458439
0.280757
-0.547414
-0.324798
0.083313
-0.29507
-0.47134
-0.19326
0.00713488
-1.29439
-0.426285
0.312412
-0.308624
-1.08843
-0.708175
0.135265
-0.481631
-1.2744
-0.156234
-1.09583
-0.406556
-0.394718
-1.34828
0.418987
-0.853892
-0.658226
0.1503
0.8443
0.826116
0.505714
0.46047
0.378238
-0.265512
0.39338
-0.0302529
0.226803
-0.85187
-0.0541683
0.300561
-0.454978
0.0563134
-0.224796
-1.09939
-0.389646
-0.778434
-1.38377
0.122371
0.0329558
-1.29945
-0.0675287
-0.357029
-0.77423
-1.16348
-0.920517
-0.29604
-0.1906
0.2343
0.683194
0.156263
-0.857719
0.322771
-0.980472
-0.808563
0.306195
0.299837
-1.17345
0.813643
1.06367
-0.170744
0.431017
0.773983
0.396539
-0.502381
0.388972
-0.769366
-1.19727
0.0520508
-0.710197
-0.277261
-0.818135
0.397497
-0.16795
-0.835675
0.6995
-0.0364104
-0.0712074
0.132708
0.773657
0.956203
-0.345082
0.183588
-0.665453
0.65414
-0.691664
-0.144908
0.729789
-0.218415
0.699887
0.326903
-0.0527816
-0.000715867
0.374081
-1.1049
0.161302
0.356752
0.390017
-0.930011
-0.643787
-0.859955
0.875151
-0.6984
0.4106
-0.386916
0.345442
-0.758507
0.392092
-0.987412
0.171164
-0.959338
0.131904
0.532084
0.47276
0.0732293
0.746266
0.432099
0.565794
0.435214
0.22745
0.454278
-0.147395
0.122131
-0.499129
-0.277632
-0.0396704
0.0716479
-0.438626
-0.918612
0.467367
-0.6954
-0.2246
0.313105
0.785822
-0.141638
0.397124
-0.104658
0.161671
-0.202224
0.489608
-0.407458
0.19565
0.0455988
0.839644
-0.726846
-0.968756
0.761979
0.00337125
-0.659467
0.00552482
0.882855
-0.470249
-0.278
0.462441
0.102598
-0.573771
-0.300748
0.746604
-0.662098
0.2642
0.952226
0.27901
-0.833413
0.539769
-0.302806
-0.300845
-0.515183
-0.704485
0.457533
0.413005
-0.664616
0.472728
0.722182
0.938257
0.939332
-0.642164
0.169023
0.755536
0.263935
-0.234474
1.10763
-0.170066
0.809605
-0.767196
-0.902048
-0.442691
-0.618
-0.198273
0.751854
0.179278
0.558643
0.350157
0.107027
-0.427323
0.101595
1.10247
0.609234
0.754016
1.04429
-0.19967
-0.245977
-0.486956
-0.278256
0.474415
-1.00577
0.354608
0.684859
-0.832062
0.71796
0.295144
-0.0662388
0.857295
-0.596171
-0.199649
-0.930459
-0.711339
-0.0115111
0.463719
0.418048
-0.676082
0.621252
-0.0807681
0.794163
-0.935048
-0.188681
-0.160074
0.214397
-0.219806
-0.175609
-0.668242
-0.557395
0.45024
0.629093
0.595213
-0.193065
-0.047802
-0.180876
0.00286498
-0.430175
0.15096
-0.901308
0.745231
-0.614174
0.0209825
-0.821059
-0.7878
-0.109701
0.316198
0.484825
-0.385679
-0.56342
-0.227549
-0.892962
-0.205297
0.787491
-0.0144693
0.960872
0.796474
0.317412
-0.0480603
0.484326
0.145309
-0.104773
0.242394
-0.102477
-0.136975
0.418683
0.828489
0.67043
-0.240591
-0.499372
-0.7849
0.266329
-0.529748
-0.592676
-0.0836342
0.452045
-0.515014
0.866063
-0.915505
0.648808
-0.0945221
-0.895519
-0.497418
-0.783292
0.356257
0.918918
-0.0680054
0.132825
-0.977096
-0.623427
-0.520913
-0.68301
0.681011
-0.0864359
0.452159
0.534418
-0.00718836
0.763358
0.106028
0.318454
0.258391
-0.900266
-1.13877
0.185608
-0.349697
0.398628
0.44597
0.656798
0.0660891
-0.383303
0.359691
0.431816
0.00624784
0.543318
0.807471
-0.217559
0.411826
-0.47378
-0.0177082
-1.0756
-1.07497
0.592152
0.753468
0.69349
0.469628
-0.5027
0.6484
0.319366
0.847037
0.768463
-0.718363
-0.15885
0.573516
-1.04721
-0.205739
-0.0505306
-0.262922
-0.352975
-0.442053
1.12071
0.133159
0.0167274
0.888348
-0.176724
-1.03301
-0.293626
0.41085
0.351521
0.588803
-0.568356
0.595539
0.702183
-0.31186
0.6814
0.3698
0.616546
0.311064
-0.583683
-0.234191
0.327569
-0.849153
-0.607027
-0.916848
0.243622
0.194268
0.0875107
1.04058
-0.676575
-0.226955
0.0585713
-0.137771
0.616876
-0.528405
-1.13157
0.0532239
-0.100906
-0.5875
0.365952
-0.897349
0.418213
-0.876071
0.1395
-0.129923
-0.718027
-0.616532
-0.0283549
-0.66365
0.3381
0.698929
0.383966
-0.884703
-0.468773
-0.159281
-0.407873
0.800738
0.923115
0.4794
-0.548967
-0.159847
-0.0499024
0.625216
0.628943
-0.906225
-0.789201
-0.78992
-0.126059
-0.831065
0.538776
-0.237607
-0.4947
-0.844503
-0.184945
0.184615
-0.586854
0.424172
-0.222404
0.888059
0.257692
0.0646805
0.347554
-0.364357
-0.120487
0.916293
-0.271474
-0.19805
0.935347
0.35353
0.130749
-1.14319
-0.0293821
0.0151308
-0.941978
-0.748824
0.480728
0.614117
-0.0465622
0.87838
0.5134
0.0891499
-0.377648
-0.0615134
-0.201055
-0.0906386
-0.139287
-0.0929329
0.350705
-0.0680702
0.499747
-0.788069
-0.495058
-0.392675
-0.43931
-0.56524
-0.396042
0.771779
-0.0528504
-1.02531
-0.635527
0.0425498
-0.503281
-0.987056
-0.941968
0.297434
0.444382
0.628198
-0.4795
-0.472534
0.605293
-0.304816
1.10793
0.569991
0.61109
-0.00179508
-0.437267
0.655197
0.453671
-0.333424
-0.0839055
0.14214
0.146016
0.154104
-0.417013
-0.857308
0.337254
0.729423
0.396099
0.663871
0.765637
-0.565234
-0.858575
-0.969597
-0.702365
0.00471617
-0.6629
-0.649181
-0.129193
0.560056
0.020004
0.560784
-0.109984
0.228184
-0.270708
-0.101886
0.846255
0.641634
0.578747
0.93645
-0.726327
-1.02401
0.0342638
0.204592
0.714961
0.0597595
0.77569
0.0224995
-0.292437
0.546894
0.0046902
-0.455821
0.20877
-0.802207
0.6736
0.985294
-0.928874
0.857609
0.545554
-0.990183
-0.334638
0.887703
0.121904
-0.706939
0.0244197
-0.770863
0.67246
-0.404349
-0.851789
0.691405
0.486183
-0.0340378
0.00783879
-0.060014
0.944639
0.675272
-0.968616
-0.158371
-0.549631
0.926293
-0.0142139
-0.451559
0.7782
-0.8445
0.5739
-0.9307
-0.527828
0.639215
-0.351726
0.913201
0.8934
0.262289
-0.0204591
0.738895
0.5975
0.749899
0.610783
0.975383
0.305283
0.839096
-0.691405
-0.9889
0.3845
0.7208
-0.966787
-0.263303
-0.9096
0.0342
-0.1255
-0.3019
0.6599
0.6948
-0.1272
0.0531
-0.652909
-0.530674
-0.432093
-0.61445
0.930297
0.258009
-0.674869
0.0880005
-0.40378
0.0121661
-0.119476
0.363207
-0.0832276
0.714859
-0.259558
0.528525
-0.312724
-0.946514
-0.00364533
0.0865391
-0.248495
-0.923398
-0.7639
0.8796
0.7439
-0.5323
0.645996
0.024583
0.586759
0.702616
-0.260727
-0.996251
-0.23347
-0.684236
0.439457
-0.645492
-0.0790112
-0.591998
-0.205131
0.160554
0.562092
0.957725
0.659044
-0.429385
0.981123
0.995627
-0.461117
0.836822
-0.982728
-0.248122
0.923287
-0.422421
-0.5955
0.3375
0.764847
0.426618
0.834674
0.0393151
-0.900835
-0.522178
0.0096214
-0.927976
0.633647
0.588542
-0.355551
-0.122724
-0.719008
0.320094
0.820024
0.0882509
-0.576138
-0.756639
-0.124351
-0.319833
-0.209929
-0.591262
-0.257603
0.614251
-0.453165
-0.0247885
0.5171
0.7814
0.253671
-0.587553
-0.946486
0.45825
-0.251644
-0.606764
0.8131
1.01647
0.900765
-0.152562
-0.446801
0.454814
-1.47903
-0.209177
-1.35426
-0.660923
0.06263
0.543852
0.808359
0.213092
0.724381
-1.0927
0.577191
-0.858424
0.939969
-0.818951
0.770911
0.1206
-0.0868063
0.965815
0.156601
-0.488403
1.0602
-0.2129
0.342936
0.328733
0.177614
0.163398
-0.484337
-0.325261
-0.897442
-1.13577
-1.25614
0.192542
-1.07859
0.327493
0.102022
-0.099665
0.662057
0.202376
0.359473
0.287066
-0.879273
0.241601
-0.472393
0.6213
0.745043
-0.643094
0.835576
-0.599642
0.731337
0.582111
-0.268896
1.34408
0.649133
1.14587
-1.00076
0.31637
-1.25943
-1.20035
-0.998744
-0.0495788
-1.13036
-0.241937
-0.745284
0.861109
-0.481908
0.741418
-0.840961
-0.356448
0.0992608
0.391524
-0.204451
0.8156
-0.267718
0.872477
0.313081
0.634769
-0.327152
0.514775
0.815582
-0.118595
1.049
0.539359
-0.707157
-0.965438
-0.274982
-1.24991
0.42208
-0.163321
0.182973
0.350067
0.448317
0.743686
-0.123655
0.800391
-0.189529
-0.544109
-0.44042
0.365745
0.251
-0.4336
-0.420858
0.159739
-0.799734
1.08718
0.38124
0.0946656
-0.0695917
-0.289733
0.442732
0.120947
-0.381058
-0.0641005
-0.997054
-0.60263
-0.69625
-1.01485
-0.57614
0.43947
-0.452409
0.251453
-0.542
0.175737
0.755464
-0.944902
0.112269
0.619694
-0.1076
-0.2438
-0.0112868
0.0182444
-0.118648
-0.486491
0.217041
-0.392983
0.346371
0.308411
0.813161
-0.658601
-0.0214952
-0.4815
-0.231295
0.359133
-0.765801
0.0107582
0.882332
0.871252
0.609515
-0.387891
-0.307116
-0.757544
-0.797997
-0.0883654
0.187848
-0.409104
0.480079
-0.1181
0.766561
0.339034
0.274044
-0.407366
1.20523
-0.726652
0.0757104
1.17363
0.251763
-0.308127
-0.833021
0.495613
-0.240997
0.472947
0.18567
0.611381
0.105801
0.356841
0.091495
0.368693
-0.0944826
-0.322244
-0.257962
0.133236
-0.54223
0.280761
-0.921964
0.7571
-0.152268
0.554637
0.0040484
0.419098
-1.01613
-0.484212
0.567984
0.449471
-0.119431
-0.505295
0.371015
-0.565579
0.706769
1.20082
0.120896
0.674213
-0.380923
-0.614222
-0.309411
0.665668
0.426296
-0.0742488
0.0604728
-0.745559
-0.867809
-0.444158
0.1382
-0.0758
-0.505629
0.890412
-0.42606
-0.910945
0.575211
-0.479787
0.245753
-0.426052
-0.635971
0.585124
0.418036
0.309979
-0.560058
-0.203903
-0.965441
-1.11865
0.652644
0.826615
-0.718122
-0.203326
-0.531801
-1.10268
0.0203354
0.497706
-0.372789
-0.81361
-0.394
-0.4732
-0.150071
-0.982821
0.165164
-0.314295
0.167055
0.578293
-0.767004
0.361567
-0.38367
-0.471146
-0.644809
0.266617
-0.0538608
0.0582662
0.376879
0.446137
-1.02769
-0.552835
-0.571899
-1.06733
0.52855
-0.135434
-0.387059
-0.258978
-0.940445
-0.933613
0.532899
0.3191
0.0753099
0.872261
0.57963
0.459454
-0.235299
-0.084968
0.689157
0.559385
0.0241752
-0.560093
-0.196916
0.0878915
-0.221699
-0.315634
-0.61812
-0.842346
-1.07715
-0.0612715
-0.35228
0.00374982
0.35593
-0.625582
-1.15574
0.216885
0.421456
0.602407
-0.9516
-0.85877
-0.873921
-0.838477
-0.327845
-0.0132346
0.655076
-0.840507
-0.305112
-0.66498
0.0956995
-0.202451
0.783662
-0.0455003
0.831219
-0.431751
0.653491
-1.03842
-0.476254
-0.558301
-1.03959
0.323201
-0.206961
-0.527572
-0.616793
-0.663943
-0.676401
-0.913919
-0.192173
-0.184018
0.918617
0.32218
-0.205427
0.265754
-0.311271
1.16179
-0.00918248
-0.280471
-0.322528
0.0796233
-0.620076
-0.338402
0.616967
0.678426
-0.507249
-0.036171
-0.81289
0.429424
0.177124
-0.6019
-0.251432
0.251391
-0.894107
0.930922
-0.0435258
0.670625
0.127238
-0.474277
0.809663
0.593505
0.86936
-0.560846
-0.353332
0.0772512
0.920949
-0.280627
-0.646213
0.827578
0.00729748
-0.673796
-0.54756
-0.499716
0.190409
0.0337688
-0.364283
0.859832
-0.731937
0.07839
-0.318731
0.95821
0.378462
0.159312
-0.430551
0.708434
0.150462
-0.949612
0.283342
-0.806321
0.345721
0.257942
0.551732
0.806781
-0.630001
0.583851
-0.647173
-0.0534925
-0.0855932
-0.325672
0.495414
0.102669
-0.132042
-0.0402512
1.40477
-0.38642
0.950168
0.795344
0.983924
0.049246
0.809456
1.19377
1.02446
-0.164312
-0.945219
-0.612885
-0.511142
0.49162
0.236849
-0.234488
-0.636693
-0.688012
-0.629123
-0.452003
-0.310392
-0.585843
0.0022115
0.468419
0.175503
1.24606
0.978079
0.735998
0.567741
0.74134
1.09384
0.829967
-0.229625
-0.706307
-0.434738
-0.205277
0.396139
-0.824311
-0.1352
-0.3835
-0.964401
-0.209495
-0.583754
0.682997
0.641028
1.06247
0.135266
0.555746
-1.00273
0.516002
-0.581985
0.916524
0.174284
0.575857
0.131981
-0.0462641
0.369747
0.133484
0.384705
0.865035
-0.180924
0.706918
0.403105
-0.383059
0.157373
-0.472025
0.6704
0.8529
-0.332484
0.0438666
0.722766
0.456028
-0.865788
0.161572
-0.30441
-0.505094
0.785525
-1.2838
0.60239
0.78529
0.253738
0.247084
0.60833
-0.423938
0.207695
-0.337311
-0.0610691
0.142104
-0.212696
0.525514
0.620515
-0.164137
0.0876709
0.919281
0.2219
0.18909
0.538893
-0.016347
-0.449583
-0.341208
-0.29421
-0.365822
0.332231
0.471829
-0.0120824
0.750408
-0.100594
-0.772883
-0.366661
0.805182
0.304086
-0.145972
0.736913
0.180911
0.155136
0.275494
0.105006
-0.513689
1.05716
0.348678
-0.489313
0.29494
0.4773
0.723749
-0.283325
-0.73706
0.114526
-0.341411
0.311511
0.220548
0.987643
0.0679401
-0.667253
-0.49142
0.884664
-0.127686
-0.862857
0.957926
0.224675
0.461977
1.1669
-0.654579
0.793875
0.434229
0.955966
0.123085
-0.671017
-0.699471
0.333062
0.520729
-0.8819
-0.4439
-0.644499
0.0533175
0.761045
-0.506246
-0.00897053
0.663068
-0.417884
0.491428
0.00770551
-0.669685
-0.552794
0.300455
-0.331337
0.200513
-0.587762
0.0595011
-0.0318466
0.115454
0.861804
-0.0862963
-0.783267
-0.327503
-0.188524
0.338737
0.0960212
0.340205
0.032
-0.4872
-0.102421
-0.618422
-0.71273
-0.0462058
-0.212581
-0.579021
-0.131696
0.448523
-0.0544818
-1.11875
0.010771
0.918175
-0.277688
0.992497
1.06827
0.0733667
0.315799
0.804724
-0.677164
0.128648
0.766835
0.306273
0.522316
0.622776
-0.491487
0.58008
0.5617
-0.8812
-0.76214
-0.584226
0.623504
-0.905095
0.625358
0.934243
0.606463
-0.416114
0.43152
-0.528461
0.344426
-0.724509
-0.43561
-0.789955
0.106782
-0.358216
1.10561
0.873535
0.99013
0.283143
0.886403
-0.370051
0.000912882
0.308419
0.780416
-0.765648
0.9727
-0.0455
-0.110421
0.82796
-0.152486
0.312415
0.994673
0.36815
-0.184104
-0.602855
0.256155
0.678818
0.20571
0.764204
-0.0373808
-0.400217
0.105496
-0.176317
-0.0404535
-0.437885
-0.0800006
0.557833
-0.51248
0.146011
0.652183
-0.310522
-0.211187
0.000954822
-0.9053
-0.5229
-0.9583
0.6418
0.152439
0.86828
-0.21956
-0.507301
-0.689681
-0.301317
0.793534
-0.137667
0.0396
0.720999
-0.573391
-0.448292
0.892687
0.132897
-0.945798
0.7093
0.737
-0.979
0.0122883
0.769504
-0.938
-0.0305
0.5107
0.1115
-0.267
0.6538
0.3433
0.9601
0.4269
0.187696
-0.977025
-0.295536
-0.148027
0.889142
0.699308
0.24793
-0.241813
0.413998
0.260403
0.136184
-0.00415931
0.878926
0.608726
-0.11546
0.648489
0.391545
-0.150662
-0.591823
-0.2431
0.2945
-0.1933
-0.5385
-0.876
0.4656
-0.4734
0.523828
0.526449
-0.702044
-0.917607
-0.405771
-0.372999
-0.437826
0.490515
0.652675
0.780152
-0.840386
0.0592038
0.930269
0.798929
-0.240758
0.0805566
0.761829
0.249404
0.448631
-0.445758
-0.55772
-0.704054
0.662555
-0.0669749
-0.418313
-0.7519
-0.6859
-0.31204
0.289206
0.638189
-0.3071
0.0998301
0.49881
0.514899
0.190946
0.120732
-1.03277
0.802517
0.0971135
-0.0281399
-0.172156
0.195295
-0.379948
0.836907
0.987453
-0.181661
-0.258872
-1.01267
0.205558
-0.915901
0.242208
-0.242483
-0.635932
0.983654
0.4455
-0.869113
-0.0510207
0.64413
-0.43289
0.226355
0.0770444
-1.03676
0.59962
0.147001
0.400484
-1.02167
0.637185
0.490368
0.775499
0.747009
-0.332301
-0.457396
-0.197397
-0.635334
-0.806551
-0.603352
-0.185523
0.492773
-0.182401
-0.566645
-0.515421
0.920216
-0.4276
-0.702985
0.643219
0.0714652
0.35047
-0.226279
0.954681
0.202534
-0.125886
0.706631
-0.130647
-0.654697
-0.942847
-0.267831
-0.611494
1.2023
1.26107
-0.523863
0.129359
-0.058508
0.134632
-0.823153
0.37048
0.439474
0.0454271
-0.274669
0.311505
0.848085
0.2285
-0.47444
-0.69376
-0.910206
0.737671
0.297549
0.911549
-0.397897
0.28351
0.595357
-0.353216
0.199488
-0.881732
-0.294333
1.13285
0.626366
0.579227
1.19199
0.935347
0.332591
0.0202015
-0.850453
0.00439342
-0.620056
-0.0503784
0.206096
0.983882
0.2468
-0.4137
0.568448
-0.8626
-0.0187361
1.01794
-0.847656
-0.690789
0.630988
0.0752049
-1.1468
-0.211861
0.297153
-0.542325
0.529355
0.0917415
0.17557
0.0101503
0.877797
0.821603
0.883216
0.963267
-0.817218
-0.00511486
-0.609382
-0.0210337
-0.237342
0.255241
0.7092
0.3169
-0.276091
-0.96418
0.386416
0.560767
-0.670687
-0.463218
-0.467698
-0.611537
0.563451
0.241474
-0.916397
0.969736
0.9603
0.79346
0.758938
-0.420064
0.2251
0.391886
-0.680792
-0.677449
0.0229863
-0.702017
-0.48755
0.66392
-0.877121
0.024256
-0.677
-0.9035
-0.438636
0.45422
-0.34383
0.493793
0.878838
0.407721
0.513876
-0.518131
0.434587
-0.891936
0.500493
0.76027
-0.578294
0.0594169
-0.0563237
0.275854
-0.685129
1.18361
0.47894
-0.312753
-0.600182
0.53014
-1.03751
0.591542
0.158342
-0.534782
0.733109
-0.4522
0.731918
0.602956
-0.18001
-0.699166
0.106253
-0.434613
-0.459236
0.159073
-0.588153
-0.827048
0.309548
0.19246
-0.223947
1.25913
-0.0753107
-0.0104235
-0.653179
-0.708461
0.730418
-0.317616
0.455561
0.529097
-0.735283
-0.768204
-0.51959
-0.10402
-0.875251
0.4946
-0.59695
-0.215605
0.492812
-0.257532
0.217286
-0.326776
-0.624306
-0.165343
0.757652
0.501569
-0.237973
-0.42844
-0.324912
-0.0500941
-0.710567
0.190224
0.324968
0.237006
0.196032
-0.378552
0.837439
0.325093
0.129776
-0.339028
0.787505
-0.28687
0.3967
0.6935
-0.287015
0.749964
0.509916
0.273381
0.445794
0.935229
0.300986
-0.115791
-0.357009
-0.815549
0.352354
-0.894472
-0.935897
0.826446
0.774218
0.828771
-0.492186
0.793692
0.706406
-0.732397
0.766867
0.770176
-0.132391
-1.03077
-0.792522
-0.117518
-0.2214
0.8645
0.77234
0.786461
-0.0757192
0.216428
-0.566418
0.236796
-0.867311
-0.53301
0.567763
-0.0464648
0.163396
-0.21559
-0.753702
0.530248
0.623707
0.852248
-0.171001
0.832241
-0.5834
-0.668746
-0.0842089
0.0422648
-0.161691
0.73305
-0.463524
0.700162
-0.3191
-0.6195
-0.0240247
0.0850156
0.565577
0.105253
-0.585737
0.405058
-0.775319
0.999836
0.0544926
-0.75501
-0.884424
0.0105168
0.481481
0.0487371
0.341652
-0.735952
0.760792
0.0261931
0.930969
0.675647
-0.638963
0.44611
-0.302958
-0.202261
0.766156
0.46802
0.5055
0.1939
-0.57574
-0.190617
0.390269
0.613122
-0.336522
0.538737
-0.527729
0.224046
0.775906
0.420787
-1.22891
-0.206203
0.394759
-0.717639
0.479887
0.890655
-0.146645
0.728835
-0.346864
-0.441035
0.445238
-0.399934
1.02525
1.16736
1.0238
-0.790815
0.635599
-0.445311
-0.439643
-0.148786
-0.0637502
-0.770712
-0.154402
0.689366
-0.785666
0.0199131
-1.02991
-1.06996
0.567814
0.5857
-0.766284
0.848112
0.187719
-0.185535
0.198895
-0.873777
-0.617406
0.987263
-0.0792825
0.603233
-0.225342
0.576169
0.533634
0.895834
0.7918
0.367627
0.12076
0.638409
-1.18159
-0.811682
0.587367
-0.0415042
0.0646663
-0.479378
0.506545
0.848759
0.0148779
-0.45826
-0.541472
-0.679593
-0.0274182
-0.0515182
0.747387
0.0952775
0.670869
-0.505365
0.484742
0.497888
0.922927
-0.776899
1.05316
-0.680388
-0.24969
0.0457112
0.128163
-0.0926675
0.69025
0.867862
-0.439366
-0.192438
0.652892
-0.778782
-0.937166
0.141306
-0.119179
0.530263
0.0397568
-0.892728
0.561129
-0.918036
0.341938
0.488894
0.785031
0.65687
0.672227
-0.13901
-0.367073
-0.191071
0.394973
-0.239953
0.719144
-0.791732
-0.999987
0.092148
-1.03061
0.468067
0.107159
0.506348
0.346689
-0.36731
-0.472906
-0.104524
0.0281262
-0.227699
-0.292085
0.659564
0.306478
-0.102357
0.687058
0.807493
0.271748
0.641591
0.771229
0.133452
-0.170229
0.938848
1.08537
-0.247742
-0.8298
-0.6211
-0.937651
-0.392222
-0.51467
0.0919284
0.665342
0.77911
0.563217
0.1159
0.564372
-0.454881
0.336083
0.142323
-0.995601
0.974821
-0.245917
-0.0240908
0.301686
0.0124203
0.650828
0.117501
0.91725
0.48957
1.13424
0.369192
-0.0434583
-0.706516
-0.4542
-0.0335
-0.950446
0.0457901
-0.100802
-0.461873
0.135272
0.645462
0.815862
-0.438444
-0.242087
-0.119921
0.651341
0.268612
-0.536728
0.0792766
-0.687041
0.751028
-0.466934
0.998293
-0.37539
-0.112367
0.617514
0.207655
0.294849
0.5746
0.661951
0.243459
-0.3469
0.9709
-0.914638
-0.508016
-0.272857
-0.593626
0.860312
-0.290086
-0.345525
-0.492101
0.231865
-0.71971
0.199626
0.43482
1.02966
0.336739
-0.171348
0.778273
0.603191
-0.148222
0.403784
0.835803
-0.218631
-0.677913
-0.518794
0.210031
-0.143343
-0.945508
-0.2743
-0.6969
0.531765
-0.468439
0.482263
0.762838
0.48653
0.212489
1.00837
0.437256
0.67428
-0.746908
0.25067
0.686161
0.208539
-0.0084297
0.00594738
-0.468079
0.290526
-0.509084
-0.10679
0.294934
0.280954
-0.298237
-0.0664759
-0.551587
0.410615
0.285798
0.0096
-0.326167
-0.56483
-0.557172
-0.849999
-1.04844
0.516258
-0.287195
-0.357286
0.597426
-0.784362
0.927019
-0.0356148
0.501488
-0.821765
0.734093
-0.374072
-0.554331
-0.544836
0.829534
0.37908
-0.580484
0.363347
0.976313
0.886423
0.230992
0.463759
0.854314
-0.6833
0.587158
-0.0786237
0.925136
-0.158991
-0.163192
0.998452
-0.392903
-0.684365
-0.424562
-0.71213
-0.795186
0.34006
0.662983
-0.857415
-0.828913
-0.725601
-0.510898
-0.17088
-1.06185
0.0440726
0.217705
0.533099
-0.967725
0.774114
-0.315276
-0.879607
0.25082
0.0617
-0.420566
-0.823524
-0.831111
0.738214
-0.15288
-0.886583
0.0979294
0.975709
-0.662891
0.605469
0.615482
-0.090602
-0.761596
0.58868
-0.155547
-0.716287
-0.751511
-0.903973
0.690152
0.439499
0.387646
0.711279
-0.254853
0.641637
0.353528
0.511224
0.125896
-0.7957
0.81
-0.580745
0.791541
-0.267738
-0.583579
0.513194
-0.55528
0.0635004
0.882261
-0.294511
-0.143005
0.315075
-0.98634
-0.455909
-0.513723
-0.529984
-0.709145
-0.556154
-0.781526
-0.59725
-0.248017
-0.174274
-0.537131
-0.782722
-0.818157
0.631396
0.0988952
-0.1387
-0.8167
-0.7045
-0.0218
0.0806946
-0.0581082
0.0478541
-0.882182
0.127933
0.523735
-0.05924
0.156421
-0.5579
-0.8714
0.00269989
0.9703
-0.4872
0.4402
-0.554601
0.5535
-0.2179
0.1925
-0.834794
-0.5403
0.7633
0.3071
-0.0167
-0.1194
-0.1609
0.0864
-0.1271
-0.3156
-0.5395
0.208175
0.022311
0.629927
0.359041
0.191151
0.300359
-0.645999
-0.420994
0.901435
0.118766
-0.110029
-0.154747
-0.603752
0.520862
-0.200661
0.339811
0.650507
0.105403
-0.653033
-0.354801
0.4153
0.2505
0.6522
-0.9583
0.9099
0.954362
0.513252
0.935916
-0.326271
-0.747084
0.286227
-0.688893
-0.762976
0.487153
0.156458
0.180707
-0.165634
-0.138149
0.216415
-0.636794
0.350684
0.522979
-0.275845
-0.777932
0.480269
0.671173
-0.592526
-0.828162
0.602377
0.790792
0.64888
-0.8156
0.6772
0.223393
0.608638
-0.0647512
-0.0415933
-0.759531
0.189036
-0.825358
0.731101
0.0420584
-0.255505
0.911631
-0.540417
-0.321414
0.363505
-0.336024
0.765753
0.214516
-0.03837
-0.0336309
-0.169517
-0.298094
-0.317058
0.369996
0.222714
0.915342
0.770773
0.732101
0.2777
-0.150201
0.924426
-0.463625
0.470192
0.588151
-0.480106
0.0831631
0.0651182
0.256673
0.817588
0.821237
-0.621265
0.182205
-0.464429
0.898098
0.726749
0.631662
0.480028
0.523034
0.289546
-0.783082
0.49471
0.547892
0.446448
-0.146842
0.45706
0.349425
-0.0095
0.544469
0.777782
-0.440652
-0.0934264
0.906545
-0.838681
0.97125
1.04899
0.673348
-0.190227
-0.143422
-0.308022
0.367256
0.137388
0.412761
0.394523
-0.434999
-0.0111442
-0.243247
-0.871319
0.675915
-0.73827
0.2391
-0.563306
-0.20298
-0.477287
0.475253
0.3013
-0.6113
0.134119
-0.733231
-0.85813
-0.996033
-0.505244
-0.887312
0.271795
-0.165372
0.354875
-0.474364
1.11752
0.356634
0.135493
-0.35705
-0.836069
-0.0488797
-0.149841
-0.64344
-0.125906
-0.205516
-0.839487
0.0987925
0.0196343
0.343393
-0.481224
-0.720735
0.6623
-0.297114
0.0486247
-0.56711
0.882549
0.24891
-0.094795
-0.720487
0.44629
-0.0788416
0.0174526
0.976742
-0.320359
-0.550593
-0.306179
0.234722
-0.601284
-1.01945
-0.361555
-0.111734
-0.653918
-0.0652173
-0.900689
0.694071
-0.956995
0.244115
0.954552
0.232
0.7329
-0.401568
0.431292
-0.371731
0.107129
-0.108973
0.524127
0.646474
0.775111
0.749808
0.243549
0.0528758
-0.796448
0.667563
0.771899
0.582057
0.266117
0.775294
0.669618
0.504058
-0.440799
0.67091
0.851702
0.0931206
-0.275493
0.818039
-0.801425
0.9217
0.9049
0.527937
0.694842
0.164939
-0.774361
-0.666101
0.312527
0.762377
-0.918144
-0.382699
0.682019
0.586104
0.843294
0.729529
0.573617
1.34458
0.337673
0.818254
-0.061404
-0.250629
-0.573087
0.536766
0.965839
-0.309225
-0.72223
-0.173524
0.846461
0.315388
0.1182
0.621533
-0.862837
-0.750059
0.00846263
-0.746838
0.437026
-0.542655
-0.204854
-0.733768
0.936584
0.714331
0.883397
0.599274
0.0327265
-0.307067
-0.275687
0.383697
0.0870428
0.0373336
0.274967
-0.547982
-0.74337
-0.429023
-0.418533
-0.681319
0.0438539
-0.958381
0.1124
0.940258
-0.276865
-0.415267
-0.308629
-0.297492
-0.731996
-0.515589
-0.0623772
0.762065
0.780128
-0.546041
0.893204
1.19603
-0.112956
-0.113058
-0.600662
-0.723085
-1.06665
-0.341056
0.478421
0.0393186
-0.501632
0.696464
0.900605
0.176401
-0.469165
0.4351
-0.3313
-0.483054
-0.699729
0.954144
0.763485
-0.159986
-0.226195
1.03058
0.796472
1.2118
1.24595
0.529761
0.740636
0.0479619
1.06719
1.03857
0.318879
0.540398
0.806865
-0.676786
-0.302587
0.78794
0.482383
-0.31627
-0.598202
-0.651966
-0.458613
0.368
-0.896
-0.882888
1.0243
0.572131
-0.263839
-0.703091
-0.512591
0.609066
0.56977
1.29933
1.3171
0.751548
-0.468514
0.170009
-0.778735
0.506755
-0.71164
-1.00919
0.308123
-0.374625
-0.221313
-0.264599
-0.216438
0.0524429
1.00867
0.282376
-0.867274
0.6111
0.6246
0.984706
-0.351916
0.379377
-0.0616416
-0.145089
0.245649
1.10993
-0.347255
-0.153822
0.351933
-0.511194
0.171574
-0.545573
-0.151176
-0.541131
0.33234
-0.53919
-0.502566
-1.20589
0.35802
0.945885
-0.150126
-0.304109
0.844526
-0.511477
-0.321872
0.6449
0.613284
0.469959
-0.293757
0.659534
0.156867
0.913275
0.0196268
0.28507
-0.377899
0.525479
0.343164
-0.976177
-0.231841
-0.947075
0.161174
-0.767275
-1.02743
-1.09686
0.193962
0.327959
0.110466
-0.00690669
-0.296475
-0.0448482
0.789812
-0.595638
-0.715286
0.407617
0.279428
0.94616
0.377606
0.776914
-0.685174
-0.299936
0.0931822
-0.294506
-0.0728376
-0.578959
0.164616
-1.02303
-0.793681
0.274367
0.176086
-0.802984
-1.26402
0.63587
-0.911128
-0.0663208
0.877067
-0.219117
-0.432245
0.262958
0.759
-0.927016
-0.667947
-0.402415
-0.569331
0.241137
-0.212021
-0.864802
-0.409897
0.489511
0.455203
-0.528396
-0.370027
-0.806616
-1.22137
0.331209
-0.200609
-0.696593
-0.585272
-0.226052
0.280609
-0.580097
0.0677785
-0.513455
0.17833
0.881915
0.783304
-0.109678
0.801959
0.272111
-0.0162651
0.364255
0.548712
0.0290202
0.209959
-0.833986
-0.168198
-1.02472
-0.259668
0.41942
0.598064
-0.885486
0.0203789
0.011429
0.0931683
-0.210911
0.291821
0.476729
-0.00828397
0.903154
0.730523
0.286346
0.833353
-0.130355
0.0449091
-0.385309
-0.244956
0.613269
-0.684181
-0.74486
0.427072
0.765674
-0.175663
0.0380593
0.443929
0.121785
-1.23227
0.0213425
-0.518845
-1.04648
-0.947178
-1.12904
-0.697019
0.418787
0.711626
1.00385
-0.541859
-0.484523
1.18904
-0.00157226
0.6631
0.00166011
0.492169
-0.24033
0.0122174
0.292572
0.991161
-0.5878
0.8676
0.817869
-0.718502
0.718541
0.575707
-0.735394
-0.504776
0.318876
0.186271
0.843339
-1.09838
0.642286
0.557122
0.708243
0.584652
0.644305
-0.181289
-0.323491
0.124433
0.134862
-0.901427
1.0098
0.918944
-0.375497
0.170195
0.930546
0.728675
0.6075
-0.8093
-0.524273
-1.02143
0.0261421
-1.03595
-0.21058
-0.375696
0.0417676
0.634182
-0.750042
1.09462
0.0225061
0.835135
0.832722
0.317965
-0.290011
1.05445
0.746397
-0.0933165
0.955999
0.613273
-0.340512
-0.74883
-0.209895
-0.0724453
-0.594589
0.581242
0.8973
-0.0868289
-0.280906
0.675044
0.701733
0.23568
0.912848
0.353402
1.29245
-0.0169306
-0.25491
-0.623638
0.411307
0.498439
0.393963
-0.141562
0.148277
0.370359
-0.892033
-0.326985
0.826594
0.545898
0.653327
0.639067
0.638943
-0.199511
0.472864
0.0254755
0.689
-0.934335
0.790214
0.29982
0.19967
-0.926706
-0.519058
0.267216
-0.26072
-0.642045
-0.792415
0.492423
-0.605736
1.16643
0.72001
0.184811
0.89447
-0.0288475
0.50899
0.362085
0.00489969
-0.636585
-0.258344
-0.304012
-0.615124
0.485417
-1.02568
0.860568
0.8372
-0.3898
0.0506219
0.183183
-0.146733
0.418747
0.345891
0.504504
-0.618655
0.465145
0.059167
0.00244354
0.822409
0.788055
0.442238
-0.57479
-0.383939
0.941966
0.936577
-0.363829
-0.599186
-0.430842
0.058785
-0.288195
-1.01377
0.465973
-0.487028
-0.545239
0.9815
0.252601
-0.365408
0.592707
-0.128978
-0.0291383
-0.401405
0.0906346
0.758724
-0.966512
0.666029
-0.129713
-0.41591
0.220447
0.326531
-0.777547
0.546348
-0.716014
-0.206666
-0.522624
-0.0274339
0.811394
-0.416478
0.621659
-1.04114
0.658278
-0.247336
0.32367
-0.7429
-0.6488
-0.504748
0.637352
-0.251124
0.150791
-0.449842
-0.554107
-0.986442
0.32287
0.779861
-1.04796
-0.449724
0.247628
-0.515402
-0.300773
0.347816
0.299797
1.02048
-0.234437
0.81917
0.244509
-0.418646
-0.12502
0.590949
-0.290982
0.644528
0.70159
0.6991
-0.5894
0.0313904
-0.482842
0.0292125
0.986567
0.0361894
-0.899457
0.788153
-0.330127
0.461043
-0.780307
-0.88352
-0.458889
0.615278
-0.582107
-0.879798
-0.263208
0.154888
0.282283
0.95042
0.811931
0.632386
0.299464
0.948862
0.419212
-0.0362186
0.112571
-0.4382
0.4069
0.7856
0.3041
0.292292
-0.388183
-0.416847
-0.467746
-0.515756
-0.0105075
-0.424871
0.304092
0.8706
0.714491
0.652109
0.0654079
-0.125911
-0.472927
0.1415
-0.9139
-0.3008
-0.6359
0.255102
-0.6932
0.2988
0.0721
0.2673
-0.9399
0.8117
-0.1209
-0.3202
-0.3784
0.266996
0.29033
-0.407819
-0.142705
0.636069
-0.0265815
0.110247
0.553653
0.710785
0.088642
0.888948
0.269481
-0.741883
-0.949214
-0.737654
-0.716915
0.433221
-0.86503
0.913808
-0.255292
-0.556414
-0.141407
0.9383
0.666
0.1276
-0.2772
-0.218312
-0.954039
-0.0527964
0.936888
0.228715
0.985932
0.992803
0.682735
-0.949256
-0.234841
-0.26083
0.519463
-0.974277
0.0533362
0.156288
0.293852
0.1801
-0.376674
-0.961361
0.394426
-0.241794
-0.187138
-0.55662
0.620591
-0.586497
-0.161296
-0.6964
-0.616
0.730852
-0.974037
-0.0326299
0.795655
-0.435803
0.846
-0.207655
-0.690052
-0.624894
0.120787
-0.487858
-0.573978
-0.449765
1.21567
-0.0897139
0.191133
0.665829
0.06564
-0.335508
-0.409371
0.539733
-0.53933
0.0517451
-0.528388
1.02182
-0.798219
-0.756186
0.7129
-0.290313
-0.487809
-0.860756
-0.0737631
-0.349483
0.300158
-0.396042
-0.0751225
0.78235
-0.614121
0.988495
0.72174
-0.184688
0.424844
1.21573
1.14232
-0.787554
-0.0984441
-0.945876
-0.597211
-0.0424497
0.962186
-0.176675
0.72712
-0.415466
-0.176712
-0.335479
0.3699
-0.926463
0.479527
-0.36342
-0.370901
0.344629
0.615801
-0.256424
-0.655455
-0.364312
0.193186
0.393344
1.18257
1.53359
1.00541
0.303499
0.875977
0.74401
-0.842225
0.229936
-0.124074
-0.250577
-0.540348
0.598491
0.858289
-0.283574
0.422583
-0.120656
0.8926
-0.39822
0.769157
-0.495519
0.165692
-0.799188
-0.661924
-0.566242
0.180863
-0.121719
0.44746
-0.197576
-0.121313
0.534212
1.36953
-0.385452
-0.582683
0.669425
-0.517102
0.549609
-0.185858
-0.38683
-0.466877
0.694721
0.238442
0.908437
0.61453
0.0852248
0.311
-0.801597
-0.4418
-0.108441
-0.691912
-0.705651
0.544064
0.594173
-0.313251
0.0475471
-0.575733
1.00745
0.0613411
1.01462
0.490648
0.398058
0.147174
0.302894
0.668767
-0.551658
-0.451606
0.733624
0.180977
-0.269359
-1.03571
0.703459
0.578895
-0.5803
0.9033
-0.931078
0.95066
0.121189
-0.681327
-0.329433
-0.170279
-0.525877
-0.699781
-0.87553
-0.985522
0.882738
0.27043
1.17175
-0.822311
0.487296
-0.723894
-0.325645
-0.301014
0.484855
0.468625
0.632262
-0.00106048
-0.923341
0.984499
0.711866
-0.986904
-0.6392
-0.6634
-0.713793
-0.563357
-0.797587
0.570487
-0.477456
0.321603
0.180634
-1.09604
-0.61761
0.0606924
-0.108227
0.711389
0.283954
-0.035352
-0.917769
-0.868715
0.378134
-0.193354
-0.0823947
-0.749993
-0.13492
0.672985
0.0659688
-0.0592936
0.544149
0.885081
-0.403484
-0.5207
0.571149
-0.879942
-0.13541
-0.493914
-0.275291
-0.855043
-0.625043
0.717186
-0.339369
0.187033
0.914291
0.324849
0.559841
0.199208
0.165057
-0.531396
-0.414071
0.069539
0.558994
0.504091
-0.618002
0.735754
-0.0848693
0.0594004
-0.299111
0.630701
0.689564
0.8077
0.881999
0.236678
0.521997
-0.373799
0.392334
0.239244
-0.831142
-0.777175
-0.123055
-0.0719245
-0.763956
0.594405
-0.146821
0.836375
0.992619
0.772868
0.969298
0.185591
-0.327445
-0.0598389
-0.585489
-0.579704
0.521388
0.473939
-0.00221972
-0.637143
-0.9219
0.8563
-0.441583
0.91666
0.160809
-0.60971
0.046423
0.530895
-0.871072
-1.18314
-0.931451
-0.449868
-0.246548
1.09972
-0.0646559
0.94431
-0.0915318
1.23175
-0.807439
-0.347705
0.767833
-0.845233
1.24229
0.387269
-0.551593
-0.509486
-0.222196
0.645964
-0.6041
-0.1127
0.957134
-0.602308
0.10332
-0.715871
-0.93234
-0.422542
-0.698551
0.178984
0.165794
-0.446283
0.351846
-0.622928
0.564685
0.828644
0.0768901
0.312918
0.51628
-0.292761
-0.0890283
0.262696
0.731728
-0.507108
-0.858338
-0.161124
-0.237016
-0.339011
0.570839
0.4931
-0.0875533
-0.286452
-0.584537
0.357523
-0.936269
0.348127
-0.279445
0.328007
-0.576657
0.0699769
-0.790744
-0.291805
0.402719
0.036717
0.346822
0.145659
1.06578
-0.329269
0.0855649
0.0644268
0.775638
-0.222163
0.466308
0.556785
0.787581
-0.550761
-0.3605
-0.591385
0.540183
-0.174014
-0.209709
-0.0162437
-0.0764978
0.820518
0.148249
-0.506126
-0.66198
-0.465425
0.228604
0.49506
-0.277135
1.511
1.46518
-0.298986
-0.421803
-0.271651
-0.362042
-0.434145
0.423869
-0.518917
-0.72044
0.752451
0.335175
0.85753
0.427878
-0.312621
-0.988584
-0.240888
0.298746
-0.758889
0.479821
-0.682599
-0.515164
0.375529
-0.703925
-0.0446826
-0.621564
-0.292337
0.447599
1.10987
-0.147196
1.24869
0.320293
-0.460465
-0.188982
-0.175506
0.191005
-0.32406
0.0199501
0.797434
-0.0975766
0.918771
0.767214
-0.926687
0.394342
-0.503876
-0.245447
-0.969124
-0.614547
0.408957
1.39742
-0.628028
-0.250827
-0.612899
-0.0636024
0.961967
0.643441
1.09595
0.271719
0.865497
0.304638
0.754057
0.742426
1.03817
0.844304
0.234592
-0.609376
-0.289601
-0.336525
-0.715757
-0.263593
-0.832795
0.678211
0.925019
0.680922
-0.285332
0.475352
1.03282
0.197127
0.494186
0.195775
-1.10484
-1.07721
-0.663214
-0.641492
-0.0497958
0.498962
-0.530852
-0.335214
-0.553981
0.53416
-0.5332
0.594839
0.279906
0.918319
0.855042
0.480498
0.753224
0.151666
0.663998
-0.689218
0.303197
-0.729728
-0.696877
0.0797304
0.602775
-0.953983
0.564943
-1.33449
-1.05233
-0.275604
-1.16631
-1.1892
-0.735374
-0.631934
-0.00998537
-0.303722
0.891539
-0.948808
0.867222
-0.0491545
-0.738263
-0.590958
-0.234374
-0.0467247
-0.699713
-0.8374
-0.005
0.360223
-0.00772356
-0.721791
0.905002
-0.0599428
-0.85876
0.666236
0.003581
0.0210171
-0.258576
0.235925
-0.85753
-0.978046
0.439854
0.502162
-0.501407
-0.0284077
-0.504771
-0.399912
0.950439
0.791014
0.0790581
0.414726
-0.311983
-0.254224
-0.71644
-0.2785
-0.2588
-0.774341
0.590843
0.758522
0.48413
-0.681931
0.61999
-0.677009
-0.428203
-0.38856
-0.846637
-0.423309
-0.368804
0.729934
-0.609136
-0.715073
-0.953474
-0.599786
0.458007
0.482033
0.283515
0.510224
-0.264896
-0.287311
0.138693
0.663145
-0.622877
-0.8821
-0.164976
0.433535
-0.384224
0.852751
-0.0981375
-0.865265
0.135331
-0.324786
-0.0373221
0.0489623
-0.432763
0.772663
-0.137239
0.315849
-1.05263
0.455465
-1.06864
0.26636
-0.118339
0.0534346
0.297291
0.498807
-0.408651
-0.1488
-0.277859
0.111744
0.366639
-0.9166
-0.00627522
-0.0640657
0.395138
0.52935
-0.801879
0.716496
0.228682
-0.468211
-0.846384
0.233277
-0.0500101
0.518753
-0.698298
-0.267094
0.611669
-0.818379
-0.970416
0.0852227
-0.691696
0.757194
-0.394652
-0.00515798
0.424477
0.504737
1.02386
-0.269943
0.177756
0.9216
-0.156091
0.877767
-0.817991
0.701273
0.17089
0.137479
-1.16769
0.707615
-0.697233
0.623902
-0.837862
0.254292
-0.301845
-1.29464
-1.22748
-0.487814
-0.53926
-0.0219915
0.113028
-0.0859371
-0.334602
1.03546
0.656407
0.0395598
1.0165
0.125275
0.500647
0.3643
0.271715
-0.781903
-0.618189
-0.278664
-0.494454
0.397044
-0.0298449
0.807893
-0.574648
0.569954
-0.0650321
0.363792
0.385142
0.207664
0.146742
0.100342
0.700762
0.326003
-0.856002
-0.277804
-0.774047
0.356597
0.770941
-0.27704
0.356346
-0.623406
-0.608443
-0.4525
-0.915291
-0.027214
-0.11313
-0.570368
0.824054
-0.103728
-0.371573
-0.890688
-0.178846
0.70521
-0.380965
0.46763
0.725694
0.579221
-0.522941
0.710512
0.489896
0.311257
0.789759
0.561139
-0.972857
0.69203
0.741468
0.186331
0.343646
0.825637
-0.294391
0.4277
-0.351
0.588063
-0.48298
0.755915
-0.294857
0.676938
0.642073
-0.838121
-0.00336414
-0.666937
0.195398
-0.990823
0.71937
-0.79975
0.911949
0.0859159
-0.163378
-0.264586
-0.785896
0.753287
0.277008
-0.962346
0.0261588
0.555012
0.201686
0.476889
0.996099
-0.9588
-0.2803
-0.9249
-0.1361
0.436623
-0.143527
0.464154
0.763553
-0.318605
0.745965
-0.0119803
-0.30619
0.6928
-0.0375998
0.78633
0.885428
0.503402
0.728601
0.569707
0.0512
-0.3174
0.9403
-0.474144
-0.460999
-0.7935
0.7906
-0.3558
0.285
-0.6579
-0.2689
-0.2127
0.9525
-0.24
0.446487
-0.764146
0.996131
-0.326742
0.240435
0.922965
-0.629207
-0.178466
-0.384077
-0.174804
-0.0934536
0.821025
0.702085
-0.385569
0.0648217
-0.805221
-0.878685
-0.570115
0.405053
-0.753495
-0.428698
-0.3342
0.4497
-0.0752
0.3907
-0.7844
0.148514
0.555738
-0.109852
0.994926
0.756894
-0.24782
0.632547
-0.318874
0.0509795
0.121697
0.947729
-0.795041
-0.392243
0.207364
-0.619517
-0.300719
0.365946
0.381307
-0.617484
-0.532152
0.720944
0.347928
0.289802
-0.642311
-0.457274
-0.00480213
-0.242
-0.816527
0.157402
-0.0510149
0.735736
-0.508841
-0.0129252
-0.453263
0.555472
0.264065
-0.345529
0.144905
0.764439
0.605096
0.852661
0.72609
0.411191
-0.73248
-0.309268
-0.362802
-0.0884819
-0.574895
0.164393
0.157157
-0.319489
0.724018
0.193178
-0.607431
0.1674
0.0733723
0.656642
-0.754695
0.902559
0.38632
0.945694
1.02854
0.0120147
-0.285627
0.231582
-0.417565
0.104571
0.473593
-0.712551
0.456142
0.803214
-0.260657
-0.924321
-0.72395
0.560156
0.331853
0.258921
-0.295836
-0.740976
-0.570732
-0.374339
-0.09051
-0.2547
0.377571
0.486807
-0.120516
1.11237
0.085239
-0.0446185
-0.529196
-0.828389
0.949962
0.52758
0.607514
0.0318993
0.0484796
-0.401356
0.296806
0.0209759
-1.15365
-0.670738
-0.707769
1.18055
-0.764159
-0.788733
-0.624522
0.111442
0.421809
0.829382
-0.388371
0.6271
-0.395118
0.93138
-0.183816
1.28301
-0.509994
0.941165
-0.627405
-0.481867
-0.244148
0.323837
-0.722277
1.01501
-0.598194
-1.01155
-0.533451
-0.17669
-0.0687732
0.0368079
0.149064
0.210457
-0.0921988
0.593272
0.890816
-0.0713174
0.428154
-0.367107
0.103766
0.5787
-0.352185
0.4156
-0.0494298
1.21094
0.792714
-0.192823
0.797043
-0.790473
-0.145016
0.339818
-0.237301
1.07175
0.80587
0.95192
0.1181
0.15849
-0.869438
0.344584
0.53682
-0.831286
0.216312
0.109153
-0.154743
0.811701
-0.349529
-0.311067
-0.1666
0.1627
0.854378
-0.086756
0.315064
-0.103033
0.313872
0.136762
0.639544
-0.325366
-0.356587
0.388489
-0.0186561
-0.418468
0.162987
-0.705941
0.834664
-0.247049
-0.445296
-0.185738
0.0664715
-0.463257
-0.0840259
0.0798161
-0.659525
1.23234
0.206388
-0.0649697
0.6103
0.6569
-0.0133752
0.12503
1.00889
1.32266
0.498735
-0.643644
0.306381
-0.464447
-0.404859
-0.45582
0.175079
-0.147627
-0.411665
0.349699
0.64537
-0.621673
-0.093167
-0.838367
-0.388308
-0.728692
0.442572
0.228163
-0.574256
-0.494258
0.498668
-0.779013
-0.300366
0.3156
-0.00966549
-0.754036
1.2615
1.0377
-0.643636
0.969209
-0.642487
0.195541
-0.264483
0.00803254
0.349978
0.550505
1.00444
-0.602958
0.763894
-0.122231
0.4196
-0.0534055
-0.864936
0.0035011
0.465273
0.701896
1.31328
0.519071
1.17302
-0.844838
-0.278037
0.9902
0.541493
0.943069
0.189121
-0.213958
-0.246962
-0.157833
-0.332224
0.0734012
0.298768
-0.717587
-0.228761
0.862274
0.443753
-0.203934
0.964038
0.998503
-0.654386
-0.850497
-0.546622
0.468184
-0.719527
-0.527428
-0.0143632
0.266213
0.597183
-0.437343
0.3877
0.3123
-0.0737794
-0.332552
0.709513
1.07076
0.550734
0.215009
0.00314359
-0.364849
-0.780249
0.544938
1.23004
0.0102753
0.708069
0.0134029
-0.657549
0.797612
0.0710458
-0.821788
-0.0180221
-0.231281
-0.670583
0.0568129
1.25922
0.484267
1.04998
-0.40024
0.846
-0.1552
0.109383
0.111836
0.977291
0.772381
-0.3362
0.613654
0.350392
-0.47546
0.374637
-0.597063
0.682485
0.623071
0.115559
0.591736
0.0911113
0.271414
-0.665957
-0.47488
-0.572425
0.248558
0.94874
1.30584
-0.180471
0.671305
0.00719731
0.398757
-0.421599
-0.0995
0.669233
0.481563
-0.410102
0.850286
-0.369232
-0.273507
0.620305
-0.153826
0.454524
-0.502896
0.367359
-0.242268
0.4973
-0.638951
0.0909872
-0.460363
0.615571
-0.208009
0.433516
0.796683
0.348405
0.582645
0.560153
0.329207
0.254021
-0.213306
-0.7399
0.4023
-0.72826
0.604335
0.559898
0.840277
-0.764632
-0.736347
-1.07649
-1.01696
-0.666145
-0.587912
0.114229
8.25148e-05
-0.269501
0.00792557
0.236195
-0.2743
0.175333
0.27926
-0.397431
0.670127
0.925017
-0.765511
-0.478052
0.304123
0.0334269
0.498944
-0.0120015
-0.767211
0.0407043
-0.391792
0.623833
-0.25337
-0.475019
-0.139254
-1.03998
-0.389356
-1.10201
0.384034
-0.0962449
-0.645864
-0.905601
0.148707
0.650306
-0.615939
-0.71178
0.278927
-0.698225
0.536531
-0.822292
0.982179
0.490249
0.79101
-0.220674
-0.0922912
0.4734
-0.968728
-0.789207
1.18298
0.556839
-0.0763474
-0.173465
0.613266
-0.679227
-0.680369
-0.265206
-1.22116
-0.728344
-0.0389267
0.00397347
0.669681
-0.733748
-0.304708
0.57028
0.104398
0.213109
0.317721
0.923431
0.911746
-0.480217
0.98282
0.905213
-0.137726
0.790406
0.980735
-0.766254
-0.476404
0.175267
0.25971
0.745011
-0.044591
0.63078
-0.595209
-0.90204
0.619153
0.272325
0.356594
0.127077
-0.9287
0.73978
0.467759
0.368063
-0.654234
0.539634
-0.632689
-0.130253
0.68968
-0.106405
-0.00455444
0.837743
-0.929456
0.821189
-0.479897
-0.77569
1.01675
0.51504
0.597354
0.955172
-0.856342
-0.113578
-0.669246
0.256653
0.0530498
-0.165274
-0.153918
0.843329
-0.828062
-1.05163
0.347496
-0.83621
-0.474897
0.309918
-0.54158
0.189798
0.409165
0.499942
-0.283989
-0.302837
-0.739793
-0.8835
0.0761
0.0622229
-0.226258
-0.571502
0.460619
-0.181858
0.784856
0.775787
0.608842
-0.309412
0.0708625
0.421012
-0.0105839
-1.07153
-0.292623
-0.230834
-0.231381
-0.877515
-0.292336
1.08655
-0.521835
-0.261759
0.50065
0.343721
-0.541525
0.345151
0.204877
-0.6786
0.6179
-0.445731
0.618599
0.374033
0.509131
0.597542
0.542055
-0.171693
0.201407
-0.333444
-0.588377
-0.12287
0.456635
-0.935486
-0.557179
0.358829
-0.623832
0.346581
-0.324557
0.897464
0.741375
-0.457633
0.820681
0.729999
0.986854
0.196232
-0.769212
-0.2148
-0.406104
-0.145492
0.782789
0.956526
0.610757
-0.00903175
0.110557
-0.217748
0.835144
0.957321
-0.48704
-0.319765
-0.284921
0.183919
-0.999808
-1.08494
0.135413
0.62451
-0.525457
-0.755881
0.559359
-0.254953
-0.835408
-0.0560587
0.415624
-0.145311
0.501974
-0.5061
-0.810934
-0.156365
-0.449765
-0.380756
-0.434306
0.147207
0.666251
1.05899
-0.0458536
0.93366
-0.144764
0.569854
-0.854191
-0.584045
0.25983
-0.351001
0.369048
-0.063851
0.888117
-0.463194
0.893439
-0.844189
0.263592
0.0260088
0.94938
0.140748
0.851708
-0.4881
0.61874
-0.73329
1.09864
-0.0920398
1.07053
0.0568437
0.378831
0.361503
0.424266
-0.075733
-0.642616
-0.422926
0.651713
-0.639876
-0.683586
0.696762
-0.765341
-0.110212
0.873381
0.158623
-0.326684
1.02823
-0.19177
1.03624
0.464863
-0.299962
-0.69337
-0.5915
0.684237
-0.841392
0.585402
-0.504039
1.01628
0.590801
-0.793937
0.658875
0.408896
-0.155666
0.526654
0.428577
-1.03774
0.593659
0.259178
0.119944
-0.297848
-0.304128
0.842327
-0.35658
1.0088
-0.382982
-0.640608
-0.504498
0.427164
0.730426
0.648714
0.1058
-0.366871
0.731205
0.117985
-0.361224
0.67413
-0.390413
0.846608
-0.313524
0.711437
-0.396734
0.529382
-0.736506
-1.10585
-0.391433
-0.272564
0.676043
-0.991512
-0.212394
0.673551
0.91896
-0.821387
0.345822
0.213443
-0.453414
0.762228
0.0855225
0.0706008
-0.2093
0.389598
0.025886
-0.158988
0.931074
0.382466
-0.734096
-0.692987
-0.799765
0.0883531
0.304404
-0.378338
-0.25009
-0.780976
0.246866
-0.798059
-0.602896
0.720553
-0.0380704
-0.901774
0.512048
0.837024
-0.649673
0.84834
0.422793
0.317984
0.932012
-0.725757
0.8104
-0.0555
-0.9532
0.5485
0.85838
0.804112
-0.882425
0.986197
0.0220903
0.543062
-0.411348
-0.675039
-0.468
0.553979
0.363046
0.481046
0.484646
-0.594062
-0.786893
0.8321
-0.6472
-0.595
0.531652
-0.698824
-0.2584
-0.2905
-0.0026
-0.9151
0.0661
0.2271
0.4755
0.0159
0.93162
-0.946516
-0.415919
0.0935627
-0.258574
0.833538
-0.154069
-0.420855
-0.570689
0.434422
0.262718
-0.751666
-0.992544
-0.823299
-0.725287
0.577056
0.054038
-0.0288414
0.569129
-0.962991
-0.8561
-0.1166
0.4832
0.5886
0.4281
0.5995
0.268108
0.357907
-0.62834
0.635387
-0.311026
0.200085
-0.217505
-0.488179
0.257517
-0.541728
-0.357879
-0.184737
-0.732298
-0.476843
-0.945054
0.970403
0.212687
0.592847
-0.825379
0.350195
-0.777639
-0.422817
0.216775
-0.526553
-0.226594
0.55036
0.812302
-0.8959
-0.230213
0.268967
-0.871094
-0.53028
0.0974179
0.754274
-0.302272
0.794182
-0.422628
0.97917
0.7278
0.692779
-0.486746
-0.940096
0.671827
0.75528
0.69979
-0.351618
0.207613
0.816678
1.03108
-0.482161
-0.174076
0.532936
0.710867
0.363202
0.0518581
-0.8867
-0.155496
-0.695774
-0.403708
0.585173
0.951486
0.80664
-0.00123313
0.518789
0.0966489
0.00322114
0.279949
-0.644262
-0.743477
0.00347827
0.333702
0.343805
0.511581
-0.592091
0.31063
0.230959
-0.58886
1.04572
-0.0298288
0.173997
-0.652482
-0.403823
0.586231
-0.6847
0.680549
-0.814306
0.490372
0.646193
-0.56035
0.766456
-0.36453
0.82701
-0.323028
-0.206135
0.637239
-0.450893
-0.262358
0.759383
-0.065037
0.234496
-0.867125
0.334709
0.207014
-0.388385
0.0657623
-0.567375
0.750164
-0.425509
1.06503
-0.823692
-0.952804
-0.8087
0.949224
-0.351314
0.557445
-0.519082
0.224224
-0.897071
0.926763
-0.317143
0.18551
-0.362005
-0.0359963
-0.292761
-0.425808
-0.0511455
0.290101
0.606051
-0.791634
-0.615935
0.391472
0.508204
0.906853
-0.79985
0.33959
-0.314006
-0.129558
-0.35997
-0.00684151
-0.21
-0.305298
0.328883
1.05611
-0.302128
0.0643252
0.20199
0.673591
-0.50849
-0.932293
0.707462
-0.131231
0.711169
-0.305264
-0.31808
1.02438
-0.205988
-0.569468
0.287781
0.316722
-0.214695
0.924039
0.580029
0.746214
-0.019073
-0.532365
0.404315
-0.9248
-0.101
0.913283
0.255984
-0.373695
-0.545701
0.195046
0.187289
0.411415
-0.542567
-0.223564
0.19575
-0.479041
0.43552
-0.0962417
-0.429844
0.942112
0.218739
0.480044
0.0447704
-0.268101
0.836284
0.789201
-0.804667
-0.611485
-0.444701
-0.709477
0.135758
-0.8815
0.252
-0.0230258
0.792574
0.163068
-0.873914
0.558846
-0.49755
0.25792
0.457775
0.131822
-1.39165
-0.262866
0.200641
-0.887939
-0.306836
0.349009
0.598426
-0.397689
-0.169326
0.104124
0.436979
0.0478226
-0.141621
-0.897038
0.476328
0.948365
-0.484915
0.276513
0.3859
0.705826
-0.851938
0.456786
-0.752223
-0.0330947
-0.721235
0.490907
0.574067
-0.419236
-0.0236522
-0.354785
-0.513228
-0.298084
0.0259529
-0.588108
-0.046281
-0.442806
0.888414
-0.186036
-0.69098
-0.0583011
0.258188
1.05285
1.00131
0.962465
0.958607
0.795641
-0.0227
0.949848
-0.785068
0.70544
0.486961
0.770181
-0.129338
-0.53136
0.45909
-0.456007
-0.00775519
-1.06685
-0.246143
0.0553985
-0.446136
0.104253
1.07966
0.781413
0.489716
-0.0980219
1.17631
1.21555
0.276693
1.0995
0.298104
0.0207508
0.143627
0.853
-0.8112
0.855498
0.220468
-0.0410617
-0.413341
-0.650833
-0.0173744
0.226952
-0.509027
-1.16863
-0.380221
0.258742
-0.526036
-0.0303898
0.657864
-0.646484
0.413488
0.420569
-0.606078
0.662509
-0.125186
1.10128
-0.21288
1.15761
0.395502
0.744143
0.400387
0.8386
0.7246
0.873492
-0.966023
-0.124278
-1.07816
-0.406392
-1.23314
0.13688
-0.159785
-0.951991
0.643257
0.976331
-0.345663
0.498419
-0.350624
0.736461
-0.279731
0.825869
-0.580979
-0.724919
0.229763
0.497345
0.0633894
0.544244
0.95446
0.212206
0.8094
-0.501107
-0.4902
0.414534
-0.318956
-0.0840604
0.786623
-0.512251
-0.938818
-0.868845
-1.42429
-0.326262
-0.397926
-0.279551
-0.0254093
0.873093
-1.03957
0.50231
0.0871356
-0.45354
-0.657677
0.367452
-0.657563
-0.69776
1.03733
1.07339
0.849139
-0.592433
-0.0140901
0.0561
0.157962
-0.115321
-0.819545
-0.354561
-1.18816
-0.749592
-1.2261
-1.05356
-0.375511
-0.548942
-0.0588314
1.10872
0.192179
0.712336
0.490257
0.0838292
0.0457333
0.219259
-0.246419
-1.08735
-0.280565
-0.0569476
0.75328
-0.177909
0.612765
0.428971
-0.850067
-0.69698
0.999464
0.705889
0.578246
0.141831
-0.305827
-0.675606
-0.196432
-0.0299211
-0.460489
0.356209
1.10433
0.608367
-0.555504
1.05021
1.02607
-0.335608
0.220265
-0.605119
-0.734939
0.535059
-0.199769
-0.352459
-0.343338
-0.0306574
0.625298
1.05237
0.409098
-0.442041
0.353385
0.806654
-0.839576
-0.835289
0.82056
-0.670287
0.000784345
0.389893
-0.83072
-0.653506
0.390804
1.13111
0.218044
-0.447375
0.99289
0.655631
-0.397397
-0.170337
-0.612657
0.793485
-0.235224
0.541066
0.861669
0.593276
-0.0373856
-0.412223
0.619021
-0.825498
-0.242058
-0.982856
-0.152705
-0.903717
-0.841988
-0.449955
-0.443982
0.688277
-1.23784
-0.822845
0.759888
-0.668048
1.16885
-0.323538
0.373293
0.689883
-0.761693
-0.268793
-0.444974
-0.100266
-0.170044
-0.715163
0.735698
0.28637
0.734738
-0.483546
0.960488
-0.469312
0.383245
-0.482677
0.287195
-1.02154
0.241651
-0.104869
0.833574
-0.297585
-0.673999
0.103836
-0.811962
0.462931
0.659403
0.468482
1.00847
0.779766
-0.616381
0.484547
-0.494199
-0.740396
-0.345848
-0.355805
-0.060663
-0.250662
0.139079
-0.449922
0.563455
-0.2561
0.956
-1.04976
0.163672
0.163492
0.353202
-0.528055
0.291234
0.886791
-0.0989323
0.0215154
0.475538
-0.069019
-0.0802671
0.92118
0.382551
0.422088
-0.0817264
-0.408442
0.515398
-0.9218
-0.00750725
0.22046
-0.255818
0.268641
-0.501639
-0.624961
0.535417
-0.6006
-0.8267
-0.0207952
-1.07376
0.308071
0.182689
0.357822
-0.699756
-0.201354
-0.709665
-0.777807
-1.34874
-0.640083
-0.25045
0.981505
0.448138
1.13321
-0.0628496
1.01719
-0.679191
-0.726616
0.332741
-0.657029
-0.222391
0.509353
-0.127372
-0.375742
0.782836
0.4931
0.0728919
0.853642
-0.286322
1.11848
-0.582048
-1.0054
-0.68367
0.445165
0.50957
-1.33296
-0.81624
-0.177545
0.255861
-0.315769
0.476517
0.527964
-0.434102
-0.175612
-0.364731
-0.703328
-0.1936
0.465693
0.0377071
-0.877165
-0.478289
-0.646015
-0.43998
0.991
0.446358
-1.00022
0.878816
0.986091
-0.20196
0.587888
-0.669559
-0.8973
0.0847963
-1.00446
-0.498124
-0.0795129
-0.609779
0.126455
0.436702
-0.261889
1.04169
0.270306
1.02111
-0.0887266
-0.891386
0.431263
-0.166836
0.0519727
-0.948925
-0.541458
0.780967
0.4385
0.316477
-0.52056
0.329058
-0.120439
-0.317726
0.829434
0.0694448
0.121925
0.559401
0.382352
-1.18091
-0.742746
0.782875
0.989921
0.00371646
0.638658
-0.549321
-0.439948
1.012
0.233206
-0.626764
0.317433
-1.15603
-0.488712
0.326579
0.809165
0.714647
0.1043
0.641192
-0.363131
1.03922
0.932297
-0.11234
0.234945
0.488897
0.473243
0.712717
-0.0886445
-0.931515
-0.662628
0.660336
0.542885
-0.673045
0.811603
0.711867
0.628868
-0.206879
-0.238712
-0.811479
0.288296
-0.660857
-0.402185
-0.149381
0.711865
0.599408
-0.3528
-0.113212
-0.779634
-0.418983
0.285593
-0.23829
0.283875
0.0584376
0.94796
0.525303
-0.858105
-0.136575
0.852743
-0.208601
0.404389
0.645596
0.443933
-0.319177
-0.190494
-0.28062
-0.312194
-1.07841
0.218722
-0.510228
-0.952949
-0.607164
-0.147065
-0.735312
0.804
-0.225198
0.20737
0.558221
-0.21044
-0.991114
-0.636083
-0.765068
0.103781
-0.377752
-0.382193
0.095582
0.598037
-0.885561
-0.769693
0.757935
-0.17977
0.223826
0.251584
-0.72563
-0.245619
0.283683
0.590813
0.906264
-0.949417
0.449759
-0.200002
-0.871495
0.5599
-0.8567
-0.742
-0.3298
0.0762613
-0.194537
-0.497471
-0.54572
0.51031
-0.49111
0.725717
0.359
0.0735
-0.599571
0.978259
0.725559
-0.22064
-0.716312
0.810987
0.1707
-0.8978
-0.6856
-0.895528
0.0546975
0.268
0.7825
-0.3094
-0.5435
-0.5686
-0.1234
-0.5008
-0.1978
0.929006
-0.73455
-0.669081
-0.847002
-0.903929
-0.178688
-0.255154
-0.368372
0.521877
-0.544306
0.837038
-0.752998
0.294938
-0.0654601
0.184149
-0.212046
0.60076
-0.931409
0.738618
0.346957
-0.6166
-0.3189
0.8309
-0.7826
0.8234
-0.7389
0.618088
0.321289
0.234509
0.736534
0.272451
-0.742572
-0.748691
-0.950526
-0.891687
-0.509964
-0.280958
-0.0975597
0.363027
-0.532761
-0.447011
0.413982
-0.555871
0.56365
0.786043
-0.968084
-0.099977
-0.433584
-0.256842
-0.0989823
-0.385687
-0.984019
-0.5747
-0.0082
-0.0781073
-0.232769
0.653675
-0.469343
-0.729802
0.611763
0.189192
0.00217404
0.187552
0.514367
-0.752657
0.916167
-0.825815
0.700268
-0.0450439
-0.940558
0.20842
-0.323328
0.985832
0.236625
0.761714
1.00526
-0.92257
0.792987
0.0479216
-0.748337
-0.457214
0.4881
-0.0856608
0.357468
0.314049
0.104272
0.242594
0.842695
-0.706853
0.502957
-0.751489
-0.750475
0.826871
-0.167218
-0.811532
0.824622
-0.951537
0.0648931
-0.125031
-0.848985
-0.300876
0.0557629
0.473726
0.815104
0.522998
-0.299578
0.697786
-0.265238
0.693078
-0.5786
-0.983379
-0.50249
-0.204001
-0.491626
0.357862
-0.665155
0.775879
0.571276
-0.429531
0.0363302
-0.231798
-0.764976
-0.105118
-0.147635
-1.01325
-0.726958
0.782885
-0.44719
-0.644905
-0.452859
-0.924239
0.430838
-0.426064
-0.278531
0.240875
0.969972
0.583421
0.8687
0.299473
0.229605
-0.494226
0.306527
0.284233
-0.1096
0.302423
0.0507178
-0.643304
0.225425
-0.976274
-0.784785
0.315184
0.630867
-0.135535
-0.590511
0.302755
0.267758
-0.0628426
-0.00637696
-0.839466
-0.297575
0.399296
0.510713
-0.107514
-0.656706
-0.50467
0.3215
-0.34551
-0.36705
-0.0565945
0.80333
-0.202698
-0.274241
0.0208189
-0.515724
0.145858
-0.6196
0.935531
0.482736
-0.554437
0.592361
0.455757
0.745136
0.666147
-0.647764
-0.751868
0.292215
-0.827299
0.717961
-0.412357
0.263997
-0.341083
-0.215615
-0.4815
-0.6714
-0.871151
-0.735862
0.484594
0.933049
-0.596615
0.844382
-0.430639
-0.292033
0.303166
0.315081
0.0235762
-0.343681
-0.23488
-0.633818
0.263123
-0.670921
-0.414379
0.517767
0.382814
-1.04164
-1.13534
0.0934132
0.759795
-0.225822
-0.220673
0.408784
-0.9264
-0.2621
0.498911
-0.732028
0.258937
0.148426
-0.720998
0.593896
-0.349922
0.634135
-0.11802
0.226865
0.608082
0.820783
0.766373
0.169573
1.08146
0.059973
-0.413954
-0.39448
0.311349
0.11416
-0.933809
-0.794509
-0.942779
-0.740626
-0.578222
-0.874345
-0.0890385
0.2439
0.833576
0.622404
0.737507
0.336106
-0.176343
-0.720244
0.640736
-0.00303527
-0.785668
0.648402
-0.0278522
1.14408
-0.30437
0.817835
-0.349901
-0.454625
0.211167
0.790246
0.0221723
0.0603032
0.304795
0.422842
-0.0693559
0.569449
-0.817707
0.325084
0.676708
0.0113
-0.273137
-0.232065
-0.859603
-0.898007
-0.339673
-0.768329
-0.0447749
-0.591563
-0.364452
0.327409
-0.16455
0.173984
-0.658764
-0.0141252
-0.370106
0.293504
-0.13936
-0.595014
0.362138
-1.18904
-0.464773
-0.448827
0.327499
0.561143
0.653849
0.461155
-0.0647
0.2975
0.665843
0.778035
-0.151955
-0.542333
-0.500419
-0.517249
-0.369441
-0.364237
-0.582643
-0.0968435
0.4665
0.137998
0.645185
0.0309843
1.01679
0.786582
0.987028
0.611774
-0.607862
-1.07103
-0.132015
-0.992698
-0.117676
-0.134788
-0.501238
0.813709
-0.888
0.8971
-0.893456
-0.0544807
1.21719
0.984948
-0.112146
0.45807
-0.809967
-0.0808561
0.024432
0.541275
-0.156002
0.0643278
0.316566
-0.892819
0.499944
0.529003
-0.131055
0.904463
-0.983548
-0.502382
-1.55879
-0.262386
0.244221
-0.343044
0.136851
0.350584
-0.574851
-0.3822
0.0195342
1.14418
-0.527539
0.620061
0.20548
0.363732
-0.451167
-1.32103
-0.323005
-0.0722525
-0.137918
0.685537
0.000238021
0.424346
0.337505
0.146855
0.986386
1.27256
0.0387838
-1.03161
-1.04582
-0.0492347
-0.648646
0.808352
-0.286899
-1.02191
-0.5924
-0.0286996
0.626535
0.0442651
0.569107
0.203849
-0.397753
0.441812
0.416367
0.379433
0.304977
-0.506605
1.16289
1.22794
0.509098
0.45598
0.147972
1.46976
0.886876
1.2644
0.0951593
-1.11812
-1.43573
-0.781051
0.440592
-0.28878
-0.875275
0.103748
0.914102
0.481825
0.507901
-0.773121
-0.541929
-0.782898
-0.241895
-0.0613483
-0.282569
-0.944841
-0.206054
-0.00541724
1.1595
-0.00899227
0.809641
0.410389
-0.115492
-0.0931075
0.381604
0.329112
0.39844
-0.918785
-0.0901306
-0.911457
-0.261608
1.09977
-0.605209
-0.265914
0.8463
0.561483
0.187323
-0.754092
0.46604
-0.0123333
-0.441637
-0.714192
-0.850055
-1.00066
0.617907
0.697766
1.10023
0.0973069
-0.00750592
1.21764
1.03561
1.22935
1.19791
-0.562626
0.0292502
-1.12132
0.218061
-0.683745
0.757757
-0.134763
0.9524
0.907353
-0.618081
-0.0613724
-0.694061
0.353613
0.496577
0.471665
-0.258874
0.723527
-0.542802
-0.665605
-1.00997
1.04684
0.0919597
0.335624
0.0474285
0.871647
0.71938
0.28933
-0.477056
0.214899
0.460392
-0.246885
0.0227547
-0.301716
0.878259
0.314145
0.569949
-0.496221
-0.0980161
0.46869
0.480456
0.796468
-0.890103
-0.734538
0.30003
-1.03679
-0.515233
-0.457778
0.138175
0.0204398
-0.474753
0.045338
0.817818
-0.597551
0.460964
0.600655
0.59978
-0.674168
-1.15156
-0.0144962
0.411621
0.339632
-0.206664
0.10856
