ODFQMVNQHVIBYT
784 100 100 100 100 26 
-0.2368
0.6232
-0.249
0.6268
-0.274611
0.354579
-0.171258
-0.896107
-0.689399
0.475533
-0.679311
-0.980714
-0.311078
-0.595116
0.915634
-0.0234871
-0.471639
0.440941
0.603333
-0.157672
0.687715
0.147012
0.392513
-0.2913
-0.0106001
0.5047
-0.1459
-0.1536
-0.2657
0.819336
-0.106626
0.351975
0.151649
-0.984546
-0.940142
-0.521704
0.570134
-0.108654
-0.767535
0.477394
0.748611
0.776704
0.992503
-0.711995
-0.281386
-0.332523
-0.495225
-0.0857516
-0.0473962
0.152034
-0.674575
0.212056
0.701564
0.144308
-0.841371
0.6751
0.0487
-0.436602
0.456181
0.976578
0.93617
-0.692769
0.887845
0.379755
-0.302958
-0.882886
-0.741586
0.769733
-0.404067
1.0206
-0.605372
-0.878645
0.905892
-0.320499
-0.779225
-0.11805
-0.218631
0.561314
-0.69025
-0.554843
0.566782
-0.25177
-0.709153
-0.8763
-0.758
-0.553893
-0.0805697
-0.269556
0.511257
0.481668
0.903978
-0.0682541
0.25331
-0.498318
0.578563
0.992346
0.662195
0.638498
0.930705
0.702805
0.0789114
0.358697
-0.64351
0.104899
0.317218
0.129265
-0.825045
-1.11054
0.593595
0.610199
-0.410895
0.664303
0.0823
0.349124
0.31946
-0.098966
-0.488658
-0.743376
-0.540212
0.104382
-0.138835
0.404437
-0.916228
0.806201
0.474452
-0.540707
0.863539
-0.238588
0.215433
0.704541
-0.723856
0.376944
0.767178
0.457627
-0.324212
0.327176
0.743847
-0.618949
0.874453
-0.177236
-0.1925
0.345
0.282119
0.787543
-0.401948
1.03145
0.98676
-0.0989732
-0.964566
0.985928
-0.736846
-0.375545
-0.756227
0.148221
-0.112489
-1.28793
0.66577
-0.608173
-0.130317
0.820018
-0.657981
0.166508
0.509182
-0.0456863
-0.640164
0.422403
-0.667763
-0.658867
0.8525
0.0268854
0.781867
-0.701892
0.673857
-0.456439
0.323492
1.07334
-0.161495
-0.417026
0.0836238
-0.471962
0.528286
0.158378
-0.310808
-0.358888
0.10835
-0.101089
-0.0661486
-0.610016
0.633604
-0.304214
-0.591268
-0.0645854
0.417064
0.278251
-0.0925457
0.2603
-0.1059
-0.553327
-0.493254
-0.988189
0.913552
-0.534595
-0.421592
-0.242007
0.950799
-0.0815709
-0.589753
-0.46491
0.573777
0.650823
-0.771301
-0.505051
0.363862
-0.0467226
0.143737
-0.739803
-0.0269002
-0.113803
0.760938
-0.444953
0.829242
-0.179587
0.92732
0.9843
0.3975
0.077885
-0.377452
-0.17372
0.664595
-0.279661
-0.946205
-1.08662
0.462629
0.816322
0.677848
-0.767557
0.840378
0.341333
0.449859
0.561814
-0.0146403
0.289176
0.642506
0.0628685
-0.92033
-0.132104
0.581955
0.439723
0.264311
0.691291
-0.7353
-0.81572
-0.0988
0.818138
0.201224
-0.677357
-0.906293
-0.293799
0.452374
0.839361
-0.308156
-0.724276
0.659327
0.397609
0.0268429
-0.0300445
0.698184
-0.546968
0.836869
-0.91392
0.260382
-1.03209
0.456966
0.0986069
-0.479108
0.4982
-0.626541
0.63057
-0.732133
-0.671764
0.2275
0.433654
0.607068
-0.522365
0.741516
-0.108554
-1.01148
-0.614263
0.40633
-0.091108
-0.303237
0.539862
0.688738
-0.285105
0.462177
-0.450749
0.215217
0.471267
-1.01995
-0.226914
0.453704
-0.226448
-0.606289
0.638117
-0.117468
-0.102565
-0.596895
-0.7755
0.9688
-0.879712
0.429755
-0.844477
0.374531
-0.544237
-0.491694
-0.840852
-0.140531
0.559205
0.0310308
0.233421
0.239983
0.360898
0.469264
0.355513
0.206066
-0.601635
-0.289486
0.168029
0.628288
0.540725
0.411022
-0.880968
0.427744
0.0265606
-0.0839164
0.5398
0.8428
0.918969
0.65056
0.572848
-0.169321
-0.380433
0.26513
-0.732025
-0.351669
0.316624
0.603565
-0.020832
1.07223
-0.494673
-0.369694
-0.238366
0.496567
0.414012
1.24448
-0.601971
-0.13237
-0.851082
0.677386
-0.789098
-0.63609
-0.764013
-0.896701
0.980202
0.5721
-0.0224789
-0.401492
-0.739364
-0.4036
-0.772025
0.297053
-0.305304
0.656875
-0.246392
0.666496
-0.389394
-0.657827
0.568131
0.889964
0.510712
-0.139147
0.549296
0.505187
0.465164
-0.63256
-0.948442
-0.675338
0.377951
0.986875
0.99671
-0.589305
-0.0108
-0.673745
0.282642
0.175499
-0.35972
0.789027
0.202201
-0.543996
0.0017136
0.685947
-0.822166
-0.809466
0.321604
0.921909
-0.390699
0.00920911
0.75947
0.417443
0.886436
-0.0320771
0.199896
-0.396182
-0.0707565
0.625173
-0.4817
-0.522337
0.162138
0.869711
0.778984
-0.483041
-0.406509
0.8348
-0.650554
-0.535515
-0.320786
0.309233
-0.384221
-0.490952
-0.306117
-0.735309
-0.483396
-0.894161
-0.590688
-0.0869488
-0.0474157
-0.227104
1.39299
0.30542
0.245498
0.217633
-0.443321
-1.02646
0.612976
0.0691042
-0.980583
0.760401
-0.742547
-0.307791
-0.692528
-0.820197
0.116653
-0.7644
0.762686
0.930013
-0.196682
0.386087
-0.798113
-0.210648
-0.404247
0.308899
-0.339939
0.724924
0.700726
0.279602
-0.0776319
-0.698252
-0.889022
-0.730758
-0.229605
-0.946046
0.204551
1.03206
0.0756637
-0.867178
0.204595
-0.155099
0.500918
0.787699
0.629108
0.54036
0.611527
-0.808785
-0.329913
0.502554
-1.10156
0.298271
0.303962
-0.277866
-0.553274
-0.63736
-0.76475
0.0744267
0.781761
0.1979
-0.513153
0.911364
0.344654
-0.876367
0.61513
-0.806334
-0.0573248
0.0931365
-0.300801
-0.371993
0.225299
-0.325456
0.0466242
-0.563168
0.613482
0.264696
-1.01655
-1.09072
0.067362
0.0928045
-0.840225
0.704177
0.838836
0.931923
-0.728035
0.299067
-0.971331
-0.918774
-0.577945
-0.485062
-0.808121
-0.560935
-0.788094
0.288249
0.295101
0.575244
0.7493
-0.0886
0.927324
0.397807
0.627718
-0.165359
-0.37123
-1.2815
-1.14675
-0.454158
-0.864973
-0.291038
-0.430221
0.245653
0.921812
-0.00294221
0.551407
-0.236396
0.260135
0.397529
-0.0933892
0.0292369
0.451576
-0.4187
0.618876
0.609414
-0.81523
-0.603033
0.7539
0.6229
0.408256
0.624768
0.681527
-0.472274
-0.528902
-1.18321
0.520111
-0.801032
-0.823482
-0.693679
0.715939
-0.00997403
0.0781585
-0.493331
-0.449583
-0.896233
-0.515694
-0.987641
0.499585
-1.11802
0.641356
-0.482945
-0.994559
-0.0964855
0.430149
-0.618255
-0.0829
-0.361294
-0.777388
0.919598
-0.103401
0.450923
-1.11991
-1.0906
-0.745561
-1.1631
0.203364
-0.143015
-0.468153
1.4737
0.0783824
-0.299016
0.593814
-0.896188
0.506912
0.585515
0.297076
-0.349347
-0.444202
-0.580459
0.302821
-0.960577
-0.159309
0.574631
-0.1326
0.888433
-0.512641
-0.619667
0.253791
-0.661955
-1.4221
-1.40903
-1.25116
-0.0466583
0.898824
1.22247
0.144102
0.392225
0.466999
0.298082
-0.661687
0.752734
-0.311975
-0.0171938
-0.608814
-0.101373
0.642884
-0.0326333
-0.114614
-0.361041
-0.424768
0.580385
0.1353
-0.3023
-0.658948
0.492182
0.717153
0.0925044
-0.42809
-1.12964
0.70026
-0.0792546
-0.363261
0.506728
-0.525315
0.181394
0.759446
-0.679603
-0.743009
-0.113477
-0.263289
-0.731717
0.192234
-0.0891843
-0.552945
0.142779
-0.221799
-0.203628
0.11377
0.194292
-0.2753
-0.1555
0.276257
-0.663641
-0.311234
-0.0782315
-0.450974
-0.619226
-0.286434
0.518104
0.447545
0.905343
0.791741
-0.466966
0.25928
0.0462211
-0.743022
-0.11274
-0.357908
-0.526167
-0.149183
0.144623
-0.264148
-0.31989
0.390149
0.96337
-0.014725
-0.0120207
0.2523
0.2833
-0.163878
0.30124
-0.25272
-0.414378
-1.0194
0.408816
0.584742
0.54635
0.104788
-0.0848801
0.442193
0.647587
-0.307365
0.755717
-0.635092
-0.34889
0.532033
0.794169
-0.845734
-0.386109
0.570975
0.411563
-0.480947
0.553649
-0.265526
-0.14739
-0.7291
0.7497
0.190093
-0.666301
-0.563673
-0.657591
0.141455
-0.320003
0.288174
-0.733908
-0.249197
-0.792149
-0.0360884
0.104696
-0.186538
0.981254
0.677733
-0.870501
-0.244418
-0.762643
0.884119
-0.67351
-0.768953
0.402747
0.914192
-0.794485
-0.017119
0.851937
-0.381
0.9389
0.8095
0.1556
0.129119
-0.965204
-0.562003
0.764103
-0.121605
0.789992
-0.358801
0.395382
-0.9316
0.519098
-0.292315
0.25269
0.577271
-0.00450716
0.834403
0.6196
-0.1535
0.4689
-0.455534
-0.434
0.2993
0.4657
0.2931
0.4546
-0.7701
-0.0341
-0.5631
-0.1948
0.656401
-0.967378
0.597903
0.228969
0.210895
0.540873
0.0434602
0.485841
-0.495078
0.7607
-0.696257
0.890954
-0.421504
0.597551
-0.442238
-0.837392
0.00249979
0.446191
0.809434
-0.799894
-0.0987949
-0.360297
-0.6304
0.3007
0.6703
0.6122
-0.0825046
0.462632
-0.671254
0.653772
-0.546783
-0.289
-0.649194
0.0549337
-0.336745
-0.586463
-0.696299
0.16975
-0.0815406
-0.871639
-0.813309
-0.376777
-0.887396
-0.0289749
0.0591987
0.550121
0.125506
0.360672
0.625369
-0.963053
-0.42068
-0.796631
0.3292
-0.7915
0.298016
0.82355
-0.759887
-0.773208
-0.838727
-0.77443
-0.928955
-0.649993
0.0660011
0.166955
0.11037
0.971703
0.385597
0.0546123
0.183236
0.302414
0.457151
-0.71988
0.565585
-0.59029
-0.507256
0.120538
0.245664
-0.118294
-0.249155
0.150526
0.554919
-0.7374
-0.10494
0.25408
0.566795
-0.295694
-0.294746
0.0974952
0.936042
0.560895
-0.455083
0.146207
-0.344478
0.475102
-0.299738
0.358444
0.573664
0.536884
0.691052
-0.531921
-0.742978
0.962548
-0.905726
-0.713424
-0.0236647
0.255368
0.271262
0.228275
-0.468082
0.5337
0.745609
0.258898
-0.361177
-0.326176
-0.61538
-0.816694
-0.276212
-0.114188
0.823843
0.818947
0.341098
-0.680522
-0.153691
0.382296
0.0614832
0.18901
0.699814
-0.188345
-0.22404
0.301926
-0.538322
-0.0829653
-0.683206
-0.171151
-0.0812287
0.367724
0.177603
0.6857
0.260707
0.420322
0.101988
-0.832414
-0.334162
0.468527
0.158609
-0.096493
-0.0855136
-0.090614
0.748689
-0.706262
-0.640103
-0.0695789
-0.750174
0.312532
1.13415
1.0231
-0.574682
0.458202
-0.324228
0.596808
0.457605
-0.957321
-0.608333
-0.290269
0.256904
-0.3064
0.61693
0.579125
-0.140905
0.999659
-0.901488
0.911989
-0.714764
-0.292064
-0.40769
0.582251
-0.372564
0.773208
0.592723
0.154615
-0.0232213
0.349935
0.72018
-0.58324
0.101979
-0.0886989
0.726617
-0.583298
0.638953
-0.271552
-0.508954
-0.406707
0.0286
-0.6104
-0.371803
0.100446
-0.000219651
-0.734078
-0.4471
0.174405
0.668341
-0.372284
-0.0935916
-0.684259
-0.286259
0.679066
0.390828
0.59183
-0.560253
-0.346943
0.901635
0.459131
0.52638
-0.645095
-0.225656
-0.58267
0.610886
-0.160849
0.159845
0.662245
-0.3289
0.7873
-0.294168
-0.240034
0.376183
-0.25617
-0.806715
-0.950625
0.862033
-0.100651
0.68497
0.0106289
0.219599
0.517302
0.0458937
0.821293
0.923296
0.332458
0.566726
0.905892
-0.497539
-0.371409
-0.69005
0.0973918
1.13138
0.528409
0.230203
0.126272
-0.559134
0.921
0.670248
-0.982882
-0.601816
-0.579796
-0.249836
0.598427
-0.188503
0.657013
-0.329362
0.807517
0.724991
0.705204
0.575673
0.592339
-0.510035
0.242766
0.316155
0.57585
-0.0268657
0.497579
0.733075
0.707439
0.320369
-0.718747
-0.281074
-0.0981955
-0.383927
-0.0648
-0.0524416
0.466152
-0.0951968
0.19725
0.0315621
-0.229906
-0.569352
0.067209
-0.607307
0.0769082
-0.765625
-0.803761
-0.523699
-0.671062
0.49526
0.792995
1.11745
1.29767
0.675738
0.156002
-0.590098
0.933346
0.0985236
-0.392525
-0.0201056
0.642065
0.4825
0.674
0.0120001
0.115417
0.931816
-0.480292
-0.975881
-0.446684
-0.557776
0.486673
0.395723
0.469027
0.134615
-0.544194
0.809421
0.800707
-0.998229
-0.419644
-0.772396
0.875808
0.137985
0.585411
0.62454
0.905343
0.537714
0.518556
0.206991
-0.312588
0.4963
-0.2028
-0.323643
-0.392734
1.04724
1.24566
0.699566
0.94326
-0.52591
0.702223
-0.57474
-0.581886
0.527295
0.451124
-0.905634
-0.89065
-0.690305
-0.219968
-0.112781
0.160576
-0.555662
-0.0749134
-0.306639
-0.269728
0.278642
-0.35711
0.58717
0.0730604
0.681303
0.0818
-0.138159
0.099821
1.18973
1.05862
0.998102
1.39618
1.19775
1.13963
-0.0190947
0.318921
0.00880999
0.0730987
0.722039
0.309988
-0.647828
0.614642
0.551108
-0.164677
-0.204923
0.74899
0.525164
0.633006
0.476039
-0.234614
0.00459227
0.160541
0.2481
-0.798098
0.724149
0.607268
0.618479
1.25924
0.213912
0.943163
0.259901
0.786268
0.420386
-0.655504
0.0521965
-0.927303
-0.599024
-0.751976
-0.386823
0.245357
-0.904843
-0.595921
0.375139
-0.344302
0.0543187
0.0189394
0.106109
0.658899
0.17317
-0.00486299
-0.624692
-0.967946
-0.0363858
-0.0339822
-0.677559
1.00791
-0.670583
-0.857491
0.755608
0.98278
0.495593
-0.121122
-0.103169
0.400702
-0.373227
-0.156511
-0.565879
0.40938
0.43333
0.249876
0.976572
0.717011
0.626429
-1.00799
0.759352
0.699325
0.718377
-0.715438
0.356501
0.936567
-0.138981
-0.468034
0.366199
-0.632036
0.63227
0.348847
-1.09817
-0.911158
-0.127724
-0.718872
-1.10596
-0.60513
0.699164
-0.738244
-0.48283
-0.846672
-0.277671
0.949294
-0.0405303
0.271695
-0.407383
0.144798
0.324573
-1.2218
-0.311427
-0.628378
0.904354
-0.134035
-0.354002
-0.527626
-0.584622
0.0383947
0.78717
-0.133977
0.436328
-0.160763
0.479525
0.12476
-0.677283
0.695296
-0.383588
-0.329705
0.529138
0.0168814
-0.323544
0.330216
0.500349
-0.419184
0.77843
-0.0538455
-0.805109
0.192219
0.193148
-0.862104
0.325702
0.10352
0.0935592
0.864082
0.510619
0.853178
-0.936196
0.626014
0.0711576
-1.00416
-0.562421
-0.760165
-0.392229
-0.723655
-0.305171
-0.57564
0.90484
-0.799568
1.1028
-0.650469
-0.63171
0.938132
0.957958
0.361535
-0.33688
-0.940998
-0.503689
0.248931
-0.5345
-0.3598
0.278431
0.24899
0.204078
-0.320865
-0.316355
-0.251762
-0.772653
0.470666
0.552452
0.616423
-0.518057
-1.02224
-0.398604
-0.563131
-0.196301
0.633874
0.703843
1.05634
-0.0256224
-0.560519
0.89732
-0.773186
-0.166848
0.963265
0.835284
0.4611
-0.3591
0.9866
0.913588
0.550259
0.022391
0.0358917
0.930601
-0.535298
0.675106
-0.369524
-0.10923
-0.690094
-0.816872
-0.329595
0.57139
-0.6396
1.07759
-0.684517
-0.600823
0.77511
0.399355
-0.0887828
-0.00330203
0.795364
-0.60479
-0.596378
-0.0913137
0.523031
0.8214
0.396879
-0.863444
-0.153777
0.35516
-0.350146
0.0806632
-0.642942
0.395636
-0.249627
0.886611
-0.296985
0.0839697
0.598969
1.03428
-0.688885
-0.852795
0.365442
-0.83558
0.505316
0.334932
0.262674
-0.349626
0.290033
-0.28643
-0.168873
0.42515
-0.632173
0.2706
-0.955296
-0.823446
-0.377484
0.73861
0.329967
0.222889
-0.720054
0.550642
1.10967
-0.127512
-0.350189
-0.622955
-0.901151
0.251402
-0.141525
0.0356141
-0.25367
-0.386157
-0.642285
-0.742055
-0.334142
0.892754
0.123285
-0.0692444
-0.427542
0.452532
0.905201
0.4164
0.253212
-0.268849
-0.353006
0.655264
0.274952
-0.795013
0.921494
-0.250392
0.887213
-0.449734
0.0286581
-0.126755
0.429129
-1.05472
-0.347
-0.151051
-0.457354
0.14199
-0.747808
-1.04938
-0.513063
0.406002
-0.0756011
0.115059
0.053422
-0.487715
0.604447
-0.9096
-0.579879
0.346547
-0.387926
0.405228
0.458134
0.669043
-0.182269
0.167566
-0.0643071
0.941677
-0.96396
0.125242
0.545965
-0.681897
0.424743
0.134705
0.108995
0.353354
-0.957231
-1.00518
-0.89078
0.719344
-0.942368
-0.805481
0.596486
0.800082
0.708767
-0.534
-0.949888
-0.290458
-0.0140073
0.233554
-0.54021
-0.216096
-0.841033
0.0784335
-0.185218
-0.969136
0.253861
-0.641699
0.541774
-0.717023
0.165112
0.000914227
-0.687316
0.241405
-0.499609
-0.383255
0.265146
-0.906462
0.823706
-0.27989
0.0628701
0.240515
-0.929215
-0.583
0.8227
0.862509
0.652591
0.655056
-0.98586
0.00698388
0.682919
-0.0196698
-0.152693
0.186554
-0.123565
0.066399
-0.890231
-0.724282
0.329157
-0.90952
0.725418
-0.8516
0.791459
0.877396
0.562114
-0.291494
0.949596
0.523641
0.67907
0.738082
-0.632437
-0.7885
0.2537
-0.4458
-0.7844
0.127998
0.63666
0.51821
0.794638
0.169593
-0.529701
0.173017
-0.965114
0.0998
-0.908386
0.900177
-0.85447
-0.683226
-0.332458
-0.1248
0.988
-0.2749
-0.925
0.763956
0.561896
0.5829
-0.3091
-0.902
-0.7258
0.9467
0.1417
0.7666
-0.9504
-0.6822
0.425842
-0.233003
-0.442806
-0.8564
-0.17471
0.864266
-0.96051
0.00100848
-0.119302
-0.120112
-0.328303
-0.987998
-0.654055
0.757197
-0.658745
-0.259714
-0.260885
-0.944013
-0.82461
0.3996
-0.9272
-0.373
0.2355
-0.787
0.4117
-0.753934
-0.281876
0.25263
-0.313184
-0.472056
0.753294
0.564276
0.703533
-0.956139
-0.89393
-0.302188
0.485337
-0.404286
0.944317
-0.872828
0.960871
-0.527078
0.559347
0.844646
-0.00706443
-0.337447
0.752283
0.799467
0.896763
-0.339695
-0.13369
-0.495
0.0058
0.896212
0.929767
0.949733
-0.37312
-0.0258953
0.580502
-0.862894
0.378214
-0.949889
0.349391
-0.910246
-0.46715
0.666532
1.0264
0.311778
0.451972
-0.580989
0.0186956
-0.729729
0.894419
-0.570712
-0.117926
-0.600483
0.57114
0.309185
0.397464
0.671138
-0.5129
0.713979
-0.960123
1.01114
0.341621
-0.106829
0.478063
-0.255985
0.272147
-1.18887
0.57834
-0.928891
0.0740358
-0.397539
0.534198
0.756399
0.0076186
-0.372541
-0.0492816
0.303554
-0.150366
0.140919
-0.645491
0.4352
0.442395
-0.154399
-1.00039
0.683362
-0.4055
-0.631295
-0.574047
1.00636
-0.300716
-0.765479
-0.275507
0.0782618
-0.394402
0.731278
0.749473
0.262109
0.553878
0.0255353
0.0962803
-0.52931
0.410745
-0.737804
0.867572
0.390797
0.538499
0.0656288
-0.130718
0.148064
0.299802
-0.933141
0.500804
0.849321
-0.6718
0.294907
-0.953862
-0.355042
0.396918
0.913677
0.869315
0.735559
0.935859
0.558774
-0.526407
0.578988
-1.03411
-0.422477
-0.0360067
-0.0603853
0.0338271
0.184355
-0.840337
-0.74044
-0.760312
0.0400073
0.0333624
-0.306193
0.629992
0.849643
-0.786048
0.881599
0.7646
0.543342
0.611904
0.0658915
-0.205049
0.0733033
0.41441
-0.395471
-0.821051
0.47302
0.541229
0.483662
-0.489688
-0.281922
-0.893827
0.209452
-0.866141
0.594026
0.180232
-0.634612
0.418531
-0.266596
-0.910014
-0.982867
-0.0604791
-0.393755
-0.561784
-0.9656
0.763
-0.563504
-0.833471
-0.552902
0.429314
0.265873
-0.202846
0.310868
-0.766943
-0.541503
0.495317
-0.100901
0.171447
-0.0025781
-0.665483
-0.684822
-1.05882
0.0801307
0.572676
-0.911401
0.486713
0.0694078
-0.143721
-0.707401
-0.290772
0.354735
-0.958423
0.7848
0.5725
0.623364
0.310487
-0.163144
-0.0688771
0.418899
-0.0588367
0.330639
0.565676
-0.766106
0.0175316
0.667105
-0.45836
0.21335
0.323733
0.0727752
-0.083887
0.386252
0.24655
-1.1112
-1.01242
0.101885
0.629021
0.570183
-1.10471
-0.686876
0.0065273
-0.00254737
0.6575
0.535533
0.774826
0.22474
0.0458134
0.510836
0.174474
-0.113083
0.329466
-0.21342
0.548673
0.319956
0.39132
0.0485766
-0.172399
0.106791
0.148144
0.11017
0.240967
-0.0879069
0.117658
-0.911234
0.289397
-0.270643
-1.06089
-0.863931
0.428723
-0.214088
0.9372
0.444929
-1.01868
-0.608519
0.751301
-1.07254
-0.338645
0.759522
-1.08319
0.600748
0.801346
-0.416846
0.0801015
-0.434881
-0.462324
-0.485582
-0.70648
-0.601881
-0.641253
-1.11764
-0.438408
-0.0137746
-0.288939
-0.251249
-0.781448
-0.408794
-0.956022
0.3117
0.7079
0.205127
-0.974856
-0.884621
0.420396
0.429251
0.747021
0.164503
-0.109246
0.579984
-0.704299
-0.657132
-0.351838
0.227772
1.02812
0.140763
0.0356881
-0.0188134
-0.0755656
0.561777
0.225276
-0.899384
0.663652
1.09721
0.67219
0.861976
-0.342381
0.3865
-0.4521
0.69652
-0.845166
0.437024
-0.259617
0.694945
-0.794539
-0.431514
0.587436
0.657439
0.773558
0.801452
0.877908
0.638697
-0.129837
-0.470948
0.22464
0.358586
0.560066
-0.707728
0.288503
1.27944
0.813738
0.969299
0.989344
0.979677
1.00442
0.4208
0.0555
-0.122519
-0.325011
-0.671658
-0.195699
0.793098
-0.529702
-0.271251
-0.322652
-0.0429225
0.482749
-0.257
-0.387481
-0.6853
1.27338
-0.493153
-0.100548
0.759021
0.921519
-0.309059
1.05376
0.920036
1.29376
0.43954
0.374331
-0.142585
-0.430191
-0.8446
-0.6734
-0.969422
-0.112537
-0.572955
-0.257791
-0.558896
-0.767196
0.0905247
0.746493
0.491754
-0.22618
0.751749
0.490758
0.138222
-0.343516
0.367117
0.0994272
0.232345
0.661757
-0.147213
0.805817
1.25669
0.698421
0.763371
-0.230589
-0.0389439
1.00249
-0.336903
0.245166
-0.585959
-0.968223
-0.665467
0.379886
-0.771094
0.872145
0.673901
-0.783848
0.837958
0.785524
0.716233
0.189013
-0.73929
0.81479
-0.28176
0.819954
0.109687
-0.793478
1.37977
1.37918
-0.172093
1.33389
1.11619
0.0516835
0.449698
0.156254
-0.6369
-0.833352
0.96358
0.533816
-0.699843
-0.695948
-0.547811
-0.468986
-0.417457
0.380779
-0.0761042
-0.493547
0.699696
0.927319
0.453477
-0.0167045
0.13307
0.877088
-0.407927
0.147296
0.660346
-0.355028
1.41635
0.880053
-0.133386
1.33054
1.08338
-0.523755
-0.302107
0.231576
0.0973641
0.0213075
0.549957
-0.297283
0.704928
-0.0691535
-0.565547
-0.0474117
-0.232335
0.884485
0.374433
-0.295014
-0.242972
-0.232745
0.345894
0.478531
-0.233481
1.17375
-0.377527
0.985885
-0.277495
0.205961
0.982875
0.342872
0.802509
0.730608
-0.423699
-0.509197
-0.335229
0.620092
0.702612
-0.857946
0.72811
-0.430626
0.11724
-0.786391
-0.673133
-0.871553
0.743516
0.493405
-0.555435
-0.681691
-0.626649
-0.672194
0.793562
0.437099
1.2277
1.0185
1.17356
0.383215
0.0350248
0.181608
0.342494
-0.29791
0.097
0.0514
0.212892
0.7018
-0.451347
-0.713484
-0.834885
-0.358094
-0.478354
0.329235
-1.07637
0.873361
-0.520317
1.25234
1.18263
0.673069
0.287451
-0.0732998
-0.457259
0.740042
1.31172
0.441751
1.0548
-0.10429
1.25693
-0.196781
1.05578
0.21282
0.6641
0.1798
-0.936795
0.242418
-0.455442
-0.660984
0.555023
0.671792
0.246612
-0.163898
0.477259
0.833442
-0.622425
0.830612
-0.293266
-0.372883
0.358224
0.443342
0.779678
1.24696
-0.446117
-0.306651
0.532291
0.92128
0.707412
0.379876
-0.692638
0.302657
-0.4835
0.9822
-0.423692
-0.452488
-0.0656346
0.687176
-0.470786
-0.45025
-0.292904
-0.304444
-0.814494
0.994132
-0.405251
-0.529391
0.251678
0.703409
0.295542
-0.201393
-0.585491
1.47359
0.838434
1.17817
0.852627
-0.629364
1.04785
0.483049
-0.82956
-0.685909
-0.5003
0.140099
-0.68368
-0.266536
0.612667
-0.00965865
-0.376202
0.328215
0.140288
-0.706737
-0.855705
-0.188903
0.913669
0.287586
0.69193
0.420745
-0.383848
-0.258514
0.41322
1.21271
0.350742
0.086976
0.457235
0.253157
-0.193499
-0.580566
0.922073
-0.849268
-0.8288
0.965923
0.851428
0.407599
-0.477221
0.0570689
-0.199533
0.0187234
-0.289312
-1.0174
0.529024
-1.26572
0.709732
0.583943
-0.531746
-1.22241
-0.532126
-0.455219
-0.348808
-0.623339
1.15628
-0.795511
-0.122383
-0.0740489
-0.351132
-0.358934
0.409134
-0.815902
-0.8133
-0.244759
0.268454
-0.283549
-0.455873
-0.566979
-0.857328
0.111923
0.558734
-0.0855022
0.0403241
0.637252
-1.09465
-0.24859
-0.402409
-0.319071
-0.584667
-0.354639
-0.481816
-0.0363067
0.961796
-0.0367448
0.417613
-0.143343
0.952254
0.53436
-0.587924
-0.555966
0.2028
-0.221276
0.12111
-0.217998
-0.184079
-0.565964
-0.00620844
-0.161687
-0.920135
-0.314236
-0.455545
-1.10753
-1.09438
-0.0494321
-1.02392
0.200226
-0.271961
0.219306
-0.152418
0.659394
-0.250777
0.361186
-0.553252
-0.988468
-0.244181
0.704331
0.359307
0.318756
-0.5954
0.3564
0.0689219
-0.0641328
0.448575
0.376379
0.873446
-0.132067
0.779809
0.458832
0.666423
-0.148424
-0.736865
-0.646373
-0.326338
-0.632959
-0.069325
0.133898
0.0400601
-0.553602
-0.177089
-0.674272
0.071039
0.411628
-0.0862481
0.642355
0.150818
0.928057
-0.3247
0.9516
-0.7089
0.8574
0.799531
-0.907666
-0.414053
-0.549592
-0.455712
-0.161576
-0.462113
0.575146
-0.2754
-0.659124
0.107368
-0.224147
0.149007
0.766229
-0.543605
0.8393
0.8291
-0.3782
-0.339104
-0.298901
0.2728
0.736
-0.6025
-0.8113
-0.1439
-0.0172
0.7522
0.2594
0.163184
0.344496
-0.817351
-0.369302
-0.278632
0.677828
0.310132
-0.317154
0.849476
0.155331
-0.733294
0.121035
-0.514037
0.585138
-0.382626
-0.254647
-0.484864
0.67365
0.464009
-0.421521
0.9782
0.5206
-0.2595
0.4781
0.9847
-0.0565
-0.883827
0.494159
0.672448
-0.142704
0.663799
0.792124
0.104662
0.618099
0.918518
-0.290413
-0.0408073
0.426443
-0.811804
-0.958545
-0.667314
-0.376991
-0.747024
0.906051
-0.43012
-0.673964
-0.194356
-0.824313
-0.272341
0.395747
-0.962004
-0.611264
-0.463198
0.6883
-0.738905
0.884926
-0.875011
-0.243862
0.978956
0.552341
-0.339552
-0.471944
-0.0476037
0.699139
-0.100799
-0.715746
-0.791577
0.108341
0.469034
0.519155
1.03223
-0.594218
0.265365
-0.460747
0.260072
0.0763053
-0.679149
0.458115
-0.946468
0.732337
-0.552653
0.6614
0.371392
0.180522
0.791884
-0.167382
-0.735
-0.479961
0.24983
0.904054
-0.0908747
-0.264234
0.667601
0.523413
0.201372
0.661495
-0.211503
-0.322337
-0.0153369
0.711679
-0.25553
0.92504
0.149265
-0.7392
0.807995
1.0085
0.887445
-0.495778
0.371239
-0.8111
0.967685
0.575687
0.449618
0.924672
-0.71725
-0.704526
0.201101
0.332076
-0.466004
0.603137
0.568168
0.226695
0.776605
-0.352162
-0.621554
0.274884
0.247176
0.257184
-0.619334
-0.98838
-0.161539
0.8059
0.576546
-0.239174
-0.0846532
-0.145166
0.536431
0.4068
0.364581
-0.0665484
-0.355836
-1.07476
-0.576106
0.717975
-0.0312786
-0.754997
-0.477083
0.238173
-0.779103
0.637645
-0.139843
-0.670483
0.145346
0.780248
0.720414
-0.533857
-0.124821
0.522201
0.820747
0.424653
0.185224
0.996733
-0.859946
0.623454
-0.9843
0.4325
0.418402
-0.694917
-0.25864
-0.71005
-0.484667
-0.477215
-0.808651
-0.492598
-0.942006
0.220382
-0.199468
-0.0835407
0.718312
1.06033
1.14281
0.405846
-0.376176
0.0589673
-0.680118
1.06072
0.787728
0.366185
0.446611
0.596683
-0.668982
0.815705
-0.2597
0.0887
0.285755
0.363476
-0.00477395
-0.162683
0.86337
-0.798791
-0.697435
-0.214484
-0.617261
-0.00512147
-1.04512
-0.533221
-0.610427
-0.625692
0.304173
0.989181
0.40886
-0.643092
-0.0969636
0.429489
-0.493893
-0.578432
-0.58669
-0.962869
-0.985943
0.941176
0.8973
-0.3649
-0.632412
0.288244
0.775409
0.366838
-0.725097
0.501318
-0.0571165
-1.05793
0.33716
-0.771498
-0.976888
-0.292141
0.257679
0.0244993
0.558329
0.693616
0.397582
-0.328528
-0.216672
-0.0910036
-0.793145
0.0140967
0.434618
-1.02135
-0.714999
-1.00508
0.1181
0.435
0.909567
-1.01798
0.36986
-0.10761
-0.265673
-0.244068
0.586841
0.0139769
-0.293771
0.54123
-0.744676
0.347326
0.541843
0.713266
-0.805568
-0.612531
-0.446764
-1.03551
-0.315466
-0.852838
0.209449
-0.834787
-1.21035
0.286766
-0.9127
-0.098658
-0.0314999
0.5882
0.0455095
0.116342
-0.473286
0.301091
0.857199
-0.431947
-0.704669
-0.720742
-0.749388
0.164078
0.385958
-0.644859
-0.779206
-0.855777
0.0351342
-0.431491
-0.204497
-1.12359
-1.13566
-0.44221
-1.01672
-0.805242
-1.00109
-0.34947
0.0973185
0.653286
-0.9
-0.0316
-0.296839
-0.641769
0.0533353
0.291527
0.192498
-0.300965
0.48712
-0.904337
0.147518
-0.760162
-0.58457
-0.100401
-0.129453
-0.496612
0.653412
-0.97352
0.146482
-0.438454
-1.20009
0.266919
0.274095
0.265405
0.811923
0.605453
0.340119
-0.839517
0.3162
-0.535
0.622077
-0.390034
0.205063
0.632324
0.594695
0.0362774
1.29224
-0.112612
-0.753368
-0.787143
-0.595889
-0.334281
0.957584
-0.645163
-0.598687
0.188306
-0.0840654
0.726236
-0.253652
0.652337
-0.132684
0.417472
0.217398
0.2333
0.834853
-0.413044
0.895699
0.737
0.195581
0.62915
-0.74432
0.370531
-0.377109
-0.688996
0.351512
0.256408
-1.04786
-0.526458
0.442253
0.174762
0.150875
0.493345
-0.711883
-0.183781
-0.115125
0.224502
0.283154
-0.170277
-0.622576
0.752955
0.00390741
-0.357628
-0.0139138
0.92281
-0.7782
0.617187
0.304996
-0.0753948
0.825522
-0.132556
-0.706578
-0.586362
-0.480331
0.931136
-0.75895
0.880578
0.253902
-0.815208
0.362917
-0.976536
-0.102862
-1.05631
0.73922
-0.263254
-0.470112
0.516953
-0.0829153
-0.563117
1.0525
0.81858
-0.126773
-0.372286
-0.723868
0.411922
0.88041
-0.897899
-1.01538
-0.767884
-0.0208906
-0.823759
0.653957
-0.962072
-0.611585
0.128614
-0.00968332
-0.943491
-0.755557
-0.0621307
-0.939523
-0.862646
0.737503
0.770561
-0.137546
-0.386187
-0.135571
0.893816
0.993455
0.3697
-0.562775
-0.514498
0.107287
-0.348614
-0.784507
-0.453429
0.651189
0.383244
0.0659376
0.344318
0.345268
-0.88509
0.789705
-0.88396
0.261423
0.127905
0.572346
-0.748323
0.298519
0.439092
0.916591
1.25459
-0.406446
-0.57444
0.83532
0.792015
-0.638838
0.778241
-0.17606
-0.153473
-0.334733
0.519877
-0.223678
0.660736
-0.0789968
-0.257477
-0.980964
-0.0104794
-0.117305
-0.0102597
0.540999
0.461729
0.681618
0.536736
0.23261
-0.028136
0.926987
0.142516
-0.264781
0.906419
1.1628
0.348066
0.507178
0.422683
-0.884316
-0.806803
-0.241113
-0.50901
-0.00279882
-0.219527
-0.789385
0.258581
-1.02493
-0.730406
0.304794
-1.03437
0.0710811
0.246603
0.702273
0.930413
-0.763035
-0.613175
0.851014
0.690129
1.24873
0.570489
-0.232752
1.17294
-0.368449
0.681116
0.741444
0.121834
-0.465911
-0.611043
0.748819
0.4283
0.4175
0.9369
0.209313
0.265994
-0.439847
-0.853171
-0.909161
-0.0493456
-0.099749
-0.0969122
-0.176663
1.03642
0.621425
-0.845234
-1.08236
0.817523
0.550186
0.849541
-0.633194
0.413783
0.0852483
-0.803439
0.810297
-0.477041
0.552968
0.783572
0.0710987
-0.711835
0.0934
-0.8049
0.882332
0.19576
-0.000989588
0.286111
-0.723214
-0.143048
-0.620392
0.272264
-0.527875
1.16029
0.455639
0.047395
0.381806
0.447937
0.0119588
0.379246
0.78994
-0.428302
-0.738264
0.531306
0.45509
0.72991
-0.0474597
-0.387962
-0.583875
-0.849803
-0.4741
0.8978
-0.226579
-0.612609
-0.043172
-0.90789
0.520534
-0.450586
-0.324982
0.492386
0.328673
0.0467904
0.18512
0.749404
-0.485486
-0.86815
-0.702931
-0.88914
0.25505
-0.318827
-0.566778
0.133059
0.593446
-0.290134
-0.807812
0.00861997
0.977708
0.826626
0.6794
0.2622
0.408902
-0.331895
0.684722
0.488469
0.70062
0.46953
-0.0372608
0.0885982
0.376959
1.12343
0.796254
0.00420698
1.21593
-0.185859
1.01104
0.0204526
0.902144
-0.743909
0.0236145
-0.655485
-0.658809
-0.184158
0.29165
0.891069
0.219948
-0.521976
0.7987
-0.46863
-0.546713
-0.402622
-0.374534
-0.787613
-0.957532
0.443969
-0.0863586
-1.0029
1.00583
-0.600673
1.2569
0.930411
-0.0942434
-0.460592
1.06415
0.213937
-1.02503
-0.607485
0.492251
0.522689
-0.238312
0.679733
0.914713
1.11294
-0.301233
-0.638138
0.1332
-0.998719
-0.868537
0.247524
0.787807
-0.421438
0.0279335
0.597669
0.473758
0.0869874
0.202611
1.2271
0.6255
1.12636
1.21952
-0.0143289
0.696152
0.944428
0.227153
0.0404741
0.206534
-0.431258
-0.756786
-0.501463
0.395322
-0.425955
-0.191946
-0.0831234
0.9591
-0.480219
-0.951224
-0.578484
-0.853679
0.0766411
0.367266
0.857391
-0.415584
-0.00415913
0.279463
0.332832
0.776702
0.408865
0.756428
0.762013
-0.807397
-0.145196
-0.771448
0.4252
-0.00895203
0.0691236
0.688076
0.989337
-0.151221
-0.608813
-0.925491
0.851148
-0.0409
0.566102
0.563662
-0.491227
-0.659194
0.952894
-0.893751
0.0216962
0.972487
-0.11618
0.0536324
-0.623908
-0.766772
-0.435494
-0.904532
0.0900505
0.989402
0.713009
0.459513
0.318569
0.761171
0.371022
0.28378
-0.44341
0.18418
0.73147
0.0405304
0.780424
-0.6746
0.9769
-0.1472
-0.8457
-0.0129947
0.0723058
-0.140851
0.987507
0.0371217
0.738849
0.246046
-0.308571
-0.6704
0.379203
0.386793
-0.889574
-0.596957
-0.36139
0.540802
0.8481
0.8914
-0.765
-0.833988
-0.841502
-0.2258
0.7734
0.2819
0.909
-0.4033
0.4774
-0.069
0.0465
-0.1642
0.868256
0.117283
-0.885803
0.311453
-0.555823
-0.737193
-0.560911
0.198033
-0.662375
0.769869
0.42951
0.877532
0.913199
0.0475349
0.927435
0.727953
0.861499
-0.699105
0.5876
0.2185
-0.2342
-0.3788
0.5176
0.3815
-0.9441
0.5196
-0.552507
-0.119729
0.681377
0.311317
-0.318966
0.544987
0.680908
-0.392745
0.475765
-0.97275
-0.833311
0.422933
0.823214
-0.638687
0.764788
0.731628
-0.0880723
0.496571
0.589223
-0.296783
0.648285
-0.356639
-0.0764489
-0.724872
0.0633411
0.416696
0.0013
0.684773
0.705707
-0.646935
0.915349
0.611915
0.253861
0.0948475
-0.477837
-0.390258
-0.992234
0.50314
0.173292
0.345149
-0.822751
0.113215
0.405892
0.102191
0.64198
-0.0941017
-0.538395
0.0694971
-0.378838
0.0884599
-0.740834
0.962968
0.512617
-0.721043
-0.2776
-0.711345
-0.356411
0.929931
-0.777868
-0.397778
0.692247
0.202571
-0.532632
-0.647485
0.0668054
-0.37947
0.0195201
0.0853043
0.47839
-0.170344
-0.794655
-0.487441
-0.846429
-0.20681
0.712685
-0.188776
-0.465333
0.594776
0.819329
0.995149
0.168914
-0.848439
-0.56
0.217934
0.715248
0.0761437
-0.723372
-0.444922
0.458296
0.703358
-0.0540816
-0.965716
-0.434982
0.122601
0.927065
0.36283
-0.721221
0.638756
0.175162
-0.699638
-0.656931
-1.07507
-0.30197
-0.392035
0.434903
-0.108223
-0.0894525
-0.48907
-0.232643
0.942205
-0.4861
0.134093
0.844418
-0.833918
-0.795442
0.487287
0.345539
0.0186574
-0.591134
0.763178
-0.692602
0.213821
-0.619654
0.886436
-0.854471
0.487033
0.439017
0.532519
-0.485592
-0.52599
-0.898614
0.0187075
-0.137358
-0.807001
-0.0715078
-0.929381
-0.581615
0.602463
-0.233
-0.60736
-0.0548721
0.506233
-0.805861
-0.235531
0.489793
0.220199
-0.818568
0.852169
-0.209222
-0.441106
-0.852857
-0.768928
0.772642
-0.199839
0.497697
-0.479817
-0.720644
-0.421774
-0.557981
0.358731
0.363591
0.701794
0.0397084
0.743852
-0.252197
-0.3948
0.9624
0.790049
-0.931368
-0.692015
0.65308
-0.708442
-0.512575
0.39095
0.0684104
0.48391
-0.279791
0.0970015
-0.51466
-0.394106
-0.697014
-0.959605
-0.840774
0.850443
-1.01573
0.0529325
0.637988
-0.312631
-0.797484
-0.561556
0.29473
0.822967
0.597911
-0.1647
0.7071
-0.775908
0.469624
-0.208856
-0.682645
0.101941
0.895448
-0.812155
-0.572176
-0.970986
0.00038136
0.860721
-0.2237
0.336325
-0.596162
0.723073
-0.130981
-0.0887843
-0.690467
0.14667
-0.234968
-0.880322
-0.501235
0.0741767
0.389951
-0.624262
-0.596278
0.61751
-0.3729
-0.24102
-0.939957
-0.431156
0.904826
-0.839064
-0.414401
-0.533399
-0.414294
0.78404
-0.715757
0.119392
0.400836
0.164927
0.48594
-0.473812
0.539611
0.82181
0.540642
-0.523758
0.560833
-0.734704
-0.680152
-0.607065
-0.739063
-0.934235
0.802875
0.712202
-0.5858
0.499268
-0.369951
-0.605006
-0.681861
0.918442
-0.489257
-0.208273
0.729004
-0.0628611
-0.80776
-0.967519
0.920466
-0.669756
-0.731072
0.598901
-0.722699
-0.413726
0.728017
-0.0484788
0.0391879
0.59636
-0.748606
-0.200291
-0.937265
0.565453
0.249038
0.4535
0.3235
-0.237271
-0.270082
-0.236457
0.885078
-0.468757
-0.303346
-0.938986
0.236857
-0.827775
0.392596
0.743738
0.671721
-0.58581
-0.369672
0.352058
-0.686585
-0.560262
0.338351
-0.0089594
-0.815078
0.93133
-0.752611
-0.37976
0.167867
-0.11249
0.710503
-0.4823
0.6624
-0.958661
0.126687
-0.604113
-0.947884
-0.935312
-0.827918
-0.294189
-0.313949
-0.338033
0.0531763
-0.51384
0.216023
0.704223
-0.0973833
-0.746282
-0.276819
0.271114
0.859267
-0.376117
-0.0414258
0.822399
-0.407601
-0.400854
-0.699576
0.673357
0.54296
-0.4739
0.1096
-0.666235
0.51207
0.354724
0.827677
-0.764461
-0.157985
0.927426
-0.74395
0.902188
0.93443
-0.0533098
0.72969
-0.942585
-0.702547
0.714683
-0.609048
-0.86949
-0.531822
0.831802
0.0132916
0.730645
0.238249
-0.619865
-0.734577
-0.775058
-0.501712
-0.4848
-0.1733
-0.154347
-0.735147
0.357313
-0.777163
-0.710654
0.603135
0.551729
-0.63515
-0.940463
0.749851
-0.167034
-0.0855514
-0.94602
-0.560716
0.476508
-0.361054
-0.040004
1.04927
-0.809468
0.0767191
0.506613
-0.836305
-0.10036
0.347439
0.380522
-0.0264121
0.2381
0.124104
-0.214157
-0.39615
-0.778254
-0.514783
-0.926335
0.506764
0.0212553
0.246906
-0.0681047
0.73169
-0.748202
0.0504664
0.41653
0.999144
-0.828211
-0.494406
-0.633105
-0.369333
-0.322992
-0.0726631
-0.257447
0.933136
-0.623996
-0.0718357
-0.949051
0.567845
0.0453001
0.385911
-0.647396
-0.0418652
-0.0727746
-0.76649
0.482469
0.843729
0.585097
0.273296
-0.361441
-0.453308
0.139912
-0.667211
-0.570698
0.52657
-0.737332
-0.551789
-0.632019
-0.478607
0.692234
-0.542644
0.295489
-0.327635
0.363811
-0.39258
0.604455
0.756297
-0.116157
0.106735
1.01871
-0.0182047
-0.329134
0.102176
-0.623876
-0.183567
-0.624617
0.376341
0.114674
-0.0535824
-0.638545
-0.663237
0.711965
0.19815
0.547144
-0.304199
-0.0652091
0.132046
0.407329
-0.817383
0.519297
1.04917
-0.959484
-0.214118
0.504872
0.319072
-0.300156
-0.798142
-0.418299
-0.462455
-0.780714
0.875269
-0.821922
-0.562563
0.872358
0.811804
-0.642576
0.236024
0.0498321
-0.758885
-0.0190983
-0.000175469
0.645716
0.434464
-0.998173
-0.412776
-0.496708
0.0985361
0.473435
-0.485892
0.0164473
-0.260045
-0.296736
-0.177727
0.7009
0.0483
-0.434636
0.323979
-0.0311216
0.00611959
0.715704
0.10856
0.791695
-0.441794
0.971174
0.0780508
-0.161194
-0.818277
-0.248001
-0.535598
-0.479038
-0.185003
-0.5234
-0.778707
-0.516982
-0.858483
0.465859
-0.637276
-0.631373
0.345035
0.759582
0.731387
0.3552
-0.5382
-0.783307
0.416168
-0.878616
-0.921618
0.54885
-0.0244926
-0.509514
-0.904339
0.764413
-0.137956
-0.429785
0.0366607
-0.98053
0.280873
0.575558
0.507052
-0.442427
-0.847439
-0.760508
0.103056
0.543341
-0.730307
0.0555795
-0.854924
-0.544059
-0.170148
-0.2811
-0.687888
0.735253
-0.00367053
0.803895
0.685317
-0.627178
0.780053
-0.534344
0.305864
-0.666337
0.397906
-0.509464
0.818381
0.0130794
-0.856764
-0.0267282
-0.512575
-0.40388
-0.754328
-0.317878
-0.85777
-0.755626
-0.542063
-0.0551141
0.228172
-0.323911
0.358936
0.4908
-0.842737
-0.727965
-0.25617
-0.896374
-0.212393
0.125659
0.478909
0.354894
0.574862
1.03975
-0.582738
0.238126
0.747172
0.789672
-0.959161
0.055781
0.331032
-0.791649
0.051837
0.7868
-0.479564
0.70763
-0.0691136
0.82209
-0.780972
0.770019
-0.0800771
0.6744
-0.616949
-0.285314
0.514183
-0.670669
0.568906
0.637339
0.889997
-0.195794
0.850517
0.249705
-0.937088
-0.970839
0.53924
-0.54384
0.935107
0.818575
-0.481421
0.690484
0.329575
0.402181
0.585267
0.56736
0.665341
0.28334
-0.273273
0.658048
-0.361569
-0.4591
0.363801
-0.097708
-0.546026
0.0757239
0.0692437
0.78974
-0.170667
-0.226691
0.0036175
-0.0503557
-0.7064
0.827882
-0.789631
0.0268569
0.587281
-0.548476
-0.258616
-0.458363
0.430553
0.631675
-0.392286
0.9367
0.588699
-0.488017
-0.710882
0.31526
0.72449
-0.1925
0.978933
0.59966
0.163475
0.0722693
0.471478
0.150271
0.510981
0.570302
-0.657866
-0.0708975
0.471239
-0.721749
0.832345
-0.692431
0.904246
0.283595
-0.785717
0.0577339
0.917408
-0.741403
-0.683475
-0.969024
-0.0599487
0.551498
-0.855787
0.112607
-0.521186
-0.6465
-0.233904
0.631404
-0.699337
0.258974
0.523653
-0.404041
0.258981
0.396746
-0.848232
-0.464036
-0.0545531
-0.562984
0.693195
0.104762
0.492507
0.852706
-0.753313
0.383383
0.344467
-0.759517
0.108694
-0.0118402
0.48174
0.362601
-0.60101
0.280604
-0.17361
0.1292
-0.8935
0.3621
0.2623
0.823743
0.810723
0.880793
0.815907
-0.457493
-0.639315
0.992144
-0.870032
-0.7035
0.2654
0.717299
-0.00750104
-0.920402
-0.8904
0.3545
-0.9271
-0.1203
-0.1565
0.191304
0.8374
0.5329
0.7422
-0.9647
-0.8617
-0.6482
0.6874
-0.1223
0.6395
0.183701
-0.523018
-0.531457
-0.79154
0.643114
0.644671
-0.0842098
-0.954064
0.563171
-0.0873086
-0.336993
-0.30944
-0.999335
-0.906369
-0.237423
-0.88137
-0.29104
-0.245955
-0.277372
0.623198
0.9032
-0.7177
0.9767
0.1321
0.1203
0.7694
0.897787
0.238972
0.269232
0.661445
-0.0112837
0.427117
0.715409
0.51554
0.485413
0.983366
0.232905
0.314164
0.607478
-0.449219
0.719113
-0.84541
0.679951
0.535366
0.0755596
-0.07059
-0.310832
-0.0650766
-0.162919
-0.104101
0.118689
0.234697
0.9928
0.3453
-0.944138
0.960459
0.818648
0.138306
-0.0812749
0.214489
-0.122011
-0.262716
0.0589453
0.081798
-0.695408
-0.854675
-0.79318
-0.746542
-0.802722
-0.16045
-0.707231
0.52942
0.210818
0.207856
0.85992
-0.0574023
0.920424
-0.292465
-0.0818647
-0.987554
-0.4951
0.6122
0.497771
-0.950027
0.585814
0.551608
0.811512
0.0745752
0.560312
0.55632
-0.199936
-0.731425
0.73176
-0.377851
0.188136
0.0575637
-1.03703
-0.610802
-0.332323
0.600414
0.549939
-0.142411
-0.581639
0.495113
0.149825
-0.709685
0.625135
0.103712
-0.469299
0.1435
-0.600154
0.598986
0.794143
-0.691717
-0.65012
0.199271
-0.457909
0.106623
-0.486891
0.232134
0.475357
-0.361877
-0.33484
-0.337469
-0.0899088
-0.936824
-0.675545
-0.658529
0.508817
0.846969
-0.441668
0.49656
0.729966
1.0168
-0.147236
0.78946
0.913501
-0.4164
0.708822
0.611263
-0.730152
0.891369
0.134073
0.638856
0.525139
0.71852
0.240135
-0.717031
-0.576116
-1.14838
-0.880258
-0.302596
0.556027
0.539695
0.599574
0.430531
0.562314
0.692791
-0.389529
1.13701
-0.618834
0.803461
0.623483
0.284664
-0.160511
0.8725
-0.277484
-0.462421
0.336827
0.527037
-0.728575
0.246527
0.832587
0.28532
-0.71438
-0.536571
0.407839
-0.494551
-0.0144656
-0.203337
-0.00482735
-0.548135
-0.62488
-0.0954655
-0.367921
0.205947
0.737832
-0.490998
-0.494948
-0.604094
0.892166
0.734136
-0.1474
-0.1687
0.275173
-0.834378
0.899754
0.745669
0.0389594
0.6333
0.0159688
-0.782746
0.89978
0.901777
0.0771121
-0.618892
0.808473
0.677471
-0.644261
-0.123547
-0.380137
-0.887225
0.0964648
-0.487621
-0.185753
0.389952
0.173428
0.118345
-0.91168
0.217618
0.5027
-0.6721
-0.68685
-0.0570918
-0.433267
0.686923
0.105291
-0.67925
0.343109
-0.0507388
-0.61255
-0.606261
-0.70538
0.109561
-0.310157
-0.0577304
-0.215539
-0.753312
0.224064
-1.04755
-0.269295
-0.335298
0.938053
0.10624
0.101145
0.678859
-0.835204
0.428322
0.731478
0.3888
0.234833
-0.188587
0.494675
-0.927222
0.145189
-0.747611
0.739449
0.126657
0.337668
0.363604
-0.643918
0.866305
0.267471
1.22452
0.900036
-0.172821
0.933152
0.508412
0.381862
-0.799997
-0.180748
-0.660219
-0.0783311
-0.696236
0.585182
0.860263
-0.688302
0.8702
-0.0471991
0.769705
-0.129589
0.906478
1.00731
0.623126
-0.520532
-0.613942
0.255512
-1.06721
0.530389
1.07247
1.41688
0.33329
0.481157
-0.483618
0.836816
-0.56087
0.599324
-0.632005
0.232215
-0.795916
-0.607423
-0.472679
0.736664
-0.485507
0.6647
-0.9202
0.260386
-0.147039
-0.345416
-0.611455
-0.620469
0.257257
-0.583667
-0.757483
-0.538035
0.722356
0.928083
0.0549856
0.455512
0.338884
0.604315
1.27811
-0.688638
-0.0393547
-0.106539
-0.927078
-0.870855
0.42417
0.108551
-0.553143
0.342808
-0.343599
-0.7163
0.524
0.0713541
0.767002
-0.475435
-0.444195
-0.148672
-0.530167
0.26545
-0.697307
-0.0222773
0.63449
1.08729
0.380201
1.09539
-0.091144
0.930238
0.0759005
0.684937
0.107661
0.94544
-0.0412752
0.550971
-0.38905
0.746216
0.776083
-0.732498
-0.346893
0.3224
0.2479
0.904253
0.808086
-0.125801
-0.26869
0.977841
-0.485711
-0.267617
-0.7845
1.14503
-0.498428
0.944448
0.997957
-0.642761
0.158737
0.0551225
-0.476871
-0.487557
-0.795943
-0.140937
1.06684
0.252033
0.23832
1.03512
1.01459
-1.06511
0.58939
-0.5087
0.679998
-0.90303
0.477219
-0.252976
-0.319276
-0.311917
0.420037
-0.180397
0.943551
1.28866
0.388927
0.393476
-0.625875
0.418897
0.0774429
-0.714179
-0.0245131
0.845193
1.01413
-0.0685448
0.19773
0.808311
-0.14826
-0.664662
0.138811
0.849395
-0.152119
0.648588
-0.266217
-0.592036
0.644643
-0.331376
-0.986807
-0.737814
-0.118654
0.328996
0.185687
0.27891
0.928643
-0.458915
0.999908
0.557176
0.328172
1.01652
-0.376991
-0.276255
-0.473544
-0.722945
0.0220567
-0.330672
0.206943
-0.832719
-0.153603
0.849307
-0.678563
-0.967402
0.878285
0.90301
-1.04273
0.747383
0.329217
0.755447
-0.505939
0.69459
0.170622
-0.537537
0.711391
0.0156938
1.0518
0.704411
0.747323
0.373922
-0.290577
-0.68655
-0.299338
-0.0606093
-0.88362
-0.118663
-0.489797
0.811209
-0.263876
0.772154
0.878391
0.711986
0.237497
0.692619
-0.184752
0.616141
-0.199156
0.842078
0.733047
-0.94106
0.522359
0.610951
0.545053
0.612986
0.712079
0.204619
0.552735
-0.0320206
0.0113258
0.594589
0.316204
-0.750583
-0.350563
0.197059
-0.037148
-0.299669
-0.878313
-0.0889434
0.41012
0.729393
0.740084
-0.590415
-0.822826
0.575435
0.19091
-0.624872
-0.550093
0.98684
0.748745
-0.269516
-1.02907
-0.588733
0.708731
-0.74251
-0.39822
0.549515
-0.118652
-0.713802
-0.304029
0.0634621
0.708051
-0.438976
0.850109
-0.444355
-0.579283
0.537037
-0.51383
-0.2258
0.1536
-0.672488
0.750554
-0.321514
-0.178798
0.150271
0.914461
0.221911
0.867604
-0.34498
-0.0111377
-0.29543
0.688977
-0.312418
0.213719
-0.269156
-0.963886
-0.357389
-0.911288
-0.284446
0.0534268
-0.146158
-0.157468
0.818838
-0.902727
-0.610245
0.584889
0.5673
-0.2293
-0.876529
-0.135573
-0.593673
-0.967209
0.925932
0.514961
-0.150334
0.847169
-0.261956
0.870306
0.131946
-0.387836
1.15484
-0.344954
-0.40815
-0.786712
-0.0608147
0.102968
-0.737227
0.128167
0.542481
0.380908
-0.889472
-0.448478
-0.658124
-0.360887
0.3371
0.0816785
-0.00614706
0.173941
0.607248
0.802039
0.718294
1.11674
-0.0510982
0.362962
-0.25239
-0.283994
0.682741
0.149596
-0.499088
0.215999
0.158655
-0.685822
1.04142
-0.799979
-0.410059
-0.378072
-0.785909
0.460034
-0.411157
-0.841615
0.735605
0.403439
0.4225
-0.862911
-0.344633
-0.0453669
0.0478293
-0.270583
-0.0217515
-0.487304
-0.0197856
-0.301729
-0.0234633
0.622766
0.612657
0.466903
-0.793272
-0.313376
0.0531552
0.192165
-0.349226
0.247109
0.60861
0.0211256
-0.0541096
-0.874379
0.286057
-0.633173
0.892027
0.690408
0.0391
0.3245
0.336608
0.930405
0.172026
0.578645
-0.137976
0.472783
-0.471355
-0.760527
-0.27105
-0.843453
-0.0742036
-1.01692
0.527505
0.28597
-0.863314
0.336464
-0.105791
-0.0243912
0.654269
0.133381
0.0778484
0.638245
0.0188298
-0.69753
-0.664428
0.856355
0.9562
0.08
-0.733759
0.620735
-0.854729
0.961769
-0.0833654
0.771255
-0.727815
0.752122
1.09615
0.502936
0.449304
-0.213375
-0.141992
-0.0597122
0.735853
-0.508711
-0.361651
-0.678901
0.472812
0.652689
-0.932045
0.351775
0.196932
-0.73995
0.864976
0.00350361
-0.7921
-0.6229
0.230194
0.870438
0.624739
-0.720277
-0.0158173
-0.104794
-0.437787
0.284506
-0.359916
0.796124
-0.699312
-0.758401
-0.168779
0.563162
-0.179219
0.119294
0.128052
-0.382995
-0.778467
-0.788869
0.0126983
-0.536047
-0.0212207
-0.0315729
-0.908775
-0.998552
-0.2954
0.5634
0.446422
-0.317554
0.670042
0.835731
-0.821957
0.939403
-0.0405095
-0.791014
0.533195
0.431338
0.754229
0.454984
0.0546726
0.0569429
0.451908
-0.462578
0.694303
-0.55983
-0.107378
0.097627
-0.660122
0.321778
-0.534322
-0.89592
-0.867348
0.187899
0.3807
-0.304
-0.5617
0.1608
-0.375515
0.148843
0.697409
-0.742119
0.622791
-0.0663297
0.230685
-0.844935
0.1303
-0.370799
-0.928745
0.328547
0.556115
0.704904
0.7402
0.92
-0.5553
-0.9593
-0.811213
-0.553734
-0.7598
-0.4793
-0.7369
-0.0615
-0.1414
0.1122
-0.5788
0.047
-0.652699
0.0886528
0.486606
0.677841
-0.0673806
0.912128
-0.931003
0.201807
0.447602
0.879203
-0.431118
-0.987335
0.681446
-0.773317
-0.684429
0.312416
0.174532
-0.47181
0.436598
0.896821
0.827701
-0.9853
0.4029
-0.3427
0.4364
0.8855
0.670402
-0.926163
-0.707763
0.404645
-0.129043
0.313292
0.365505
0.965627
0.630113
0.10098
0.465413
0.790944
0.347681
0.68422
-0.53035
0.285996
-0.577898
-0.188296
-0.306971
0.580346
0.216121
-0.968052
0.585892
-0.292088
0.733136
0.423509
0.9066
0.482
-0.628176
-0.981099
0.758999
-0.0836781
-0.246686
0.705667
-0.0305739
-0.203879
-0.719502
0.561887
-0.424586
-0.222074
-0.495253
-0.562634
0.220873
0.513119
-1.17159
0.770661
-0.230866
-0.389345
0.47395
-0.0211568
0.356692
0.201184
0.488895
0.622303
-0.308875
0.6345
-0.213408
-0.903432
-0.568468
-0.31505
0.442193
0.862975
-0.927257
-0.995671
-0.868004
0.497802
-0.00314838
-0.894439
0.315551
-0.761763
-0.8199
0.388199
-0.858488
0.280337
0.723981
0.645903
-0.2107
0.432981
0.859405
-0.261404
-0.741018
0.1277
-0.604175
0.412
-0.766635
-0.256551
1.1593
-0.586411
0.50022
0.963513
0.547735
-0.465185
-0.721803
-0.943008
-1.08853
-0.488743
-1.1922
-0.680611
-0.911394
-0.144869
0.57653
-0.396872
-0.386167
0.594217
-0.664651
-0.562884
-0.250498
0.962289
0.635805
0.80549
0.373404
-0.2975
0.694027
0.141007
-0.680807
0.572823
-0.355281
-0.634126
0.928386
0.662709
-0.740216
-0.481135
-1.10952
-0.258391
-0.494477
-1.26202
-1.25525
-0.82116
0.566506
-1.08084
-0.66727
0.995068
-0.416843
0.961432
0.851736
-0.0738032
0.936721
0.832807
0.716721
-0.1596
-0.414439
0.735651
0.0778305
0.690913
-0.128953
-0.32409
0.767463
-0.360877
-0.590953
-0.9307
0.477378
-0.482709
0.158024
-0.729705
-0.277093
-1.46045
0.0739163
1.00633
0.0900377
1.05382
-0.780428
0.925314
-0.0983628
0.210896
-0.311406
0.872461
0.3063
0.7733
0.61036
-0.313006
0.847961
0.905968
1.11778
0.278083
0.291483
0.801924
-0.990248
-0.45627
-0.252794
-1.28812
-0.431967
-0.905134
-1.18504
0.365241
-0.65902
-0.0341451
-0.436668
-0.0334758
-0.335673
0.169925
0.447391
-0.665717
0.628419
0.514086
-0.3607
0.9659
-0.0917253
1.03921
0.574725
-0.0174678
-0.461203
0.250558
-0.0883822
-0.178873
0.898526
0.18069
-0.740229
-0.127109
-0.857129
0.526794
-1.05976
0.244563
1.1293
0.765469
0.499244
0.212341
-0.479393
0.627223
0.739501
0.811804
0.120583
-0.616362
-0.726815
-0.5026
0.40984
0.216577
-0.594336
-0.58747
0.248523
0.314096
1.04002
-0.018131
-0.079167
-1.09335
-0.387238
-0.673688
-0.0994023
-0.298755
0.76377
-0.788789
0.339707
0.658173
0.483964
-0.281328
0.451584
0.591461
-0.551128
0.708899
-0.561423
-0.906384
0.678195
-0.0458
-0.0738951
0.0219547
0.812205
0.1621
-0.453548
-0.226349
0.370168
-0.353741
-0.578622
-1.03735
-1.53728
0.133937
0.11392
-0.640634
0.965536
0.506034
0.955073
0.777165
1.15217
0.306705
-0.235064
0.198039
-0.0472793
-0.529607
0.386399
-0.847516
-0.957
-0.4604
0.0289372
-0.48363
0.370358
0.0655818
-0.706101
0.905907
-0.442591
0.878971
0.00855723
-0.343305
-0.84829
-0.560651
0.134909
0.947188
0.846528
1.10388
-0.113031
0.787792
0.476227
-0.0735637
-0.584593
0.166135
-0.847121
-0.269679
-0.791387
0.143623
0.5226
0.0796
-0.517479
-0.60071
0.610961
-1.24724
0.212939
-0.450151
-0.492859
-1.12242
-1.14732
-0.343884
0.271598
0.492028
0.54406
0.648837
-0.209224
-0.422703
-0.13941
1.29981
1.49991
-0.200355
-0.135137
0.577046
-0.221818
0.579868
-0.208037
-0.571562
-0.275514
0.5554
-0.558307
0.425496
0.631805
0.325536
-0.757485
-0.390373
-0.181096
-0.311054
-0.190404
0.517759
0.0947338
0.197915
-0.523216
-0.504574
-0.12403
0.899692
0.0191092
0.896077
0.0605496
-0.53486
-0.0435222
-0.0638711
-0.652728
-0.81987
-0.728176
0.880456
-0.0386
-0.0629782
-0.602132
-0.398596
0.587457
-0.887693
0.30945
-0.132869
-0.613092
-0.694161
-0.153102
-0.772486
-0.0822144
-0.109984
-0.704066
0.770415
-0.130186
-0.0997576
0.511201
0.432038
1.08013
0.799436
-0.266001
-0.060043
0.30488
0.684649
-0.566468
0.944583
0.407112
-0.25412
0.253342
0.0383004
-0.648223
-0.383518
-0.674883
0.0744645
0.355262
-1.0252
-0.760182
0.757212
-0.588369
-0.170495
0.602244
0.301259
0.176592
-0.468581
-0.532549
-0.738972
0.203372
0.402188
0.0196087
-0.483961
-0.276544
-0.454466
-1.12866
-0.940779
-0.120979
0.794411
-0.544689
-0.926338
0.0193629
-0.785236
-0.140055
-0.330965
0.633191
-0.866665
0.803228
0.330336
-0.266646
-0.376436
0.683878
-0.789726
-0.684578
-0.0752309
0.279941
0.0828553
0.0524505
-0.00434356
-0.717735
0.379802
-0.389815
0.354369
-0.402833
0.160444
0.749771
0.568645
0.746616
-0.47257
0.492301
0.211751
-0.126414
0.652726
-1.07214
-0.087322
-0.206412
0.636164
0.579683
-0.375643
-0.157888
0.763343
0.0328632
-0.845376
0.155769
0.314749
0.824148
0.0129889
0.902201
0.487939
0.109183
0.202105
-1.0577
0.565207
0.221069
0.0667797
0.770562
-1.08519
-0.278936
-0.476864
-0.678286
-0.715842
-0.642712
0.00287699
0.196593
-0.0653477
0.675812
0.691517
-0.816681
0.365977
-0.729066
-0.643652
0.893787
-0.320721
-0.38908
-0.75281
-0.40689
-0.506276
-0.875469
-0.00302973
0.307713
0.7655
0.5446
0.9318
-0.978644
0.173709
-0.958448
0.410411
0.389252
0.269953
0.587618
-0.331911
0.994378
-0.435927
-0.568505
0.703778
-0.602284
-0.84556
-0.122943
-0.0910831
-0.535508
0.409064
0.278158
0.909774
0.441564
-0.35224
0.768492
0.158629
0.654314
0.11235
0.7122
0.3593
-0.868188
-0.126365
-0.579657
-0.264698
-0.933402
-0.457118
1.36186
0.164475
-0.160974
-0.602135
0.0426097
-0.982557
-0.141721
-0.718138
-0.713593
-0.266936
0.192659
0.37913
0.584003
-0.512397
-0.09432
0.366109
0.241421
-0.120099
-0.963973
-0.0369008
0.9429
-0.0475153
0.599156
-0.977071
-0.0998666
-0.0766521
-0.236751
-0.546955
0.419196
1.2719
-0.652211
1.13216
-0.0697789
-0.845922
0.072653
0.368839
0.0566128
-0.363505
0.683873
0.984668
-0.304567
0.528581
0.183898
-0.270717
0.481736
-0.587491
0.85949
-0.617122
0.0367
-0.997679
0.327962
-0.398916
-0.568137
0.141788
-0.0937041
0.0956552
-0.19722
0.685623
0.751648
-0.684042
0.273484
-0.854511
-1.09355
-0.514921
-0.0246277
0.195269
-0.735799
0.644557
-0.336251
0.639597
0.119665
-0.00459813
-0.151305
-0.131304
-0.316968
-0.802328
-0.0984
0.652715
-0.546527
-0.336269
0.0988747
-0.216339
0.463489
0.33961
0.371393
0.235986
-0.786257
0.119027
0.530445
0.494537
-0.796792
0.739084
-0.625972
-0.651788
-0.232162
-0.541087
0.574082
0.570546
0.44878
-0.305835
-0.363604
-0.24576
-0.793853
-0.279929
0.0196
-0.253173
0.245524
-0.428648
0.647045
-0.0172497
-0.178766
-0.00460294
0.569449
-0.537848
-0.0648193
-0.504123
-0.0883313
0.206764
-0.162308
0.262468
0.756449
0.466937
-0.194445
-0.297764
-0.714129
-0.567704
0.544446
0.261927
-0.290411
-0.284671
-0.0841935
0.583437
-0.3225
0.330016
0.900576
-0.510495
0.116349
0.48087
-0.845381
0.31407
1.01386
0.878994
0.818061
-0.412885
-0.518053
0.643507
1.03033
-1.00074
-1.00829
-0.265032
-0.259857
-0.651039
0.930364
-0.294556
0.238164
-0.321555
0.0995537
0.80066
0.300745
-0.987655
-0.3876
0.8071
-0.673885
-0.336552
0.3984
0.267045
-0.13751
0.282765
-0.638746
-0.748603
0.980825
0.233771
0.345912
0.951708
-0.171405
0.711265
-0.178141
0.96295
0.159095
-0.839541
0.0856031
-0.65662
0.856175
0.831118
0.384085
-0.990737
0.0422404
0.278072
0.823
-0.7514
0.9699
0.7359
-0.586703
-0.321403
0.273361
0.20608
-0.670923
0.305318
0.727225
-0.718274
0.7538
0.940954
0.729572
0.523072
0.864469
-0.425037
-0.839005
0.2381
0.526
-0.9894
0.570285
-0.925382
-0.5071
0.7797
-0.7305
0.4793
-0.1419
0.5397
-0.0328
-0.468
0.9183
0.515426
-0.645536
-0.121852
-0.462037
0.0219263
0.612683
-0.574179
0.826107
0.489969
0.708615
-0.276516
0.532405
-0.801808
-0.358883
0.706309
-0.602817
-0.590984
-0.915607
-0.4599
-0.2246
-0.4341
-0.6996
-0.1674
-0.5365
0.3005
-0.982141
0.149195
0.895079
0.522779
-0.597221
-0.258736
-0.870516
0.421584
-0.12379
-0.280581
0.801739
0.318959
-0.427589
-0.86938
0.475459
0.115721
-0.102568
0.571779
-0.900662
0.146314
-0.291835
0.966395
0.788979
-0.0824528
0.593746
0.184149
-0.7026
0.8895
-0.340805
0.766413
0.821327
0.290994
-0.24047
-0.418985
-1.1251
0.450638
-0.157187
-0.973336
0.559057
0.389345
-0.877227
-0.336739
0.114524
-0.315855
0.232807
0.195161
-0.629911
-0.0545572
0.739405
0.0215637
0.499033
1.09465
0.577918
-0.392991
0.336369
0.533
0.309842
0.612435
-0.625756
0.114083
0.295829
0.292604
-1.17334
-0.817477
-1.10998
-0.25052
0.59323
-0.758521
-0.877747
-0.486642
-0.0940488
0.49741
-0.539268
0.331818
0.58411
-0.892341
0.66603
-0.0490013
-0.54434
0.84744
0.13677
-0.557092
0.914282
-0.5782
-0.699619
-0.250889
-0.446371
-0.694646
-0.890817
-0.280479
-0.989066
0.35297
-0.688908
-0.477728
0.043404
0.744737
-1.05679
-1.11928
-0.126674
0.167001
0.0696198
-0.216808
0.464983
0.747224
1.03754
0.825481
0.47137
0.943785
0.659947
-0.199773
-0.879672
-0.6595
0.35506
0.832573
1.05352
1.11662
0.403148
0.0555228
0.340611
-0.654294
0.753078
-0.726523
0.152778
0.101742
-0.956624
-0.711541
0.877741
0.640517
-0.637346
-0.700853
-0.630126
-0.844305
-0.209162
0.168996
0.392478
-0.809183
0.867965
0.895902
0.998399
-0.2142
0.261863
0.600815
0.592864
0.325598
0.742536
0.7215
-0.274915
0.858158
-0.110495
0.348505
-0.227901
0.588112
0.0326487
-0.100864
-0.75674
-0.31725
-0.491726
0.0604904
-0.0453078
-0.743185
-0.742573
-0.615336
0.550151
0.633787
0.0335251
0.887994
0.571
-0.6091
0.963408
1.03054
0.0902758
1.08527
0.0162806
-0.989311
0.159751
-0.898207
-0.292103
0.195586
-0.533874
-0.511735
0.75394
0.814697
-0.119361
-0.198073
-0.544241
-1.27474
-0.0422232
0.144517
0.0345602
0.835113
0.953024
0.0539704
-0.099837
0.066897
-0.3239
0.5798
-0.980847
0.322358
-0.191327
0.345324
0.0512269
-0.878067
0.0254105
-0.460299
-0.187836
0.733029
0.815639
0.921783
0.987626
-0.688259
0.362784
-0.512166
-0.00663079
0.249518
0.362164
0.416042
-1.20873
-0.84043
-0.746026
0.250411
-0.025108
-0.498562
-0.807447
0.6651
0.459305
0.559142
1.0255
-0.810166
0.721673
-0.0349203
0.474782
-0.434938
0.66808
-0.882867
-0.430375
0.714925
0.434185
0.0263538
0.956073
-0.62869
-0.455811
0.431748
-1.37582
-0.782915
-0.820055
-0.842649
1.27337
0.340046
-0.205836
-0.358052
-0.0235757
-0.2482
-0.197336
0.674996
-0.194611
0.139342
0.88305
-0.862987
0.270521
-0.0802874
0.15889
0.715329
-0.452148
1.45827
-0.139212
0.427093
0.803397
-0.580502
-0.792896
-0.556282
-0.360127
-0.15405
0.300914
0.427216
-0.543656
0.318352
-0.650276
0.960579
-0.4118
0.201
0.736477
0.841518
1.1436
-0.114392
-0.73034
0.944066
-1.04396
-0.131838
-0.0793762
0.386896
0.425399
-0.380148
-0.389015
-0.435631
1.03503
-0.417749
-0.223451
0.930861
-0.150644
-0.832922
0.424086
-0.513883
0.0988237
0.834269
-0.268453
0.370761
0.1235
-0.5643
0.475432
0.385672
-0.231662
-0.20383
-0.123946
0.901629
0.917697
-0.0766289
-0.681587
-0.558598
0.70762
-0.162851
0.469464
0.0416548
0.609121
0.772403
-0.489673
-0.391074
0.341668
-0.729261
0.702499
-0.441231
0.0858709
1.11039
-0.620968
0.370507
0.381079
-0.1197
-0.463934
-0.608748
-0.568375
0.53213
1.02966
-0.220201
0.182782
-0.633435
0.453708
-0.362367
0.585829
0.653893
-1.03414
0.384618
0.253908
-0.44068
0.0961386
-0.136994
-0.816123
-0.580624
0.845842
-0.713691
-0.932144
-0.324733
0.965782
-0.061941
0.2799
-0.891514
-0.310387
0.680444
0.0714002
1.15835
0.73614
0.269158
0.992272
-0.370929
-0.370502
0.077701
-0.0723958
-0.303663
0.436363
-0.57232
-0.540427
0.803521
-0.563977
-0.432307
0.476581
0.613587
-0.213444
0.288868
0.234151
0.712661
0.253381
-0.791564
-0.877586
-0.573695
-0.337286
0.979059
-0.212893
-0.254571
0.267252
0.744371
-0.00901232
0.183621
-0.412085
-0.751513
-0.708794
0.635151
0.145455
-0.395033
-0.635086
0.409394
-0.902011
0.136113
-0.529662
-0.743311
0.440827
0.177632
0.763421
0.0216474
0.304158
0.613022
0.786091
0.36929
-0.673065
0.871434
0.84628
1.06088
1.12194
0.192302
1.10314
-0.428938
-0.675307
0.017822
-0.579371
-0.756883
-0.940294
0.446858
-0.378876
-0.225635
-0.0807584
-0.0795148
-0.350931
-0.145848
0.696826
0.564489
0.1613
0.0903838
0.230638
-0.952413
-0.0693991
0.153119
-0.301757
-0.64503
1.31953
-0.292997
1.10345
0.582906
0.164277
0.41146
0.882597
0.708829
-1.06486
-0.100398
-0.112403
-0.85148
0.959592
0.0589322
0.563917
-0.825731
0.788144
-0.322744
0.771309
0.407175
-0.63534
0.402433
0.0700877
0.310658
0.0906078
-0.538024
-0.792557
-0.47078
1.0753
1.11593
1.06402
-0.440105
0.231572
0.54559
-0.147418
0.898365
0.0962528
0.362649
-0.800213
1.08074
-0.331937
-0.180874
0.0189104
0.586048
0.817837
0.643873
0.62736
0.536299
0.0103031
0.391332
0.0880398
-0.900426
-0.0638
0.7938
-0.206305
-0.600822
1.1065
-0.162013
1.09541
1.13117
0.942297
0.646728
1.03716
0.584606
0.774807
0.0231807
0.715728
-0.264661
0.279452
0.32865
0.567462
-1.00175
0.987964
-0.298129
0.0916934
0.96528
0.559917
0.822151
1.0502
0.965724
0.4084
-0.3472
0.193374
0.528969
0.370531
0.919367
0.762402
-0.43534
-0.109219
0.207415
0.672231
0.312268
-0.466921
-0.493584
-0.542518
0.602604
0.0361343
-1.07789
0.846311
-0.539235
0.564027
-0.471562
-0.0464544
-0.221176
0.365206
-0.100709
0.436745
-0.684396
0.5542
0.8338
0.821065
0.909033
0.314689
0.310799
1.23833
1.08431
-0.378585
-0.407082
0.608587
-0.806684
0.497307
-0.126829
0.734198
-0.134764
-0.674463
1.14576
0.273381
0.685249
-0.400036
0.177502
-0.509972
1.04904
1.01148
0.352991
0.766196
-0.646448
-0.3577
0.694299
0.15134
-0.608561
0.330772
-0.178959
0.0674564
1.46101
-0.215667
0.793996
-0.429306
-0.269099
0.283016
-0.557372
0.467093
-0.570417
-0.159983
-0.762446
-0.160847
0.434616
0.298002
0.169514
-0.472297
1.03624
-0.558839
0.736863
0.968237
0.289689
-0.8266
-0.223919
0.813382
-0.913352
-0.360119
-0.3083
-0.188186
1.14483
-0.488967
0.602772
0.0590553
0.277901
0.53425
0.584594
0.0518558
0.980023
0.014068
0.847258
-0.485767
-0.758631
-0.633103
0.719515
0.674979
0.453328
-0.193986
1.06523
-0.545278
0.801141
-0.0312
0.0421668
-0.591691
0.205685
-0.113308
-0.628848
0.596246
0.179421
-0.490464
-0.345133
-0.629372
-0.590994
-0.309761
-0.804952
0.072963
-0.748998
-0.0437344
0.249231
-0.0911152
-0.0929766
0.686751
0.430841
-0.245033
0.667086
-0.0935045
0.992732
0.00447562
-0.0862522
0.3443
0.421981
-0.51546
-0.306457
-0.778616
-0.572781
-0.798413
-0.568029
-0.944683
0.710896
-0.671733
0.527049
0.852491
-0.583462
-0.823472
0.126546
-0.359013
-0.247799
-0.179704
0.38346
-0.190299
0.791145
0.98203
0.155894
-0.797581
-0.828462
-0.0837355
-0.129807
0.7747
-0.7496
-0.363287
0.850508
0.728075
-0.322988
-0.011786
-0.0894424
0.0917748
-0.815123
0.743808
-0.567109
0.87363
-0.114861
-0.79675
-0.167754
-0.279672
0.631691
-0.220721
0.370373
-0.214807
0.713409
0.436782
0.328415
-0.963414
0.59004
0.199111
0.685576
-0.3012
-0.5633
-0.8596
0.4032
-0.828194
0.583619
0.181429
0.728918
0.119738
-0.0990136
0.145929
-0.255741
0.1445
0.7386
-0.568309
0.781991
0.863996
0.806099
-0.346997
-0.7074
0.7671
-0.2433
0.96214
0.332
-0.8831
-0.1969
-0.9262
-0.7278
-0.1384
0.0984
0.1691
0.4787
-0.6297
-0.0458696
0.680974
-0.686512
0.15896
0.0711347
0.000921137
0.993409
0.250766
-0.654053
0.949845
-0.317362
-0.0651261
-0.106737
0.357745
0.704676
-0.175183
0.731995
0.643913
0.368564
0.855805
0.0460024
-0.5374
0.7439
0.0288
0.1189
-0.82029
-0.872564
-0.448208
0.501498
-0.596196
0.53486
-1.00252
0.676192
0.910134
-0.683281
0.0670435
-0.631573
-0.388665
0.551509
0.691334
0.968332
-0.859332
0.195707
0.302936
-0.00865201
0.80477
0.902544
-0.93442
-0.270365
0.416805
-0.675127
0.582715
-0.8624
0.404827
0.726048
-0.482498
-0.408218
0.629198
0.248663
-0.917582
-0.219061
0.517977
-0.52922
-0.805392
0.334048
-0.0110267
-0.496113
-0.922696
0.471749
-0.425552
-0.78555
0.157496
-0.387197
-0.296464
-0.170548
0.346476
0.934814
0.422322
0.896711
0.821677
0.4978
-0.35579
-0.709316
0.682979
-0.527605
-0.173838
-0.101903
-0.982768
-0.963825
0.374899
-0.258314
-0.719992
-0.270895
-0.501305
-0.370936
-0.301208
-0.810761
0.934984
0.405299
-0.618232
-0.764768
0.565286
1.09624
0.267706
0.213271
0.431002
-0.265757
0.334404
0.2988
0.904152
0.25618
0.797416
-0.169678
-0.425829
0.804171
-0.589262
-0.165386
-0.359613
-0.0798798
-0.127639
-0.249765
0.40867
-0.25443
0.902605
0.303927
0.494136
1.19366
-0.0672302
0.570706
0.460973
-0.409872
0.721449
0.46253
-0.294465
-0.774581
-0.778791
0.0434
0.441533
-0.457021
0.0968357
-0.340628
0.630629
-1.15989
0.453173
-1.1149
0.131922
0.165526
-0.0418114
-1.05559
0.0730221
-0.0786615
0.4174
0.89157
0.320885
-0.0785221
0.54186
-0.159307
0.916849
-0.2087
0.376901
0.377409
-0.708359
0.0602948
0.721389
-0.186
0.117085
0.632868
-0.0708066
-0.915959
-0.533591
-0.99159
0.175989
-0.439355
-0.523934
0.0350077
0.745883
-0.449465
0.389904
-0.293157
0.635767
-0.307412
0.944918
-0.33724
-0.0042947
1.04794
-0.515112
0.6053
0.264223
0.257227
0.612336
0.286565
-0.3599
0.9076
0.187021
0.0332106
-0.240238
0.801407
0.438489
-0.0615237
-1.35013
0.593566
-0.614335
-0.271046
0.201954
0.0829293
-0.40814
-0.0496125
-0.724746
1.06366
0.0254918
0.568557
-0.0817494
0.624179
-0.592077
0.57416
0.0661657
0.064748
0.750877
0.437692
0.5601
-0.1331
-0.622578
0.492815
0.0880162
-0.312449
0.0729507
0.0428543
0.40725
0.194894
0.208398
-0.639367
0.610449
-0.340305
0.518026
-0.604729
0.669272
0.378565
0.666615
0.535143
0.944583
-0.351351
-0.641306
0.942401
0.426677
1.02831
0.382684
0.104013
0.899618
0.7053
-0.29977
0.294162
-0.774066
0.209019
-0.701301
-0.24764
-0.0344993
-1.14845
-1.03268
-0.558883
-0.496053
0.180213
-0.238733
0.429133
0.223264
-0.7151
0.764646
0.810231
0.82191
1.06688
-0.125801
-0.0612587
-0.170098
-0.455096
0.164351
0.736382
-0.384283
-0.3371
-0.678525
0.706497
-0.319996
-0.475084
0.584837
-0.630117
0.483688
0.714469
0.324557
0.499045
0.160158
0.0778381
0.147636
0.514575
0.763145
-0.495299
0.691117
0.125922
1.05979
0.364163
-0.278574
-0.634773
0.00527672
0.696801
0.716235
-0.544155
0.0171
0.1274
0.267515
-0.658452
0.27683
-0.98255
-0.416681
-1.0805
-0.0302435
0.420354
-0.00483084
0.0951173
0.191021
-0.12065
1.1476
-0.487605
-0.311273
0.762569
-0.510971
0.14662
0.339417
0.541677
0.259046
0.573047
1.03156
0.491406
0.726272
0.673176
0.6563
-0.7875
0.761533
0.882033
0.380689
-1.09737
0.230263
-0.200629
-0.912079
-0.499011
0.717877
0.431254
-0.882751
0.804895
0.138949
0.311226
-0.363771
0.701971
0.255538
0.424137
1.11648
0.671697
-0.989715
-0.609479
-0.347863
-0.325262
0.0598799
0.582579
0.5725
0.0775
0.440732
-0.385027
0.145792
-1.25634
-0.294909
-0.483384
-0.15911
-0.52195
0.0122443
-0.43875
0.576401
0.296277
-0.772006
0.274262
0.212283
-0.348672
-0.0752324
0.221112
-0.153251
-0.196932
0.874122
-0.820552
0.486201
-0.935384
-0.523601
0.0887895
0.1143
0.922614
0.0130791
-0.658975
-0.234973
-0.0763227
-0.769967
0.203943
0.193891
0.909399
-0.358986
0.60388
-0.648312
0.229604
-0.771433
-0.190704
0.291062
-0.5483
0.18468
0.776869
1.08825
0.195937
-0.618267
0.135577
-0.709904
-0.319457
-0.695184
0.0449931
0.534484
0.796048
-0.132796
0.291562
-0.125876
-1.38863
-1.27148
0.339219
0.644455
0.448593
1.07073
0.721021
0.686144
0.676699
-0.129486
-0.0399081
-0.59495
-0.233044
1.04608
0.695666
0.833548
-0.284754
0.0288233
-0.0432067
-0.929919
0.416211
-0.707063
0.352983
0.949408
-0.0677056
-0.593448
-0.0945215
-0.704233
-1.0912
-1.21851
0.295117
-0.612697
0.444522
0.820088
0.909072
0.546159
-0.168168
0.643457
0.183585
0.414551
-0.23159
-0.336578
-0.173338
0.328193
-0.305645
0.0532416
-1.25694
-0.24117
-0.387541
0.492839
-0.205817
0.608187
0.282313
-0.613157
-1.18677
0.492891
-0.545557
-1.09165
-0.0979362
0.571337
-0.0312331
-0.317771
0.574267
-0.698088
0.828424
-0.12927
-0.731875
0.084056
0.382697
0.413228
0.559251
0.322994
0.366253
-0.392683
-0.394306
-0.59264
-0.941024
0.73076
-0.179858
0.970424
-0.728625
-0.644299
-0.638015
-0.205317
-0.402658
-0.818174
0.693814
-0.214957
-0.186133
-0.585282
0.765825
0.45237
-0.205029
-0.288325
-0.751686
-0.785448
-0.0990129
0.86511
-0.700239
0.657871
-1.14566
0.395176
-0.634287
-0.735383
0.68124
-0.282176
0.83488
0.2896
0.4833
0.883124
-1.17842
-1.39037
-0.354326
0.0990709
-0.346473
0.280673
-0.667014
0.376296
1.18888
-0.584247
-0.102958
0.447369
0.762329
0.0130575
0.349248
0.379798
-0.518713
-0.413584
0.516077
-0.949405
0.223526
-0.481069
-0.221495
-0.495301
0.435213
-0.2122
-0.5133
0.386776
-1.02655
-0.554881
-0.373468
-0.489821
-0.010377
-0.229485
-0.384131
-0.583742
-0.00900785
-0.28547
0.232239
0.386099
0.295396
-0.514387
0.657207
-0.427563
0.0629216
-0.0150669
0.305703
-0.197771
0.809405
-0.195452
-0.478814
-0.775533
-0.326133
0.828
-0.844522
0.579311
-0.490502
-0.342963
-0.585125
-0.83727
0.600108
0.212174
0.693256
0.615753
-0.345143
-0.0618217
0.279535
-1.04582
0.76205
-0.0844926
-0.311886
0.6127
1.00853
0.740703
-0.549378
-0.844086
0.117902
0.0880238
-0.842961
0.791044
-0.871938
0.8063
-0.605411
-0.525351
0.68641
0.276531
-0.395998
-0.785028
-0.776658
-0.878993
0.0613416
-0.706202
0.209611
0.423974
-0.683569
0.559702
-0.0663718
0.533467
-0.484209
0.670259
-0.41727
-0.863034
0.000422925
-0.789334
-0.174459
-0.167264
-0.371606
-0.172209
-0.749556
-0.0074
0.429598
-0.411753
0.271554
-1.02017
-0.0888622
0.0984051
-0.766288
-0.460038
-0.130054
-0.77242
0.0145072
-0.226266
-0.379609
1.06836
0.320829
0.838566
0.628002
-0.964709
0.872264
-1.05544
-0.696475
-0.203623
-0.102412
0.158868
0.520106
0.431986
0.138772
0.5662
0.469498
-0.605028
-0.347138
0.0702137
0.672221
0.3433
0.47985
-1.22132
0.690988
-0.804633
0.46671
-0.646991
0.670383
-0.389331
0.122876
-0.241981
0.449078
0.179929
-0.609545
0.789859
0.275195
-0.0155767
-0.448912
-0.526881
0.673729
0.537625
0.700058
-0.5807
-0.297828
-0.252765
-0.437623
-0.832038
-0.341948
0.114038
0.619596
-0.780994
-0.391727
0.413357
-0.437897
-0.047882
0.845663
0.529838
0.350338
-0.285394
0.0921942
0.504319
-0.276202
-0.0521344
-0.0119347
0.566965
0.0313783
0.269606
-0.539431
-0.370963
0.253973
0.2512
-0.225385
0.0656339
-0.947466
0.246179
0.387883
0.339272
0.966916
-0.803669
0.834874
-0.431396
0.362249
0.603561
-0.690923
0.270323
-0.1324
0.377548
0.65263
-0.890808
-0.94932
0.76466
-0.168014
0.514602
0.812711
0.252777
-0.00140703
-0.459631
0.338985
-0.8554
0.2113
0.2129
0.8158
-0.380977
0.187513
-0.498992
0.175608
0.450068
-0.593032
-0.765581
0.740905
-0.2414
0.793202
0.130197
-0.101007
-0.535172
-0.454593
0.180302
-0.999
0.3099
-0.5256
0.9056
-0.2713
0.6872
-0.29
-0.2035
-0.7283
0.8404
-0.0527
0.8382
-0.4854
-0.4366
0.32304
-0.335392
0.286855
0.148576
-0.300061
-0.972213
-0.706117
0.216304
-0.857496
0.211013
-0.454522
0.330408
-0.811287
-0.185391
-0.985939
0.752359
-0.670902
0.885553
-0.806205
-0.7573
0.2191
-0.0242
-0.3454
0.2041
0.8725
0.399785
0.11957
0.940935
-0.41984
-0.641247
0.705088
0.6074
-0.44131
0.831413
-0.296483
0.481644
0.150806
0.198689
-0.983566
-0.110246
-0.340063
-0.7722
-0.541218
0.557134
0.291718
0.354261
-0.713043
-0.0850886
0.507895
-0.480541
0.689415
-0.675093
0.8843
-0.676609
0.138721
-0.542954
0.153666
0.315144
0.769672
-0.947006
0.735757
0.986669
-0.074562
0.683022
-0.749863
-0.520851
0.397474
-0.171367
0.355534
-0.348012
0.753476
0.292503
-0.0039767
0.143117
0.49765
0.463118
-0.228843
0.483353
-0.970479
0.482462
0.1085
0.0221197
0.310827
-0.452927
0.108938
-0.331367
-1.05938
0.123047
0.372336
0.274795
-0.857274
0.870909
-0.712457
0.633886
0.0666982
0.193679
0.391638
0.610023
0.428373
-0.0555538
-0.481886
0.165593
0.499906
0.884466
1.06039
0.981427
-0.274617
0.599951
0.7239
-0.857771
0.870208
0.0969811
0.620734
0.513299
-0.993776
0.400064
-0.869111
0.207161
-0.104957
0.500372
0.202285
0.320479
0.619895
0.910243
0.346566
-0.361422
0.921586
0.0769422
-0.0392449
0.214129
1.06666
0.777683
0.151659
-0.362901
0.176167
0.102356
0.662
-0.359614
-0.448716
-0.976188
0.133094
-1.19707
0.159825
0.228616
-0.930756
0.0878186
-0.65389
0.247826
0.206121
0.579946
-0.703653
-0.038439
0.952238
0.799053
-0.728156
0.472883
0.782538
-0.227902
0.345311
-0.790285
0.730376
-0.721848
-0.828202
-0.992404
0.6048
0.751532
0.814199
0.596826
-0.0907854
-1.3434
-1.10039
0.138488
0.346342
0.504846
0.806494
-0.942523
-0.374025
-0.52106
-0.639876
0.659306
-0.692835
-0.373948
0.312061
-0.279756
0.37882
0.872749
0.75157
0.116055
0.00703199
-0.289359
0.388953
0.509
0.6526
-0.441001
-0.219438
-0.82285
-0.515742
0.78974
0.305513
-1.23278
0.0720272
-0.753804
0.435497
-0.181348
-0.592628
-0.308076
0.40642
0.336588
-0.198192
-0.422468
0.112038
-0.00345265
-0.410627
0.639865
0.694493
-0.405976
0.317962
-0.34872
0.0910784
0.0311
0.4138
-0.751968
0.0408885
-0.0405688
0.113862
-0.389823
-0.871501
-0.0873506
-0.467359
0.430789
0.712959
0.374039
-0.304346
0.692866
-0.233215
0.207175
0.344852
-0.341745
0.346966
0.659983
0.723544
0.41612
0.330015
-0.0961764
-0.728057
0.280691
0.378508
0.781237
-0.4151
-0.628982
0.748859
-0.944259
-0.903731
0.448035
-0.258978
-0.19047
0.615954
-0.800897
-0.45368
0.693469
0.355891
-0.572231
-0.202613
-0.500208
-0.39454
-0.467817
0.488546
0.501787
0.249975
-0.725779
0.762164
-0.636589
0.173517
0.83042
0.724785
0.719541
0.2476
0.92443
-0.751639
-0.885395
-0.750147
-0.994993
0.189535
-0.906428
-0.615485
0.945989
-0.320181
0.473249
0.590358
-0.403894
0.0282547
0.772574
0.132234
-0.700219
0.669465
0.319481
1.11101
-0.327197
1.07219
0.612474
0.0899581
0.599298
0.376171
-0.4782
-0.159
-0.441014
0.382388
-0.174823
-0.967974
0.162325
-0.189946
-0.0970665
0.219304
-0.48059
-0.660183
0.269734
-0.409176
-0.646564
0.677107
-0.73889
-0.324865
-0.225944
0.62716
0.387761
0.646363
-0.202315
1.01468
-0.637148
0.276409
-0.178253
0.926791
0.5423
0.0138
-0.849449
-0.330056
-1.00947
-0.120457
-0.325147
0.00224575
0.0849739
0.311613
0.509956
-0.728912
-0.370929
-1.00897
0.0519325
-0.214956
0.484922
0.0517298
0.353358
-0.215962
0.802996
-0.391453
-0.408615
-0.52658
0.25218
0.784815
0.296688
0.531049
-0.863
0.9288
-0.154024
-0.606958
-0.361714
-0.283425
-0.019386
-0.677408
-1.16134
-0.941812
-1.08871
-0.196373
-0.810137
-0.0308074
-0.829966
-0.307354
-0.115991
-0.210813
0.507789
-0.367628
0.575947
-0.081257
0.285847
0.979235
-0.340962
0.700227
0.827506
0.280807
0.3416
0.468306
-0.10792
0.656723
-0.0452842
-1.1013
0.44095
-0.865223
-1.06612
-0.490264
-0.0644279
-0.971335
0.564839
0.645667
0.793041
0.0364546
-0.353997
-1.17694
0.0538765
0.685778
0.370928
-0.238937
0.422531
0.536738
-0.748949
-0.201206
-0.485365
0.504586
0.762087
-0.739998
-0.325389
-0.0233231
0.675112
0.656913
-0.0713219
-0.185132
-1.05741
-0.624552
-0.579973
-0.807549
-0.539914
0.337295
-0.717985
0.117776
0.426989
-0.190322
0.464531
0.830071
0.062249
0.150565
0.494725
0.744659
0.840156
-0.521115
-0.0179772
0.794783
0.0824199
0.106936
-0.353995
-0.676487
-0.15851
-0.512069
-0.920032
-0.179092
-0.401873
1.30306
-0.0986502
-0.146086
0.251617
-0.96458
0.22199
-0.0408665
0.153317
0.0864262
-0.600317
0.755857
0.753662
-0.322415
0.241324
-0.0364134
-0.693453
0.737305
0.709527
-0.245597
-0.580067
0.957731
-0.613365
0.794031
0.892054
0.59607
0.380412
-0.93275
1.13459
0.531732
0.278239
-0.643397
0.646683
-0.394012
-0.0934041
-0.7105
0.608922
0.561106
-0.321956
1.10359
1.22072
1.10695
0.70429
0.540825
0.199877
-0.238118
-0.399835
0.415511
-0.858782
0.0745524
-0.881333
-0.0325724
0.0464578
-0.662832
0.548316
0.106582
0.843327
-0.263864
0.54759
1.09376
0.139155
0.287594
-0.69194
-0.145194
0.170266
-0.16191
-0.283041
0.286154
-0.198281
0.397038
1.10064
-0.433222
1.26536
-0.331737
0.901611
-0.515511
-0.0852
0.6499
-0.282119
-0.629913
-0.459888
0.933541
0.233921
0.506286
0.0532128
-0.80058
0.567725
0.914305
0.0410732
0.745897
0.838758
0.3015
0.29073
0.27124
0.0725344
1.14687
-0.603924
0.136293
1.12637
0.334467
-0.148877
-0.140488
-0.554093
0.0882574
-0.4762
0.9789
-0.595972
0.686431
-0.76417
0.184366
0.141823
0.0406721
-0.152435
0.8032
0.835496
-0.264318
-0.146695
-0.0732076
0.253881
0.303892
0.0631653
-0.403234
0.68079
1.23498
0.980542
0.784601
-0.4665
0.593799
1.01686
0.659182
-0.64297
0.0479413
0.1042
-0.771101
0.827832
0.121423
0.611813
0.444601
-0.271007
0.00173473
-0.819638
-0.00196355
0.889411
-0.442389
0.151192
-0.978366
-0.854072
0.122822
0.010317
-0.982799
-0.389578
0.283372
0.64788
0.890236
0.695811
1.30059
1.20039
0.286081
0.588793
0.617276
-0.9274
0.125696
-0.867374
0.392729
0.273303
-0.0674347
-0.175039
0.224577
-0.330237
-0.237966
-0.216046
-0.572709
0.557236
-0.0616317
-0.76253
-0.600171
0.511439
0.617486
0.743323
-0.268057
1.01951
1.13487
0.49997
1.21893
0.469103
1.08333
-0.670819
-0.517929
-0.4997
0.519423
0.656333
-0.0138672
0.25835
-1.25269
0.0873265
-0.581658
-0.194211
0.618028
0.210976
0.610025
0.194004
-0.255549
-0.707746
-0.159053
-0.0511222
-0.10164
0.00450791
0.968013
0.270809
-0.0443033
-0.231794
1.2508
-0.361955
-0.181268
0.89047
-0.258647
-0.2399
0.999363
0.296859
0.191276
-0.464497
-0.200363
-0.344344
-0.259487
0.576825
0.588378
0.449902
-1.0872
0.742368
0.207415
-0.954675
-0.0176151
0.282645
0.542946
-0.115097
-0.305896
0.502734
0.0894813
-0.0241006
0.0241237
-0.0583008
1.02974
-0.955346
0.638325
-0.3407
0.969056
-0.821638
0.74034
0.288484
-0.824526
-1.06233
0.837469
-0.526966
-1.10827
-0.635348
-0.500929
-0.880535
-0.230879
0.306472
0.51234
-0.846738
0.0325124
0.255253
0.205715
-0.485006
-0.778768
0.996464
-0.153882
-0.505385
0.309321
0.998022
0.928455
-0.5493
-0.230093
-0.123841
-0.109125
-0.881213
0.635641
-0.481491
-0.468971
0.782116
-0.535907
-0.569127
-0.619009
0.590355
0.640249
0.911562
0.0927549
-0.657908
-0.122923
-0.635938
-0.962292
0.168116
-0.427413
0.0797496
0.801673
0.110709
-0.387195
-0.707954
0.724866
-0.6192
0.9876
-0.9691
-0.8426
0.140312
-0.359078
-0.188945
0.888379
-0.591477
0.957298
-0.64842
-0.550806
-0.3833
0.612
-0.734811
-0.884204
0.9967
0.7753
-0.5911
0.3317
-0.1893
0.6951
0.546654
0.2756
0.3948
0.8611
-0.9428
-0.7356
-0.8185
-0.7611
0.7014
0.7534
-0.102524
-0.641171
-0.510258
-0.812635
-0.474953
0.50916
0.295497
0.615864
0.855542
-0.265916
-0.0644022
0.43227
0.0842333
0.744063
0.984129
-0.716499
-0.563
-0.157792
-0.436711
0.483953
-0.726005
-0.431402
-0.4385
-0.4071
0.8848
-0.5606
-0.981297
-0.661051
-0.94089
0.890861
-0.70359
-0.770182
-0.28966
0.416383
-0.832349
-0.232116
-0.881509
0.991201
-0.228439
-0.842293
-0.695818
0.172314
-0.204293
0.648723
-0.387798
-0.545008
0.288589
0.379353
-0.2018
-0.571375
-0.571527
-0.270789
-0.8784
0.2968
-0.612941
-0.158807
-0.907939
0.890488
-0.716468
-0.539486
0.471417
-0.578967
0.115827
-0.901357
1.07195
-0.183297
-0.565661
-0.065099
-0.0225454
-0.343496
-0.106607
-0.568852
0.0364003
0.703814
0.530619
-0.477182
-0.799682
0.203525
0.393331
0.756943
0.0882217
-0.3218
-0.527458
0.716208
-0.149551
0.850588
-0.292656
0.938637
-0.159857
0.727544
0.304791
-0.45363
-0.208114
0.502061
0.588814
1.62661
1.39372
-0.433011
0.255135
-0.693697
-0.785402
-1.01624
-0.634626
0.379608
0.444419
-0.733891
-0.133688
-0.325571
0.92624
-0.579
0.342499
0.365989
0.569307
-0.704953
-0.82074
-0.696384
-0.14849
-0.364415
-0.816401
0.806211
0.730383
0.798255
0.924494
1.06022
-0.0635329
0.573557
0.913403
-0.773654
-0.511442
-0.374178
-0.658291
-0.116262
-0.59274
0.60533
1.02428
0.570115
-0.864085
0.7447
0.395768
0.623902
-0.729919
-0.182031
-0.0562157
0.521444
-0.0426006
-0.14479
-0.530597
1.40261
1.13166
1.71611
0.0878852
1.24926
1.15166
0.272279
-0.615513
0.801953
-1.06712
-0.700965
-0.286976
-0.202751
-0.717296
-0.667004
0.187939
0.878266
-0.832325
0.3017
-0.837326
0.433293
-0.771269
1.03746
-0.440712
-0.059635
-0.41883
0.203027
-0.6446
-0.00226502
0.365399
0.788026
0.565868
1.49689
0.954492
-0.718087
0.0766981
-0.434975
-0.0469681
0.0369874
0.572103
-0.124575
0.587745
0.433299
0.606481
-0.585578
0.1868
0.1019
0.501594
0.594827
-0.934807
0.279084
-1.04031
0.122706
0.491437
-0.19854
-0.51475
-0.528072
-0.558219
1.33305
0.966793
1.50353
-0.0501809
-0.0713057
-0.733222
0.229699
-0.0303696
-0.956331
0.428903
-0.806277
0.745088
-0.428286
-0.694283
-0.650386
0.2312
0.954
0.790281
0.788912
-0.644119
0.622414
0.0282723
0.0953449
-0.551658
0.650077
0.342738
-0.234841
0.112353
0.480676
1.09402
0.557098
1.08909
0.987894
-0.0656856
-0.134905
-1.07763
0.293144
-0.903131
-0.276582
-0.227409
0.109883
0.0177108
0.232721
-0.255593
-0.7222
-0.0346168
0.74939
-0.627498
-1.03089
-0.413436
0.832519
-0.730886
-0.255766
-0.00879894
0.536636
0.763276
-0.461519
0.659066
-0.0880417
1.02394
-0.926432
-0.423263
0.608882
0.191436
0.279236
-0.876388
-0.457898
-0.674585
-0.303132
0.989075
-0.348311
-0.488278
0.4861
-0.00740544
-0.754515
0.0405219
-0.270317
0.808217
0.429447
-0.135264
0.576937
-1.03269
-0.169095
0.85525
1.25316
0.909476
0.364975
-0.454933
1.12063
0.172617
0.159857
0.241446
0.378902
0.422793
-0.499044
0.609668
0.439897
-0.154314
-0.556047
-0.5505
0.4816
-0.833692
0.252885
-0.793963
-0.422553
-0.100339
-0.687802
-0.0765255
-1.06692
0.54007
0.452715
0.183718
-0.461174
-0.677308
0.351226
0.686785
0.958482
0.69761
0.925727
0.380586
-1.41378
0.293492
-0.986504
0.580028
0.331148
0.117169
-0.174215
0.2039
-0.8667
-0.899463
-0.722485
-0.559763
0.616223
-0.746914
-0.0525982
0.19121
-0.363417
-0.582562
0.631003
0.723431
-0.122917
0.936597
-0.130376
0.661338
0.727044
0.0928073
0.517513
0.956395
-0.625735
-0.422237
0.74749
-0.802677
0.045491
0.000621599
0.351134
-0.278308
-0.9561
-0.623763
0.763686
-0.258468
0.749505
0.207332
-0.123666
0.287024
-0.559155
-0.443336
-0.437542
0.94109
0.654498
0.485234
0.0742802
-0.262834
0.929399
0.925578
-0.259053
-0.814702
-0.565951
-0.0323747
-0.0668892
0.584939
-1.20339
-0.250147
-0.805188
-0.0614
-0.504091
1.01386
0.571708
-0.838242
-0.037522
0.0180335
0.815663
-0.58088
-0.4964
-0.837112
-0.107763
-0.450864
0.216067
-0.202607
-1.09902
0.343236
-0.889178
0.914519
-0.0245061
-0.224364
0.419433
0.67589
-0.916683
0.375191
-0.866306
0.693147
0.43124
-0.999654
-0.351039
1.03779
0.407679
0.896923
0.282637
-0.463696
-0.4052
-0.693097
-0.91813
0.392832
-0.343268
1.06663
0.240644
0.622427
0.959166
0.594495
-0.790246
0.816762
-0.23695
-0.583319
0.21882
0.83827
-0.398045
0.419596
-0.592717
0.156427
0.353445
0.228709
0.794538
0.725701
0.305345
-0.527202
0.600485
0.32696
-0.667289
-0.217417
-1.2332
-0.185291
-0.277254
0.247749
-0.0751582
0.0310193
0.0968417
-0.723672
0.496358
-0.795606
0.311348
0.39988
-0.627491
-0.366477
-0.164249
-0.19742
-0.328026
-0.130597
-0.946626
-0.473248
-0.57271
0.590732
-0.182742
-0.366432
-0.208959
0.111872
0.218776
0.363206
-0.356619
0.00169571
-0.692825
0.419025
-0.147697
-0.344639
0.538367
0.931353
0.593428
0.369609
-0.758127
-0.337261
-0.501816
-0.166262
0.664957
0.850364
0.433229
0.0118135
0.788575
0.752407
-0.040868
-0.243848
-0.668336
0.437947
-0.149289
-0.611048
-0.188346
-0.802986
-1.09676
0.033877
0.566189
0.253708
-0.382537
1.20772
-0.415424
-0.560951
0.438139
0.253511
-0.734959
0.406579
-1.06671
0.869219
0.213329
-0.924838
0.427174
0.5696
-0.712668
0.3801
-0.4914
-0.48323
0.317872
0.13827
-0.607448
-0.281517
0.691509
0.238474
-0.951794
0.0625074
0.569859
-0.0655098
0.078207
0.891487
0.451756
-0.414662
1.00472
-0.289986
-0.117951
0.250195
-0.479782
-0.489166
-0.691541
0.270547
-0.425518
-1.08094
0.0840262
0.7514
-0.8614
0.912956
0.354117
0.171459
-0.225533
0.657169
0.411557
0.390096
0.0816692
0.244643
-0.872293
0.486925
1.08816
0.925158
-0.123788
0.629658
0.147932
-0.316856
0.671787
0.0740053
-1.01837
0.867174
-0.418629
-0.620692
0.127385
0.615006
-0.739468
0.8614
-0.494066
0.773058
0.341138
0.371347
-0.705058
-0.5507
0.732164
0.40597
-1.01395
0.00747943
-0.357095
0.0403228
1.11102
-0.683236
0.0435271
0.920399
0.0687742
0.495618
0.909449
0.182243
-0.532881
0.0533982
0.0490391
-0.729036
0.0811038
-0.191114
-0.591451
0.3981
0.0230747
-0.0296446
-0.639532
-0.418524
-0.330952
0.579797
0.151699
0.768477
0.328102
0.438933
0.433848
-0.644652
-0.774609
-0.0651884
0.039454
-0.141698
0.698264
-0.639053
0.184708
-0.0192185
-0.729428
-0.573111
-0.627971
-0.00521513
-0.383307
-0.380152
-0.679415
-0.5296
0.0734131
-0.636845
-0.19469
-0.455117
0.335697
0.674698
-0.249657
-0.31086
0.653433
-0.081306
0.417611
-0.00577396
-0.0595938
-0.587831
-0.0839748
0.903709
-0.445456
-0.532933
0.0778733
-0.248015
0.750258
0.073908
0.122131
-0.00126882
0.734856
0.345106
-0.37515
-0.1904
0.0496234
0.240011
-0.900043
-0.346411
-0.122978
-0.462036
-0.399469
0.0691445
-0.291025
0.275205
0.309597
0.148036
0.861432
-0.112409
-0.404353
0.0701378
0.877204
0.761048
0.682707
-0.0908698
-0.37347
-0.785643
-0.689632
0.696595
0.341814
-0.438996
0.542988
-0.2367
0.626714
0.49983
0.877583
0.274544
0.410043
-0.673313
-0.373406
0.355356
0.708523
0.350708
0.712693
-0.268002
0.701883
-0.948017
-0.262628
-0.87155
0.104733
-0.822792
-0.419968
0.519437
-0.683313
-0.346414
0.0247319
-0.761684
-0.255957
-0.218721
-0.707939
-0.7358
-0.8448
0.98979
0.484329
0.00815806
0.215737
0.245401
-0.42906
-0.306061
0.744168
0.901892
0.232728
0.151469
0.624575
0.765959
-0.266423
-0.166682
0.576059
-0.201456
-0.399659
-0.383121
-0.69203
0.869289
-0.73994
-0.061183
-0.246765
-0.832344
0.697353
0.7839
0.4552
-0.1356
0.694
0.245707
-0.381418
-0.50332
0.403981
0.364453
0.0151421
0.252743
-0.751737
-0.2614
0.7492
-0.266565
-0.742167
0.6605
-0.4108
-0.686202
-0.5868
-0.2991
-0.6636
-0.127642
0.0819991
-0.9023
0.4992
0.0735
-0.711
-0.1502
0.6035
-0.3525
0.113
0.253302
-0.0813701
-0.393458
0.967934
-0.195178
-0.630436
0.191177
-0.117588
-0.728523
-0.593174
0.173066
0.882939
0.767108
-0.179132
0.369374
-0.954879
0.763791
-0.410353
-0.874776
-0.620088
0.788699
0.9283
-0.67
-0.5886
-0.1715
0.4575
0.766213
0.676401
0.236675
-0.339703
-0.201868
-0.524771
0.0859398
-0.639161
-0.0797828
-0.605902
-0.210487
0.653554
0.351772
-0.552125
-0.231747
-0.265552
0.416048
0.574192
0.958474
-0.302245
0.291769
0.278209
-0.824651
-0.75883
0.47583
0.154602
-0.236622
0.0294
0.637713
0.685231
0.715288
-0.953375
-0.789183
0.439529
-0.845274
0.591057
-0.162025
-0.0014993
0.382314
0.947219
0.881108
0.0770858
-0.439862
-0.265823
-0.646011
0.280385
0.430197
0.897941
0.581491
0.644412
-0.349809
0.245966
-0.927396
-0.750243
0.308063
-0.0251
-0.36757
0.0333858
0.85314
0.494821
-0.128122
0.941755
-0.773846
-0.517729
0.54644
0.121085
-0.483597
-0.0558745
-0.315165
0.890868
-0.690035
-0.682718
0.351618
-0.293848
0.796925
-0.404428
0.219386
0.684829
-0.750066
-0.685984
0.947196
0.616296
-0.913542
-0.2408
0.0922297
-0.750734
-0.180951
-0.0419922
0.903949
0.475871
0.316444
0.253384
0.150824
-0.459886
-0.670956
-0.258503
0.131662
-0.219891
0.936266
0.0870797
-0.344602
-0.356653
0.460313
0.0971109
-0.648416
-0.515974
-0.164939
0.361518
0.84365
0.590303
-0.332053
0.1254
-0.190935
1.0204
0.657598
-0.293594
0.502822
-0.570216
0.250239
-0.385258
-0.12606
0.289795
0.514497
0.48502
0.33618
-0.809908
-0.931119
0.422253
0.589906
0.430666
-0.418598
0.667037
-0.623082
0.420775
-0.167345
0.146889
0.523131
-0.773666
-0.467317
0.0969
-0.870056
-0.559521
0.932791
-0.0223595
0.915796
0.702534
-0.801421
-0.0316968
1.02682
0.514643
-0.596165
0.433452
0.308953
-1.00043
0.818398
-0.143034
0.640808
-0.114568
0.401353
0.460428
-0.320921
-0.189076
0.463144
0.916116
0.816868
-0.879833
-0.6065
0.0482
-0.515237
-0.771409
1.04192
0.203727
0.349265
-0.228874
0.843436
0.0595151
0.161664
0.769952
0.921498
-0.632846
0.0280329
0.7884
-0.985585
0.569446
0.527568
-0.344227
-0.728069
0.0460228
0.189267
0.489968
0.0163631
-0.709922
-0.107917
-0.846619
-0.013
-0.256
-0.525505
0.479984
0.33465
1.01941
0.195586
-0.0606842
0.625795
-0.847608
-0.756885
0.981644
0.918681
-1.06029
0.683516
-0.94732
-1.05704
-1.03447
0.446365
-0.145682
-0.676688
-0.180469
0.977247
0.0902963
1.09923
0.829177
0.99614
0.234819
0.419457
-0.1611
0.107658
-0.33388
-0.0612494
1.08628
-0.544316
0.00152608
0.473387
0.563461
0.597664
-0.251813
-0.347763
-0.761487
-0.60117
-0.769561
-1.30835
-0.232708
-0.981382
-0.862761
0.581254
0.140173
-0.00479845
-0.466458
-0.0884774
0.0811057
-0.433888
-0.718977
0.540041
0.3959
-0.98416
0.0964997
-0.6619
-0.491079
0.538242
0.767418
0.278174
-0.295121
-0.763324
-0.587244
-0.000479229
-0.428897
-0.593351
0.642663
-0.829115
-0.654626
-1.12213
-0.880663
0.108099
0.348394
-0.570264
0.237268
-0.109255
-1.09365
0.606356
0.47045
0.2349
-0.9934
-0.491799
-0.149969
0.926644
0.816626
0.392637
-0.454207
0.355254
0.749833
-0.0117081
0.543193
-0.561879
-0.659081
-0.903625
-0.3231
-0.236059
-0.235868
0.655774
-0.392339
-0.0782114
-0.136874
-1.09541
0.237377
-0.274176
-0.221275
0.385348
0.793641
-0.1941
-0.932
-0.808783
-0.245235
-0.731068
0.2198
0.926995
-0.504731
1.04932
0.39836
-0.0917367
0.594177
-0.825247
-0.900441
0.466387
0.0180921
0.153775
-0.157575
-0.61341
-0.797715
-0.529113
0.514061
-0.0638232
-1.16401
0.143219
-1.09397
-0.355953
0.571122
0.145405
0.8804
0.409078
-0.492597
-0.423126
-0.440394
-0.176762
0.980217
-0.799093
0.403526
0.662397
0.533181
0.652918
0.424775
-0.271379
0.78238
1.10904
0.721015
-0.58804
-0.814859
0.286608
-0.389809
0.38861
0.80666
-0.745428
-0.624415
-0.552997
0.123885
-0.4359
-0.66591
-0.757027
0.597505
0.389166
0.356163
0.800152
0.65424
-0.563317
-0.29858
1.0183
-0.80249
-0.594931
0.0766565
1.20429
0.77307
-0.212667
-0.445137
0.749433
0.406289
0.431292
0.060713
-0.00379765
0.490201
-0.844536
-1.03793
0.830974
0.45866
-0.726653
0.0861987
0.491288
0.124374
-0.98264
-0.542707
-0.586874
0.332167
0.97518
-0.357326
-0.218472
-0.0985869
-0.319666
-0.308074
-0.0560145
0.0212249
0.753693
-0.809761
0.976316
-0.0442949
0.423583
-0.555987
0.325475
0.359457
0.0601453
0.103569
0.766574
0.605595
-0.55111
0.829409
-0.892378
-0.556721
-0.923292
0.37714
-0.396579
1.00444
0.659968
-0.900876
0.293734
0.240362
-0.0859865
0.550603
1.16614
0.745895
0.148695
0.744227
-0.569839
-0.74462
-0.814756
0.17998
0.852959
-0.203056
-0.0241281
-0.812589
-0.691849
-0.170378
-0.2003
0.39943
-0.549358
-0.586759
0.0541971
-0.436083
-0.165663
-0.385092
0.666456
-0.498284
0.352264
0.164312
1.0508
0.677172
-0.224785
1.21049
-0.774689
0.178225
-0.853862
-0.565433
0.792685
0.00119182
-0.471277
0.105971
0.900391
-0.264898
0.193048
0.76474
-0.99159
0.303694
-0.0875011
0.844824
0.527275
1.31632
0.616823
0.811171
0.663478
-0.578481
-0.0761158
-0.276028
1.07261
0.231255
-0.190978
0.736019
-0.32263
0.165963
0.114753
-0.132452
0.12328
0.570193
-0.053732
0.1093
0.4969
-0.0384612
-0.180463
0.540716
0.733
0.3576
-0.635594
0.800292
0.987492
0.83854
-0.371432
0.601724
-0.473295
-0.121713
-0.432693
0.683873
0.096327
0.98162
-0.502599
-0.124089
0.493279
0.0738873
0.34959
0.98984
-0.68587
-0.490984
-0.250173
-0.114027
-0.254281
-0.54638
-0.600337
-0.168285
-0.7125
-0.6071
-0.374773
0.158135
0.986319
0.556102
0.0717414
0.136025
0.0447958
-0.940148
0.261703
0.657843
-0.203377
0.316015
-0.552914
0.453189
-0.728504
0.212273
0.0731131
0.953513
0.130426
-0.198836
0.588842
0.0661031
-0.349401
0.305898
0.984632
-0.319796
-0.2132
0.0028966
0.842937
0.991707
-0.541806
-0.30403
-0.259429
-0.388726
-0.236873
-0.324279
-0.674677
-0.786781
-0.800885
0.276061
-0.310905
-0.206838
0.860706
0.601387
-0.0867798
-0.78659
1.04963
0.575541
1.09189
-0.46722
-0.398098
-0.384897
0.369247
0.0278148
0.9238
0.230383
-0.941047
-0.384816
-0.10319
0.787334
0.300325
0.508809
-0.536293
1.14614
0.90679
0.857368
0.443379
0.0018357
0.787468
0.85295
-0.361744
0.00939692
0.270213
0.265647
0.865928
-0.149176
0.601173
-0.114792
-0.632131
-0.0202051
0.506963
-0.908738
-0.1018
-0.88804
0.805789
0.405223
0.433106
-0.676112
-0.809596
-0.642839
-0.482118
-0.467593
0.412026
-0.0445493
-1.08801
-0.59307
-0.0657091
-0.0466339
-0.901485
0.0433754
1.11449
0.0437434
0.59271
-0.0976127
0.157285
0.926067
0.747593
0.846248
-0.149456
-0.826819
-0.2039
-0.183473
-0.584309
0.874236
-0.247104
0.00586545
0.727822
1.01712
-0.557083
0.46384
0.10415
0.394097
-0.316346
0.513165
-0.468321
-0.624584
-0.481859
-0.0566986
0.44866
0.746251
0.793629
0.605541
-0.34924
0.200071
0.748638
0.769427
0.689377
-0.552035
0.593
-0.437352
-0.314928
0.280517
-0.475672
-0.831809
-0.166607
0.54459
0.206279
-0.841149
-0.428626
-0.616852
0.136144
-0.338187
0.342454
0.888129
0.974839
-0.381135
0.0748461
0.85835
0.64176
0.0487415
-0.191269
-0.754806
-0.462992
0.779219
0.949332
-0.401089
0.3494
0.357878
-0.0626226
-0.442929
0.440613
0.308736
-0.594542
-0.122639
-0.0900745
-0.600256
0.805356
0.712195
-0.242576
-0.827106
0.54769
-0.396046
0.497328
-0.294365
-0.101145
-0.0192767
-0.225444
-0.666098
0.548794
-0.0483519
0.668676
0.687007
-0.867455
0.797221
0.6947
-0.969
-0.7604
0.1769
0.787819
0.37593
0.713888
-0.605885
0.653837
0.428671
-0.749617
-0.451991
-0.8286
-0.2518
-0.608955
-0.488352
-0.397801
-0.2206
0.0475523
0.2366
0.254
0.74
0.861204
-0.3423
0.2015
-0.7951
0.5029
0.9941
-0.764
0.712
-0.2447
-0.5983
0.966169
0.877765
0.216439
0.268222
0.519581
-0.207717
0.665544
0.507781
0.198597
-0.0198399
0.941107
-0.660769
0.887991
-0.780521
-0.693408
0.0864964
0.28265
0.371626
-0.570731
0.184097
-0.8082
-0.0764998
-0.9313
0.72
-0.5342
-0.432
-0.433098
0.227221
-0.207189
-0.0753316
-0.0476494
0.198131
0.714465
0.458461
-0.449216
0.509985
-0.109769
-0.0481956
-0.972395
0.135087
-0.463829
0.0927018
0.561977
0.4873
0.254117
0.0229239
-0.0876445
0.853357
0.426415
-0.019272
-0.228498
-0.878683
0.9909
-0.8421
0.00938286
-0.84224
0.25639
0.790721
-0.326269
0.260857
-0.473289
-0.412842
0.0901805
-0.755279
0.34621
-0.331263
0.41049
-0.207592
0.642086
0.956805
0.940672
-0.335867
0.0443091
-0.191379
-0.35293
-0.512755
0.536917
0.715563
0.922879
-0.297574
0.796033
-0.2893
0.959581
-0.0749877
-0.00827664
0.587202
-0.55374
-0.083965
-0.0893527
-0.801976
0.191564
0.46021
0.0243125
0.589185
-0.105057
-0.644103
0.350374
-0.179082
0.456869
-0.667413
-0.0946352
0.204357
-0.901723
-0.830959
-0.228892
0.79638
-0.101899
-0.418491
0.529386
-0.8438
0.515307
-0.630271
-0.358327
0.12718
-0.72848
-0.793949
-0.0135029
-0.129822
0.78141
0.44963
-0.611291
-0.395263
-0.800891
-0.190397
-0.674343
1.12965
-0.104813
0.435146
0.060647
-0.446072
-0.237266
0.520769
-0.349002
-0.596794
-0.690052
0.496124
0.95406
-0.5521
-0.848411
-0.496604
-0.667347
0.19425
0.558355
-0.450992
-0.988917
0.243124
0.570362
-0.39916
0.798595
0.540046
-0.763227
-0.325962
0.962597
-0.26602
-0.420102
0.240197
-0.981631
0.511044
0.30794
-0.765899
-0.523444
-0.572553
-0.352365
0.359333
0.3365
0.1081
0.561751
-0.696292
-0.0361243
-0.546876
0.106249
0.529511
-0.0188306
-0.805765
-0.648195
0.0191831
-0.388727
0.572539
-0.795159
0.256143
0.566214
0.510308
-0.0177354
0.257592
0.567609
-0.503766
0.272089
0.938842
-0.732631
0.0559161
1.06054
-0.846956
0.1799
0.6497
0.0525416
-0.541799
-0.493608
-0.247322
0.715679
0.675397
0.582258
0.356825
-0.606633
-0.737023
0.27816
-0.628909
0.891015
-0.762516
0.357402
-0.766451
-0.578904
-0.0500811
-0.0843861
-0.734096
0.746285
0.314522
0.0752774
0.367025
0.12851
0.361969
-0.2565
0.6487
-0.516538
0.337957
0.391511
0.772954
-0.473301
0.813223
-0.96931
-0.554777
0.73008
0.0574579
-0.296704
0.441234
-0.209503
0.962012
-0.170118
1.15169
-0.450914
0.259015
0.726902
-0.146077
-0.447688
-0.14422
-0.601025
-0.493055
-0.963977
-0.807251
-0.998796
-0.2593
-0.0554591
0.730727
0.416736
0.202775
-0.143664
-0.991537
-0.0175786
0.866305
0.0997764
-0.340578
-0.0641499
-0.422959
0.704831
-0.526148
-0.621783
0.468428
-0.124728
1.01126
-0.228321
0.326167
-0.606939
0.322194
0.443988
0.766574
0.94516
0.933488
0.753201
0.897
-0.15871
0.17407
0.240263
0.419124
-0.380095
-0.525619
0.750404
-0.536924
-0.172799
0.771172
1.03245
0.132498
0.868066
-0.172248
-0.630375
0.837399
0.529525
-0.591603
0.368437
0.243733
0.397975
-0.563348
0.896753
1.17388
0.416691
-0.893639
0.2918
0.0727
-0.0187469
-0.374522
-0.640082
-0.0540644
-0.443816
0.921982
0.851874
-0.575417
0.724003
-0.42956
-0.533682
-0.757568
-0.774401
-0.410523
-0.757373
0.684247
-1.11813
0.429764
-0.107234
-0.0810555
-0.172839
0.0859819
-0.0690949
-0.633414
0.0983869
0.0924918
0.5114
-0.8742
-0.824775
0.414034
-1.12739
0.0495743
0.484406
-0.95113
-0.2594
-0.22542
-1.15026
-1.06359
-1.33508
-0.413351
-0.765009
-0.787818
-0.952552
-0.845237
0.283071
0.505693
0.937343
0.760614
-0.571325
1.09885
-0.694816
0.00239427
-0.474186
0.660639
0.6299
-0.4634
-0.766946
0.549642
-0.713787
-0.98448
-1.00219
-0.727921
-0.607608
-1.37851
-1.05902
-0.340734
-1.0264
-0.760501
-1.09173
-0.214829
0.202823
0.547499
-0.910958
-0.0514248
0.285182
0.16978
0.613099
0.364097
-0.174536
0.473363
1.0686
-0.695929
0.7311
0.9841
-0.0358773
-0.773838
-1.57819
-1.00572
-1.54244
-1.52392
-1.73078
-0.415561
-0.894046
-0.378995
-0.398519
0.599838
0.68921
0.0550988
0.275789
0.261954
-0.666321
0.0846038
-0.715278
-0.401393
-0.419308
-0.612388
1.22433
-0.152494
-0.375317
-0.61701
0.681899
0.57
-0.111102
-0.749308
-0.394019
-0.936183
-0.426116
-1.48748
-1.14939
-0.895543
-1.03251
0.40511
0.104067
0.492242
0.0385322
-0.170082
0.211931
-0.251579
-0.663653
-0.0968059
-0.346531
0.291042
0.355811
0.708433
-0.642517
0.0903881
0.264132
0.368028
0.5696
0.0744045
-0.035995
-0.974712
-0.806146
-0.0896447
0.111508
-0.967891
-0.829853
0.348749
-0.686334
-0.136706
-0.196631
0.611082
-0.250012
-0.820518
-0.0126451
-0.397918
-0.37182
-0.183229
0.0063857
-1.00598
-0.490269
0.0291244
-0.185229
0.174246
-0.447675
-0.707844
0.7828
0.0815928
0.415409
-0.558926
-0.610634
-0.0637013
-0.0201822
-0.481525
0.900182
-0.404403
-0.336648
1.25182
0.267131
0.496423
0.366435
0.898393
-0.0972074
-0.282623
0.799938
-0.403708
0.529405
0.455314
0.835512
0.6152
0.0491398
-0.176184
0.383742
-0.429994
-0.0734002
-0.578403
-0.50241
0.419359
-0.231731
-0.526845
0.512517
-0.724196
0.231686
0.155681
-0.150023
0.903693
-0.105769
0.715371
0.319965
0.218554
-0.134508
0.628662
0.577559
0.258018
0.218828
-0.301281
0.420307
-0.700662
0.300938
-0.559088
-0.213971
-0.184495
-0.6214
-0.8393
-0.126171
0.801881
-0.639644
0.449005
-0.639521
0.816803
-0.0985466
0.892502
-0.443617
0.497902
0.763137
0.530941
0.536097
0.513592
-0.27057
-0.663117
0.79505
0.0123664
0.129114
-0.544493
0.551151
-0.193909
1.07518
0.894127
-0.0177724
0.9013
0.3112
0.5691
-0.461926
-0.53135
-0.268843
0.389622
-0.669603
0.937505
-0.603084
0.349304
-0.175436
-0.384921
-0.320065
-0.986901
0.0189638
0.460334
-0.395315
0.979037
-0.0652716
1.29401
-0.54899
0.994771
-0.17677
0.298692
-0.544712
-0.308826
0.470424
-0.540916
-0.2002
-0.2238
0.955394
-0.65205
0.159611
0.417315
0.448103
-0.615648
-0.618047
0.380229
0.595364
0.481372
-1.0373
-0.332246
-0.616693
0.616672
-0.454658
-0.275616
-0.213567
-0.234117
-0.376609
0.311513
-0.0995735
0.632798
-0.617885
-0.510546
-0.888543
0.970066
0.7447
-0.7668
-0.63032
0.860863
0.592248
-0.342999
0.490804
0.548348
0.33051
-0.711219
0.493189
-0.552843
-0.345334
0.53612
-0.496953
-0.680092
-0.0487559
-0.487398
-0.396207
0.273972
-0.347625
0.0740314
0.723746
-0.620467
0.578132
-0.15541
-0.545914
-0.850941
-0.4313
0.92316
0.53187
-0.140912
-0.271622
0.534991
0.0158129
0.474997
-0.822232
0.405217
0.350767
0.181502
0.621221
-0.526589
0.790745
0.612039
0.766856
0.63549
0.680104
-0.36682
-0.554622
-0.741279
0.430599
-0.406278
-0.644979
-0.331043
-0.268232
-0.539346
-0.1061
-0.020872
0.708992
0.609237
-0.586265
-0.866447
0.258438
-0.270012
0.384015
-0.386126
0.394487
0.889317
0.792206
0.586911
-0.0960369
-0.456378
-0.402002
-0.598082
0.428162
0.290872
-0.235543
0.14076
0.220654
0.076088
-0.902095
0.835539
0.0783568
-0.912134
0.2419
-0.432742
0.127325
0.82794
-0.0444964
-0.133052
0.209378
-0.807435
-0.101043
0.451734
-0.268648
0.505024
-0.701142
0.973293
-0.500101
0.787261
-0.962527
-0.53121
0.0186244
-0.914465
-0.469701
0.269772
0.72242
-0.315132
-0.972991
-0.0951221
-0.746449
0.132272
-0.346
0.2988
-0.482542
0.686835
0.389348
0.804196
-0.373536
0.621338
0.778267
-0.16827
-0.943197
-0.237522
-0.187914
0.669762
0.160068
-0.978037
-0.82831
0.134875
-0.18184
-0.316488
-0.391647
0.946503
0.180243
-0.35377
-0.0126747
0.734231
-0.18722
-0.723684
-0.4407
0.4648
0.5326
-0.7912
0.736441
-0.219975
-0.587423
-0.770025
-0.932109
0.944043
-0.570931
0.5514
0.9215
0.7441
0.543516
0.745215
0.170001
-0.2782
0.0852905
0.494
-0.6417
0.1002
0.922278
-0.558998
-0.1523
-0.1715
0.7065
-0.1816
-0.5265
-0.6131
0.5793
-0.1705
-0.935
0.803617
-0.22731
-0.614277
-0.117769
0.773286
0.875431
0.472087
-0.399066
0.48002
-0.263969
-0.966788
0.828887
0.748541
0.14226
-0.219123
0.590944
0.230646
-0.877857
-0.18303
0.5696
0.7096
-0.0635
0.2614
-0.0831
0.6328
0.236095
-0.930436
-0.0442146
-0.362095
-0.102724
-0.0666919
-0.965976
-0.127535
0.428897
0.750257
-0.0581834
0.612767
0.225518
0.313392
-0.519872
-0.885758
-0.233518
0.955411
-0.908049
0.500641
-0.77406
-0.499956
0.0605178
0.77588
0.965261
0.916095
-0.2531
0.5026
-0.657462
-0.318365
0.439751
-0.609477
0.437206
-0.879219
0.755007
-0.348134
-0.59719
0.0504479
0.620184
-0.529753
-0.273738
0.172019
-0.844441
-1.00737
-0.0848048
0.558008
0.162503
-0.518341
-0.498927
0.23397
-0.0184527
0.857279
-0.52799
0.336462
0.381473
-0.4143
0.719562
0.46282
0.339304
0.824298
-0.430599
-0.865126
0.937105
0.684372
0.241389
-0.722935
-0.347004
0.417897
-0.0995839
-0.351237
-0.180804
-0.724104
0.359308
-0.756094
-0.878546
-0.41833
0.442071
0.832761
-0.417539
0.712217
0.69027
-0.447076
0.937531
-0.1106
-0.931737
-0.0787386
0.558299
1.0241
-0.223992
-0.0315772
-0.418436
0.234853
0.369001
-0.0245067
1.0341
0.5492
-0.0594219
0.577536
0.25628
-0.216771
-0.430406
-0.663913
-0.655877
0.426308
0.636667
0.108317
-0.837734
-0.313246
-0.82848
-0.0722613
0.970106
0.4009
0.23683
-0.47006
-0.240973
0.78251
0.236813
0.289872
0.652153
-0.337392
-0.333829
0.930488
-0.780284
0.00328494
-0.726995
0.221772
0.0498478
0.125487
-1.13267
-0.805272
-0.89746
0.81435
0.309298
-0.0237048
-0.304133
0.639948
-0.646125
-0.448391
-0.433769
0.4319
-0.514716
-0.9396
-0.461257
0.989129
0.0111416
0.864486
0.833207
0.256084
-0.127724
-0.337676
0.0207004
0.265137
-0.313625
-0.663958
-0.141628
0.337937
-1.01039
0.0327852
0.204365
-0.888951
-0.584019
-0.189147
-0.507903
0.562838
-0.737185
-0.41767
0.0346
0.8189
-0.670302
0.611904
0.616447
-0.854648
0.370464
0.660912
0.174441
-0.865064
0.606789
0.173229
0.895144
0.698629
-0.568007
0.876777
0.827411
-0.221135
-0.93447
-0.431056
-0.774052
-0.202272
0.0607074
-0.990532
0.75697
0.386907
-0.658409
-0.859091
0.1342
0.0609
0.674012
0.138515
0.602601
0.501177
0.428176
-1.06034
0.903452
-0.0734583
-0.460833
0.807469
-0.854684
0.373975
0.66642
0.29602
0.259596
0.97801
0.521703
-0.316515
-0.622424
-0.22409
-0.529092
-1.00563
0.280992
0.220252
-0.859376
-0.896399
0.688435
-0.3655
-0.138056
0.140399
0.798447
0.71934
-0.691189
0.685752
-0.69739
0.102137
-0.019858
-0.702915
0.034155
-0.127853
-0.206253
-0.26139
0.467605
0.705768
0.329887
-0.122723
0.466551
-0.28015
-0.217591
-0.426054
-0.367147
0.241656
-1.02067
-0.781673
-0.0166702
0.298
0.177986
0.864809
0.556639
-0.369356
-0.176333
0.872575
0.255829
-0.0951718
0.552168
-0.688291
-0.503195
-0.746711
1.00471
0.612091
1.04618
0.78
-0.362723
-0.126414
-0.127536
0.206973
-0.287845
0.382054
0.203116
-0.544332
-0.481147
-0.607139
-0.9641
0.9329
0.793311
0.720892
0.159666
0.667176
0.525837
1.06365
-0.236504
0.0177806
0.648709
-0.704129
-0.0266781
0.473982
0.519224
-0.336732
0.736856
1.02486
0.052741
1.00973
-0.244551
-0.651678
-0.343138
0.691965
0.343212
-0.209225
0.571853
0.776319
-0.3999
-0.253
0.404195
0.0432653
-0.231607
0.173211
0.97643
-0.486416
0.793006
0.638735
0.321012
-0.00419477
-0.913972
-0.8385
-0.586898
-0.359929
-0.073079
-0.107966
0.305834
0.347595
0.123787
0.154197
-0.446397
0.44363
0.089073
-0.538201
0.447092
0.629771
0.6142
0.6536
0.732549
0.382308
0.110369
0.516234
-0.497202
1.00512
0.267384
0.547943
0.938353
0.165184
0.595542
-0.348519
-0.406423
-0.416584
0.847945
0.619431
0.444014
0.103902
-0.378753
0.0512194
0.115043
0.656898
0.497688
-0.624724
0.840867
0.247352
-0.514
-0.993628
-0.794218
0.639038
0.828758
0.259297
1.0326
0.813882
1.18524
-0.256193
0.658057
0.1006
-0.290922
-0.128928
-0.731377
0.889004
-0.222617
-0.31431
0.994436
0.965814
0.832621
-0.272853
0.634451
0.183563
-0.572302
0.0962004
-0.460423
0.607536
-0.9496
0.460529
0.271568
0.415138
-0.0445871
0.260624
-0.231905
-0.337622
0.815878
0.48019
0.756956
0.785963
0.476389
0.247648
-0.294581
-0.61784
0.291357
0.549102
-0.524267
0.636014
-0.853525
0.0718599
0.187748
0.427136
1.09346
0.652541
0.0684044
0.101072
-0.358341
0.577199
0.0593427
0.737622
0.280795
0.033178
0.578846
0.489984
0.745036
0.733418
-0.286471
0.374114
0.16094
-0.464561
0.260606
-0.0165203
-0.487929
0.204436
-0.240893
-0.662466
-0.430867
0.450375
-0.503413
0.755385
-0.698818
-0.807765
-0.183279
-0.347132
-0.3621
-0.425608
0.230043
-0.195034
0.00441944
-0.614483
-0.207239
1.07241
-0.808329
0.576723
0.972454
1.04134
0.620514
1.03553
0.659634
-1.06072
0.0926609
0.0578139
0.941884
0.657251
0.876346
-0.174324
0.802879
-0.474435
-0.252279
0.0922471
0.355189
0.835606
-0.2157
-0.167244
0.101429
0.297143
0.531579
1.11427
-0.499228
-0.228988
-0.992766
-0.472554
0.895643
-0.44082
0.150046
0.095185
-0.0269757
-0.612139
0.0214125
0.439747
-0.623796
-0.168043
0.691671
-0.61745
0.627084
-0.0818574
-0.56818
-0.701967
-0.875157
-0.524245
0.5411
0.3684
-0.760084
0.385964
-0.0523545
-0.275388
0.394391
-1.26048
-0.384958
-0.676803
-0.107191
0.0586192
0.0598894
0.300792
