ODFQMVNQHVIBYT
784 100 100 100 26 
0.2658
0.3637
0.1316
0.7458
0.3536
-0.996864
-0.956646
-0.517125
-0.154523
0.657788
0.545854
-0.226438
-0.151696
-0.259701
-0.963859
-0.961752
-0.391729
-0.0750124
0.731105
0.189775
0.779682
0.0694802
-0.393118
0.884204
-0.304498
0.5771
-0.4507
-0.8114
0.3112
-0.0370134
-0.236517
0.919371
-0.355971
0.57175
0.668603
0.942333
0.207988
0.0873117
-0.681421
-0.813684
-0.0769518
-0.420733
-0.354836
-0.10234
-0.0240674
-0.995357
-0.0226569
-0.941381
0.0475787
0.525472
-0.38045
0.11607
0.391486
-0.396774
-0.183477
0.0757036
-0.9046
0.721664
0.0627611
-0.728566
-0.426595
-0.911209
-0.660052
-0.636155
-0.373618
-0.142007
0.964557
-0.00434887
0.626821
0.889828
-0.687408
-0.458666
-0.32507
0.343482
0.353839
-0.211615
-0.518697
-0.936522
0.282794
0.884895
-0.360444
-0.300569
-0.766585
0.558417
0.1717
-0.885761
0.793556
0.525596
-0.368125
0.973872
0.165524
-0.716829
-0.62167
0.528345
0.298073
0.94649
-0.361695
0.437589
-0.863708
-0.578403
-0.462508
-0.974622
-0.6025
-0.760379
-0.522953
-0.790554
0.31989
-0.195892
-0.74575
0.139217
0.89064
-0.631382
-0.716
0.58027
0.947397
-0.911219
0.883194
0.288152
-0.191433
-0.126126
0.731878
0.608484
-0.806915
0.780036
-0.768511
-0.933795
-0.622145
-0.711527
-0.985422
0.181764
-0.755335
0.811959
0.887586
0.18644
0.112938
0.0744298
0.553999
0.257855
0.885604
0.170457
0.5489
0.926294
-0.482681
-0.00887891
0.19364
0.830869
-0.642389
-0.508792
-0.628194
0.494195
0.380997
-0.59198
-0.38048
-0.312801
0.443696
-0.84527
-0.381945
-0.0297082
-0.28066
-0.239331
-0.399488
-0.817978
-0.613808
0.547605
0.585408
0.0148872
-0.571452
-0.771617
-0.7246
-0.429287
-0.842451
0.0859671
-0.177726
0.327806
0.728656
-0.501767
0.480722
-0.404896
0.371629
0.17713
-0.359832
0.556526
-0.226497
-0.479434
-0.22748
0.219968
0.233012
0.157834
-0.509068
0.180736
-0.0306231
0.0723111
0.825147
-0.0525213
-0.692798
-0.8608
0.3663
-0.842487
0.347068
-0.240748
-0.0681659
0.301425
0.205678
-0.413198
-0.100946
-0.0171878
-0.368451
-0.601289
-0.783276
0.533399
-0.448395
-0.711377
1.01481
-0.77134
-0.431868
-0.0128995
0.198354
0.205745
-0.214266
-0.127666
0.120213
0.751071
-0.126909
0.825
0.5549
-0.0863853
-0.535489
-0.382098
0.158711
-0.42757
-0.0709033
-0.861731
0.0825404
-0.558537
0.355912
-0.215778
-0.0249428
-0.60073
0.503112
0.0186265
-0.851929
0.862786
-0.782496
0.158734
0.584922
0.654161
0.801732
-0.127178
0.602639
0.392983
-0.92155
0.408714
0.4024
-0.747952
0.978037
0.202311
-0.0751391
-0.314028
-0.184443
-1.04623
-0.403419
0.297731
0.515843
-0.00532558
0.575639
-0.762097
0.779264
-0.247496
0.826051
-0.739076
-0.29615
-0.31874
-0.836929
-0.136401
-0.173628
-0.618373
0.926834
0.137813
0.54698
0.929482
0.9387
-0.663477
0.600397
0.256469
-0.38033
0.116843
-0.932152
-0.589859
-0.769104
0.794172
0.170188
-0.871845
-0.505995
-0.45964
0.162681
0.617014
-0.924082
-0.659257
-0.365212
-0.47257
0.701166
-0.365417
0.964792
0.584324
0.461468
0.730321
-0.494376
-0.363
-0.7988
-0.530648
-0.698374
-0.257648
0.848962
0.45473
0.391276
-0.95592
-0.347473
0.109978
0.600192
0.233607
0.89925
-0.498239
-0.826201
0.608029
0.533558
0.0296083
0.529407
-0.104104
-0.618752
-0.310825
-0.777021
0.0517869
0.577081
0.418272
-0.170732
0.7219
-0.9422
-0.208745
-0.827566
-0.369842
0.275248
0.384039
-0.134048
0.750477
-0.608005
0.428414
-0.757783
-0.267242
-0.915555
-0.86091
-0.374825
-0.627725
0.344364
-0.831781
-0.768062
-0.300854
0.219952
0.846922
-0.0957408
1.00715
1.03284
0.0631084
0.0646443
-0.534202
0.6985
0.824635
0.584829
-0.259523
0.349346
0.343805
-0.752428
-0.722315
-0.98123
0.0378041
-0.241296
0.704123
-0.895111
-0.112784
-1.12212
-0.436579
-0.917693
-0.00691955
-0.777874
0.759496
0.550444
-0.608304
-0.136981
-0.528006
0.68895
1.12081
1.01154
-0.0764
0.000400417
-0.197253
-0.215855
-0.328084
-0.202782
0.478944
-0.787769
-0.647069
-0.131039
-0.0421883
-0.878723
-0.196855
-0.340937
-0.177851
-1.08671
0.319216
-0.802397
0.00782924
-0.0885206
0.01981
-0.232713
0.735122
0.233972
0.475072
-0.208867
0.527586
0.438177
0.0668021
-0.378055
0.33374
-0.676979
0.756172
0.41313
-0.505536
0.94344
-0.344916
-0.33764
-0.26028
0.769999
-0.795526
-0.397552
0.753019
-0.911782
0.642267
-1.03259
-0.230382
0.594674
0.268843
0.279668
-0.443275
0.79437
0.3501
1.22004
0.464402
-0.252729
0.4222
0.536891
-0.462108
0.189931
0.85384
-0.286286
0.317643
0.383225
-0.145504
-0.0628618
-0.600705
-0.571043
0.625191
-0.232018
-0.318067
0.799186
-0.464511
-0.92678
-0.599061
0.763352
-0.0585248
0.544281
-0.127708
0.396089
-0.586157
0.212271
1.0083
-0.830575
-0.325931
-0.320555
-0.520076
-0.499298
0.644536
0.101836
-0.108494
-0.648361
0.0372387
-0.597582
0.681283
0.151122
0.2434
0.857317
0.944933
-0.42681
0.141363
-0.744605
0.555652
-0.401379
-0.616365
0.98328
-0.301354
0.493606
1.11901
-0.69062
0.485483
-0.668977
-0.693238
-0.0456518
-0.688245
-0.438836
-0.00303702
-0.355225
-0.967692
0.216557
0.649582
-0.759098
0.902517
0.16129
-0.518371
-0.779664
0.339241
-0.561698
0.538191
-0.218968
-0.82558
-0.566223
-0.600938
0.464795
-0.00249741
0.735548
1.09077
-0.539396
-0.266687
-0.315039
0.1883
-0.7292
0.469651
0.672033
-0.741275
-0.195877
0.376153
-0.879941
0.213659
0.838127
-0.403105
0.58855
-0.573204
1.10049
-0.0762427
-0.914951
0.465111
0.360685
-0.696934
0.669817
0.601972
0.612145
0.785465
0.182305
-0.322991
0.674241
0.801998
-0.424874
-0.9859
-0.6211
0.224458
0.0565536
-0.606506
-0.272973
-0.45536
-0.316649
0.473009
0.222574
0.475878
0.268732
0.781681
-0.606819
0.738078
0.550839
-0.331147
-0.450142
0.594197
-0.865615
0.142511
-0.680182
0.0196421
0.138565
0.122919
0.00350712
-0.211722
-0.799604
-0.4324
-0.368423
0.670652
-0.123817
0.696533
-0.954846
-0.471248
0.205572
0.676672
-0.462367
-0.264412
-0.310406
-0.149205
0.671418
-0.129578
0.523652
-0.86928
-0.690995
-0.341003
0.449553
0.149735
0.389052
-0.763533
-0.689953
1.02633
0.674495
-0.749162
-0.853157
-0.5264
0.393283
0.390785
-0.627368
-0.210144
-0.441298
-0.648527
0.977371
0.0751697
0.600132
0.859008
0.807311
0.449676
-0.11642
-0.658378
0.776062
-0.840049
0.938092
0.15906
0.940862
-0.22967
1.06164
0.00375848
-0.0589862
0.133348
0.399181
0.320174
0.173681
0.0314
-0.373967
-0.804832
-0.424776
-0.856117
-0.317635
-0.525858
0.146068
-0.764748
-0.577447
1.01771
0.606838
-0.254695
0.308279
-0.428026
-0.749969
-0.144178
0.397691
-0.174641
0.212453
-0.653058
0.141349
-0.418852
0.45997
0.6067
-0.0877102
-1.00756
0.163988
-0.8741
-0.224529
0.148003
-0.439352
-0.0132744
-0.701646
0.377261
-0.166296
0.952865
0.700882
0.419556
0.395262
0.691979
-0.994775
-0.95099
-0.254791
-1.00985
0.206821
0.800017
-0.92736
-0.84041
0.75242
0.897703
-0.483877
0.311987
0.932342
0.223884
0.158018
-0.1683
-0.601649
0.000345904
0.0103339
-0.672608
-0.610077
-0.188648
0.682407
-0.72656
0.0891427
-0.521055
0.113139
-0.678006
-0.910648
-0.210583
0.209627
0.484866
0.533694
-0.551457
-0.603706
-0.880821
-0.146739
-0.184104
-0.126823
0.0176573
0.733856
-0.159773
-0.204359
0.7348
0.749104
0.0492104
0.573547
-0.185938
0.201615
0.371955
-0.669467
-0.324238
0.308905
-0.20934
-0.544144
0.790639
-0.304673
-0.301071
-0.301214
-0.835392
-0.208769
0.45318
0.898893
0.696192
0.27637
-0.331873
-0.558934
-0.456204
-0.0406707
0.939003
-0.283264
0.3225
0.3614
-0.5157
0.7362
0.179104
-0.249366
-0.582273
-0.718401
0.818732
-0.630938
-0.768949
-0.590188
0.8567
0.181
0.6354
-0.8185
0.7376
0.3612
-0.2948
0.6832
-0.7244
0.1492
-0.0156571
-0.75006
0.0716
0.3379
-0.554
0.7325
-0.6484
-0.8447
-0.3611
0.2374
-0.510501
-0.382255
0.304749
-0.871713
0.307655
-0.953372
-0.257125
-0.565676
-0.656455
-0.916098
-0.561823
0.141667
-0.864067
-0.372696
-0.798377
0.71956
-0.550535
-0.323183
-0.732029
-0.747607
-0.674288
-0.279394
0.7726
-0.3617
0.6278
0.9661
-0.933343
0.441232
-0.849101
-0.642546
0.464755
0.336323
-0.761959
-0.207466
-0.562877
0.855922
-0.632179
0.127827
0.49761
0.26104
-0.663076
-0.8402
-0.924155
0.492936
-0.195726
-0.431242
0.732034
-0.405912
-0.556716
0.923946
0.350505
0.897425
-0.1942
-0.1969
-0.622705
0.274103
-0.794069
0.902725
-0.79811
-0.91789
0.609878
-0.810071
0.255206
0.888889
0.7945
0.258738
0.754319
-0.0253001
0.159831
-0.513733
0.914802
0.694407
-0.132988
0.351488
-0.647624
-0.0147621
-0.859288
0.748908
0.27037
0.82592
-0.4263
0.8089
0.664459
0.189962
-0.32378
-0.491127
-0.0167086
-0.599935
0.225897
0.242738
0.769733
0.396324
-1.0307
-1.17491
-0.380192
0.320731
0.405318
-0.507136
-0.54822
-0.109217
-0.677246
0.0828225
-0.608919
-0.0945654
0.561376
0.524782
-0.78673
0.611728
-0.460809
-0.138
-0.455794
0.473867
0.20296
-0.358307
-0.0381286
-0.989909
0.413728
0.0709319
-1.02536
-1.19578
-0.0907987
0.322964
-0.694075
-1.182
-0.823666
-1.22551
0.141287
-0.73048
0.0124537
0.515561
0.574718
-0.433313
0.37841
-0.0232334
0.262435
0.877426
-0.253805
-0.4212
0.333181
0.0406503
0.708435
-0.582852
-0.729141
-1.04201
0.653374
0.611285
-1.31199
-1.05667
-0.436872
-0.582405
0.131618
0.638399
0.27032
0.169107
0.182461
-0.969794
-0.748145
-0.290413
0.246126
0.0542717
-0.486826
0.474244
-0.555258
0.85233
0.293394
-0.0863
-0.700886
0.860087
0.474998
0.917752
-0.246924
-0.915177
-0.622056
-1.15159
-0.0806416
-0.819952
-0.721796
-0.603519
-0.390561
0.0925926
-0.907609
-0.310774
-0.807598
0.513027
-0.0341014
0.631268
0.855575
-0.707238
0.895945
-0.450595
0.839611
-0.404336
0.602
0.0223
-0.489341
0.224109
1.01535
-0.156138
0.978158
-0.0643516
0.0591143
0.0301271
0.595558
-0.743053
-0.785831
0.849375
-0.594348
-0.595002
-0.212518
-0.739456
0.560666
0.395725
-0.0100747
0.849626
-0.663761
0.929509
-0.540321
1.11882
0.459937
-0.299956
-0.2482
0.4618
0.974578
-0.421276
0.339437
0.828525
-0.788255
-0.57604
-0.0522816
0.643624
-0.94564
0.122111
-0.0629878
-0.0227223
0.921836
-0.829402
0.913138
-0.145862
-0.0292965
-0.16601
-0.569174
0.816796
-0.560317
-0.544062
1.20998
0.847258
0.39711
-0.891841
-0.394523
-0.5205
-0.246068
0.177889
-0.611974
0.671267
0.625066
0.294251
-0.833185
-0.782574
0.489577
-0.729545
-0.466979
-0.208929
0.469985
0.40509
0.953987
-0.670673
0.758508
0.313705
0.667384
-0.271196
-0.00256907
0.294477
-0.0608855
0.543897
0.485402
0.300281
-0.286907
-0.7634
0.0814948
-0.148697
-0.0564831
0.822412
0.501465
0.677306
-0.880386
0.402743
-0.903738
-0.543764
-0.569347
-0.555692
0.693188
0.658338
-0.0455141
-0.426892
-0.430984
-0.527003
0.624623
0.15169
-0.750963
0.389154
-0.28536
0.749036
0.741519
-0.213228
-0.4194
0.6135
0.931651
-0.22371
0.579277
-0.659509
0.598153
-0.732356
-0.031429
-0.153945
0.348351
0.263938
-0.621232
0.444765
-1.04113
0.369431
0.0654579
0.987409
0.140582
-0.476232
0.264958
0.57152
-0.10097
-0.477723
-0.202119
0.137018
-0.631374
-0.1147
0.3824
0.2077
-0.662675
0.313858
-0.770694
-0.00450957
0.654938
-0.79266
0.28082
0.405152
-0.101039
-1.07211
0.13968
0.251745
-0.647194
0.870943
0.657821
-0.449217
0.121571
-0.00902252
0.436419
0.7382
-0.433773
-0.0195023
0.97458
-0.329814
0.937167
-0.281201
-0.7234
0.3494
0.94396
-0.215958
0.616411
-0.313682
-0.195884
0.0194358
-0.473659
-0.581435
0.5588
0.561829
0.664106
-0.165187
-0.0840269
-0.270843
-0.712198
0.837243
-0.249685
0.0624272
0.488418
-0.755774
-0.856905
0.561851
-0.724679
1.06642
-0.603265
-0.958145
0.1771
-0.117796
0.606655
0.310844
-0.433682
0.74546
-0.207384
-1.0975
0.257158
0.673793
-0.0484804
0.141071
-0.358283
0.143557
0.711951
-0.392456
0.613188
-0.547513
0.821987
0.916884
-0.84107
0.202847
-0.670263
-0.301877
0.0636196
0.744597
-0.494067
0.381461
0.210323
0.445915
0.827642
-0.263504
-1.01981
-0.248772
0.4387
-0.717865
-0.98703
0.81385
0.154601
0.751389
1.20166
0.725338
-0.113314
0.0780563
0.638658
0.193496
-0.374723
-1.1204
0.042906
-0.968617
0.542857
0.476967
0.705552
0.63121
0.0580744
0.520678
-0.673596
0.983964
0.808884
-0.116311
-0.0868846
0.079264
0.0474147
0.377454
-1.04272
-0.704467
-0.114352
0.714972
0.694853
-0.0778394
0.512507
-0.106989
0.226714
-0.706782
-0.0795115
0.550821
-0.278665
0.179826
0.137067
0.0133809
0.905416
-0.350906
-0.351654
0.655941
-0.333208
-0.14894
0.0643238
-0.997316
-0.843261
-0.452672
-0.798919
0.146499
-0.477256
0.942088
0.0317104
-0.440063
-0.507101
-0.014065
0.343611
-0.741375
-0.269007
0.154371
-0.00185702
0.680231
0.509597
-0.474338
0.778633
0.41579
-0.722724
0.906323
0.326238
0.735655
-0.858916
0.299972
-0.246346
-0.255235
-0.796098
-0.0178358
-0.902328
-0.589225
0.533299
-0.259631
-0.907243
-0.746085
0.625542
0.759391
-0.690124
0.548357
-0.213456
-0.181026
-0.125969
-0.14456
-0.0760745
-0.821671
-0.717966
0.171141
0.384875
0.487049
-0.017606
-0.126942
0.3257
0.8489
-0.949036
-0.373128
-0.231732
-1.0045
0.395603
-0.482964
0.350262
-0.814819
-0.311042
-0.0956404
0.936716
-0.725122
-0.675364
0.0353114
0.204565
0.0160104
-0.82242
0.838492
0.528789
-0.278736
-0.299622
0.728859
-0.254472
0.529116
0.283312
0.438856
0.8485
0.6798
0.377834
-0.82625
-0.77551
-0.479451
0.332225
-0.98196
-0.806712
0.330429
0.0996108
0.837607
-0.207807
-1.01982
-1.12339
0.309859
0.426485
0.573511
-0.992585
-0.79037
0.382004
0.318754
0.99954
-0.316896
1.14674
0.983797
0.344005
0.264048
-0.2624
0.424399
-0.181997
-0.700026
-0.144573
-0.911364
-0.145051
-1.02955
-0.0345239
0.323168
-0.532532
0.605634
-0.552017
-0.377887
-0.53781
0.543733
0.562429
-0.780332
0.946793
-0.522005
-0.3275
-0.837319
-0.801122
0.938102
0.229316
-0.783273
0.336101
0.100636
0.9212
-0.644406
0.366122
-0.378285
-0.397545
-0.118602
0.801028
0.348661
-0.869129
0.481581
-0.465884
-1.01385
0.521202
-0.431888
0.256408
0.18718
0.484416
0.184266
-0.86082
0.687105
0.350016
-0.141112
0.906137
-0.744648
0.697879
-0.734979
0.695837
-0.602094
0.8437
0.7333
-0.420538
0.643695
0.916505
0.802093
0.661522
0.678405
-0.523411
-0.482513
-0.137273
-0.233707
0.182538
0.684653
-1.09225
0.465094
-0.0725048
0.21788
-0.167713
-0.740276
0.612761
-0.0823695
-0.048891
0.585594
0.34256
-0.368526
0.0216309
-0.164067
-0.5239
0.5064
-0.0751463
0.623941
-0.711208
-0.912848
-0.252788
-0.674608
-0.494331
-0.808675
-0.803173
-0.784654
-0.560559
-0.288321
-0.20219
-0.801402
-0.948589
-0.486855
-0.45547
0.674859
0.202218
0.417987
-0.927372
-0.506057
-0.365718
-0.763757
-0.881794
0.989955
-0.8707
0.8564
-0.682027
0.488007
-0.21066
0.959382
0.645382
-0.806362
0.556282
-0.423093
0.743239
0.150613
-0.468102
-0.404622
0.640538
-0.998569
0.535451
0.414173
-0.0273588
0.395778
0.0571736
0.513144
0.86979
-0.885181
0.318766
0.924223
0.479467
-0.985857
-0.4487
0.7219
-0.797984
0.390566
0.385236
-0.933761
0.590395
-0.584225
0.113024
0.513286
0.805128
0.791213
0.278471
0.89748
0.834809
-0.660184
-0.839989
0.0345364
-0.827326
0.0590573
-0.382952
0.708266
-0.00958863
0.752818
-0.75001
0.691152
-0.901146
0.974915
0.5407
0.4392
-0.8749
0.449
-0.347515
-0.411273
0.179709
0.452262
-0.420895
0.844909
-0.696554
-0.213377
0.9313
-0.4413
-0.581202
-0.646302
0.7792
0.1723
-0.1252
-0.6104
-0.0107
-0.1343
-0.890204
0.834954
-0.4073
0.5727
0.8271
-0.3519
-0.7566
-0.9271
0.677
0.941
-0.110201
0.394747
-0.439936
0.406869
-0.771729
-0.821109
-0.585464
0.368956
0.227514
0.377885
-0.689289
-0.564086
-0.58076
-0.52921
-0.626396
0.923142
0.7094
0.237439
-0.607406
-0.762653
0.876
0.3666
-0.0149
-0.1237
0.4936
0.669
-0.594006
0.316934
-0.371897
0.42861
-0.448251
0.788139
0.583819
-0.33869
0.041622
-0.359015
-0.941315
-0.507223
0.748608
0.977603
0.964332
-0.438973
0.720154
-0.614544
-0.165007
-0.324092
0.459097
-0.490185
-0.299876
-0.760308
-0.709027
-0.447278
-0.6708
-0.987
-0.873573
-0.00937228
0.683934
0.728229
-0.866437
0.952974
0.405871
-0.100712
0.144182
-0.705404
0.450781
-0.816727
0.0153643
-0.15691
0.518729
0.662156
0.730475
-0.437151
-0.386419
0.381193
0.505659
-0.523074
0.416684
-0.332759
0.10171
-0.17732
0.3785
-0.6271
-0.696569
0.733379
0.188359
-0.495145
0.804128
-0.797376
0.332396
0.863895
-0.129952
-0.2936
0.737744
-1.09302
-0.214727
0.683472
-0.782828
0.79525
-0.959145
0.474376
0.235653
-0.546898
-0.814213
0.211201
-0.0296102
0.354796
0.041202
-0.165336
-0.619303
-0.7274
-0.648991
-0.362927
-0.993364
-0.0202937
-0.568564
-0.377114
-0.586851
-1.02461
-0.295775
0.341782
-0.677883
0.598132
0.652153
0.565573
0.0476423
0.815996
0.873069
-0.520592
0.495863
0.364463
0.584215
0.173808
-0.058037
-0.885226
-0.644381
-0.826398
-0.850902
0.4409
0.0368994
-0.462066
-0.626776
-0.722935
-0.122816
0.703843
-1.07448
0.161795
0.0346948
0.819017
-0.737692
-0.0566772
-0.345259
0.860514
0.930438
0.14792
-0.200986
-1.00566
-0.0659057
0.744193
0.589327
0.271997
-0.00135127
0.835551
-0.901719
-0.302557
0.8939
-0.7717
0.101185
-0.380275
-0.58114
-0.562329
-0.370569
-0.0604728
-0.50393
-0.243957
-0.280439
0.73058
-0.0504653
-0.497174
0.85175
-0.644976
0.172275
0.744107
0.877462
0.375958
0.838888
-0.578303
0.604784
0.447669
-0.0146064
0.712591
-0.711788
-0.673201
0.8122
-0.7596
0.584013
-0.48266
-0.463502
-0.480528
-1.03589
0.622151
-1.21486
-0.862599
0.222305
-0.0380377
-0.958494
0.707838
-0.333865
0.913356
0.0591613
0.0652583
0.7067
0.792306
0.0664764
-0.0749645
-0.116547
-0.57762
0.813565
0.329721
0.0766917
-0.25561
-0.1014
-0.4491
0.446046
0.275808
-0.0145858
0.154052
0.519618
-0.991502
-0.3682
-0.866561
-1.14154
-0.333247
-0.457409
-0.591319
0.215955
0.637399
0.434179
-0.0171208
-0.309645
0.505213
0.776499
0.459333
0.918944
0.122065
-0.856376
-0.0389998
0.877228
0.163487
0.423716
0.2245
-0.938192
-0.436149
0.616017
-0.0803795
-1.08032
0.72184
0.0370707
0.321576
-0.637883
-0.728118
0.641975
-0.00956892
-0.598968
-0.204683
-0.380409
-0.374287
0.0138861
-0.0167359
0.574946
0.167109
-0.868526
0.284026
0.655564
-0.614102
0.586082
-0.827175
0.236835
0.6791
-0.965096
-0.230061
-0.0826597
0.0639093
-0.897396
-0.734669
-0.771857
0.21188
-0.775188
-0.512052
-0.172198
-0.976845
0.613654
-0.793665
1.00066
-0.234375
0.215544
0.687538
-0.158184
0.220686
0.623965
0.139879
-0.0176881
0.513497
-0.299091
0.445587
-0.1881
0.555
-0.539415
0.0547534
-0.275588
-0.383595
-1.01387
-0.629795
-0.901563
-0.629022
0.264662
-0.747502
-0.0251283
-0.261178
-0.246644
-0.529099
0.764495
-0.384723
-0.556171
0.232929
0.574739
0.900336
-0.15913
1.14454
0.402817
-0.0440087
-0.685785
-0.270004
-0.0757
-0.2489
0.995332
0.980974
0.450872
-0.652946
-0.766142
-0.436053
0.710176
-0.736774
0.652048
0.199382
-0.877353
0.889153
0.569912
-0.590887
0.000307371
0.728207
0.534502
0.357696
0.588444
-0.546255
0.852008
0.332912
-0.407875
1.44775
0.636113
0.930479
0.1068
-0.1277
0.560061
-0.662371
-0.62508
-0.56898
-0.782277
-0.601191
-0.610749
-0.292464
0.267545
-1.03758
-0.760986
0.611317
-0.792297
0.217569
-1.09319
-0.328385
-0.906384
-0.142281
-0.512022
0.399438
-0.0580276
0.680594
1.03652
0.468006
-0.484118
0.296063
0.3753
0.733401
-0.847548
0.222793
0.857794
-0.323709
-1.07117
0.45576
-0.627612
-0.615986
0.0720694
0.0522424
-0.509088
0.280464
0.396845
0.00816842
0.418161
0.493986
-0.360882
0.167576
-0.0821722
-0.115817
0.712576
0.931112
0.117323
0.631516
-0.123023
-0.81848
0.939007
-0.262238
0.22835
-0.28366
0.43765
-0.162913
-0.290631
0.765666
-0.204837
0.919822
-0.665203
-0.47645
-0.80359
-0.802676
-0.542717
-0.589217
-0.351742
-0.776723
0.0736639
-0.805278
-0.540658
-0.0456467
0.515643
-0.368567
-0.314203
0.424657
0.0427276
-0.815871
-0.919999
-0.983801
-0.649269
-0.632602
-0.720766
-0.472568
0.149791
-0.371944
-0.584428
-0.579502
0.970149
0.903496
-0.0969451
0.323621
0.129132
-0.0602263
0.559287
-0.430966
-0.609973
-0.0833011
0.417646
0.453194
0.0308178
0.489756
0.647179
0.246711
0.418697
-0.621476
-0.829111
-0.0039272
-0.130747
-0.917382
-0.909435
0.370254
0.205102
0.555403
0.210685
-0.725696
0.417555
0.415302
-1.09717
-0.0163021
-0.804734
-0.17344
-0.575445
0.395755
0.541078
0.363984
-0.285315
-0.654522
-0.953729
-0.695467
0.195188
0.394503
0.26208
0.515283
0.0733005
0.906347
0.00152797
-0.715619
-0.546452
0.685135
-0.112312
1.03792
-0.127552
0.0227761
0.515641
-0.260515
0.332365
-0.392586
-0.73119
-0.400859
0.0915686
-0.179669
0.86333
0.0863648
-0.323094
-0.192186
-0.00395017
0.221569
-0.232753
0.0834911
-0.77397
-0.0022143
-0.0547
0.8453
-0.570412
0.773614
-0.683024
-0.35717
-0.436676
-0.617902
0.0631338
0.307883
0.370593
0.666405
0.508576
0.059895
-0.293534
-0.0876633
0.509099
0.323399
0.56149
0.462471
0.0513067
-0.0246012
-0.779375
0.49906
0.837324
0.423039
-0.200555
0.708383
0.7918
-0.9854
-0.921599
0.639699
-0.445652
-1.01544
0.30632
-0.00550492
0.0940956
-0.909093
-0.693277
0.135664
-1.04458
-0.141248
-0.0560703
-0.0824579
0.806985
-0.747738
0.900948
0.643925
-1.08165
0.863991
0.677325
-0.708906
-0.898372
-0.00303493
-1.02185
-0.672345
0.556
0.6645
0.452033
-0.723397
-0.193139
0.712998
-0.560725
0.53414
-0.777332
0.888796
-0.363536
0.78379
0.00305093
-0.238992
-1.02444
0.475859
-0.443454
0.366636
-0.825914
0.18557
0.244821
-0.26956
0.4064
0.162033
-0.798594
-0.244592
-0.891605
0.924476
-0.3101
0.4849
0.958456
-0.592856
0.407835
-0.607576
-0.0406671
-0.947623
-0.0936474
-0.622722
0.326072
-0.731616
0.319003
-1.05934
0.707204
0.345113
-0.569391
-0.315201
-0.903187
0.71421
-0.25048
0.288294
-0.671315
-0.768368
-0.797431
-0.752335
-0.963146
0.0232915
-0.492
-0.4867
-0.726735
-0.926418
0.143131
-0.98356
-0.839888
-0.258948
-0.138857
0.0377256
0.11337
0.0918965
0.0616794
-0.553189
-0.596359
0.361457
0.64656
0.544214
0.665311
-0.63455
0.206871
-1.00258
-0.60169
-0.650345
0.0248084
0.79533
-0.367729
-0.13964
-0.5144
-0.1946
-0.917048
0.269059
0.762026
0.206405
-0.672737
0.605884
0.227236
0.984616
0.807367
0.581327
0.633686
0.732566
0.731107
0.489782
0.950754
0.663519
-0.917467
-0.92976
-0.530103
-0.303844
-0.43125
-0.158961
0.702229
-0.599304
-0.657516
-0.267025
-0.6102
0.5653
0.242586
-0.783621
0.485027
-0.0603828
-0.670149
0.213341
-0.661696
-0.398653
0.781834
0.477233
-0.440362
-0.234827
-0.473373
-0.432201
0.265116
0.485249
0.228342
-0.723929
0.327256
0.399683
-0.968877
-0.353547
-0.0403641
0.64032
-0.806849
-0.0318336
0.8238
0.4753
-0.697578
0.783983
-0.568098
0.382841
-0.287915
0.940175
-0.0958626
0.417201
0.697987
-0.327523
-0.201555
-0.181277
-0.873318
-0.59953
-0.878104
-0.140845
0.403136
0.32258
-0.320669
0.614789
-0.399022
-0.782249
-0.808543
-0.263547
0.454859
0.308798
0.8342
-0.8199
-0.0295
0.8311
0.620703
-0.663441
-0.562756
-0.607777
0.738519
-0.255489
0.465674
-0.864574
-0.4186
0.19105
-0.321629
-0.13592
-0.190879
-0.217749
-0.296301
0.6457
0.1254
0.6265
-0.26457
-0.657883
0.5959
0.7231
0.678
-0.6519
-0.4858
-0.3984
-0.7598
-0.946
-0.2942
-0.81368
0.535593
0.104071
0.853692
-0.581471
-0.907159
0.543539
0.113287
0.506976
0.0167832
-0.0185612
0.161327
-0.947848
-0.162896
-0.078696
-0.851083
-0.998196
-0.39799
0.505702
0.092503
-0.400799
0.542
-0.1488
0.5602
-0.2367
0.279099
0.225686
-0.00834838
-0.666708
0.857817
0.0746818
0.0455322
0.350837
0.0411644
-0.0443022
-0.837404
0.720057
0.0990692
-0.923172
0.973575
0.877458
0.50242
-0.548747
0.266538
-0.597156
-0.558285
0.270649
-0.335369
-0.505785
0.410377
0.266238
-0.638505
0.2545
-0.953868
0.458362
-0.76956
0.765405
-0.603321
0.571994
-0.609608
-0.923399
-0.898714
0.77879
0.122245
0.0126038
-0.192738
-0.617359
0.927962
0.63238
-0.478677
0.387035
-0.938203
0.208288
0.0399213
-0.791587
-0.244356
0.959483
-0.235804
0.0454853
-0.256812
-0.8764
-0.340005
-0.934604
0.00392505
-0.313146
-0.455709
-0.0697543
-0.748198
-0.354722
0.776172
-0.357134
0.16198
0.162578
-0.542695
-0.73067
0.0750242
-0.146164
-0.702956
0.546602
0.195671
-0.673017
0.875247
0.675604
0.454915
-0.35606
-0.302622
0.037954
0.0970274
0.7003
0.522731
-0.461474
-0.898552
-0.635008
-0.715415
-0.366969
-0.15288
0.207262
-0.584522
-0.197237
0.125595
0.0365709
0.23467
-0.942625
-0.743308
0.192828
0.483502
0.21095
-0.203759
-1.11258
-0.304943
0.473864
-0.52857
0.00594497
0.357587
-0.259507
0.0794738
-0.7514
-0.820323
0.403104
-0.480148
-0.570371
-0.188247
-0.154349
-0.414595
0.503197
0.0141406
0.163732
-0.678219
-0.102199
-0.659327
0.369361
-0.866698
-0.981386
-0.760707
-0.718821
0.583866
0.476458
-0.140779
0.582939
0.731233
0.289319
0.111126
0.472842
-0.5639
-0.5124
-0.732219
0.212678
0.431531
-0.437069
-0.40949
-0.475112
1.01106
-0.696097
-0.502145
0.436155
0.925777
0.283234
0.273948
-0.985866
-0.0967694
0.884439
-0.721914
-0.164438
-0.937966
0.105267
-0.634454
0.328932
0.167128
-0.924292
0.473844
0.0101396
0.9736
0.1313
-0.67192
-0.822356
-0.503114
-0.49742
0.0938904
-0.424497
-0.00911226
0.173083
0.00798678
0.786082
0.250858
0.632279
0.82539
-0.654979
-0.181714
0.255953
-0.564551
0.257286
0.0439587
-0.590596
0.801821
0.32511
-0.976559
-0.398883
-0.039759
-0.738963
-0.0912
0.5009
0.769026
0.755187
0.703762
0.776164
0.433499
-0.273186
0.491079
-0.32726
-0.563796
0.17976
-0.340249
-0.291366
-0.914151
-0.644879
0.503874
-1.06753
0.543699
-0.61935
0.138608
-0.23333
0.593196
-0.728827
-0.559324
0.629671
-0.0155388
-0.91759
0.320696
0.3885
-0.764357
0.27432
-0.841287
0.800645
-0.506314
0.0661101
0.100817
-0.323891
0.647764
-0.272598
-0.324671
-0.036571
-0.152483
-1.0838
-0.0215682
0.394501
0.810763
0.446523
-0.73773
-0.177984
-0.447172
-0.355188
0.702928
0.202407
0.847417
0.226749
0.97827
-0.4117
0.484279
-0.241867
0.27151
0.820586
-0.607263
0.320767
0.934435
-0.0859908
0.725532
0.769024
1.06443
0.850263
-0.859633
0.189818
-0.40054
0.395289
0.0697254
-0.638067
-0.53117
-0.689264
-0.189139
-0.341979
0.425639
0.510425
0.379996
-0.036213
-0.3914
-0.5791
-0.309569
0.470533
0.654568
0.440344
-0.48544
-0.251208
-0.213974
0.904797
0.545005
0.142097
-0.0313163
0.0245377
0.573511
-0.874072
-0.582095
-0.798617
-0.422287
-0.719602
0.798288
-0.692521
0.635385
-0.446761
-0.641954
-0.728202
0.316501
-0.651088
0.8872
0.3953
0.474733
-0.624017
0.872036
-0.375228
-0.151296
0.152973
-0.536767
0.733551
-0.511698
1.00121
-0.370716
0.772004
0.660809
-0.0658052
-0.171724
-0.610361
-0.0528374
-0.0897077
-0.801216
0.437347
0.0819319
0.949972
-0.909421
0.0107458
0.436666
0.619554
-0.5201
0.343
-0.194494
0.630082
0.0404882
0.54911
0.640686
-0.412693
-0.827938
-0.28756
0.300462
-0.186811
0.773159
-0.408688
0.310432
0.440124
-0.341904
-0.00274386
-0.575709
-0.314452
-1.04282
-0.730426
0.591673
-0.2431
-0.851367
0.152154
0.216962
-0.71442
-0.7094
-0.940213
-0.885803
0.596201
-0.0560181
0.65832
-0.939633
0.59281
0.197978
0.981462
-0.340533
0.497309
0.461152
0.60524
-0.375868
-0.392441
0.644668
-0.640051
-0.073336
-0.447944
-0.433769
0.0890513
0.05005
-1.05154
0.631063
0.26723
-0.0952703
-0.2873
0.0116324
-0.0684453
-0.617464
-0.386198
-0.591045
0.0640632
-0.636682
-0.381687
-0.790834
0.598946
-0.253558
0.515691
0.015157
-0.531883
-0.432597
-0.115562
-0.785061
-0.47251
0.793595
-1.01144
0.337445
-0.01337
-0.677344
-0.247166
-0.408293
-0.657383
0.636715
-0.182469
-0.372513
-0.90053
-0.693144
1.0326
0.372335
0.124539
-0.622409
-0.54637
0.353732
-0.817981
0.933419
0.877378
1.14923
-0.00786441
0.115378
-0.0262213
0.856023
-0.250544
-0.97404
-0.218654
-0.874151
-0.592268
-0.180009
-0.485353
-0.673338
0.349219
0.872895
0.743583
-0.229095
0.423855
-0.679107
0.77196
0.748429
0.806668
0.00852061
-0.526931
-0.682603
0.904663
-0.191582
-0.192119
1.09332
0.243782
0.632232
-0.693722
0.845748
-0.892598
-0.593958
0.557009
-0.82036
0.160753
-0.980305
0.777459
-0.848847
-0.0149363
-0.854765
-0.840725
-0.9558
0.50895
0.369082
-0.257234
0.33323
-0.662226
0.0118599
0.122731
0.17877
0.286859
0.756637
1.32878
0.363317
1.30295
0.329933
0.103225
0.968225
-0.615025
-0.901559
-0.291121
-0.64191
0.0656376
-0.909081
0.843111
-0.891748
0.513771
-0.0483156
0.881588
0.8015
-0.4045
-0.937724
0.110956
0.500057
0.10813
-0.917469
-0.405787
0.396757
-0.146134
-0.159269
0.0801189
0.212713
0.812078
0.0958719
-0.745967
-0.260691
-0.720965
-0.975967
0.119186
-0.364607
0.0268898
-0.350352
0.268256
-0.0730774
-0.250795
0.0403418
-0.395868
0.685
-0.144
0.495189
0.639866
0.015185
-0.120172
0.14701
0.47267
-0.437892
-0.314426
-0.0758127
1.01672
1.17079
0.900962
-0.456449
1.03607
-0.88069
-0.15625
-0.556794
-0.377148
-0.930915
0.95766
-0.85879
-1.04486
-0.430446
0.590846
0.515997
-0.407309
0.6829
-0.4421
-0.474402
0.630371
0.291827
-0.662936
-0.616253
-0.354481
0.738622
-0.0234062
-0.10648
-0.307576
1.11959
-0.518264
0.984219
-0.569535
0.866686
-0.587666
0.58087
0.547981
-0.167514
0.188401
-0.592714
0.543875
0.723734
-1.08507
0.598713
0.417991
-0.8633
-0.0482
0.569536
-0.673985
-0.0570414
0.907067
0.785415
-0.447239
-0.525729
-0.180533
0.444443
-0.497254
-0.0017779
-0.650993
-0.247374
0.689814
0.738274
0.78979
-0.132189
0.933986
0.857026
0.242578
-0.0633354
0.622092
-0.559709
0.595569
0.190672
0.802641
0.6541
-0.685251
0.49147
-0.766588
0.709034
0.360901
0.0342631
-0.155544
-0.0869176
0.201578
0.104407
0.0611771
0.642589
-0.0921231
0.414799
0.554
-0.331519
-0.0984863
0.281373
-0.217817
0.298458
-0.640552
0.725972
0.664172
-0.567308
0.195174
0.917556
-0.443663
-0.1418
-0.544179
-0.542918
-0.681763
-0.0298606
-0.722572
-0.617529
0.742316
0.105679
-0.547958
0.93541
-0.349263
0.724436
0.025764
-0.399901
0.825077
-0.0678982
-0.147747
0.382173
-0.13459
0.41187
0.274534
-0.0437588
0.346272
-0.138676
-0.706957
0.933246
-0.0862527
0.3383
0.720227
-0.98913
-0.905686
-0.218133
-0.889775
0.336453
-0.015473
0.432255
-0.391107
1.0914
-0.729154
-0.688904
-0.953163
0.599617
-0.618235
-0.598986
-0.217284
0.590962
0.871782
0.79134
0.801693
1.00177
-0.324595
0.881661
0.455263
-0.270901
-0.848335
0.038
-0.779705
0.458586
-0.85097
0.361259
-0.85837
0.91085
-0.896858
0.325903
0.254741
0.299046
-0.312618
-0.23066
-0.737703
-0.281181
-0.552291
-0.0514691
-0.146997
-0.897039
0.41162
-0.904952
0.119773
0.571284
0.67377
-0.914256
0.952103
-0.240389
-0.617829
-0.7973
0.1735
-0.2328
-0.5645
-0.309134
-0.213345
0.269162
-0.851401
-0.132291
0.919422
-0.949864
0.518471
-0.5373
-0.8797
0.208813
0.269913
0.454901
-0.94
0.0167
-0.1004
0.6918
-0.4187
-0.0551453
-0.590433
0.5533
-0.1983
-0.005
-0.1684
0.5783
-0.7724
0.1502
-0.1575
-0.432298
-0.850138
0.210464
0.153543
0.101744
-0.834938
0.405045
0.653257
0.0151504
-0.173163
-0.592152
0.38927
-0.719962
0.808126
-0.236979
-0.776254
0.897103
0.761265
0.0181019
0.063997
-0.698899
-0.400099
0.0177
0.9866
0.1406
-0.1919
-0.996206
0.945859
-0.75408
-0.158797
0.934367
0.960138
-0.944526
-0.604633
-0.305613
-0.277745
-0.546681
0.512738
-0.911479
0.492961
-0.894393
0.0817198
-0.939516
-0.503644
-0.387716
0.87329
0.585443
0.62897
-0.209141
0.296418
-0.921853
0.140558
0.414397
-0.2529
0.33979
-0.403986
0.454348
0.902124
-0.52632
-0.0384087
-0.00999185
0.853957
-0.744778
0.454745
-0.781786
0.770886
-0.456825
0.293553
0.617072
0.15084
0.15773
0.984122
-0.0316984
0.887265
0.14949
-0.764143
0.00977219
-0.193049
0.38912
0.362505
0.145176
-0.0278
-0.667938
-0.782383
0.850466
-0.637142
0.0678288
0.0201309
-0.0663907
-0.312419
-0.393079
0.242255
0.724316
0.309994
-0.327291
-0.916686
0.367437
-0.988462
0.0966977
0.0175466
0.720711
0.124393
0.0943401
0.313927
0.867959
0.0938846
-0.982715
-0.275492
0.779162
0.0558
0.0638148
0.743745
0.451984
1.06623
-0.724541
0.365129
-0.760448
0.246398
0.336927
0.443024
-0.16906
-0.729306
-0.914477
-1.04071
0.563958
-0.369625
-0.00826531
0.690128
1.01838
-0.649789
0.15411
0.550229
0.392044
-0.617408
0.445025
0.0896176
0.980505
-0.3847
-0.105481
-0.523122
0.759267
-0.634648
0.864678
0.533856
-0.210925
0.310169
0.585153
0.571093
-0.0827224
-0.342778
-0.420519
-0.117983
0.65033
-0.452085
0.822276
-0.260421
0.0387292
0.689915
-0.718811
0.434579
0.555184
0.0600919
0.747954
-0.40449
0.1302
0.517
0.900404
-0.633168
-0.610592
-0.155983
-0.693062
0.674238
-0.162447
0.190778
0.685301
-0.0858457
-1.02822
0.525596
-0.0298193
-0.392093
-0.0960289
0.892696
-0.591622
-0.276986
0.0934705
-0.0836086
0.354982
0.185379
0.68202
0.315651
-0.918178
0.765463
0.5529
-0.0041
-0.973093
0.505293
0.985189
0.628569
0.0777792
0.179303
-0.319577
-0.775565
-0.27971
0.53632
-0.467856
-0.945651
-0.642712
-0.0730478
-0.257499
-0.440149
-0.0701288
-0.427232
0.272311
-0.506502
-0.892783
-0.0112938
0.259365
0.189623
0.0693129
-0.66602
-0.5872
-0.74
0.0012993
0.917441
-0.0959409
-0.323533
-0.891808
-0.0864939
0.467403
0.585311
0.787787
-0.779347
-0.74152
0.671844
-1.03001
0.867535
0.599846
0.540806
0.683777
0.955055
-0.701835
-0.453206
0.936261
-0.311017
0.39263
-0.170148
-0.804275
0.716318
-0.89752
0.2359
0.499451
0.709107
0.0322177
0.615527
0.343467
-0.425814
0.558495
-0.147881
-0.127176
0.638675
-0.302815
0.222579
0.388751
0.620306
-0.85548
0.859739
0.25795
-0.711385
0.926288
-0.0824088
0.857307
0.0737849
0.894249
0.841517
0.00639006
0.887442
0.293215
-0.7605
0.0435937
-0.186702
-0.76711
-0.39142
-0.797798
-0.665942
-0.854621
0.216835
-0.3003
-0.0623133
-0.0924846
-0.312928
-0.750177
-0.700969
-0.510904
-0.770135
1.14198
-0.267533
0.930852
-0.175449
0.66689
-0.675905
-0.589815
0.54891
-0.381654
0.678845
0.8465
0.7284
0.716654
-0.936807
0.142647
0.737629
-0.376836
0.597959
-0.05801
0.502593
0.515395
-1.00004
-0.366782
0.376812
-0.406548
-0.0631243
0.845574
-0.312751
-0.708771
-0.0508195
-0.640631
0.905519
-0.465344
0.148747
-0.16532
-0.890729
-0.419282
-0.835397
-0.2077
-0.1343
0.16686
-0.474187
0.174677
-0.763447
0.780917
-0.947509
-0.158213
0.0603187
0.510944
0.344464
-0.954864
-0.4743
-0.110299
-0.269663
0.417112
0.157965
-0.702498
1.13438
-0.645555
0.122152
0.828399
-0.318909
0.535849
0.31886
-0.735313
0.198254
0.2424
-0.5697
0.159437
-0.495868
-0.791702
-0.195903
-1.11287
-0.0711281
-0.268183
-1.03298
-0.674213
-0.722167
-0.168173
-0.426653
-0.165068
0.444079
0.0873936
0.60772
-0.368365
-0.331771
1.07512
-0.471174
0.827532
-0.337331
-0.324726
-0.68659
-0.265107
-0.664698
0.9298
-0.771298
-0.17169
-0.55338
0.543942
-0.437226
-0.053512
0.129682
0.234365
-0.853873
-1.07245
-0.0279882
-0.176541
-0.669236
-0.812234
0.190525
-0.0171846
0.00858719
0.642257
0.588205
0.885699
0.680668
-0.445893
0.617505
0.126046
-0.436516
-0.0969455
-0.980785
0.741911
-0.0854691
0.0988195
-0.656058
-0.482895
0.150234
-0.770996
-0.286572
-0.76328
-0.255581
0.702932
-0.629382
-0.63845
-0.79326
-0.0217472
-0.565863
0.226031
0.56549
-0.0556228
-0.021352
0.638861
-0.518211
0.786698
0.276
0.726017
-0.776344
0.692124
0.671474
-0.804298
-0.419965
-0.514174
-1.0019
-0.576106
-0.484365
-1.03841
-1.00642
-0.154309
0.419229
0.472593
-0.433397
0.579583
-0.409988
-0.736279
-0.78898
0.345582
-0.3367
0.227364
1.00712
0.641826
0.875828
0.849902
0.498769
1.00988
0.921432
-0.10523
-0.283773
-0.460127
0.0646845
0.953735
0.281271
-0.327757
0.154998
-0.296159
-0.593263
0.891642
0.0983469
0.534058
-0.18613
1.00522
-0.118185
-0.650398
-1.13553
0.519696
-0.0626967
-0.688899
0.609998
-0.427926
0.155304
-0.488112
-0.456067
0.479694
0.570525
-0.191976
0.751516
0.3091
0.13364
0.42179
0.18199
-0.534771
-0.146864
-0.32197
0.139681
-0.425969
-0.203936
0.0351005
-0.300198
-0.0085881
0.612184
-0.0240359
-0.55569
-0.604063
0.203352
0.584251
0.239896
0.983582
0.689003
0.409484
-0.305921
0.644495
0.370079
-0.225106
0.322584
0.3941
0.4693
0.0191374
0.434158
0.230611
0.721859
-0.4842
-0.0532844
0.760757
0.397726
0.139933
0.000551238
-0.816798
-0.87689
-0.0298119
-0.128249
0.230388
-0.43503
0.209819
-0.487163
0.298605
-0.599112
0.472434
-0.716468
0.348546
0.962479
1.04567
-0.280325
-0.7188
-0.4932
-0.208624
-0.98955
0.886488
-0.100221
0.179488
0.298141
-0.612689
1.09179
-0.708521
-0.497133
-0.620531
-0.441074
-0.438379
0.450768
0.0684517
-0.724399
0.168799
0.940291
0.516271
-0.735053
-0.129143
-0.215471
-0.357264
0.188731
-0.685273
-0.967472
0.9984
0.7862
0.106587
-0.908296
0.244932
-0.410172
0.833315
-0.225985
-0.367499
0.70439
1.1323
-0.0220651
0.609619
0.568493
0.0268584
-0.436991
-0.447686
0.192381
-1.00721
-0.957318
0.145235
0.173227
0.559911
-0.671073
0.658004
-0.838988
-0.368385
0.11488
0.8172
-0.4677
-0.590435
-0.381622
-0.654641
0.457308
0.590849
-0.107932
0.881016
-0.326005
-0.531902
0.196261
0.522166
-0.698013
-0.866157
0.572211
-0.541639
-0.0255055
-0.375661
0.598622
-0.615781
0.403066
-0.256337
-0.124491
-0.250421
0.686402
-0.136977
-0.457284
0.3662
-0.699716
0.933639
-0.454109
0.517796
0.766093
0.179353
-0.208179
-0.275833
0.467065
0.303465
-0.722474
-0.0882937
0.842198
-0.268274
-0.570183
0.612899
-0.414624
0.308838
-0.13705
-0.765672
-0.139098
0.789908
0.788057
0.258445
-0.790995
-0.0110589
-0.491463
-0.4614
-0.399263
0.271407
0.951553
0.117404
-0.282533
0.35782
0.8
-0.377299
-0.496552
1.03731
0.160246
0.0532641
-0.548694
0.418604
-0.218016
0.65833
-1.06666
0.427416
-0.773292
0.216009
-0.135259
0.0367021
0.00138902
-0.53962
0.792314
0.390928
-0.101718
0.485
0.694871
0.821518
0.776779
0.402396
-0.136622
0.43196
-0.857073
-0.350689
-0.570179
-0.671663
-0.13113
-0.636346
-0.0283782
0.557242
-0.0783056
0.83772
0.814517
0.241236
-0.052575
-0.39696
-0.736413
0.300506
0.200268
0.51094
0.746088
0.544397
0.612937
-0.6097
0.638897
-0.15319
-0.726454
-0.826418
0.982722
0.257846
-0.969671
-0.293776
-0.954499
-0.119392
1.0016
-0.882776
0.744984
0.767261
0.699604
-0.614223
0.418872
-0.307996
-0.555645
0.229475
0.787555
-0.328436
-0.672318
0.169546
-0.134719
0.868895
0.894626
-0.8438
-0.7333
-0.7571
-0.3665
0.609864
0.107061
-0.782979
0.940727
-0.704068
-0.325196
-0.428599
-0.580906
0.284
0.506668
0.108332
-0.486568
-0.139567
0.109603
0.601499
0.1156
0.6664
0.0524
-0.435784
-0.308201
-0.1114
0.4878
-0.2961
-0.8362
0.0235
0.9246
-0.3897
-0.1237
-0.8576
-0.173631
-0.328102
0.464637
-0.159269
-0.31619
0.705982
-0.643224
0.575653
-0.992218
-0.110775
-0.806527
-0.519569
-0.167934
0.203666
0.0020956
-0.590233
0.435206
-0.533931
0.659852
0.4186
-0.2157
0.649
-0.1168
0.7411
-0.024
0.716697
0.215985
-0.477203
0.310588
-0.902438
-0.837701
-0.290641
0.150074
0.399539
0.34483
0.392217
-0.552454
-0.945653
-0.427685
-0.594269
-0.213975
0.114383
0.192071
-0.863189
-0.887675
-0.864897
0.120542
0.832704
-0.76017
-0.894737
0.584594
-0.4383
-0.6884
0.717121
0.936465
0.864867
0.351585
0.668416
-0.921176
-0.653777
0.131629
0.440533
-0.801225
0.362982
-0.0360701
0.144355
-0.481904
-0.796903
-0.502847
-0.835466
0.642028
-0.95921
-0.174845
-0.875929
0.780906
-0.255622
-0.565552
-0.417889
-0.326153
0.793083
-0.7498
0.329977
-0.831321
-0.207476
-0.758262
-0.109995
-0.503949
-0.0970996
-0.141321
-0.944947
0.731726
0.67128
0.0853205
0.617954
-0.675694
0.624272
0.639467
-0.418184
0.100964
-0.518823
-0.141414
0.643755
1.06956
0.880268
0.607561
0.721514
-0.274513
-0.427855
0.4068
0.646225
0.210592
0.0726244
0.657211
0.93808
0.453638
-0.713829
0.961107
-0.263556
-0.927114
0.116966
0.830878
-0.658826
-0.159288
0.284404
0.911229
0.18817
1.05629
0.685554
-0.857159
0.473804
1.02235
-0.700201
-0.642227
0.785171
0.899009
0.273473
-0.5921
-0.291564
-0.386093
0.679956
0.427419
-0.0441677
0.417907
-0.0942896
0.485305
0.301545
0.0114026
-0.576171
-0.144082
0.725181
-0.881825
0.736606
0.97171
0.977928
0.684261
0.677179
0.620672
0.283861
-0.641234
0.574435
-0.524718
0.29505
-0.732159
0.342897
0.6479
-0.642445
0.84571
-0.207412
0.763456
0.0155354
-0.866499
0.482043
0.185574
-0.306709
-0.346274
-0.27063
0.49893
-0.184318
0.149884
0.626765
-0.390321
0.450792
0.138171
-0.533442
0.433607
-0.188182
0.424855
0.885777
-0.775159
0.678298
0.687476
-0.1662
0.8622
0.174182
0.524264
0.0907674
-0.900748
-0.426425
-1.01319
-0.70467
-0.115924
-0.0671266
-1.08197
-1.01538
0.200057
0.552718
0.290946
-0.0578726
0.187093
0.12359
0.0601026
0.701657
0.682468
0.527123
0.942412
0.464177
-0.311891
-0.362512
-0.258029
0.4036
0.6521
0.569093
-0.0135753
0.749976
-0.683627
0.210654
0.837582
0.709148
-1.14636
0.352846
0.110058
0.543824
-1.04446
0.0510892
-0.616818
-0.396126
0.338393
0.617324
-0.0500728
-0.0817156
0.19619
-0.43189
-0.308997
-0.278462
0.276958
0.144497
0.490092
-0.546204
0.5495
0.0168636
0.0943393
0.50962
-0.858877
-0.426664
-0.354093
-0.0998506
0.572541
-0.239566
0.0768178
-0.374432
0.541124
0.874453
0.785179
0.924601
1.1211
-0.249453
1.10558
1.12558
-0.79025
0.451345
0.480027
-0.125688
-0.848283
-0.8738
-0.845917
0.191797
0.6847
0.704865
-0.306171
-0.485544
0.154615
0.748582
-0.259464
-0.738126
0.535194
-0.124612
-0.438475
-0.771396
-0.279631
-0.26501
0.684297
0.990698
-0.568587
0.864739
1.31637
-0.359165
0.139378
0.471558
-0.825966
0.068364
0.869788
-0.725122
0.101631
0.2592
-0.8164
-0.438429
0.225777
-1.07594
0.277814
0.445867
-0.864833
-0.0384629
-0.706183
-0.0728901
-1.03992
0.0117524
-0.452232
-0.282345
0.164466
0.825888
0.497994
0.759285
-0.163431
0.633517
0.410679
-0.411146
-0.562077
-0.723419
-0.594913
0.906918
-0.207783
0.3461
-0.0772
0.576296
-0.3144
-0.747031
-0.296388
0.332902
0.725522
-0.439328
0.0388267
0.308361
0.376586
0.033975
0.594436
0.495347
-0.732885
0.0759321
0.78596
0.102713
0.342149
-0.246044
-0.649134
0.664209
-0.7283
0.97039
0.760999
0.925118
0.194827
0.7405
-0.4895
0.880912
0.222168
-0.121616
-0.17866
0.0743686
-0.394227
-0.485658
0.239644
-0.430604
-0.316421
-0.868742
0.00962051
-0.182773
0.0137641
-0.893045
0.754256
-0.712357
0.168732
-0.477127
0.489859
-0.0821432
-0.6122
-0.0106012
-0.237406
0.218771
-0.474698
-0.0643
-0.857189
-0.282117
-0.602224
-1.02169
-0.890945
-0.10189
-0.645864
-0.0776065
-0.411831
0.57795
-0.60291
-0.66366
0.645986
-0.572908
-0.560477
-0.745375
-0.923683
-0.01015
-0.54032
0.485729
-0.303316
0.268004
-0.0172357
0.676876
-0.414308
-1.02227
-0.722801
0.275155
-0.228738
-0.981611
-0.306204
0.659404
-0.660973
-0.701938
-0.106459
0.228092
-0.59389
0.0956387
-0.446937
-0.143931
0.67222
-0.0928302
0.408392
0.0174157
0.0589738
0.187518
-0.202183
0.680656
0.226999
-1.01999
0.46684
-0.615495
-0.276087
0.872242
-0.901331
0.76781
-0.781693
-0.771178
-0.559826
-1.33031
-1.0616
-1.05221
0.696088
0.890666
0.760067
0.460238
-0.395062
0.644147
0.052215
-0.582182
-0.317209
-0.403731
-1.01056
-0.793744
-0.00461806
0.605181
0.0201633
-0.424947
-0.168039
1.16699
-0.67615
-0.615876
-0.953781
-0.992402
-0.644994
0.306119
-0.745801
-0.746031
0.398068
0.246798
0.809256
0.633247
-0.154643
0.407303
-0.0498048
-0.688385
0.57658
-0.892966
0.223115
-0.791714
0.889303
-0.222318
0.319454
0.1736
0.443985
0.278741
0.426871
-0.248183
0.544557
0.466703
0.114011
0.54629
0.701895
-0.827439
-1.16026
-1.09133
-0.12779
0.676307
-0.185662
-0.528916
0.389508
0.148881
-0.0689524
-0.468283
0.698935
-0.24355
0.584963
0.796204
-0.208936
-0.39917
0.35067
0.698764
0.382889
-0.00575247
0.117176
-0.335227
-0.444738
0.738986
0.220601
-0.7395
0.4166
0.584568
-1.01402
-0.452071
0.274325
0.677193
-0.108083
0.0161927
-0.830015
-0.249792
0.620373
0.606845
0.574334
-0.557364
-0.410206
-0.208397
-0.993291
0.672695
-0.813735
0.644977
-0.69211
-0.804082
0.66426
0.445828
-0.0672782
0.123022
-0.614748
-0.6374
0.4619
0.948103
0.166535
-0.615233
-0.0545401
-0.3788
0.812693
0.441731
-0.450745
-0.572982
0.433396
-0.936034
0.352294
0.884927
-1.11606
-0.56914
0.600137
0.176462
0.58039
-1.16335
0.309565
0.0118959
0.847986
0.795314
0.916579
-0.306397
-0.79929
0.4637
-0.680901
0.488462
0.055642
-0.636781
-0.314238
-0.233399
0.109978
0.174679
-0.914919
-0.681909
-0.327238
0.330837
-0.205266
0.862192
-1.00818
-0.0972612
0.571266
-0.194854
0.0656328
0.090473
-0.26018
0.716972
-0.630462
0.326788
-0.960907
0.794233
0.550505
0.1187
0.762797
0.0353095
0.741121
-0.858944
0.492507
-0.188339
0.112502
-0.0489604
0.398412
0.617905
-0.617908
-0.0457828
0.722707
0.645649
-0.855262
0.284506
-0.378958
0.286602
-0.830813
0.28873
0.0895278
-0.0826068
1.04238
0.637945
0.471097
-0.145377
-0.393938
-0.7691
0.62809
-0.102829
-0.447944
0.778905
0.816783
-0.282607
-0.166617
-0.263626
0.250634
0.278848
-0.779757
-0.902068
-0.109488
-0.604511
-0.415839
0.234704
-0.0913818
-0.988279
-0.264753
0.793362
-0.376982
-0.88129
-0.833075
0.672964
-0.981502
-0.702419
-0.567326
-0.9032
-0.329318
0.545295
0.956376
0.257194
0.783737
-0.780007
-0.48882
-0.176261
-0.396943
0.40998
-0.533758
0.332573
-0.654092
-0.187563
-0.700971
-1.09872
-0.660706
-0.629744
0.72058
0.800142
-0.636051
0.0390469
0.969998
0.404827
0.387917
0.497924
0.165423
0.0168
0.0486894
-0.855984
0.425164
0.651803
-0.52128
-0.0931325
0.294821
-0.772194
-0.585586
-0.851882
-0.938311
-0.131828
0.811377
0.522779
-0.488438
-0.711136
0.359678
-0.996743
-0.0126481
0.93754
-0.566933
-0.611177
-0.731498
-0.629536
0.523699
0.810513
-0.496044
0.0446
-0.1731
0.217643
0.104388
-0.792266
-0.44787
0.744961
-0.291315
-0.967405
-0.326891
0.551813
0.49882
-0.360345
-0.0944008
-0.18959
-0.823562
0.889232
0.0655456
-0.360516
-0.596769
-0.0438458
-0.392038
-0.68062
-0.546192
0.464272
0.293115
0.500286
-0.992519
0.9773
0.8208
0.6768
0.2659
0.575396
-0.511436
-0.388528
-0.00760543
0.927284
0.320391
0.792953
-0.887648
-0.5015
-0.493515
-0.437892
-0.934492
-0.67879
0.655454
0.969098
-0.4627
0.3233
-0.1021
0.63655
0.541299
-0.1455
0.9197
-0.0546
-0.13
-0.3447
-0.4217
-0.2526
-0.1637
0.3437
-0.944906
-0.899026
-0.607617
-0.762856
-0.459915
-0.338562
-0.577797
0.825138
-0.179072
-0.824634
0.94719
0.0638817
-0.0504264
0.501171
0.628505
-0.967223
-0.704117
-0.95532
-0.142589
0.721989
-0.983306
0.397
-0.1419
0.5075
0.3399
-0.750499
-0.0649143
-0.322255
-0.547457
-0.181723
-0.778285
-0.554818
-0.60292
-0.723265
0.0607927
0.951081
0.621097
-0.0836777
0.559249
0.614723
-0.951389
-0.807654
-0.138936
-0.5136
-0.931916
-0.499619
0.382733
0.698443
0.0530344
-0.493645
0.00158576
-0.576005
0.2518
0.649718
0.533018
0.871124
0.773035
0.576913
-0.598295
0.498915
-0.906613
-0.978034
0.519164
-0.974552
0.141102
0.877762
0.948721
0.266128
0.550923
-0.183638
-1.02823
0.477031
-0.740955
-0.417385
0.608946
0.242295
0.706794
0.768953
-0.31517
0.896922
0.6316
0.132411
0.0355705
0.328164
0.84666
-0.171472
0.431695
0.707674
0.622816
-0.0677515
-0.671071
0.242959
0.826779
-0.630956
-0.58018
-0.696807
-0.437258
0.131328
-0.627239
-0.842668
0.220285
0.112289
0.386399
-0.503535
0.867721
-0.242476
-0.437959
-0.835582
0.0353
-0.384757
-0.677521
-0.0117645
-0.051809
0.760139
-0.207207
-0.836776
0.178892
0.133379
0.454906
-0.060047
-0.586407
0.676584
-0.414472
0.178012
-0.473839
0.854683
-0.00497111
0.144151
-0.734457
0.354714
-0.233285
0.792633
0.0432749
-0.554693
0.323543
-0.810564
0.8132
0.895375
-0.920554
-0.401636
-0.544782
-0.0411903
-0.644589
-0.336325
-0.418025
0.26896
0.0323538
0.0754545
0.983955
0.631332
-0.680145
0.299441
-0.768192
-0.633607
-0.319177
0.842178
-0.634902
-0.230139
0.573425
0.42634
-0.616677
0.695568
-0.71403
-0.7448
-0.8596
0.85467
0.841435
0.12793
0.854553
0.140065
0.987668
0.46456
0.46354
0.0877205
0.440322
-0.10637
0.233206
0.393784
1.19604
0.858091
0.158005
-0.629305
-0.351424
-1.00876
0.418067
-0.696376
-0.672802
0.371227
0.642579
0.836836
-0.433331
-0.1241
-0.0455
0.900881
0.699816
0.825567
-0.280102
0.77049
0.271399
-0.069863
0.16418
-0.389186
0.53218
0.288421
-0.564019
0.801297
-0.560302
0.833859
-0.0232298
0.559138
0.823828
0.521812
-0.766508
-0.465019
-0.84715
0.106236
-1.09848
-0.993129
0.173599
-0.585
0.4881
-0.497769
-0.748487
0.923404
0.751447
-0.636007
-0.113743
1.05546
0.689529
0.391266
0.722642
1.34271
1.20447
0.139973
0.276273
-0.570194
0.106351
-0.652289
-0.467165
-0.67977
0.0825506
-1.01284
-0.923491
-0.677915
-1.04546
0.265751
0.68492
0.816273
-0.2718
-0.0773648
-0.537501
-0.56216
0.327018
0.75321
0.229847
0.0599942
-0.578844
0.755003
0.0787997
0.0601599
0.0130656
-0.235572
0.531217
0.315059
-0.926373
-0.103502
0.363607
0.71179
0.530911
0.528993
-0.210894
0.129901
0.501125
-0.975138
-0.598487
-0.35918
0.6013
0.108385
0.431517
-0.589577
0.408857
-0.671132
0.682456
-0.75232
1.02298
0.609355
-0.441432
0.0318221
-0.581846
-0.073358
0.785506
-1.00137
0.24913
0.364023
-0.638015
0.135749
0.573493
-0.707464
0.309328
0.159728
0.743118
-0.794532
0.636632
-0.2966
-0.1484
-0.323911
-0.768283
0.184019
-0.475814
0.734932
0.920402
-0.330838
0.0103736
0.54151
-0.338305
0.303452
-0.580026
-0.749221
0.4857
-0.874546
-1.00618
-0.0618455
-0.837908
-0.326752
-0.355756
-0.130748
0.606978
-0.733206
-0.217268
0.800084
0.948009
0.7631
-0.185
0.1442
-0.774464
-1.12333
-1.02613
0.221007
-0.774635
0.639986
-0.373265
0.601923
-0.283802
0.612664
-1.30602
-0.559055
-0.619433
-0.205456
-0.169743
0.199519
-0.620444
-0.400584
0.687087
-0.70105
-1.09101
0.0158463
-0.099635
0.155883
-0.524274
-0.969307
0.711
-0.964889
-0.709412
0.458718
-0.217514
-0.35332
0.207319
-1.18875
-0.410163
0.628289
-0.260508
-0.874509
0.26382
-1.28932
-0.0327879
-0.678927
0.313112
0.866112
-0.598662
0.315197
0.0799902
0.340449
0.691416
0.655372
-0.205724
0.616185
0.371714
-0.9942
-0.0291996
0.867326
0.490858
-0.975168
-0.602565
-1.18575
-1.14782
-0.607758
0.0366068
-0.119138
0.345215
-1.23867
-0.437144
-0.328691
-0.884875
-1.15142
0.440741
0.164022
-0.830702
0.440318
-0.0899219
0.711038
-0.80378
0.444006
0.382393
0.372498
0.428498
0.255502
0.548199
-0.504379
0.778553
-0.805847
-1.05223
0.40432
-1.02456
0.694658
-0.864667
0.554267
0.430718
-0.508182
-0.841762
0.259315
-0.856405
0.680237
0.663336
0.719789
0.227376
-0.53033
-0.255976
0.1659
-0.470989
-0.475494
0.384213
0.0791305
-0.157216
0.3337
0.874789
0.392344
0.75591
-0.659584
0.30966
0.308613
-0.738378
-0.233109
0.140802
-0.496644
-0.0971328
0.107072
0.420118
0.486319
-0.076659
0.657219
-0.483692
0.0738118
0.294856
-0.573905
0.0303456
0.0534795
-0.20987
0.425632
0.22316
-0.553934
-0.367303
0.843935
-0.388869
-0.937879
0.753047
-1.01307
0.0290364
0.318579
0.704993
0.604642
-0.574061
-0.0754896
1.26918
-0.447053
0.13984
0.122706
-0.286653
0.0359108
0.39291
0.0366491
-0.221293
0.0125009
-0.612696
-0.106649
0.721985
-0.740192
-0.659855
-0.510258
-0.770198
-0.880646
-0.132166
0.148717
-0.487587
-0.133752
-0.425071
1.05891
-0.0922338
1.15832
0.503464
0.983801
-0.661861
-0.553587
-0.831891
0.687282
0.851887
0.384056
-0.833835
0.235936
-0.0524748
0.203258
0.0511778
0.176836
-0.641862
0.857841
0.117727
-0.146034
-0.99849
0.2977
0.7095
0.14368
-0.715048
-0.227854
0.108698
-0.735988
0.641667
-0.352643
0.298576
0.00421126
0.687155
0.0324406
0.859114
-0.926681
0.427679
0.726819
-0.628785
-0.888114
0.26642
0.0793844
-0.725743
0.145971
-0.610036
0.926107
0.172227
-0.595109
0.972364
-0.0661
0.8098
-0.36955
0.000263906
0.315764
-0.139092
-0.459756
-0.63871
0.651534
-0.906299
1.03011
0.390714
0.321972
0.830631
-0.522222
0.59687
-0.91687
0.615778
-1.02814
-0.527005
0.710768
0.339456
-0.198544
0.570623
-0.471774
0.756279
-0.765386
-0.27964
0.423
-0.5668
-0.0194296
-0.632936
0.0501241
0.128489
0.4769
0.00357087
0.41254
0.712074
-0.42729
-0.666262
0.716255
0.0104913
-0.745454
0.942721
-0.697114
0.258877
-0.663679
0.621963
-0.415081
-0.694697
0.161504
-0.384986
0.829665
0.0484084
0.645251
-0.639182
0.5568
-0.4301
0.848742
0.439367
-0.524579
0.166324
-0.699578
-0.404316
0.793928
-0.691392
0.616809
0.851044
0.275068
-0.40722
-0.0327976
-0.366268
-0.827449
-0.103311
0.598232
-0.93194
0.427403
-0.895687
-0.924471
0.294884
0.601073
0.789333
-0.226978
-0.334573
0.9931
-0.963491
0.491374
-0.173738
0.507876
-0.154792
-0.352074
-0.194722
-0.296772
-0.322182
0.201247
0.545877
-0.234026
0.741835
-0.324091
-0.257758
-0.360632
0.576407
0.18491
0.634683
0.497074
0.297863
0.489195
-0.385799
0.498732
-0.539147
0.0381792
-0.366434
0.2154
-0.375851
-0.668716
0.412903
-0.295087
0.134143
0.431929
0.465491
-0.83274
0.464251
0.692844
0.366476
-0.952795
0.315858
-0.752869
0.345894
0.513692
0.70513
0.139893
0.198548
-0.173725
0.587407
-0.891941
0.434668
-0.0369348
0.132519
-0.940752
-0.249405
-0.8072
-0.504915
0.456471
0.719362
0.472797
0.138871
-0.41993
-0.48877
-0.809577
-0.0189636
0.0744291
0.968997
0.676328
0.609259
0.732783
-0.752799
-0.359455
-0.71998
0.0935729
0.581057
0.071122
0.466629
-0.290287
0.703412
-0.130492
0.0179009
-0.477644
0.308368
-0.0189
-0.739605
0.630494
-0.352631
0.117813
0.133628
-0.87277
0.641151
0.288795
-0.0884212
-0.759949
0.760744
0.451917
-0.329353
-0.211249
-0.588046
-0.033701
0.324895
-0.728234
0.458843
0.769749
-0.90775
-0.480174
-0.701806
-0.92284
-0.512352
0.689628
0.604359
-0.3837
0.0798
-0.414
-0.3401
-0.0809038
0.599217
-0.902951
-0.829397
0.814676
-0.114552
0.628784
0.642324
0.4809
-0.644262
-0.0692809
-0.27858
-0.064163
0.783314
-0.3575
-0.562
-0.3177
0.2567
-0.801536
-0.871251
-0.6709
-0.0338
-0.1476
0.1153
0.181
0.1013
-0.0395
0.9278
-0.5949
0.701017
0.840222
0.641371
-0.314594
0.851346
0.506687
-0.376226
-0.67681
0.584673
-0.961425
-0.0682632
-0.327692
0.420073
0.821249
0.440112
0.223633
0.90049
-0.259665
-0.778803
-0.843113
-0.0821063
-0.6722
-0.7041
0.387
0.9807
0.223506
-0.458321
-0.272287
0.14524
0.779151
0.573657
0.319503
-0.590592
0.0575519
0.655504
-0.34598
-0.544726
-0.242518
0.563144
0.554699
0.30262
-0.845765
0.953733
-0.501807
0.850127
-0.641159
0.32928
0.591358
0.328127
0.942785
0.259382
-0.0636012
0.1663
-0.00357815
-0.221035
0.395553
-0.0116515
0.734327
0.811572
0.184994
0.415375
0.783189
-0.733011
-0.763487
0.136172
0.00104739
0.181641
0.0299224
-1.08127
0.271505
0.433109
0.419339
-0.144271
0.218736
0.769096
0.382414
-0.7056
0.874398
0.113564
-0.0807374
-0.2012
0.462903
0.961502
0.117234
-0.871139
-0.262378
0.162392
-0.364841
0.518181
1.01349
-0.269541
-0.760558
-0.590242
0.635141
0.124124
0.687642
0.644922
0.158461
0.570761
-0.567202
-0.752083
0.979554
-0.220236
0.8019
-0.708266
0.478583
-0.321229
0.461254
-0.5869
0.823352
0.879234
0.310834
0.143896
0.518596
-0.528364
0.636434
-0.276698
-0.0977967
-0.232774
0.483496
-0.343181
-0.397711
0.287201
0.756545
-0.714821
-0.617557
-0.691902
-0.11459
-0.0825231
0.32124
-0.597829
0.300226
-0.242498
0.267076
0.593548
0.394355
-0.2987
0.354727
-0.023616
-0.511074
0.577532
-0.688263
0.895239
-0.524914
1.01815
-0.414574
0.419999
0.182377
-0.406478
0.412068
-0.848015
1.09843
-0.350058
0.224705
0.0987266
-0.626259
-0.119325
0.0615413
-0.0331778
0.872919
0.131546
-0.589365
-0.270081
0.607881
0.3485
0.250298
-0.324986
0.7728
0.987933
0.720497
1.00953
0.448364
0.588194
0.83136
0.673894
-0.216234
0.980297
0.998907
1.08245
0.301642
0.0263803
0.0916302
0.33915
-0.433202
0.916089
0.709073
0.810027
-1.04404
-0.689202
-0.961897
-0.821679
-0.5457
-0.5173
0.182934
-0.0122079
-0.716593
0.930897
0.641386
0.0369023
-0.473159
0.595564
0.483399
-0.974509
-0.388735
0.499161
0.224711
0.899013
0.179957
0.313946
-0.0330668
-0.492186
0.950516
0.560678
0.396366
-0.106631
0.0955688
0.80695
0.557292
0.491966
-0.3771
-0.634
0.358625
-0.387183
0.809205
-0.119811
-0.545783
0.760836
-0.0253716
-0.523997
-0.665483
0.812072
0.906883
0.191516
1.02456
-0.222685
-0.515333
-0.425224
0.972775
-0.734244
-0.567711
-1.00448
-0.200109
0.198707
-0.576479
-0.399894
-0.761597
0.758218
0.826522
0.8216
-0.418223
0.734946
0.117713
-0.5074
-0.665778
-0.97191
0.196525
-0.676563
0.370361
0.0807687
-0.243443
-0.867211
-0.707984
0.00796621
-0.597173
0.944662
0.316722
-0.950754
0.190754
0.548919
-0.197287
0.260621
-0.657649
0.532738
0.385401
-0.435262
0.876639
-0.4937
-0.90378
0.758671
-0.370811
-0.939929
-0.780362
-0.701763
0.647585
-0.506771
0.0651886
-1.0422
0.148165
-0.441558
0.0903114
-0.956973
-0.985332
0.387065
0.268348
-0.328755
-0.189994
0.294612
0.274853
-0.696448
0.256415
-0.189369
0.649558
-0.907433
0.8395
-0.9415
0.734214
-0.851608
-0.628627
0.292089
-0.17927
-0.528386
-0.904809
0.580861
-0.183775
-0.101475
-0.174401
0.827847
0.454429
-0.573789
0.924649
-0.622665
-0.846966
-0.274595
-0.110902
0.375615
-0.3848
0.081284
0.51577
0.518169
0.751241
-0.470311
-0.5547
-0.9656
0.316341
-0.521891
-0.344317
-0.89523
-0.303893
-0.44588
0.517625
-0.0852348
-0.42705
0.557479
0.231734
0.596493
-0.641985
-0.647918
0.86552
-0.936076
1.034
0.46934
-0.230304
-0.0855679
0.670386
-0.0641173
-0.215753
-0.912569
-0.5711
0.651819
-0.803394
-0.941
0.628154
0.525616
-0.10313
0.030735
-0.0449276
-0.295879
-0.170615
-0.188556
-0.71949
-0.544028
0.261576
-0.245401
0.0198108
0.221157
-0.312034
0.474401
0.523831
-0.494978
0.493195
-0.480398
0.857111
-0.910325
-0.531571
-0.0904295
-0.766128
0.740573
-0.1715
-0.497501
0.177928
-0.64118
0.445076
-0.651216
-0.985072
-0.365742
0.460098
-0.828728
-0.267243
0.525556
-0.643608
0.382756
0.36315
0.241325
0.0868186
0.220694
0.643428
-0.955377
-0.676647
-0.520105
-1.08901
-0.631436
-0.083484
-0.583012
-0.958325
-0.457036
0.718696
0.708262
-0.610199
-0.396231
0.766594
0.216455
0.44778
0.855645
-0.102331
-0.716363
0.437649
-0.412875
-0.331227
-0.491625
-0.0233441
0.780022
-0.0768891
0.486571
-0.575091
-0.435839
-0.322795
-0.0924692
-0.863549
-0.886038
0.484634
-0.297896
0.80972
-0.279114
0.413299
-0.354453
-0.553063
-0.644951
0.0780653
-0.199573
0.825785
-0.401022
-0.551211
0.157777
-0.0689417
-0.436204
0.687747
0.0245279
0.826228
-0.806788
-0.737996
0.801651
-1.01157
-1.00448
-0.471367
-0.56516
0.834197
-1.15469
-0.966461
-1.193
-0.236836
-0.12023
-0.0959009
-0.275118
-0.91135
-0.715002
0.976484
0.825331
0.407372
-0.320195
0.389358
-0.729483
0.492893
-0.727403
-0.554496
1.01093
0.568968
-0.89698
0.752246
-0.244136
0.172235
-0.261046
0.462945
-0.0805231
-0.276215
0.453511
0.427572
-1.18108
0.105688
-0.563816
0.7601
-0.346189
-0.726844
-0.916622
0.541429
-1.00772
0.0268845
-0.859154
0.0561562
0.77325
0.459758
0.346736
0.582364
-0.535125
-0.39263
0.933353
-0.546904
0.0520648
0.0325331
-1.00155
0.00364377
-0.958846
-0.885098
-0.558791
-0.464177
0.403025
-0.232979
-0.665088
-0.0278
-0.6939
0.730262
0.958369
-0.799043
0.317067
-0.500042
0.685457
-1.01755
-0.156492
-0.703307
-0.153844
0.00451475
-0.627546
-0.254113
-0.31156
-0.0466355
-0.0447575
-0.0816589
-0.378753
0.398406
0.0856935
0.0679717
0.730078
-0.439136
0.572189
0.679824
0.251696
-0.7218
-0.1233
-0.438573
-0.463362
-0.483801
0.212096
0.472139
0.173604
0.480289
-0.406874
-0.333765
0.485829
0.124952
0.658227
0.646051
-0.411924
0.576945
-0.244022
0.30857
-0.226133
0.275366
0.633023
-0.3569
-0.631555
0.676333
-0.848218
-0.989083
-0.652209
0.2615
-0.932404
-0.784721
-0.102979
-0.725503
0.71743
0.636989
-0.753329
-0.83706
-0.350616
0.671171
0.319506
-0.885292
0.998204
0.890213
0.294875
-0.0960798
0.194943
0.723232
0.289939
-0.189528
0.696917
-0.627838
0.766455
0.490419
0.384201
-0.12045
0.916794
0.2017
-0.963019
0.517317
-0.3527
-0.966165
0.0808938
0.279685
-0.383512
-0.334895
-0.201007
-0.372741
0.71713
-0.678758
-0.0609856
-0.416308
-0.158662
0.467397
0.201649
0.328437
-0.910849
0.645062
-0.904474
0.125135
-0.495048
-0.224672
0.549469
0.472762
-0.655334
-0.2119
-0.837643
0.0937838
-0.474697
-0.102415
-0.380377
-0.295102
0.924416
0.922718
0.847937
-0.498323
-0.623225
0.886106
0.987275
0.84976
-0.303218
-0.22564
0.813309
0.85886
-0.342011
0.773187
0.394561
0.914408
-0.334913
0.310921
-0.137258
0.859381
0.207625
0.0602
0.950245
0.0152236
0.508772
-0.936951
-0.234876
0.0367681
0.0545974
0.268706
0.985865
0.143718
0.659011
0.576468
0.313067
0.158401
-0.551611
-0.666756
0.986463
0.193961
-0.782556
-0.309231
0.62102
-0.813714
0.3311
0.146911
-0.401661
0.980492
0.915577
-0.0594
0.381851
-0.0838648
-0.576726
0.445522
0.557584
0.863666
-0.347673
0.987896
-0.664242
-0.760677
0.800218
-0.831106
-0.0472031
0.458803
-0.279108
-0.37247
-0.360762
0.684254
-0.587573
0.930209
0.393547
-0.331675
-0.705294
0.51912
-0.594643
-0.361978
-0.930266
0.9873
0.409399
-0.0839895
-0.542392
-0.223561
-0.34593
0.154639
-0.883386
-0.611538
0.714507
0.321638
-0.285996
-0.828078
-0.489496
0.255644
0.803703
0.121103
-0.0560868
0.674077
-0.20985
0.109575
0.214456
-0.451561
0.921806
-0.98946
-0.980904
-0.0897949
0.704679
0.6575
0.0804
0.5234
0.1973
-0.743815
-0.70505
-0.00372037
-0.777045
-0.843884
0.599734
-0.583415
0.54833
0.1055
-0.676899
-0.0611928
0.964707
0.923607
0.583902
0.906597
0.2235
-0.4788
-0.9054
-0.817754
-0.891902
-0.9891
0.0141
0.5492
0.6042
0.6884
0.8601
0.9596
0.2049
-0.800301
0.364725
0.150299
0.427503
-0.982106
0.898031
-0.447456
-0.75106
-0.717231
0.458274
-0.272365
0.282198
-0.791331
0.334406
0.634447
-0.938926
-0.443021
-0.311244
-0.810147
0.0269904
-0.555595
0.902602
-0.3664
-0.4302
0.2986
0.292
0.922897
-0.121499
-0.44795
0.539648
0.738829
-0.848669
0.610673
-0.240952
0.335219
-0.716393
0.0537192
-0.529177
0.914034
0.486013
0.777223
-0.847698
-0.427254
-0.775152
0.396912
0.748919
0.728239
0.474706
-0.256769
-0.562561
0.377362
-0.275086
0.6113
0.857
-0.838865
0.792469
0.877565
-0.867588
0.292194
-0.853289
0.697823
-0.809608
-0.741601
0.249264
1.06213
-0.838723
-0.0865548
0.304746
-0.798285
-0.109781
-0.424123
0.195146
0.0840133
0.00920522
-0.405582
0.0284096
-0.11551
0.539516
0.193141
-0.484911
-0.401223
0.2044
0.402298
0.332471
-0.287374
0.360146
0.956433
-0.939808
-0.662158
0.410795
0.378285
0.461178
-0.268443
0.789357
-0.112192
-0.306525
0.678631
0.879707
0.283649
-0.792597
0.0612139
-0.795612
0.709773
-0.534498
0.177648
0.604744
0.316752
0.384844
0.99715
0.4059
0.566644
0.220638
0.648258
0.344819
0.873344
0.618847
-0.00357578
0.791542
0.968211
0.612025
0.212942
0.457308
0.461099
-0.351186
-1.10998
-0.0691009
0.328112
0.135718
-0.52417
0.976175
0.652748
-0.549975
-0.000528633
-0.628466
-0.817264
-0.653666
0.0672795
-0.2986
0.503153
-0.315238
-0.0365466
-0.268179
0.570601
0.844945
-0.102265
0.200414
0.021402
0.722973
-0.70799
-0.716325
-0.838943
0.183646
0.667087
0.570516
-0.939078
0.757151
-0.38709
-0.723088
0.210737
0.374503
0.604288
-0.3222
-0.254286
-0.511152
0.609588
-0.7082
-0.380486
-0.871456
0.966832
-0.31399
0.234955
0.29985
0.971437
0.2111
0.367137
-0.475623
0.779449
-0.602832
-0.432755
-0.751234
0.173508
0.0102171
0.420269
0.809108
0.326639
0.448893
0.642057
-0.650264
-0.0207486
0.864228
0.418993
0.143531
0.1922
0.6424
0.759607
0.240781
0.84292
0.440706
0.360312
0.0527615
0.977804
-0.636325
0.0387668
-0.245308
0.869377
0.0999478
0.407132
-0.987401
-0.648723
-0.309793
0.306982
-0.064743
0.304434
-0.868571
0.514267
-0.853651
0.658286
0.796703
-0.392696
0.522421
-0.7899
0.4161
0.877113
-0.173074
0.542743
-0.73473
0.949672
0.175281
-0.140943
0.526584
0.279757
-0.417178
0.46197
0.343804
-0.0564807
-0.841078
-0.305173
0.804128
-0.980589
0.232643
-0.570361
0.588916
-0.749978
0.153803
0.733409
-0.186843
-0.696388
0.198582
0.371024
-0.8217
0.506759
0.51085
-0.0526629
0.516136
-0.556101
0.440163
-0.280734
0.104931
0.3986
-0.397341
-0.026168
0.691382
0.23741
-0.290358
-0.113758
-0.0819538
0.574638
0.250675
0.0374716
0.4731
-0.504356
-0.763438
0.64064
-0.0975243
-0.706321
0.976976
0.198588
0.5851
0.220205
-0.796691
-0.0591375
0.146933
0.751359
0.820562
1.14245
0.364406
0.248659
0.761923
-0.151066
0.147352
-0.168436
-0.666856
0.434684
-0.487339
-0.395689
0.710322
-0.172073
0.0315068
-0.52994
0.169444
1.02903
-0.135861
0.466392
-0.430888
0.5437
-0.7767
-0.0906089
-0.612463
0.402165
-0.820456
-0.540543
-0.440248
-0.197306
-0.627529
0.639746
0.772707
-0.557345
0.674663
0.781586
0.293829
0.872212
0.490466
-0.184757
0.40043
0.647618
0.765416
0.606592
-0.091756
-0.266648
-0.172074
-0.790642
0.291032
-0.3695
0.2474
-0.0780029
-1.03347
0.122946
0.690956
-0.449644
-0.0572694
0.836802
0.0659828
1.12738
-0.311093
1.00968
-0.477056
0.725021
0.268165
0.402728
0.682453
-0.405843
0.456353
-1.00667
0.394894
-0.809295
0.460981
0.778853
0.717583
-0.162027
-0.809581
0.2556
0.4203
-0.978492
-0.241362
-0.315159
0.273103
0.658111
-0.491627
-0.369097
-0.0869078
-0.563254
1.11519
0.0583455
0.449017
0.213753
0.213516
-0.0703444
0.412982
-0.222085
0.901334
0.588299
0.381358
-0.416604
-0.693244
0.403036
0.793195
-0.401041
0.996714
-0.5317
0.0755066
-0.794777
-0.911105
-0.619861
-0.340121
-0.0932186
-0.20803
0.811925
0.144813
-0.40561
-0.436704
-0.60296
0.773753
1.12286
0.664091
0.336498
0.482892
0.998039
0.539901
-0.686466
0.470056
0.476356
0.0362552
0.4243
-0.597285
-0.572569
-0.510361
-0.732466
-0.307779
0.207181
0.339796
0.170792
0.16182
-1.22007
-0.0555097
0.180592
-0.096067
0.0686736
0.209405
1.01736
-0.222986
1.04713
-0.52572
0.312495
-0.202632
-0.357094
0.570787
-0.0239263
-0.718979
0.437856
-0.0790595
-0.168188
0.00186622
0.54108
-0.649644
0.638506
-0.427761
-0.577515
0.488626
-0.726171
-0.151885
-0.396816
-0.149974
-0.261978
0.161364
0.315145
0.407506
1.13007
0.437867
0.873542
-0.283169
0.468873
-0.192233
0.773034
0.253608
0.377669
0.539146
0.381978
-0.398337
-0.654254
0.148282
0.589708
-0.48674
-0.994113
0.0800905
-0.716486
0.317388
-0.798858
0.395787
-0.732833
-0.231592
-0.599262
-0.890188
-0.510438
-0.364768
0.537153
-0.00634145
0.693809
-0.398699
-0.413311
0.551816
0.624229
0.846671
-0.0826195
0.702442
0.662763
-1.07862
0.493975
-0.17478
-0.651991
0.141702
0.797611
0.56466
-0.26454
0.70233
-0.97859
-0.534817
-1.10305
0.471738
0.183337
-0.693876
0.325917
-0.0065212
-0.92568
-0.80185
-0.930372
-0.429832
-0.752536
0.453373
-0.9539
-0.341228
-0.833108
0.848734
0.788969
-0.19903
0.00208496
0.104393
0.401076
0.277784
-0.8369
-0.3566
0.327737
-0.0349237
0.61737
0.0989859
-0.386974
-1.20896
-0.581545
-0.20244
-0.0779108
-1.18161
0.420103
-0.256015
-0.0922814
-0.343607
-0.034057
-0.0343184
-0.208428
-0.0705417
-0.107141
-0.137889
-0.374397
-0.257489
0.37601
-0.516458
0.0175511
0.719504
0.6107
-0.101
-0.847381
-0.416616
-0.694338
0.673397
-0.0298983
0.742805
-0.371962
-0.765093
0.482249
-0.919784
-1.20156
-0.576671
-0.283857
0.498804
0.752651
-0.942856
-0.869693
-0.643362
0.22646
0.632996
0.948082
-0.482565
-0.127656
-0.463623
-0.608443
0.355222
0.7925
-0.0132023
-0.37794
0.341575
-0.689161
-0.628195
-0.962396
-0.264427
-0.426145
0.771547
-0.486857
0.145487
-0.40813
-0.976692
0.115296
-0.98398
0.9779
-0.57064
-0.702638
0.151225
-0.274747
-0.119918
0.908708
0.0599881
-0.848017
0.614745
-0.239724
0.073807
-0.7373
0.150788
-0.741694
-0.908294
0.758593
-0.634234
0.731556
-0.268792
-0.641363
0.333238
-0.938045
-0.264251
0.0381626
-0.593024
-0.376396
-0.288671
0.975193
-0.425289
0.373021
-0.41254
-0.183086
0.910499
-0.740326
-0.0671361
0.851999
-0.734534
-0.312888
-0.766862
-0.8538
-0.0493138
-0.234196
0.197294
0.455727
-0.671004
-0.508276
0.311697
-0.589468
-0.465752
0.448457
0.0616407
-1.23221
0.707064
0.157089
0.667638
-0.835561
-0.512489
0.335305
0.761639
-0.687895
-0.409226
-0.453872
0.494068
0.469521
-0.636945
0.22349
0.26299
0.3128
-0.827725
0.0552934
-0.224665
-0.829527
0.685601
0.30176
-0.133968
-0.401444
0.419746
0.445532
-0.27082
-1.07702
0.879684
0.577557
0.732192
0.920642
-0.719263
0.641538
-0.622698
-0.626353
-0.113468
0.3581
1.04074
-0.410467
0.218554
-0.142723
0.905093
-0.8145
0.699986
0.690653
0.768344
0.388118
0.346511
-0.724626
-0.0248816
0.228366
-0.471993
-0.612713
0.25122
0.126588
-0.831169
0.643657
0.437301
-0.826267
0.0638689
0.488873
0.55463
-0.302845
-0.588592
0.83369
0.543162
0.584962
0.318099
0.959998
-0.324026
-0.2935
0.0496999
-0.0941711
0.275272
-0.84353
0.270679
0.939982
0.975363
0.832107
-0.57223
-0.822383
0.546621
1.00171
0.243499
-0.218298
-0.757942
0.899365
-0.0586169
-0.905683
-0.112148
0.478549
0.793348
0.971023
-0.236722
-0.12279
-0.372455
0.268152
-0.901736
-0.3891
-0.2848
0.0317
0.622
-0.206911
-0.504603
-0.767215
-0.0936961
0.0314735
0.78022
-0.099205
0.315607
-0.2806
0.5831
0.295802
0.957002
0.940802
-0.7762
0.6474
0.0913
-0.3103
0.4831
-0.773516
-0.16979
0.6588
0.9177
-0.0371
-0.9393
-0.8178
0.367
0.9555
-0.4272
-0.0756
0.872011
0.694945
-0.642635
0.795699
0.23202
0.374549
0.507475
0.942959
-0.787993
-0.882482
-0.761281
0.884225
-0.149883
-0.061439
-0.163049
0.701609
0.84074
-0.275627
-0.901653
0.0682995
0.8047
-0.8934
0.062
0.1682
0.4454
-0.655899
0.771637
0.928204
0.851659
0.608669
0.637522
-0.777971
-0.922287
0.0241451
0.45385
-0.025278
-0.364863
0.674783
0.964835
-0.122016
-0.150188
-0.504181
0.862629
0.0960431
-0.762625
1.00014
0.66087
0.569807
0.531384
-0.00349881
-0.811829
-0.126199
0.9163
-0.113776
-0.93337
-0.622886
0.496877
-0.102152
0.717955
0.147398
0.0859114
-0.960874
-0.849546
0.715167
0.113727
-0.752818
0.624516
-0.280831
0.509082
0.801952
-0.695373
0.174286
-0.406642
0.693295
0.438373
0.642992
0.688809
0.263638
-0.58655
-0.33636
0.4226
-0.327825
0.725534
-0.570771
0.91059
-0.868947
0.384492
-0.12838
0.181326
-0.536079
-0.319371
-0.0776381
-0.647617
0.0972509
0.000319111
0.546796
-0.847004
-0.282277
-0.151981
0.0145627
-0.826283
-0.69172
0.742594
-0.385927
0.30144
-0.482041
-0.442109
-0.374903
0.5041
0.916828
0.719595
-0.674716
0.998667
0.406665
1.03608
-0.388012
0.701867
-0.975198
0.13255
0.805443
-0.110751
-0.256541
-0.353682
0.181825
0.833305
-0.817762
0.420778
0.546836
0.616943
0.397516
0.675704
-0.840001
0.570788
0.0894254
0.285149
-0.646404
0.9166
0.51194
0.275449
-0.0519946
-0.668401
0.616952
-0.157802
-0.513774
-0.812551
-0.715964
-0.48518
0.575619
-0.0247521
-0.847149
-0.0732011
0.0629536
-0.444788
0.421033
0.246189
0.157078
-0.85494
0.321162
-0.746208
-0.0117067
-0.392222
0.800502
-0.513471
0.546124
-0.793
0.713764
-0.186236
0.585605
-0.00310115
0.749675
0.735423
-0.0317695
-0.722592
0.545182
0.364347
-0.615272
-0.809261
0.575591
-0.309859
0.137303
1.0316
-0.542839
-0.461391
0.639799
-0.0978982
0.467498
0.360802
0.203648
0.680745
0.135806
-0.135702
-0.3499
0.1898
0.856055
-0.0962583
0.140752
0.13058
0.844426
-0.323688
-0.927704
-1.00866
0.350696
0.689701
0.251568
-0.101398
0.697632
0.692702
-0.0524528
0.796685
0.847868
0.645554
-0.56588
-0.758526
0.992914
-0.278159
-0.371225
-0.268008
0.714082
0.902764
-0.2907
0.058
0.697631
0.395469
-0.0467983
0.908785
-0.846604
0.50106
0.638296
0.240351
-0.0114005
-0.416026
0.284315
0.791363
-0.04753
0.138542
0.252271
-0.330467
0.660179
-0.729693
-0.600673
-0.525144
0.856302
-0.253162
0.775293
-0.573392
-0.591154
-0.136306
0.782714
-0.0765
0.815476
0.139621
-0.535068
0.0414094
0.707387
0.78478
-1.03909
-0.178699
-0.506056
0.84649
-0.555707
0.531693
-0.644918
0.921799
0.498922
0.821855
0.71611
0.305311
-0.737613
-0.751611
-0.603137
-0.398458
-0.0235121
0.357937
-0.280528
0.414187
-0.570197
-0.2185
-0.425671
-0.628989
-0.227614
-0.825889
0.960129
-0.982331
0.0529467
0.337073
-0.459601
-0.331642
0.914589
-0.67191
0.495028
0.490451
-0.584461
-0.989712
0.29427
0.0478761
0.219752
-0.137675
-0.358399
0.233619
-0.210741
-0.981525
-0.0845228
0.754115
-0.5996
-0.8922
0.702593
0.859331
0.376712
0.742893
-0.826759
0.0432752
0.845057
0.04473
-0.115824
-0.57707
-0.933875
1.01833
-0.518835
-0.171467
-0.16766
-0.59776
-0.335699
0.787008
-0.864421
-0.211825
-0.837649
0.255564
-0.958212
0.830966
0.376014
0.324925
0.8758
0.8561
-0.102307
-0.211358
0.442727
-0.546883
0.211158
0.577464
-0.234596
-0.865515
-1.20826
-0.39424
0.380643
0.796428
-0.895501
0.281233
-0.458649
-0.698223
-0.815985
-0.893122
-0.0491949
0.26972
-0.667587
0.016474
-0.633749
0.158036
0.530322
-0.0165954
0.0057014
-0.4905
0.880315
0.251551
0.510386
-0.835525
-0.267248
0.601742
-1.1275
0.220734
0.578229
0.86544
0.547375
-0.818146
-0.873954
0.843404
0.353751
-0.8799
0.571399
-0.561056
0.805087
0.407398
-0.299067
-0.451976
-0.323177
-0.179001
0.8576
-1.00321
-0.6676
-0.7715
-0.217799
-0.8679
-0.648302
-0.855858
0.113382
0.138645
-0.656139
-0.404473
-0.465502
-0.340186
-0.0515188
-0.0486931
-0.713808
0.417541
0.439231
-0.381979
-0.567218
-0.937802
-0.282537
-0.577509
-0.00275712
-0.877654
-0.0407323
-0.216488
-0.62657
0.445144
-0.304702
0.596201
-0.421045
0.204739
0.106228
0.41384
-1.05779
0.710505
-0.816349
-0.693852
-0.689221
0.128899
-0.671565
0.319959
-1.22483
0.487625
-0.461034
-0.404071
0.305257
0.362371
-0.338734
-0.286028
-0.0295896
-0.901621
-0.533057
0.0623319
0.471411
0.84247
-0.247
-0.792786
0.284951
0.704184
-0.340392
-0.189413
0.67591
0.123032
-0.352009
0.307642
-0.159317
0.218792
-0.441838
-0.741938
0.137471
-1.15069
-0.437721
0.0660885
-0.798948
-0.608634
-0.901163
-0.783496
-0.102416
0.558798
0.0599659
-0.653376
0.855274
0.539195
0.6139
-0.283497
0.381153
-0.0218667
-0.837269
0.97002
-0.757019
-0.734872
-0.0708493
-0.384814
-0.291847
-0.604195
0.830394
-1.17959
-1.07772
0.203976
-0.36214
-0.333521
-0.764062
0.913933
0.414153
0.581697
-0.399016
0.486856
0.395341
-0.918515
-0.755619
-0.544897
0.3271
-0.838801
-0.414275
-0.344583
0.095354
0.299615
-0.203182
0.777083
0.799614
0.0412971
0.13912
-0.546657
0.119622
-0.992669
0.257553
1.08257
-0.730813
-0.338713
0.239971
0.926176
0.566666
0.648552
-0.922507
-0.116939
-0.760498
-0.457336
-0.863321
-0.680254
-0.0615
-0.6385
0.0562445
-0.165437
0.238884
-0.779718
0.159007
0.281693
-0.192883
-0.738122
0.608576
0.103731
0.628664
1.13239
-0.712572
0.621161
-0.457316
1.08346
-0.643169
0.0437664
0.4233
-0.811627
0.758068
0.800134
0.608549
-0.733028
0.724613
-0.585283
-0.3907
0.3784
-0.0604809
0.630385
-0.2485
0.416545
0.498762
-0.754028
0.653649
0.176442
0.916114
0.178376
-0.558884
0.245416
0.415437
0.87463
0.677982
-0.0791838
0.77613
-0.757418
0.685575
0.396184
-0.090954
-0.0779298
-0.539039
0.828091
0.201037
-0.716971
-0.0137
-0.245095
-0.748747
0.513528
0.657546
0.83438
0.0430386
-0.148291
0.788812
0.478881
0.99586
0.245783
0.229914
0.63661
1.20813
1.0986
-0.683203
0.246104
0.164942
-0.904044
0.577281
0.942899
-0.734445
-0.599815
-0.0511083
0.171468
0.766954
-0.088726
0.2587
0.612924
0.687286
-0.340957
0.374151
0.329621
-0.108886
-0.349767
0.812847
0.269928
-0.146564
-0.594923
0.203931
-0.200864
0.303456
-0.373488
0.952798
-0.342078
-0.308396
-0.825773
0.205214
-0.059377
0.375104
-0.705043
-0.00118436
-0.835414
0.768295
0.179136
-0.822
-0.205215
-0.258417
0.674191
-0.515383
0.00813707
0.0505347
-0.0876744
0.3559
0.377841
-0.700556
1.00534
0.587536
0.797
-0.492731
-0.752966
-0.0155783
-0.210393
-0.0280543
-0.258299
0.508156
-0.869538
-0.297335
0.987885
0.197681
-0.52668
-0.883633
-0.717216
-0.9356
-0.211149
-0.353558
0.580715
0.656576
0.927498
0.135981
0.371761
-0.00977404
-0.866985
-0.59642
-0.671334
-0.383734
-0.650393
0.38863
0.318002
-0.00295884
0.772141
-0.113753
0.512758
-0.400383
-0.517197
0.644057
-0.612562
-0.85576
-0.256177
0.184517
0.229229
-0.0222
0.295888
0.227071
-0.505729
0.876837
-0.525417
0.307506
0.616495
0.237181
0.374223
0.124354
0.816622
-0.0172111
0.540144
0.808485
-0.0773875
-0.978528
0.69331
0.49348
0.417095
0.412852
-0.943353
-0.142817
0.18888
0.736488
-0.325745
0.339236
0.820121
0.842
-0.401199
0.977117
0.476397
0.506656
-0.972166
-0.482191
-0.377264
-0.269419
-0.888871
-0.77916
-0.932264
-0.682413
0.834768
0.152532
0.0867122
-0.613025
-0.28625
0.146361
-0.504447
-0.727228
0.370474
0.228801
-0.316566
-0.581065
0.625805
-0.542395
-0.853353
-0.3111
-0.6544
0.6652
-0.5324
-0.872614
0.139688
-0.903095
-0.251773
0.26733
0.648689
0.573027
-0.467101
0.6437
0.988103
0.366052
-0.0840429
0.409435
-0.960692
0.177796
-0.4896
-0.0267
-0.8882
-0.17745
0.0560489
-0.351
-0.058
0.1168
0.383
-0.5568
-0.6557
0.2737
0.1968
0.8917
0.808579
0.789162
-0.177111
-0.185584
-0.522796
0.657449
-0.0798712
-0.913411
0.0938429
-0.730714
-0.902874
0.704256
0.305541
0.425029
-0.930803
0.0395349
0.10944
0.676971
0.928283
0.329
0.9385
0.4264
-0.5599
0.7957
0.0293
-0.908693
-0.607376
0.116523
-0.86053
-0.540676
-0.581671
0.32561
0.864101
0.0829496
0.234325
0.919819
0.67164
0.200002
-0.212548
0.166529
-0.712196
-0.464977
0.142828
0.986495
-0.8502
-0.144754
-0.801584
0.514931
-0.668563
-0.260795
0.212141
-0.5503
0.6711
0.416675
-0.206511
0.107252
-0.434548
0.082531
0.369274
-0.188076
0.39215
0.714943
-0.850314
-0.457449
-0.504211
0.843862
-0.132616
-0.16847
0.213943
0.254428
-0.363379
0.607028
0.342203
-0.324477
0.72696
-0.473487
0.873461
-0.528915
-0.287122
0.800101
0.9847
0.525135
0.910918
-0.361463
-0.309325
-0.312033
0.843486
0.0297777
0.416806
-0.0055387
0.810261
-0.793173
-0.420124
1.00477
-0.745643
0.0539628
-0.855952
0.73293
0.634568
0.885041
0.721816
-0.501878
-0.900215
-0.22123
0.658008
0.660293
0.402388
-0.367202
-0.1463
-0.196186
0.779742
-0.938299
-0.463051
0.830281
-0.542714
-0.252571
0.229244
-0.461901
-0.0965948
-1.06984
0.806519
0.257222
-0.717652
0.983633
-0.136582
0.119823
-0.728308
-0.25557
-0.558404
0.72463
0.0717403
-0.635619
0.064516
0.887566
-0.166692
-0.953901
-0.6898
-0.0595682
-0.132328
0.770121
-0.742908
0.55659
-1.10322
-0.625002
-0.235142
-0.311534
-0.703011
0.543038
-0.824229
-0.234819
0.958216
0.647483
-0.125011
-0.458153
-0.238166
0.418272
0.205172
0.785161
0.758801
0.329994
0.648355
-0.403543
-0.408976
0.245792
0.4068
-0.87449
-0.470689
-0.196043
-0.129971
0.863575
-1.13526
0.587674
-0.0658792
-0.0606723
-0.513408
0.779463
0.412328
-0.231709
0.458968
0.936864
0.341411
-0.664021
0.47766
-0.405597
0.319983
0.218512
1.00829
0.450718
-0.855569
0.984645
-0.688321
0.9212
0.4704
0.630624
-0.324871
0.0448065
-0.717043
-0.55237
-1.15667
-0.692831
-0.204891
0.524888
-0.977641
-0.0166702
-0.647823
-0.222474
-0.121805
-0.189506
0.46184
-0.460267
-0.378389
-0.400819
0.792668
-0.711287
-0.871295
-0.307603
-0.343792
0.606046
0.159886
0.0713
-0.0547
-0.375888
0.0272953
0.251808
0.305202
-1.04201
-0.350674
-0.0308752
0.694223
-0.336055
-0.897394
-0.408382
0.117022
-0.106389
0.292816
-0.201785
0.480453
0.892633
-0.444205
0.135039
0.532902
0.816176
-0.374695
0.393343
0.480748
-0.20026
-0.802693
0.253106
0.149
-0.178115
-0.0232629
-0.836256
-0.133718
-0.230761
-0.135102
0.12414
0.769777
-0.71365
0.428833
-0.990161
0.101181
0.723732
0.155805
0.144737
-0.257858
-0.704613
-0.0260491
-0.253688
0.479905
0.157046
-0.767551
1.1002
-0.00676925
0.662842
-0.375238
0.751601
-0.7663
-0.119778
-0.452062
0.846238
-0.917601
-0.922896
0.563858
0.822478
-0.0671973
-0.92826
0.0998442
-0.0880355
-0.319018
-0.404381
-0.56427
-0.926468
-0.103493
0.746257
0.750966
-0.589175
0.88253
0.868259
-0.532549
0.682099
-0.152631
0.80873
-0.593443
0.5302
0.614
0.820028
-0.412696
-0.538421
-0.686323
-0.769992
1.00231
0.919272
-0.0991393
0.263883
0.712952
-0.287511
0.0741908
-0.158025
-0.440906
0.982784
0.890906
-0.7868
0.648446
0.930606
-0.325634
0.180441
-0.325251
0.164705
0.535316
-0.191042
-0.312252
0.087
0.3423
0.196069
0.000699002
-0.932552
0.100361
0.896423
-0.244984
0.235847
0.137384
0.221994
-0.33044
-0.155202
0.230684
-0.172861
-0.589288
-0.32377
0.697705
0.566642
0.723877
0.9535
-0.103592
-0.00305738
0.839398
0.430404
0.354862
-0.119693
0.157976
0.8669
-0.3144
-0.254986
-0.775992
-0.18002
-0.527065
0.400683
-0.20667
-0.765912
-0.100423
0.62505
-0.464391
0.834208
-0.602783
0.726203
0.64614
-0.308735
0.203549
-0.264761
0.0573987
0.20181
-0.219168
-0.0199212
-0.272674
0.013533
0.0675902
-0.0906381
0.17524
-0.2485
-0.0221926
0.178766
-0.827603
-0.460668
0.458435
-0.635772
0.271998
0.774365
1.05037
0.734219
1.1083
0.968782
0.179857
0.689277
0.134081
-0.524823
0.92057
-0.135679
0.00734999
0.880567
-0.220767
0.638675
0.943906
0.860171
-0.622224
0.257447
-0.849729
0.802738
-0.881555
0.564771
0.314122
0.976804
0.238758
0.718581
-0.914141
0.296479
-0.168011
-0.511906
0.671859
-0.293448
-0.180214
0.449038
-0.769213
-0.676091
0.342078
-0.725941
-0.271711
0.387939
-0.373076
0.62452
-0.158784
0.242418
-0.913938
-0.452048
0.801533
-0.442893
-0.114086
-0.181297
0.276774
0.519721
-0.39963
0.071867
0.710037
-0.237746
0.880525
-0.357326
-0.372906
0.769058
0.733638
0.422651
0.592003
0.731788
-0.0110536
-0.209192
-0.121345
-0.704689
0.864674
0.701033
0.436689
-0.897873
-0.254446
-0.828494
-0.387194
0.428498
0.601394
0.866387
-0.485581
0.867685
-0.70237
-0.816725
-0.706144
0.565928
0.210566
-0.780296
0.0133159
0.28911
-0.823495
0.730323
0.819823
-0.872343
0.382532
0.530312
1.0654
0.960576
0.405561
-0.720765
-0.790523
0.159091
0.0223994
-0.383257
0.15653
0.176887
-0.272103
-0.760237
-0.806105
0.416457
0.475639
0.404356
0.130519
-0.826929
-0.162943
0.478571
0.0700067
-0.928304
-0.900151
0.637432
-0.511606
-0.872549
-0.20654
0.524282
-0.326998
-0.118079
-0.890484
0.844451
-0.251116
0.0457874
-0.353324
-0.403917
0.331825
-0.3456
-0.1697
0.802316
0.889769
-0.0268469
0.96974
0.401156
0.677309
0.0769744
0.742603
0.597872
0.441624
0.705428
-0.549236
0.992248
0.221868
-0.291559
0.105752
-0.631403
0.635931
0.860269
0.570122
-0.221159
-0.389153
0.389554
-0.110002
0.892582
0.0702227
0.0039
-0.2789
0.943156
0.80308
0.700029
0.685685
0.327133
-0.834506
0.491099
-0.0164077
-0.98322
0.105466
-0.517612
0.131782
-0.480041
0.839548
-0.570883
-0.300658
-0.500058
0.747211
-0.521496
-0.666302
-0.46948
-0.418951
-0.17341
0.292329
-0.687972
-0.95908
-0.2151
0.707798
0.456792
-0.78912
0.584633
-0.823986
-0.141894
0.344941
0.665802
-0.178779
1.02315
-0.388405
0.415402
-0.691643
-0.564153
0.568707
-0.35525
0.800885
0.628252
0.130457
-0.58949
0.47713
-0.37416
-1.02522
0.307312
0.0849445
0.143494
-0.753488
0.4587
0.172692
-0.158679
0.407996
0.607927
0.831764
-0.146032
0.299141
0.483135
-0.136915
-0.3721
0.519801
-0.140075
0.417044
0.09027
-0.206965
-0.653631
-0.176013
0.488237
0.139177
-0.696326
-0.387987
-0.474376
-0.343688
0.324996
0.511009
0.523249
-0.622325
0.6746
0.8448
-0.59158
-0.56049
0.860068
-0.462356
-0.137907
0.724304
-0.665565
0.686774
-0.168347
-0.356423
-0.780307
0.324951
0.837351
-0.213178
0.379136
-0.954233
-0.850388
-0.76184
-0.548786
-0.481246
0.353732
0.76202
0.230189
0.0104283
-0.182074
0.256172
-0.1864
0.803001
0.0542153
-0.142293
0.568372
0.835628
-0.129517
-0.259119
-0.839983
0.581005
-0.503268
0.252938
0.410904
-0.0133407
0.909414
0.0501403
0.0139151
-0.891179
-0.523227
-0.771867
-0.156234
0.19554
0.505704
-0.671406
-0.253993
-0.298707
-0.448087
-0.111673
-0.1516
-0.6668
0.440919
-0.807946
-0.219871
-0.38803
-0.397392
-0.878966
-0.602224
0.993109
-0.874747
0.0782963
-0.844777
-0.0852911
0.952998
-0.353563
-0.505064
-0.27929
-0.979551
-0.37988
0.466177
-0.916756
0.632783
0.908354
-0.197685
-0.165672
0.651154
0.862973
-0.2721
0.609
-0.135662
-0.760365
0.10159
0.710167
-0.0844531
-0.225747
0.588553
0.0634741
0.99262
0.903866
0.518017
-0.556648
0.429044
-0.759905
-0.394088
0.705776
-0.775994
0.860297
0.78221
-0.672812
0.121377
-0.593163
0.727985
0.23092
0.739526
-0.505788
-0.8245
-0.6981
0.0529
-0.637
-0.32791
-0.579442
0.270326
0.397672
0.654067
0.0403819
-0.787333
-0.849193
-0.9418
-0.96829
-0.65914
-0.266337
-0.752875
0.697631
0.4747
0.6434
-0.6659
-0.2997
0.306831
-0.429606
-0.7107
-0.6643
0.9434
0.9297
-0.5744
-0.4082
-0.231
0.57
0.4877
-0.125126
0.446566
-0.506653
0.662136
0.841226
-0.345102
0.398499
0.714181
-0.457475
-0.883196
-0.131791
-0.0933663
0.527918
-0.735655
-0.953669
-0.937314
-0.0230673
-0.872513
-0.160437
0.399497
0.317698
-0.8195
0.8133
0.718
0.4001
-0.60549
0.247612
0.442761
0.965378
0.277374
0.158617
-0.549841
0.851827
0.309335
0.209805
0.223211
-0.741609
0.575468
0.464776
0.319709
0.446688
-0.39901
-0.56975
0.394425
0.295793
-0.0682355
-0.49941
0.600365
0.866609
-0.791982
0.581579
-0.6767
0.9748
0.784118
-0.264357
-0.171784
-0.504177
0.163066
-0.477539
-0.537807
-0.786863
-0.251512
0.403071
-0.76447
0.599001
0.102052
-1.007
-0.88015
0.151056
-1.0684
0.104118
-1.03982
-0.291527
-0.699358
-0.803476
0.801409
-0.923499
-0.784218
-0.67823
-0.326201
-0.664
-0.867808
-0.616553
0.68562
0.377922
0.417538
-0.789444
-0.381448
-0.813522
-1.1217
-0.46816
0.49125
0.390628
-0.403025
0.369145
0.623808
-0.0527362
-0.193943
-0.206072
0.790676
0.249828
-1.05577
-0.370335
-0.411889
0.655779
0.351372
-0.411852
0.642399
-0.8042
0.977076
-0.72779
0.701638
0.164735
0.0167338
-0.948611
-0.649735
0.664685
0.70286
-0.262026
-0.700841
-0.392906
-1.17959
0.259981
-0.742817
-0.225274
0.0179704
0.146669
0.324223
0.711936
0.875181
-0.0924784
0.461278
-0.523854
-0.266543
0.0971457
-0.4776
-0.8611
-0.598824
-0.323907
0.0711751
0.867425
-0.559349
-0.179308
-1.11238
-0.446736
-0.916852
-1.19645
-0.754463
0.0463395
-0.335406
0.347011
-0.855798
-0.478462
0.487054
0.0837282
0.816661
-0.039643
0.0506927
-1.00755
0.805591
-0.22877
-0.449681
-0.0187489
-0.11847
0.3767
0.79274
-0.408907
-0.0736048
-0.779387
0.0379025
0.0179314
-0.117304
-0.908377
-0.918836
-0.285262
0.613818
0.638612
-0.828333
-0.669014
0.385218
-0.738764
0.0686214
-0.287249
-0.912393
0.434083
-0.0879283
0.839969
0.388368
0.4868
-0.108262
-0.510295
0.0391
-0.6536
0.240468
-0.886498
0.620325
-0.0486326
0.855258
0.298295
-0.79289
-0.256236
-0.501175
-0.399425
-0.0252891
0.509939
0.73352
0.783102
-0.362343
-0.459001
-0.703639
0.212029
0.586248
-0.610681
0.0611047
-0.545567
-0.338423
-0.862377
0.497636
0.609143
-0.375
0.3941
0.33837
0.864102
-0.652622
0.496329
-0.495422
0.0218862
0.521245
-0.110743
-0.11345
0.337655
-0.896105
0.754567
0.456075
-0.571544
0.684488
0.26343
-0.110034
-0.154918
0.0197841
0.784823
0.372517
0.698688
-0.356549
-0.106996
0.0289227
-0.00306106
0.0600083
0.3405
0.216975
0.411822
-0.383714
0.846893
-0.464592
-0.495761
-0.541442
1.09801
0.551353
0.331112
1.14679
0.165907
0.974606
0.813956
1.09122
0.66401
0.39001
-0.647341
-0.292358
-0.381561
-0.407131
-0.275744
-0.267801
-0.56644
-0.88476
-0.720321
-0.35014
0.8093
-0.930537
-0.756581
0.19565
1.2434
-0.442295
1.20478
1.29527
-0.257302
-0.283926
0.673084
0.733684
0.644492
0.176269
0.327679
0.803674
0.522359
0.990308
0.907223
-0.741867
-0.437172
0.910773
0.471378
-0.69369
0.434656
-0.124501
-0.986779
-0.9613
-0.5566
0.217614
0.0979209
0.697494
-0.539737
-0.166577
0.0979294
-0.081033
-0.0738562
1.25366
-0.404464
0.684883
0.255627
-0.347547
0.158926
0.754926
0.278445
0.953707
0.0811426
1.01754
-0.230549
-0.865261
0.360776
0.685895
0.0856063
0.100627
0.531636
-0.8044
-0.8537
-0.9896
0.304983
0.0298358
-0.192109
-0.371976
-0.0111286
-0.760848
0.248482
-0.521676
-0.358687
0.651036
-0.563384
-0.755161
0.622102
0.0187382
-0.596577
-0.417374
0.0229846
0.264305
-0.986286
0.841023
0.846617
-0.293386
-0.902205
0.73599
0.23775
0.547807
-0.7894
0.887657
1.02477
0.293206
0.128986
-0.730247
0.215663
-0.538703
-0.38608
0.595149
-0.843571
0.32346
0.348834
0.113562
-0.658842
-1.03663
0.076259
-0.572864
-0.267494
0.692941
0.255764
-0.751574
0.63094
-0.0197697
-0.799909
0.197807
-0.219111
-0.7205
-0.4972
-0.755006
1.00419
-0.428571
0.919121
-0.0156937
-0.690031
0.094628
-1.00856
-1.03304
0.173929
-0.714589
-0.448695
-0.837052
0.288579
-0.0231663
-0.857113
0.0503681
-0.6629
-0.0715239
-0.428845
-0.282404
-0.50803
-0.232543
-0.476651
-0.256432
-0.265937
-0.429701
0.982072
0.261089
-0.48446
0.660112
0.289905
-0.707477
-0.882756
-1.09825
-0.336341
0.128565
-1.10771
0.105716
-0.536235
-0.875585
0.0322944
0.21294
-0.275849
0.432118
0.627679
-0.477941
-0.154917
-0.329733
-0.435485
-0.774792
0.669153
-0.791172
-0.727592
-0.4117
-0.0373954
0.853016
-0.387863
-0.586875
-1.29533
-0.470073
-0.248077
-0.577189
-0.983929
-0.873604
-0.641642
-0.204537
0.548269
-0.565942
0.5906
-0.159846
-0.656455
-0.586033
0.450325
-0.895459
0.749631
-0.106605
-0.157815
-0.249972
0.653974
0.926777
-0.607715
-0.47862
-0.71742
0.0421858
0.116669
0.18032
0.107525
-0.00856546
0.456546
-0.19307
-1.03198
-0.00889293
0.406676
-0.289752
-0.501858
0.940439
-0.602195
-0.211392
0.707962
0.487926
0.0274974
0.463536
-0.479743
-0.28124
0.236918
0.964608
0.589348
0.514306
0.987997
0.996104
0.297536
0.785889
1.07737
-0.976237
0.641982
0.0735575
-0.0980964
0.131122
-0.190182
0.150941
-0.0247006
-0.231078
0.640833
0.790566
0.132619
-0.0698698
-0.700716
0.652083
-0.108532
-0.726727
-0.31291
-0.705244
-0.408174
0.691375
0.524636
-0.543573
0.465024
-0.7719
0.3157
0.519893
0.146101
0.681237
-0.312678
0.782387
-0.589801
-0.437519
-0.301503
0.650595
-0.918125
0.158368
0.232044
-0.203562
-0.536099
0.259486
0.363041
-1.15522
-1.16715
-0.788161
0.629989
-0.119362
-0.488842
0.0592558
-0.0572163
-0.284814
0.21474
0.4089
-0.8275
-0.956579
-0.84872
-0.0022946
-0.840309
-0.0488762
0.861122
-0.123147
-0.568461
0.463403
0.475498
0.485167
-0.300567
-0.815713
-0.0769539
-0.664439
0.233157
0.657128
-0.408707
-0.612704
0.625773
-0.189128
0.797673
-0.885756
-0.143494
0.29069
0.913756
-0.6733
-0.993694
-0.145393
-0.214696
-0.0926403
-0.366559
-0.892814
0.797915
-0.276171
0.379697
0.552361
0.730548
-0.693148
-0.0961557
0.943039
0.756151
0.658387
-0.908233
0.524388
-0.741703
0.572422
-0.268905
-0.0927003
0.563032
-0.709467
-0.707997
0.164486
-0.715332
-0.641
-0.80047
-0.969881
-0.664332
0.810421
-0.376168
0.765549
0.203867
-0.546479
-0.951335
-0.102497
-0.455227
0.545165
0.30023
-0.693451
0.928462
0.222457
-0.495323
0.222681
-0.967094
0.296324
-0.445948
-0.298409
0.825936
-0.430595
0.723926
0.444149
-0.580718
-0.8168
0.567699
0.415433
0.197148
-0.864278
-0.412726
0.429019
-0.707221
0.385815
0.196412
0.133303
-0.754477
-0.507524
-0.598353
-0.245196
0.425567
0.769047
-1.20924
0.0262717
-0.831541
0.839281
-0.682482
0.733802
0.258825
-0.150886
-0.675937
-0.69224
-0.659267
0.8316
-0.617901
0.43928
0.280508
-0.497631
0.550339
-0.742847
0.949278
-0.309274
0.77993
0.800011
-0.0764795
0.609783
-0.790864
-0.207845
-0.655876
0.381131
-0.676097
0.646833
0.122103
0.251871
0.499613
0.0113154
-0.156746
-0.216598
0.0526082
-0.380218
-0.402668
-0.5186
0.539299
0.755181
-0.673918
-0.226452
0.0645413
0.00777381
-0.33412
0.72958
-0.476746
0.354378
0.974036
-0.158428
0.316973
-0.167654
0.112869
-0.711471
0.308439
0.538073
0.863801
0.507727
-0.306555
-0.562532
0.085076
0.463759
-0.782566
-0.90399
-0.909242
-0.3396
0.4062
-0.303143
0.0764726
-0.304582
-0.131864
0.502672
0.871872
-0.87296
-0.231638
0.894615
-0.20467
-0.147898
-0.537295
-0.982238
0.295413
0.688389
-0.208118
0.990553
-0.746885
0.0199724
0.628519
-0.70606
-0.074731
-0.893335
0.15303
0.923765
-0.280821
0.8924
-0.4491
0.6965
0.9282
-0.344995
0.470677
-0.711977
-0.706842
0.67316
0.882401
-0.847324
0.115542
0.1174
-0.14889
0.123925
-0.296775
0.995528
-0.00866895
0.5434
0.0987
-0.1536
-0.2465
-0.57211
0.2773
0.4434
-0.4862
0.2926
-0.7984
-0.292
0.5893
-0.4062
0.3932
0.2084
-0.750997
-0.639046
0.436548
-0.939316
0.592376
-0.722502
-0.552085
0.397112
0.471037
0.53872
-0.382094
-0.134173
-0.998166
-0.780647
-0.261293
0.978561
-0.160998
0.27768
-0.872702
-0.82471
0.086795
0.063
-0.4837
-0.134
-0.6303
-0.0894941
0.559259
0.332068
-0.803782
-0.19591
-0.752584
-0.484761
0.250682
-0.392251
0.0795524
-0.370005
-0.279126
0.160096
-0.271285
-0.799806
-0.211752
0.775784
0.88971
0.25788
0.944933
-0.0578724
-0.352482
0.933969
-0.416958
-0.281419
-0.58998
0.7283
0.2521
-0.293685
0.652162
0.0847748
0.725707
-0.357524
0.511201
-0.150311
0.873109
-0.474409
-0.711816
0.326076
-0.55118
0.494839
0.0172647
0.226717
0.0124759
-0.522073
0.660596
0.751945
-0.886223
0.105002
0.960258
0.852192
-0.633291
0.156012
-0.982457
-0.969386
0.8889
0.615082
0.49703
-0.906952
-0.729628
-0.467141
0.204506
0.515279
-0.840525
0.61847
0.920076
0.926084
0.493261
-0.841737
-0.0788583
-0.63148
0.221852
-0.809404
0.601018
-0.483627
-0.309625
-0.0020808
0.936865
0.535147
-0.669773
0.766827
0.573282
-0.554005
-0.6089
-0.277582
-0.410372
0.87117
-1.02452
-0.557535
0.81037
0.462835
-0.175425
-0.50942
0.77146
0.425614
0.464146
0.259685
0.0622571
-0.634381
0.846753
0.303315
0.32797
-0.179254
-0.00921576
0.0197022
0.610661
0.282231
-0.669174
0.376211
-0.143167
-0.59461
0.9882
-0.340514
0.735099
-0.473632
0.21149
0.529748
0.0254369
-0.476088
0.236366
-0.504904
0.725152
-0.332043
-0.624167
0.383677
0.268981
0.696174
-0.040473
-0.605535
0.61809
-0.417375
-0.369545
-0.302409
-0.843845
-0.0986836
-0.903403
0.11611
-0.24894
-0.4192
0.6608
0.666311
0.781042
0.293981
-0.00865035
0.302254
-0.0251878
0.433326
-0.99567
-0.552302
-0.33705
0.439237
0.352234
0.153511
0.0920238
-0.285081
0.221047
-0.699671
-0.662543
0.577088
0.278555
0.0110774
0.678937
-0.95063
0.0809659
-0.702706
0.204253
0.401
-0.2606
0.719894
-0.513567
0.863956
0.0391787
0.751171
-0.963359
-0.149569
0.28239
0.813552
-0.439662
-0.435313
-0.818583
-0.0108905
0.842613
-0.900456
-1.0658
0.427237
-0.774794
-0.432532
-0.305393
-0.193317
-0.968494
0.140682
0.056559
0.628219
-0.229304
0.9516
0.6443
0.885623
-0.677673
-0.133854
-0.603114
0.256873
-0.873406
0.764223
0.29717
-0.373389
-0.907544
0.450058
-0.354778
-1.03689
-0.281919
-0.993288
0.814247
-0.0516825
-0.75419
0.339447
-0.771687
-0.558494
0.610405
0.45943
0.230568
0.965115
0.166793
-0.210384
0.0733
-0.726083
-0.870997
-0.291308
-0.615046
-0.0436949
-0.582694
-0.718635
-0.555298
-0.754356
-0.471363
0.661648
0.806379
-0.844578
0.617631
0.51169
-0.855889
-0.786143
-0.270254
-0.392085
0.785695
-0.236083
-0.382731
-0.820834
-0.774191
-0.59265
0.530187
-0.820518
0.0119
0.684435
-0.288535
-0.702581
-0.0920935
0.280214
-0.381226
-0.804886
0.796202
0.355528
-0.264868
0.769073
-0.0283656
0.22055
-0.865367
0.147265
0.740152
-0.660156
0.00296615
0.500136
-0.0495511
0.468432
-0.631364
0.834171
-0.0102436
-0.408488
0.071353
0.5982
0.3298
0.523021
-0.671024
-0.532549
-0.349525
0.160396
0.717442
0.050929
-0.160458
0.683503
0.611502
-0.510031
-0.498578
0.0880386
0.118278
-0.542192
-0.208357
0.793853
-0.816125
0.0891913
0.838572
0.244013
0.245612
-0.127144
-0.10531
-0.387075
-0.501565
0.7343
0.0888
0.394028
-0.778609
0.829715
-0.604239
0.574597
0.104839
-0.493766
-0.299076
-0.404717
-0.746391
0.115279
0.265724
0.129733
-0.709252
-0.0854631
0.789329
0.378296
0.680536
-0.294101
0.104348
-0.376404
0.871159
0.402047
-0.132399
0.551582
-0.121754
-0.316011
-0.1301
0.877499
0.287421
-0.763217
-0.61822
-0.310432
0.122458
0.0223292
-0.0649332
0.789852
0.954264
-0.439102
0.689894
0.0180307
0.693125
0.718672
0.533738
0.199027
0.243909
-0.264691
0.379168
0.538253
-0.671202
0.130237
-0.491001
0.0757158
0.206645
-0.5031
0.757699
-0.641999
1.00332
-0.522987
-0.17242
-0.358757
0.632556
0.629845
0.460158
-0.27445
0.418794
0.143456
-0.47774
-0.00130939
0.98316
-0.581747
-0.294018
0.55991
-0.475427
0.480406
-0.863531
-0.272764
0.616165
-0.0363563
0.637621
-0.829291
0.105678
0.0762948
0.721138
0.431214
0.796777
-0.170237
-0.425823
-0.368756
0.373218
-0.477698
-0.796239
0.898806
-0.00410194
-0.66162
0.709657
-0.55343
-0.514671
-0.619808
0.932967
-0.10441
-0.908347
-0.399579
0.667953
0.109675
0.76141
-0.980325
-0.347515
0.595357
0.827664
-0.406901
0.885693
0.887767
0.376681
-1.00392
0.0685081
0.88137
-0.332325
0.60582
-0.500589
0.796368
0.555807
0.708442
-0.466812
-0.667507
0.221387
0.26272
-0.691086
-0.878778
0.640484
0.487421
-0.783491
-0.84527
-0.692724
0.54362
-0.733055
-0.737022
-1.00045
0.544493
0.0069615
0.346518
-0.62503
-0.331869
0.242323
0.302298
0.257307
-0.585697
0.945075
0.655065
0.183145
-0.301122
-0.0637003
-0.122943
0.0796191
-0.542062
-0.355952
-0.758844
-0.918171
-0.619063
-0.721279
-1.16309
-0.323993
-0.915936
-0.830441
-0.0277116
-0.615505
-0.187444
-0.614624
-0.681548
0.720371
-0.411119
-0.667195
0.491623
-0.515329
-0.160696
-0.71626
-0.24681
-0.853081
0.754904
-0.0498478
0.847867
0.0871507
-0.0237014
0.0244802
-0.320215
0.431041
-0.982798
-0.073252
-0.350956
-0.669017
-0.417628
0.4028
-0.0532089
0.161718
0.0913
0.8659
-0.940298
-0.355163
0.581911
-0.165622
0.500393
-0.0275059
-0.247068
0.0634035
0.686616
0.899733
-0.553629
0.143315
-0.820542
-0.632865
-0.0773015
-0.301873
-1.16244
-0.804167
0.56123
0.0875177
0.394338
-0.860906
-0.19913
-0.128418
0.843895
-0.36055
0.6812
-0.6522
0.303215
-0.28629
-0.944769
-0.229234
0.132085
0.687803
-0.912543
0.452225
0.421738
0.138922
-0.403881
0.424878
-0.852732
-0.562651
0.283875
0.246527
0.711226
-0.969061
-0.625421
-0.385149
0.172559
-0.192744
0.0108432
-0.658958
-0.558672
-0.830858
-0.4811
0.558
0.486083
-0.00116185
0.297518
0.414026
0.213218
-0.924698
-0.237454
0.565499
-0.589179
-0.933289
0.0343006
0.117594
0.268156
-1.02696
-0.0593743
0.637338
0.473426
0.602818
-0.466443
-0.759652
0.373527
-0.180176
0.581138
0.654626
0.012154
0.478114
-0.363
-0.6106
0.373472
-0.434481
-0.190429
0.586828
-0.387878
0.7097
-0.844769
0.0612369
0.264237
0.56547
-0.684758
0.917439
0.440878
-0.528455
0.860462
-0.348115
-0.505008
0.375104
0.662639
0.302976
0.124666
-0.0801499
-1.00515
0.00942552
0.601655
0.289325
-0.3483
-0.363291
-0.62672
0.623654
0.372591
0.0889334
-0.64946
-0.873558
0.110796
-0.200748
0.684947
0.208621
0.427474
0.770703
0.188769
0.860077
0.619363
-0.763762
-0.680803
-0.72718
0.457341
-0.966747
-0.403897
0.394189
-0.377
-0.416285
0.479625
0.536051
-0.9727
0.782715
-0.226379
-0.657189
-0.959315
-0.53037
0.873543
0.786323
-0.591549
0.791416
0.694999
0.71984
1.18258
-0.332633
0.582621
1.00005
0.866307
0.612463
0.579321
0.705472
-0.848668
-0.887539
0.415849
0.65044
0.948621
-0.209632
-0.889387
-0.627018
-0.5614
0.986709
0.311828
0.978323
0.124925
-0.461228
0.199425
0.720625
-0.705373
0.987104
0.557446
0.733897
0.700814
1.07254
0.650099
0.0519325
0.274137
-0.534306
-0.330071
-0.885508
0.580847
0.839243
-0.976305
-0.786892
0.335243
0.14671
0.65428
-0.88943
-0.1225
-0.7257
0.657771
-0.985386
-0.220561
0.603564
-0.661398
-0.632461
0.843062
-0.471456
-0.0103068
-0.475456
0.380477
0.234194
1.02284
-0.547446
0.921885
0.178047
-0.665451
-0.0221447
0.64245
0.994485
0.333396
0.577664
0.723664
0.604037
0.300273
0.926375
0.8659
-0.2273
0.08
-0.8282
-0.31411
0.163311
-0.0981787
-0.177822
0.510539
-0.499498
-0.540465
-0.0906883
-0.9677
0.665502
-0.110772
-0.239365
-0.687446
-0.016895
-0.2117
-0.911
0.0526
0.949
-0.0622676
0.634303
-0.8732
0.6001
0.8533
-0.7933
0.3603
0.5566
-0.8337
-0.6221
0.9121
0.550428
-0.783974
-0.434975
0.104866
-0.172338
0.674499
0.0557392
-0.0573312
0.938259
-0.570771
-0.503823
-0.556086
-0.89433
0.974824
0.961044
0.211322
0.0713318
0.583627
-0.266299
0.669996
0.114798
0.5079
-0.6642
0.3478
0.7349
-0.329801
-0.163113
0.597234
-0.164992
0.469469
0.203506
0.368933
0.292988
-0.424853
-0.629438
-0.784207
-0.704685
-0.483586
0.743307
-0.941086
0.181464
0.971039
-0.0861407
0.758021
0.138746
0.715082
0.199725
-0.0416723
-0.54625
0.00471881
0.672283
0.2563
-0.8779
-0.691694
0.550414
0.902895
-0.725879
-0.793851
0.706093
-0.159915
-0.895726
0.272242
0.897193
-0.897416
1.01257
0.472531
0.469976
0.0330406
-0.752947
-0.00340554
0.444033
-0.0591861
0.110964
-0.212803
0.317942
0.45722
-0.0332332
-0.0169264
0.129844
0.563858
-0.2506
0.697392
0.868421
-0.569855
0.78571
0.545963
-0.0345344
0.156588
0.322814
0.433483
0.162854
-0.424491
-0.73265
-0.0782156
0.98723
0.897394
0.270271
0.645361
0.490976
0.356304
0.239329
0.492382
-0.847905
0.999885
0.402672
0.0672432
-0.0507939
0.318695
0.8905
-0.144853
-0.298991
0.124711
0.896912
-0.722889
-0.80334
0.84404
-0.129496
-0.561815
0.858942
-0.517677
-0.311925
0.140642
0.608279
0.109032
-0.077134
0.319306
0.951055
-0.152998
0.343421
-0.796872
0.275989
-0.0170781
0.168224
0.387865
-0.686382
0.135616
0.4663
-0.734361
-0.115193
0.156675
0.00452064
0.643531
0.0186653
-0.408784
0.457033
0.491728
0.786048
0.472159
-0.227581
1.11484
-0.366699
0.0828877
0.610036
-0.529108
-0.170678
0.364563
0.818909
-0.2342
-0.321016
0.943937
0.114847
-0.931192
0.702506
0.594252
-0.7295
0.195533
-0.30809
-0.46864
0.534466
0.379869
0.741461
0.544418
0.773906
0.243383
-0.428556
0.477007
-0.0955382
1.0311
0.844036
0.984096
0.590895
0.887105
0.981797
-0.559138
0.0441514
-0.450465
0.696217
-0.860797
0.758519
-0.525153
-0.651621
0.8126
-0.8071
-0.288933
0.616369
0.537111
0.252351
0.380483
-0.749642
-0.295195
-0.209953
-0.421436
-0.749984
-0.0632555
-0.871413
-0.865895
0.125098
0.483897
0.47532
-0.65826
-0.551146
0.975418
0.539893
0.182641
0.856223
-0.418561
0.48171
0.574005
0.365847
-0.554
-0.5282
0.421997
-0.918924
0.300409
-0.298975
0.943286
-0.15316
1.06226
0.851976
0.811305
-0.487796
0.944919
-0.0910222
-0.736696
0.967525
0.283676
1.21212
0.787829
-0.264125
0.871534
0.373316
-0.0493159
-0.0200831
-0.70089
0.0640026
0.236194
-0.44398
0.736787
0.6009
0.501134
-0.743708
0.777145
-0.263329
0.854231
-0.541101
-0.0850238
-0.5277
-0.429218
0.552235
0.67828
-0.396718
0.52019
0.632278
-0.192275
0.800579
1.07993
0.285922
-0.876448
0.324517
-0.209893
-0.659476
1.02884
-0.641197
-0.676419
0.913528
0.568874
-0.861
-0.700055
0.895591
0.99697
0.42049
0.631039
0.659447
-0.218446
-0.0879341
0.91446
0.209026
-1.06076
-0.499349
-0.55716
0.590377
0.811082
-0.922985
0.0772837
0.345169
-0.789303
-0.686902
0.513821
-0.756838
-0.273095
-0.611506
-0.790068
-0.0125196
0.9799
-0.6812
0.214763
0.459157
-0.306917
-0.595226
-0.175388
-0.0104768
0.181122
-0.671729
-0.386165
0.492393
-0.814478
0.852667
-0.766117
0.329765
0.204895
0.629494
0.306032
-0.872852
-0.0821886
-0.361533
0.411236
-0.309174
-0.68615
0.558245
0.616765
0.807219
-0.6465
-0.9385
-0.675455
0.319281
0.876194
0.574899
0.828135
0.934888
0.183545
0.0990622
0.0668241
0.292891
0.640603
-0.888036
0.691249
0.33353
0.258043
-0.086373
-0.567356
-0.0536823
0.758922
-0.60031
-0.67692
-0.436481
-0.767199
0.309554
-0.883342
-0.109335
0.682394
0.6508
-0.261916
-0.125144
0.607398
0.253994
-0.632152
0.938577
0.0078972
0.0959029
-0.186236
0.966756
-1.01811
-0.612378
-0.239559
-0.416779
-0.344575
0.169655
-0.636634
0.934529
0.410743
-0.44263
-0.875775
0.192705
-0.0522601
-0.963113
0.571802
0.351261
0.8513
0.8574
0.628205
0.856976
0.523239
0.382031
0.447567
-0.677405
-0.420953
0.98401
0.468783
-0.903785
-0.768656
-0.493058
-1.06424
-0.755577
-0.893627
-0.752602
-0.863554
-0.695799
-0.524554
0.266138
-0.133515
-0.0122509
0.835064
0.33786
-1.04366
0.656642
0.627
0.493285
-0.82899
0.913737
0.876416
0.217678
0.346381
-0.393154
-0.504578
0.125915
0.0720607
0.605731
-0.83646
0.454541
-0.595141
0.605021
-0.316641
0.782784
0.516907
0.787057
-0.704185
-0.47921
0.0619216
-0.858233
-0.908581
0.347859
-0.591493
-0.601376
-0.0387
-0.954319
0.259874
-0.0587719
0.0213216
-0.636941
1.16454
0.439996
0.457262
0.893408
-0.732352
1.01948
-0.19881
-0.248286
-0.0250745
-0.596665
-0.280112
-0.634134
0.371515
0.793325
-0.615543
0.343856
0.464437
-0.937881
0.443268
-0.291049
-0.315923
0.535643
0.664716
-0.506325
-0.529708
0.437917
0.310076
0.593991
-0.167722
0.145652
-0.85018
0.184036
0.180274
0.698454
0.515614
0.922886
-0.849962
-0.264713
-0.90337
-0.284121
0.559632
-0.193202
0.276318
0.187255
-0.430652
-0.521309
-0.348289
-0.40517
-0.610453
-0.0821388
-0.985333
0.528158
-0.391439
0.145491
1.10302
0.297793
0.309397
0.981064
-0.349193
-0.748162
1.10443
