ODFQMVNQHVIBYT
784 100 100 26 
-0.6187
-0.9083
0.9065
0.975501
-0.926311
0.616145
0.575447
0.405846
0.541621
0.269373
-0.234758
-0.685579
-0.0960402
-0.611941
0.631489
-0.295444
-1.01928
0.471133
0.22104
0.272686
-0.589027
0.12232
-0.136608
-0.172299
0.2852
0.8422
-0.6747
-0.214
0.0316
0.900672
-0.754809
0.355845
-0.37174
0.15743
0.025188
0.979592
-0.832388
0.0984517
0.869957
0.588354
-0.191207
-0.168784
-0.0287614
-0.535787
-0.806635
0.987377
0.94268
0.9022
1.01277
0.819744
-0.06883
-0.134704
-0.763289
-0.603764
0.830264
-0.603401
-0.939
0.814341
-0.775874
0.565889
0.509811
0.22173
-0.373911
1.15812
0.57529
0.299642
-0.110919
0.215006
-0.910871
-1.24961
-0.11368
-0.106742
0.578876
-1.21221
-0.975215
0.680474
0.0926671
0.580514
0.691643
0.108954
-0.25345
0.104585
-0.459022
-0.69074
0.2106
-0.743304
0.384787
0.10358
-0.6044
-0.376557
0.0958892
0.0779802
0.100967
0.149007
0.560668
7.82407e-05
0.28587
-0.703871
-0.235083
-0.363212
0.0796669
0.0810627
-0.703798
-0.620864
0.396882
-0.500061
-0.424676
-0.542954
0.873096
-0.721822
-0.101708
0.178562
-0.0934
0.992614
0.821059
1.02544
-0.564492
0.349491
1.11565
0.812975
-0.75799
-0.280296
-0.352946
0.373277
-1.10796
-1.31492
0.211414
0.426673
-0.82219
-0.991124
0.369418
-0.475404
-0.333286
-0.470159
-0.456561
-0.10201
1.26735
-0.636027
0.044496
-0.216639
0.7857
0.95452
0.564542
0.173099
0.793084
-0.235231
-0.63984
-0.127766
-0.755246
-0.225338
-0.567387
-0.903022
-0.82677
0.931288
-0.639538
-0.550361
0.388973
-0.815824
-0.443365
-0.464053
-0.424462
0.283651
0.0972946
0.231034
1.06469
0.00333936
0.321709
-0.0837532
-0.4413
0.674077
0.204751
0.179547
0.676871
0.949122
0.527253
-0.223857
-0.332058
-0.278865
0.295869
-0.0757041
-0.153022
0.541325
-1.22352
0.019859
-1.49921
-0.700436
0.703249
-0.351027
0.777897
-0.270085
1.43285
0.0216443
0.562269
0.346268
-0.981765
-0.7749
-0.2075
0.403074
-0.382862
-0.251567
-0.0538054
0.520061
0.508666
-0.638535
0.191512
0.0693143
0.364032
-0.899241
-0.911051
0.0777464
-0.0918448
-0.88891
0.465949
0.368215
0.244701
-0.0305359
-0.560675
0.634989
0.750056
0.709049
0.937513
-0.679606
0.776919
-0.706
0.2717
-0.946381
-0.839215
-0.713886
-0.81007
0.100165
0.219089
-0.290128
-0.0782892
-0.440443
-0.917594
-0.31381
0.463847
-1.60866
-1.11658
-0.724944
0.415224
0.0282903
0.836543
-0.299165
0.980639
0.300543
0.476212
-0.00350677
0.244064
0.356159
-0.19425
0.898137
0.3742
-0.661652
0.393158
-0.669391
-0.107463
0.444091
-0.171353
-0.771901
0.0971879
0.128654
-0.418966
-1.21946
-0.0283386
0.0626591
-0.978113
0.929435
-0.337451
0.673184
-0.505741
0.468136
0.0593736
1.14557
-0.402946
0.204946
-0.119639
-0.196706
-0.319658
0.0583952
-0.0065
0.475322
0.58061
-0.117445
-0.027771
-0.123518
0.0675277
-0.0873495
0.563882
-0.371162
-0.497082
-0.614092
-1.13284
0.238205
0.0755773
-0.261316
1.20484
0.477255
-0.419506
0.589452
0.495179
-0.178282
0.551571
0.50617
-0.0983899
0.999459
0.652776
0.3237
-0.8082
-0.0535099
-1.06378
-0.535446
-0.626376
-0.429877
0.339236
-0.532464
-0.822766
-0.272292
-0.549852
-1.13673
-0.065875
-0.468433
0.318825
0.798441
1.38076
-0.464337
-0.145098
0.466434
0.0206408
1.08858
0.722974
-0.15248
0.187083
-0.294
-0.437679
0.2167
0.9614
-0.52779
-0.254194
-0.647715
-0.737303
-0.840208
-0.214438
-0.0145333
-0.524491
-1.43116
-1.52443
0.341962
-0.140166
0.705813
0.0524648
0.903778
0.427352
-0.142555
-0.482733
1.13874
-0.448852
0.241403
-0.271534
-0.473142
0.482543
0.276466
0.526299
-0.88361
0.0272
-0.168783
-0.657417
0.122622
-1.10418
0.0727046
-0.753921
-0.222948
-1.4641
-0.204867
-0.917181
0.362731
-0.0313438
0.0809318
0.305167
-0.231713
-0.0923996
-0.28441
0.716016
0.404782
-0.707407
0.529041
1.04134
-0.664972
0.267448
0.624574
-0.365216
0.0845
0.69406
0.401934
-0.980563
0.0927897
-0.81587
-0.633217
-1.34557
-1.62362
-0.978512
-0.0345324
-0.784956
-0.0658961
0.760342
0.546688
-0.435751
1.10854
0.889689
-0.264686
-0.0338926
0.135057
0.12083
-0.361056
-0.376485
0.780768
0.586042
-0.0424753
0.733778
-0.783708
-0.975816
-0.770067
0.0761428
-1.21823
-1.45786
-1.63021
-1.22242
-0.707969
-0.698523
0.997519
0.0693196
1.13267
-0.284877
0.307797
-0.534062
0.319592
-0.0692851
-0.196442
0.513896
0.226385
0.545763
-0.285419
-1.18995
0.221516
0.235075
0.965972
-0.187668
-0.965039
0.843575
-0.533261
-0.313042
-1.59438
-0.269674
-0.442732
-0.49325
-0.539943
0.597609
0.624419
1.15792
0.789259
-0.163491
0.461152
0.42728
-0.210071
-0.328109
-0.222005
-0.11693
-0.00988651
-0.813174
0.760179
-0.0335186
0.147588
-0.850612
-0.408366
0.168093
-0.0365684
-0.899455
0.592853
0.170296
-0.705499
-0.775041
0.38103
-0.650796
0.406725
0.503905
0.0313028
0.551997
0.995634
-0.257431
0.364964
-0.727732
0.0750237
0.212462
0.244042
0.535111
0.81653
-0.709702
0.0278816
0.320451
0.368791
0.558896
-0.66398
0.827144
0.281432
-0.702963
0.7152
0.0353663
-0.315734
-0.335085
-0.494813
0.783171
-0.135793
0.513745
0.60297
0.348898
-0.336208
0.524568
-0.238343
0.552491
-0.668589
0.649
0.633606
-0.901547
-0.0325064
-0.571904
0.70342
-0.0208068
0.612967
-0.0126841
0.303388
0.939375
-0.6333
-0.6477
-0.702823
-0.932711
-0.924146
0.747585
0.510763
0.479149
0.266196
-0.0439077
-0.428082
0.301134
0.965184
0.310988
0.0287947
0.0715481
-0.336397
0.61483
0.690466
0.994768
0.765863
1.17976
-0.618989
-0.633129
0.25618
-0.551207
-0.721143
0.67463
0.6146
0.8869
-0.728821
-0.526748
-0.0209189
-0.0366158
-0.96292
0.038721
-0.339943
-0.201884
0.500792
0.608178
0.984229
0.0404751
-0.0788399
-0.385992
-0.63025
-0.536786
0.785784
-0.607699
0.303041
-0.572514
-0.218597
0.445462
-0.273267
-0.130594
0.17206
-0.920501
0.7781
-0.82121
0.665568
-0.248354
-0.366253
0.124352
0.30086
0.0655915
0.594638
0.287324
0.721018
0.0605591
0.659756
-0.109246
0.87039
0.622572
0.895416
-0.0538786
0.482975
-0.593269
0.066444
-0.769172
0.987317
-0.305075
0.562296
-0.887477
-0.0785612
0.974476
0.6556
-0.884153
-0.0864903
-0.446872
0.812061
0.605745
0.0308746
0.523498
0.722822
-0.159913
0.405648
0.131879
0.0785567
-0.33553
-0.939742
-0.446725
0.801595
0.262503
-0.255444
0.48992
0.606683
0.299216
-0.728971
-0.249358
-0.190771
0.0585372
0.33675
0.0236958
0.4592
-0.962545
0.114012
-0.548457
0.950942
0.364845
0.709932
-0.46917
0.40709
-0.607118
-0.101158
-0.102518
-0.294639
-0.431658
1.24958
0.551561
0.280405
-0.0794816
-0.566575
0.770754
-0.453675
-0.747514
-0.618447
0.0202186
0.147586
-0.390044
0.822605
0.337404
-0.6124
0.833242
-0.821301
-0.41731
-0.606616
0.80678
-0.12584
0.0287468
0.3882
-1.06236
0.192892
-0.586247
0.590806
-0.607578
1.12746
-0.496601
-0.365466
-0.0178819
0.559747
-0.306278
-0.853562
-0.0486863
-0.099469
-0.790474
0.554959
0.650624
0.994756
-0.094828
0.106
-0.000350805
-0.53118
-0.201378
-0.0500598
0.86334
1.13681
-0.163918
0.682383
0.60761
-1.04205
0.767496
-0.79623
0.702388
0.320403
-0.934285
-0.267678
0.534155
-0.189191
0.212863
0.659332
0.49468
-0.120405
-0.952988
-0.641224
0.711405
0.801122
0.6909
-0.8753
0.379199
0.115319
-0.653452
0.963514
-0.930936
-0.0987038
-0.596534
-0.22493
0.646609
0.732187
0.225877
-0.397883
0.10694
0.181593
-0.117564
-1.00768
-0.476196
0.606126
0.65857
-0.473003
-0.00510141
-0.749776
-0.199937
0.506716
0.166527
0.015103
0.657202
0.935
-0.0691
0.9202
-0.6918
-0.273802
0.992527
0.635909
-0.167032
0.25992
-0.159975
0.804244
-0.180269
0.4196
0.725814
0.361978
0.0710482
-0.885031
0.796141
-0.326399
-0.8414
-0.7303
0.428
0.469945
-0.336999
-0.7087
0.1776
0.6088
-0.5133
0.0075
0.8413
-0.839
0.5932
-0.9271
0.893985
0.707779
-0.822924
-0.293881
-0.751141
-0.926952
0.892237
0.590365
0.0925452
0.0585994
-0.970231
-0.425264
-0.123947
-0.38189
-0.361894
-0.120316
-0.901789
0.458658
0.832862
-0.1576
-0.7586
-0.698
-0.8144
-0.9221
-0.4918
-0.143206
-0.770458
0.827442
-0.554198
-0.339913
-0.691015
-0.109134
0.588349
0.941703
-0.104336
0.413711
0.814579
0.64737
-0.798398
0.803429
0.874963
0.456841
0.430237
-0.104536
0.822023
-0.580311
-0.897004
-0.521811
0.53596
0.55403
0.099614
0.176699
-0.5714
-0.692083
-0.676064
0.518434
0.0319841
0.192691
-0.274553
0.0124608
0.533374
0.392313
0.0101464
-0.509701
-0.896187
-0.67493
-0.655751
-0.704671
-0.0707203
-0.655654
0.226647
1.08624
0.348498
0.22255
0.524059
0.420884
0.118128
-0.325293
-0.746131
0.776688
-0.6993
-0.409876
0.247561
0.593338
1.03028
0.510257
0.937726
-0.168068
0.694927
0.179571
-0.016687
0.313303
-0.688253
-0.0711438
-0.367487
-1.05988
-0.00043398
-0.527334
-0.259235
-0.615175
-0.171348
0.591504
-1.01227
0.29284
0.437294
0.0357654
-0.473408
-0.777178
0.4713
0.832836
1.08656
0.274632
-0.32298
0.742961
-0.355529
-0.0998811
0.359982
0.660925
0.527132
-0.895599
-0.415666
-1.03062
0.408019
-0.35992
-0.482308
-0.344554
0.469282
0.596455
-0.558291
0.844935
0.233365
-0.181405
-0.267647
-0.547035
-0.156178
0.224016
-0.131
-0.439259
-0.668077
-0.383714
0.364249
1.06648
0.37557
-0.623935
1.22187
-0.511911
-0.00974931
-0.678357
0.376716
0.0645145
-0.854161
-0.321238
-0.411
-0.868805
0.835973
0.225389
0.202494
-0.0855462
-0.824546
0.156785
0.557835
0.736373
-0.345672
-0.800516
0.3146
-0.0442536
-0.400202
0.159178
0.576321
1.03389
-0.284897
0.8796
-0.682826
-0.346264
0.664667
0.270532
-0.516787
-0.703206
0.517407
-1.07832
0.537002
0.740188
0.0189964
-0.368252
0.636512
-0.762752
0.633908
-0.483747
0.623418
0.657442
-0.771426
0.9027
0.2204
-0.0229454
-0.436495
-0.376917
1.53879
0.622549
1.27685
0.858501
0.975861
-0.468394
-0.922341
-1.50912
-0.265813
-1.14751
-0.128315
-0.570658
0.460296
-0.0504638
0.0702445
-0.680713
-0.134713
0.0178253
-0.646081
0.652843
-0.0384276
0.226865
-0.801153
0.5388
0.7195
-0.902208
0.939379
1.25114
-0.516784
1.11549
-0.803898
0.659358
1.17473
-0.375621
-1.20691
-0.940962
-1.06325
0.420044
-0.503683
-0.528019
0.115611
-0.228732
-0.369069
0.704317
0.226593
-0.448885
0.137355
0.515237
0.284882
-0.763734
-0.583877
0.222526
0.1184
-0.456277
-0.649808
0.889324
-0.172417
0.308954
0.912486
0.914957
0.598467
0.309443
0.205992
-1.32495
-0.291415
-0.410817
0.421785
0.115013
0.402187
0.70986
-1.06207
0.209116
0.23745
0.277914
-0.0532542
-0.968797
-0.0250464
0.479393
0.870849
0.674653
0.7907
0.122601
0.621945
0.789339
-0.605742
0.160561
1.05388
0.346519
0.474076
-0.284208
0.571846
-0.460964
-0.860948
-0.317198
-0.623109
-1.16892
0.355272
-0.198845
-1.04267
0.276768
-0.60149
0.521413
0.6591
-0.0699016
0.0966518
-0.29692
-0.235003
-0.3309
0.4212
0.219966
-0.430275
-0.320451
1.0847
0.175249
-0.302062
0.0253091
0.181948
-0.250256
-0.447144
-0.755145
0.344909
-0.651081
0.542386
-0.469917
0.281669
-0.851114
-0.587697
0.196033
-0.331055
-0.505705
-0.741169
0.115324
-0.763564
0.681158
-0.116262
-0.6251
0.7395
0.696318
0.345922
-0.65772
0.484987
-0.776703
0.2331
0.915718
1.49909
-0.336221
0.269698
-0.550138
0.800688
-0.0339126
0.669593
-0.807066
-0.647664
-0.68914
0.111347
0.385043
0.333328
-0.753636
0.554919
0.820348
-0.00709111
-0.707742
0.853229
-0.0618022
0.1367
-0.450429
-0.430287
0.497312
0.510275
0.621567
-0.474047
1.43638
0.521016
0.335059
-0.211326
-1.19586
0.828179
-0.340097
0.0644626
-0.0313231
0.801626
0.696241
-1.13596
-1.12412
0.214391
-0.109499
-0.632807
1.07115
0.254873
-0.287386
-0.295425
-0.3473
-0.709672
0.720624
0.394504
-0.0674081
0.215583
-0.550364
-0.214096
0.522947
1.44511
-0.0241397
0.49213
0.458637
0.625012
0.300281
-0.921745
-0.571964
-0.834576
-0.483648
-0.0161372
0.275462
-0.375112
0.673427
0.0785493
-0.69271
-0.177216
0.168143
0.554612
0.0282151
0.510735
-0.120824
-0.851344
-0.493868
-0.580442
0.328587
0.909781
0.50539
0.921492
-0.0714672
0.972818
0.601091
0.337543
-0.343417
0.397756
0.645267
-0.788461
-0.422109
-0.392718
0.785846
-0.489103
0.666923
0.484988
0.362028
-0.684437
0.253692
-0.640938
0.275136
0.704391
-0.204351
0.00840105
-0.518772
0.470595
-0.374268
-0.919947
0.960347
0.496931
1.27949
0.100557
-0.304711
-0.567472
-0.58325
-0.485425
-0.670924
-0.304486
-0.683404
-0.668061
0.119806
-0.618098
-0.538608
-0.674975
-0.187441
0.199331
-0.421905
0.0954029
0.26212
0.33329
0.572584
-0.462176
0.497012
-0.912579
-0.728918
-0.15913
-0.466468
1.30984
-0.0196153
-0.546642
-0.728067
-0.565498
-1.21096
-0.817358
-0.582511
0.183514
0.100418
-0.716042
-0.333515
0.786507
-0.686641
0.306825
-0.123407
0.522729
-0.307932
-0.361578
0.472254
0.568159
0.407858
0.441956
-0.477937
0.279875
-0.165117
-0.180433
-0.865823
-0.37048
0.0906795
-0.511081
0.619455
-0.515432
0.0434693
0.259341
-0.923859
0.682396
0.286301
0.174743
-0.530961
0.0150011
0.0384459
-0.0671764
0.499751
-0.674578
1.02912
0.61232
-0.6069
0.7091
-0.822296
0.422073
0.238544
0.60584
-0.952247
0.611362
-0.97076
-0.510697
-0.431771
-0.527319
-1.12203
-0.182466
-1.39826
-0.917244
-0.39963
0.477447
-1.05771
-0.264301
-0.0103312
0.0560551
-0.607078
0.228589
-0.779358
1.03168
-0.564075
-0.233939
0.1332
-0.8903
0.693064
-0.825964
-0.524078
0.268057
0.767831
-0.522276
-0.0806275
-0.398073
-1.01265
-0.498835
0.072655
-0.55261
-0.265733
-0.502516
0.902651
-0.794752
-0.0302081
-0.302053
0.517299
0.0656298
0.286437
0.508773
0.49989
-0.602642
0.313776
0.397222
0.4396
-0.597903
-0.859291
-0.238343
-0.310347
-0.659842
-0.587561
0.157141
-0.366634
-1.0669
-0.101071
-0.771208
-0.399089
-1.14471
-0.578417
0.569093
0.612666
-0.899639
0.784371
-0.564071
0.275013
-0.369447
0.727659
-0.605316
0.959958
0.868398
0.426497
0.43901
-0.5589
0.853884
0.0246364
1.07284
0.376772
0.467727
-0.119738
-0.267859
-0.467736
0.370002
-0.120215
0.0974639
0.531487
0.403727
-0.849474
-0.0158037
-0.992039
0.686879
-1.21853
-0.30826
0.269755
0.530047
0.375443
-0.724106
-0.798702
-0.0890243
-0.837464
-0.741387
-0.3807
0.0977323
0.302032
0.14009
-0.0609246
0.188967
-0.559367
-0.127632
0.257644
0.22762
-1.2981
-0.479248
-0.815132
-0.438413
-0.820149
-0.143219
-0.762966
-0.227913
-0.983417
0.68404
-0.905019
-0.0919787
0.635625
0.646549
-0.00550539
-0.0692792
-0.695974
0.0026165
0.3605
-0.830421
0.433216
0.315586
0.158424
0.559068
0.241698
-0.278241
-0.353133
-0.363714
-0.955874
-0.158576
0.255452
-0.064383
-0.935056
-0.553526
-0.314944
-0.607607
-0.0137308
-0.242576
-0.210888
-1.05839
0.212636
-0.708897
0.278331
-0.112362
0.0802531
-0.688351
-0.4192
-0.255071
0.621524
-0.740902
0.106937
-0.40392
-0.429366
-0.314209
0.846568
-0.507807
0.234588
-0.171495
-0.890527
0.0790117
-0.919905
0.215039
-0.604632
0.501282
-0.346852
0.161649
-1.01441
0.571636
0.818503
-0.119535
-0.0913633
0.837544
0.71034
0.434355
-0.2495
0.942999
0.99351
0.352057
0.0678473
-0.914072
0.63888
-0.0352566
-0.822305
0.918347
-0.328071
-0.227311
0.578375
-0.403649
-0.156824
-0.921959
-0.983339
0.515812
-0.450426
-0.859767
-0.415802
-0.781213
-0.743913
-0.227262
-0.328238
-0.163223
0.852366
0.087253
-0.9897
-0.9873
0.826
0.5212
-0.705791
0.281412
-0.51178
0.244929
-0.207816
-0.621582
0.819774
-0.507974
0.1735
-0.3937
-0.2836
-0.6035
-0.5561
0.8265
-0.3322
-0.8953
-0.2656
-0.403
-0.274751
0.9844
-0.6581
0.8957
0.6008
-0.3056
0.7115
-0.0326
-0.4611
0.3922
0.0249818
-0.719927
-0.432427
0.227197
-0.981841
-0.11994
-0.443632
-0.889715
-0.615505
0.182392
0.83685
0.169278
0.111292
-0.689576
0.80331
-0.430862
-0.36705
-0.411236
-0.500009
0.89399
0.349798
-0.409401
-0.7089
-0.5008
-0.6267
0.8179
-0.364809
0.84426
-0.615296
0.926093
0.434755
-0.308686
-0.768534
-0.855944
-0.158442
-0.882023
-0.919279
0.920968
0.974656
0.00314451
-0.889731
0.624656
0.111855
0.618749
-0.470786
-0.830768
-0.0735492
-0.120842
-0.580237
0.654559
0.986837
0.839759
0.516
0.2304
0.515556
0.66123
0.749471
0.343379
0.177226
0.721742
0.209364
0.190399
0.292635
0.184409
-0.413065
-0.550067
0.288143
-0.473958
0.16391
-0.339827
-0.569517
-0.620233
-0.904361
0.206665
0.124252
0.618138
0.556212
-0.0775238
0.165435
0.174964
0.375871
0.3562
-0.166664
0.013264
-0.961249
-0.775289
-0.37252
0.481118
-0.818673
0.0455544
-0.749965
-0.97674
0.430113
0.180947
-0.461246
-0.897179
0.161335
-0.878605
0.581626
0.218694
-0.965912
0.601093
-0.426358
-0.1596
0.127157
0.460676
0.00462962
0.601367
-0.435675
-0.2874
0.441447
0.31319
-0.426582
-0.836876
0.576992
-0.402917
-0.351312
0.37719
-0.612377
-1.11867
-1.0096
-0.700956
0.581873
-0.716215
-0.966948
0.0433168
-0.7199
-0.296605
-0.955749
-0.605246
-0.678429
0.265565
0.0708059
-0.0269448
-0.200336
0.673062
-0.265133
0.114
0.0415898
0.244084
-0.749368
-0.494518
-0.681996
-0.691608
-0.964273
-0.269227
0.0169743
-0.161295
0.317314
-0.14396
0.137536
0.395012
-0.92735
0.400352
-0.109999
-0.25332
-0.806955
0.704457
0.556927
-0.0334103
0.481151
-0.524152
-0.869977
-0.50435
-0.636267
-0.8702
-0.424581
0.36659
-1.12112
0.484478
0.619172
-1.11233
-0.803512
-0.824199
-0.577245
-0.384915
0.194887
-0.775886
-0.273006
-0.480529
-0.634471
-0.588492
0.0246162
0.0991813
-1.21758
0.12719
-0.332408
0.470795
-0.430255
1.12329
-0.613666
-0.000761989
-0.2921
-0.1292
0.45059
-1.02175
-0.244614
-0.756406
-0.153363
0.356691
0.510236
-0.5277
-0.355689
0.377127
-0.209692
-0.930268
-0.752243
-0.301501
1.17495
0.454249
0.613567
-0.0141532
0.608625
0.656805
-0.615423
1.13625
-0.661475
-0.657071
-0.666256
-0.184762
0.5125
-0.0536
0.810483
-0.666234
-1.14781
-0.899272
-0.369434
-0.195739
-0.342086
-0.616125
0.227699
-1.06207
0.365394
-0.677703
0.267126
-0.156508
-0.117162
0.387982
-0.870224
-0.749549
-0.236521
0.363661
-0.555958
-0.352052
0.799608
-0.443028
-0.0400982
0.721038
0.0264108
-0.5245
-0.669791
-0.141928
-0.447551
-0.232719
-1.13202
-1.25081
0.0806805
-0.268077
-0.500832
-1.25352
-1.29455
-0.76863
0.583205
0.180988
-0.300459
-0.66478
-0.550757
0.378642
0.159159
-0.556685
0.0731854
-0.626257
0.463247
-0.287788
-0.0552608
0.174091
0.579644
0.9205
0.554184
-0.488084
-0.696368
-0.911828
-1.36247
-1.26287
-1.82644
-0.54547
-1.11605
-0.179001
-0.376342
0.605074
-0.84868
-0.14846
-0.345776
-0.0822067
-0.760877
0.591056
0.188907
0.066838
-0.158511
0.520842
-0.231369
-0.207636
-0.653481
0.879789
-0.2118
-0.2384
0.494175
-0.387868
-0.563393
-1.49392
-1.21144
-0.689145
-0.980054
-0.769766
-0.950451
-0.359334
-0.225951
-0.209154
0.701616
-0.421986
0.581073
0.213022
0.0423187
0.724765
-0.454572
-0.906274
0.37556
-0.712351
0.291154
-0.482882
0.624243
0.1661
-0.8641
-0.1751
-0.128927
-0.887175
-1.05139
-1.27556
0.464213
0.597538
0.028116
1.184
0.202462
0.611414
-0.18871
0.686752
-0.207532
-0.20931
-0.380052
-0.667574
-0.0550261
0.324253
0.223984
-0.386719
0.28123
0.719694
-0.566603
0.405706
0.270657
0.846197
-0.844499
0.389
-0.176382
0.812583
-0.0113595
-0.0962482
-0.326126
1.40069
-0.224464
-0.11171
-0.0958409
1.26721
0.742473
0.0365168
-0.0762193
0.26842
-0.853315
0.262398
-1.06041
0.039262
-0.133489
-0.331568
-0.645913
0.537836
0.698215
-1.09348
-0.633803
0.421378
0.6572
-0.863613
-0.975906
-0.237076
0.847701
-0.213187
0.406578
0.85092
0.0818292
0.263904
0.870444
1.32657
0.24788
0.841472
-0.323242
-0.403258
0.617857
0.375376
0.146192
-0.286809
-0.548478
0.391316
-0.26284
-0.611318
0.711594
-0.0411813
0.43742
-0.500065
0.812161
-0.532624
0.250084
-0.53581
0.458295
0.119484
0.650787
-0.162579
0.268556
0.738979
0.992144
-0.380662
0.16729
0.513684
0.385133
-0.735802
0.216072
-0.574448
-0.494182
-0.444275
0.0331593
-0.0640034
0.0472939
-0.82607
0.472659
0.162402
0.855411
-0.655729
-0.416322
-0.207403
-0.834352
-0.647413
0.209519
-0.369142
-1.03598
-0.460452
0.65217
0.130956
0.815198
1.41973
0.299064
-0.495592
0.816066
-0.655499
-0.425541
0.290894
-0.203114
0.0344609
-0.0797087
0.625897
0.41786
-0.351094
0.621941
-0.994161
-0.894244
0.434997
-0.565095
0.58886
0.476578
-0.721835
0.472017
0.067527
-0.59916
0.779062
-0.462754
0.848787
0.153602
0.261111
0.727853
0.172128
-0.592384
0.647108
-0.276124
-0.240074
-0.0865708
0.321324
0.785168
-0.574563
-0.751615
-0.80448
-0.910567
0.060567
0.149127
0.29004
-0.660369
-0.171615
0.212153
0.52319
-0.889146
0.0433887
0.140357
0.597813
-0.50778
-0.173876
0.149849
0.572472
0.998584
-0.509652
0.413565
0.652455
-0.0369419
0.949954
-0.14095
-0.8051
-0.298395
-0.433071
0.676523
0.115398
-0.826145
-0.0975539
-0.603329
0.230544
0.0686
-0.9281
-0.392699
0.728636
-0.794178
-0.966777
0.479397
-0.343409
0.657365
-0.0127747
0.531149
0.604957
0.433002
1.27444
-0.74014
0.134232
-0.067712
-0.366967
-0.174625
-0.767691
0.478144
-0.0647743
0.119817
0.299486
0.296309
0.752565
-0.0566579
-0.872613
-0.0405
0.7969
0.45893
0.83592
0.500728
-0.6404
-0.0606596
-0.16885
0.81019
-0.739943
-0.416269
-0.636048
-0.249964
-0.314884
-0.00150958
-0.165502
0.18627
0.313832
0.576233
0.604214
-0.756727
-0.146462
0.762566
-0.737489
-0.23578
0.55854
-1.02616
0.307844
0.0182
-0.589691
0.44323
0.670966
0.191028
-0.308461
-0.715365
-0.775307
0.575503
0.735085
-0.361334
0.402448
0.811174
0.386405
1.08743
0.395337
0.183428
0.709873
-1.03666
-0.376539
0.116853
-0.289975
-0.258326
-0.415871
0.88014
-0.611448
-0.319152
-0.787741
-0.6647
-0.346867
0.27946
-0.977687
-0.531587
0.467385
0.258442
0.387743
-0.648749
0.381259
-0.14609
0.53095
-0.420809
0.650119
0.516088
1.25982
0.196369
0.335487
0.00467041
0.371458
0.381818
0.943831
-0.326237
0.289802
-0.462617
-0.576355
0.816368
-0.0396032
-0.0151
-0.817017
0.875216
0.571646
0.238203
0.575521
-0.803493
0.771718
0.666851
0.29155
0.363801
-0.385749
0.408846
-0.446488
-0.0908384
0.191091
-0.0946845
0.554988
-0.60429
-0.4019
0.597876
0.299915
-0.320641
-0.917989
0.945075
-0.130636
-0.82428
0.670053
-0.5295
0.269569
0.799825
-0.466784
-1.15929
-0.048393
-0.393013
-0.0315171
1.22389
0.499174
0.33617
0.144133
0.0279438
0.509434
-0.71665
-0.686939
-0.578677
-0.640904
0.273391
0.935369
-0.903703
-0.928607
0.342718
0.563035
-0.879303
0.825774
0.505256
-0.782545
-0.1433
0.390382
0.800562
0.693805
0.590972
0.54325
0.946566
-0.165054
-0.630148
-0.318341
0.442798
1.03662
0.418379
0.862514
0.716245
0.920877
0.661357
0.780302
-0.0649777
-0.267361
-0.845358
0.642053
0.0328117
-0.610354
0.810815
0.107559
-0.738951
0.876278
-0.3192
-0.2214
0.647761
0.483812
-0.231674
0.869185
-0.207251
0.940837
0.836551
0.83326
-0.279308
0.0826398
-0.431226
-0.966321
-0.553416
0.286976
0.556667
-0.325436
-0.261156
-0.190657
-0.747345
0.409775
0.893397
-0.0230662
-0.810736
0.79405
0.450347
-0.866948
0.6861
0.9636
-0.8732
-0.4306
-0.284528
-0.964817
-0.948271
-0.54547
0.675542
-0.290336
0.365724
0.901485
0.0423
-0.9545
0.0146947
0.645895
0.786095
-0.963201
-0.0497006
-0.445
-0.8105
0.5859
0.968376
0.9753
-0.4372
-0.2747
0.2454
-0.5675
-0.7414
-0.2417
-0.8537
-0.6637
0.505186
-0.867968
0.817098
0.632128
0.214143
-0.195489
-0.880333
-0.776116
0.190945
-0.912412
0.63481
-0.719493
0.342147
0.438055
0.9624
-0.0710168
-0.98279
-0.170787
0.304452
-0.00309405
-0.0926996
-0.5306
0.1396
0.5188
0.9107
0.2074
-0.506384
-0.372643
0.77816
0.781755
-0.674686
-0.267156
-0.936772
-0.398978
-0.84024
-0.467736
1.00293
-0.979944
0.772863
0.147119
0.986918
-0.704839
-0.739525
0.524804
0.42255
0.436112
0.481206
0.889963
-0.344491
0.0345037
0.772863
0.276152
0.871309
-0.7554
-0.990076
0.36334
-0.225604
0.780935
0.804486
-0.429712
0.0572213
0.247597
-0.0189622
0.114741
0.116336
-0.846381
-0.661479
-0.477532
-1.09774
0.94048
0.299517
0.92037
0.622001
-0.327767
-0.0397962
-0.0652396
0.632548
-0.9097
0.929779
0.42716
-0.77083
-0.4483
-0.162143
0.880641
0.0830243
-0.313616
0.096439
-0.466747
0.186446
0.742564
0.194769
0.921245
-0.486048
-0.130951
-0.854359
-0.236318
-0.547062
0.218344
0.71699
0.798817
-0.37228
0.627778
1.1661
-0.813879
-0.669971
-0.00814012
-0.439191
0.545712
-0.507909
0.8046
0.387614
0.74539
0.571426
-0.290968
0.144399
-0.441045
1.03679
-0.219889
0.793632
-0.356621
-0.605168
-0.108382
-0.487681
0.0474078
0.168117
-0.235847
0.583605
0.106291
-0.0767237
-0.0862795
0.611945
0.723422
0.136877
0.727797
-0.615734
0.71626
-0.127253
-0.6364
0.289429
0.521968
-0.55839
0.647419
-0.121911
-0.704028
0.235032
-0.690591
-1.13342
0.734161
0.593591
0.16393
0.00993086
-0.502293
0.343157
0.777182
0.14718
-0.198265
0.357143
0.442329
-0.244702
-0.376441
0.850135
0.520752
0.987139
-0.41729
-0.616098
-0.4945
-0.858462
-0.604563
0.336169
0.24278
-0.359771
0.428262
0.0752827
0.758699
0.135576
-0.132141
-0.193017
0.293236
0.118733
0.00761466
-0.382703
1.32393
0.120264
-0.311936
-0.223659
0.213622
-0.134665
0.175921
-0.139858
0.540407
0.301171
0.609436
0.9729
-0.365
0.728305
-0.852352
-0.826749
-0.346308
-0.634706
-0.598226
-1.00133
-0.83506
-0.877297
-0.680927
0.409042
-0.660264
-0.702076
0.612029
0.205188
1.63107
-0.0763994
0.738875
-0.218922
-0.216465
0.539026
0.12052
-0.318986
0.214595
0.151261
-0.179949
0.3554
-0.9397
-0.11613
-0.344991
0.303672
0.933825
0.968823
-0.245622
0.187753
-1.18842
-0.0750491
-0.451862
0.309771
0.338759
0.540632
0.346863
0.459034
1.44074
0.466891
0.924655
0.126152
0.4978
0.203864
0.9685
0.316861
0.690447
-0.200802
-0.754408
0.451313
0.3431
-0.630743
0.42658
0.243078
-0.904919
-0.933214
-0.502814
-0.998602
0.618771
0.227417
-1.2114
-0.37567
-0.788545
-0.374068
0.662547
1.04798
0.504894
0.648415
0.295505
0.240999
-0.465972
-0.340838
1.03247
0.603664
0.15253
0.115511
-0.425265
0.291857
0.4954
-0.95912
-0.531685
0.82503
-1.02004
0.42164
-0.998145
-0.67828
-0.522899
-0.270137
-0.861253
-1.25394
0.259796
-0.493317
-0.367412
1.3331
0.858031
1.38088
1.54366
-0.466447
1.36648
0.085081
-0.406793
0.505016
0.696534
0.840808
-0.62829
0.1749
0.8075
0.316249
0.966294
-1.09455
0.558789
-0.159486
0.287683
-0.635454
0.274115
-0.986792
-0.558748
-1.38511
-0.733252
-0.396049
-0.0747337
-0.217299
0.792893
1.47464
0.946401
0.31958
-0.429649
0.00585505
0.226405
0.842766
0.309909
-0.173122
0.316652
-0.5733
-0.9696
0.95844
0.0621628
-0.346121
0.0208824
-0.973052
-0.274464
-0.548836
-0.855505
-0.781307
-0.920241
0.0350026
-0.55341
-0.669857
0.50215
-0.337562
0.421327
0.560617
1.50958
1.3784
0.575432
0.855551
-0.450985
0.620623
-0.285202
0.137395
-0.829666
-0.3222
-0.1579
0.509189
0.37882
0.642092
0.0935459
0.226874
-0.430887
0.295953
0.627609
-1.51239
0.347595
-0.00624877
-0.407416
-0.788354
-0.385574
0.315835
-0.919668
1.39931
0.14748
0.694251
0.883095
1.00644
0.268795
0.120188
-0.313096
0.372222
0.45672
-0.1226
0.55481
-0.947159
-0.996087
-0.638759
-0.585439
-0.235783
0.40801
-0.20791
-1.28315
-0.149114
-0.847287
-0.103752
-0.316722
-0.176163
0.427595
-0.854782
0.745185
1.14161
0.669461
0.800642
-0.298486
0.0759915
-0.225287
0.986052
0.235958
-0.552715
-0.277837
-0.946748
-0.600466
-0.671052
0.0702596
-0.908606
-0.95119
-0.201999
-0.881361
-0.604891
0.759976
0.61748
-0.689326
0.299538
-0.455364
-1.49184
0.284262
-0.900645
0.288677
-0.177416
0.292984
0.295717
-0.21145
-0.497206
0.240547
-0.420989
-0.0923786
0.797162
-0.814553
-0.39059
-0.38505
-0.853082
-0.731405
0.784977
-0.808126
-0.435238
-0.635922
0.0851353
-0.71129
0.161875
-0.48947
-1.04788
0.391869
-1.47082
-0.911356
0.351458
1.02729
-0.477078
-0.121081
-0.48154
-0.404779
0.00695326
-0.38137
-0.267001
-0.7556
1.03512
-0.347227
0.0778178
0.748733
-0.40082
-0.270832
0.414
0.0521083
-0.399126
-0.902156
0.891464
0.138485
-0.246001
-0.0672673
-0.560342
0.0809562
-0.460078
0.0950782
-0.515131
0.890301
0.0543071
1.20182
-0.615583
-0.15833
-0.54334
-1.05326
0.468065
-1.03238
0.547603
-0.0839712
-0.999983
0.897321
0.826515
-0.955433
0.0723405
-1.15711
0.0616981
-0.921959
0.613572
0.0995482
-0.550938
0.106283
-0.728434
-0.607587
0.250359
-0.942612
0.112428
-0.300369
0.668282
0.0970873
0.209457
0.395471
-0.843147
0.60211
-0.0883518
0.510323
0.155118
0.969481
-0.1359
-0.4953
-0.301587
0.424612
-0.468322
-0.8595
-0.0870881
-0.341913
0.341794
0.558535
-0.287011
-0.250611
-0.554335
0.61498
-1.3094
0.0780465
0.140872
-0.491143
0.459223
-0.325965
-0.248954
-0.281623
0.334182
-0.0562104
-0.0403273
0.0346283
0.185711
-0.886992
0.8787
0.5692
-0.235383
0.086063
-0.0633194
-1.00928
0.15458
-0.0202407
-0.170565
0.403434
-0.111502
-0.301905
0.760315
-0.84854
-0.280447
0.153293
0.366979
-0.702805
0.505858
0.153047
-0.575902
0.0340788
-0.288602
-0.0181035
0.603461
0.807435
-0.687587
-0.235944
0.2034
-0.86108
0.150001
0.750991
0.476029
-0.00562739
0.586351
-0.494939
-0.136471
-0.187996
1.0522
-0.168163
0.012876
-0.348338
-0.734166
0.200547
-0.737393
0.998968
-0.607835
0.990906
0.432558
0.523094
-0.0427088
0.291332
0.399199
0.946262
-0.303677
-0.125778
-0.321
-0.613398
0.0379238
0.666491
0.14159
-0.931994
-0.394751
-0.653207
0.152068
-0.305339
-0.0138679
-0.0244917
0.386351
0.334623
-0.767231
0.341063
0.0299865
-0.089951
-0.43616
0.085014
-0.0428021
-0.223428
-0.21445
0.0138918
-0.919419
0.732412
-0.723145
0.461568
-0.6831
0.94243
-0.157918
0.272425
-0.0271394
-0.247908
0.779854
-0.609566
-0.0273636
0.485157
0.567613
-0.0153245
-0.494751
1.01345
-0.975846
0.557424
-0.290552
0.94595
0.760579
-1.00153
0.255366
-0.100052
0.575126
0.562641
0.922355
-0.00269217
-0.493495
-0.261896
0.1013
-0.918591
0.243756
0.338978
-0.488182
0.0898582
0.39112
0.366281
0.655743
0.653336
-0.66207
-0.50426
0.0998276
-0.475621
0.871107
0.634449
-0.972881
-0.304429
-0.347252
-0.931205
-0.604379
-0.233087
-0.101961
0.0267982
-0.823297
-0.29089
0.494129
0.92756
-0.3556
0.868076
0.995306
0.934417
0.540034
-0.445184
0.445744
0.957957
-0.0181254
0.24481
-0.114941
-0.679419
0.705498
-0.184053
0.12898
-0.818749
-0.444949
-0.0730866
-0.624695
-0.765924
-0.184614
-0.793763
-0.194424
0.984788
0.340537
0.166721
0.690662
0.195981
-0.2452
0.352909
-0.715028
0.225509
-0.400005
0.332229
-0.109901
0.701341
-0.416763
1.00352
-0.572104
-0.237065
0.924439
0.83424
-0.977949
0.473702
0.235227
0.229109
0.867602
0.229996
-0.452677
0.764816
-0.36105
-0.456352
-0.463172
0.11289
-0.0605922
0.994631
0.3715
0.6393
-0.3098
-0.5153
0.189265
-0.535899
0.456173
0.931151
0.526704
0.293826
0.123748
-0.724482
0.3519
0.565224
0.949291
0.720191
-0.937908
0.459171
0.0742
-0.7279
-0.8149
-0.4959
-0.318049
0.4093
-0.2141
-0.9222
-0.4595
-0.0834
0.7273
0.4911
-0.311
0.8453
-0.555692
0.926957
-0.0578461
-0.708699
-0.507339
0.102282
0.954639
-0.154748
-0.856114
-0.579781
0.130457
0.95579
-0.501533
-0.304696
0.0613389
0.804947
0.306902
0.0462337
-0.209159
-0.967022
0.991094
0.825997
0.0023
0.2636
0.083
0.9264
-0.948105
0.62296
0.914847
-0.0117793
0.660247
-0.433456
-0.571865
-0.859837
0.877362
0.0232658
-0.933149
-0.30528
-0.541175
-0.106383
-0.722687
0.302833
0.41682
-0.317146
-0.241932
-0.823725
0.825712
-0.319371
0.0209027
0.550334
0.734391
-0.616962
0.3876
-0.609
-0.134802
-0.661337
-0.931296
-0.221017
-0.0244937
0.0428734
-0.798304
0.780368
-0.197732
-0.263371
0.280738
0.971308
-0.626939
0.944813
-0.00318367
1.10956
-0.665622
0.532483
-0.467911
0.353119
0.701514
-0.385126
0.227641
-0.0256021
0.115989
-0.228574
0.660988
-0.6137
-0.748059
0.321273
-0.054718
0.386498
-0.566166
0.505577
-0.0580549
0.497799
0.143816
-0.54123
-0.376491
-0.411411
0.709509
-0.410717
0.0999715
0.612419
1.1102
0.520956
1.03932
-0.364674
0.235481
0.894447
-0.253191
0.566675
0.667606
0.748768
0.0928785
-0.9902
-0.471461
0.69617
0.703905
-0.300567
-1.04046
0.91759
0.982927
0.269601
-0.563368
0.00186895
-0.94708
-0.583074
0.526112
1.12354
0.913445
0.243124
1.14038
0.387964
-0.129554
0.978779
-0.943029
-0.110385
-0.102897
-0.889382
0.383277
0.155751
-0.425154
0.7498
0.800966
0.174237
0.373685
-0.929738
0.0343967
0.516142
-0.224383
0.840408
0.883994
-0.792973
0.906986
-0.555456
0.312645
0.469309
0.883065
0.208035
-0.188373
0.0190169
-0.585662
-0.794404
0.684675
-0.7923
-0.673479
0.60598
-0.0796773
-0.320737
0.0732573
0.9897
0.416258
0.644346
1.06862
-0.898191
-0.806143
-0.549691
-0.125646
-0.56579
-0.842879
0.122985
-0.614042
-0.314259
-0.488319
-0.856645
-0.593744
0.358952
0.539274
0.886075
0.536618
-0.319967
-0.1853
-0.183476
-1.15211
0.434526
-0.242592
-0.478464
0.4975
-0.3164
0.451509
-0.24598
0.608613
0.134283
0.333835
0.749628
0.555564
0.200712
-0.132319
0.425443
-0.012267
-0.100797
0.664983
-0.958204
-0.821996
0.199305
-0.0575642
0.423032
-0.200735
-0.0778073
-0.791842
0.0571083
0.0958626
-0.993554
-0.384755
-0.921208
0.9048
-0.4421
-0.413478
0.00558645
0.409868
0.227044
-0.823813
0.336081
0.501318
-0.0551953
0.959984
-0.43987
-0.176973
-1.06454
-0.972115
-0.872849
-0.248011
0.439189
-0.3566
0.666856
-0.870839
-1.34794
0.249373
0.0259512
-1.05921
0.195743
0.241654
0.484725
-0.0922161
-0.5492
-0.772463
-0.590237
0.144549
0.708624
0.959346
-0.0573011
-0.167487
-0.202145
0.108203
0.733248
-0.238897
-0.0416762
-0.0721765
-0.680947
-0.904023
0.660085
-0.607201
-0.548325
-0.178936
-1.07151
-0.159524
-0.052281
0.439222
-0.91158
-0.104518
-0.0657736
0.57002
0.1861
0.989422
0.589785
0.313353
0.150898
0.55332
-0.285238
0.371612
1.11599
1.37476
0.966541
1.025
0.218782
0.390057
-0.352385
-0.459577
-0.102456
0.58322
0.374325
-0.255598
0.345181
-0.848942
-0.976746
-0.861844
0.46542
-0.3602
-0.41433
-0.4376
0.2687
1.01134
0.217783
0.51927
0.559589
0.411608
0.372684
-0.385893
1.02991
0.802497
0.989653
0.205411
-0.838341
-1.01818
0.782491
-0.228054
0.000665231
0.0412776
-1.04623
-0.135838
-0.608301
-0.833755
-0.905532
-0.0488293
-0.377591
0.685634
1.00376
0.2752
-0.5113
0.878204
0.144169
-0.846022
-0.173423
0.699653
0.164523
0.0359992
-0.67395
-0.111341
-0.235174
-1.02873
-0.465296
0.28203
0.180871
-0.828944
0.82065
0.570122
-0.159471
0.0984041
-0.438702
0.737351
0.584871
0.778261
0.610489
-0.233865
0.421705
-0.0014876
-0.2963
0.859188
-0.31173
-0.513491
0.456332
-0.235955
-0.674551
0.995835
0.405323
1.05479
-0.330819
0.654073
-0.978425
-0.256269
0.357047
-0.466764
-0.569364
0.71655
-0.111486
1.00781
0.0681352
-0.80094
0.0594562
0.121807
-0.805415
0.76962
-0.24264
-0.3403
0.777302
-0.622496
0.038969
0.498425
-0.972315
0.866752
0.625881
0.957054
0.885323
-0.15433
-0.539448
0.33873
-0.925327
-0.519768
0.271552
0.596328
-0.906841
0.257599
0.559695
0.368856
-0.666922
0.809467
-0.0887943
0.707555
0.961446
0.133373
-0.617099
0.512523
0.387965
0.689353
0.381373
-0.600805
0.788631
1.15551
0.136026
-0.214754
1.14828
0.656499
-0.919764
-0.467467
-0.509046
0.497685
0.418748
-0.152905
0.697188
1.09954
0.192996
0.80878
0.614448
-0.275177
0.79169
0.131313
-0.42145
-0.292391
0.0712173
0.647597
-0.566955
-0.715317
0.889604
0.575537
0.432612
0.432706
0.897954
-0.456423
0.908988
-0.0753989
-0.64324
-0.350024
-1.19844
0.339382
0.320858
0.263436
0.305106
1.08303
-0.085634
0.29876
0.388648
0.466267
-0.188254
0.174671
0.68289
0.536578
0.909695
-0.487902
-0.291789
0.405644
-0.0962855
0.240102
-0.328673
1.12525
-0.240481
0.430746
0.99577
-0.0118492
0.0776841
0.325955
-0.067956
-0.525497
0.100958
0.803417
0.339198
-0.58715
0.939532
0.514447
0.1752
0.826979
0.199472
0.593915
-0.0130341
0.881075
0.598244
-0.944707
0.509428
-0.172333
0.785499
0.323884
0.866147
0.350473
0.228168
0.0384372
0.746417
-0.664207
0.620422
-1.07653
-0.815515
-0.92098
0.194536
0.304184
-0.440162
-0.0476297
-0.32441
-0.160506
1.05587
-0.418824
-0.710661
0.164672
0.0739821
-0.799082
-0.470734
0.4846
0.8866
0.90254
-0.824084
0.619354
0.989878
-0.504978
0.334601
-0.114032
-0.454968
-0.325264
0.259161
-0.440048
0.289053
-0.385742
0.426561
-0.257653
1.13009
-0.586927
0.56665
1.01468
0.332595
-0.459305
0.557541
-0.469928
-0.0928596
0.293841
-0.876703
0.439
0.5749
0.260146
1.20004
0.628094
0.0505287
-0.225263
1.37099
0.176403
0.140052
0.499555
-0.0650682
-0.801602
-0.224711
-0.15844
-0.0220507
0.366653
0.681624
1.16117
-0.581465
-0.388967
0.299973
0.695879
-0.701303
0.0991141
0.332612
0.0817301
0.946022
-0.2521
0.668467
-0.66201
-0.136458
-0.421741
-0.117958
0.127156
0.0785125
0.742687
-0.420433
0.361275
-0.216588
0.343089
0.561249
0.766694
-0.537318
0.415574
-0.425184
0.0938938
-0.158405
0.301724
0.284882
0.615765
-0.851554
0.390856
-0.62941
-0.449968
-0.38622
0.9154
-0.980943
-0.685445
-0.442134
0.0126972
-0.135161
-0.398612
0.357244
-0.527882
1.05192
-0.125504
0.280939
-0.858151
0.027571
0.873259
0.126392
0.0446174
0.760856
1.09828
0.669019
0.0712378
1.07733
0.476811
-0.284955
1.22497
-0.56105
0.960387
-0.755423
-0.9211
0.496353
0.45814
-0.528913
0.951598
0.960607
0.434075
0.613436
-0.6264
0.377735
0.939493
-0.101035
0.0133518
0.442494
-0.0111742
-0.929742
0.00458389
0.832604
-0.456524
1.04741
-0.417606
-0.250694
0.170355
-0.821418
0.707472
0.443955
-0.79693
-0.00204805
0.9478
-0.166006
-0.605625
0.939025
0.931608
-0.412307
0.354065
-0.768393
-0.375354
0.242688
-0.626263
-0.989013
0.595012
-0.855985
-0.970316
0.719495
-0.176911
-0.427676
0.568413
-0.0180719
0.924362
-0.9286
-0.262645
-0.192907
-0.391878
0.562805
0.372551
-0.647519
-0.961
0.0417553
0.386576
0.37369
0.636325
-0.821756
-0.539689
-0.501838
0.605554
0.0129823
-0.765775
-0.115354
0.831886
-0.210916
-0.424954
-0.485136
1.00044
-0.0373361
0.423517
-0.712453
-0.0943642
0.728634
-0.0685019
-0.849569
-0.0841543
0.496075
-0.802888
0.962398
0.8886
0.1559
0.572327
0.0792366
-0.567381
-0.217768
-0.651596
-0.953264
-0.212085
0.470149
-0.839735
0.297213
-0.0784745
-0.820694
0.717872
-0.55348
-0.906136
0.86093
-0.480472
0.234175
0.225782
0.781382
0.143625
0.853213
0.49755
0.685248
0.228357
0.676386
0.5887
0.9718
-0.2617
-0.0928
0.355729
-0.367856
-0.929083
-0.592939
0.34238
-0.585101
-0.982993
-0.765676
0.9908
0.191194
0.77453
-0.30287
0.210328
0.221182
0.7733
0.1504
-0.4736
-0.1593
-0.168709
-0.146
0.7997
0.3417
0.9955
-0.1961
-0.2639
0.5927
0.5839
-0.9043
0.864503
0.478628
0.736425
0.0794735
-0.179216
0.352665
0.390807
0.768976
-0.532866
-0.512101
-0.168904
-0.967259
0.673742
-0.649266
0.723328
0.219911
0.186622
-0.45985
-0.745369
0.786113
-0.970182
-0.0625408
0.7405
-0.6886
-0.727
0.8345
-0.716603
-0.0283193
-0.498088
0.866239
0.610281
-0.191946
0.289434
-0.321917
0.723211
-0.48082
-0.619418
-0.808811
-0.738887
0.400124
-0.154517
0.0581539
0.93168
-0.196536
-0.520512
0.902029
-0.781773
0.155658
-0.929808
0.200037
-0.893552
0.250598
-0.77371
0.8625
0.701377
-0.858161
-0.491007
-1.10036
-0.367718
0.326379
-0.765558
0.27494
0.486916
0.869893
-1.00491
-1.06249
0.595203
-0.634034
-0.651802
0.561441
0.0419899
-0.839304
0.682027
-0.54313
-0.452857
-0.370601
-0.294766
-0.325466
-0.835885
-0.845144
-0.741555
0.9138
-0.223843
0.314403
-1.05755
-0.272213
-0.381426
-1.12585
-0.426583
-0.332515
-0.735248
0.296339
0.905186
-0.472711
0.706601
-0.497401
0.309936
-0.545832
-0.460834
0.637949
0.450389
0.158262
-0.182461
-1.09079
-0.614689
-0.437766
-0.823639
0.914329
-0.875648
0.0895
-0.956865
-0.591409
-0.0927177
0.150617
0.178892
-0.484331
1.1409
0.521414
-0.205039
0.157645
0.458966
-0.0764299
-0.440611
0.192662
-0.0649392
0.229453
0.297092
-0.956496
-1.03625
-0.801384
-0.154275
-0.541666
-0.746433
-0.984572
0.0231901
0.0849307
0.378681
-0.3571
0.53093
-0.695745
-0.207139
0.518638
-0.704525
-0.342202
-0.641593
1.39737
-0.239466
0.429611
0.788233
-0.124603
-0.668832
-0.954365
0.327218
-0.564128
0.0132177
0.77715
-0.0935077
0.578226
-0.799305
0.464806
0.147544
-0.819506
-0.811566
0.596837
0.789797
-0.5878
0.484291
-1.09633
-0.284908
-0.185066
-0.348527
-0.53416
0.900283
-0.0698318
1.19763
0.195531
0.488664
0.676108
-0.664794
-1.62709
-0.0649125
-0.979392
0.600569
0.362702
-0.1431
-0.529795
-0.696351
-0.894558
-0.496761
0.264725
0.858064
-0.267098
-0.7215
0.2343
0.958756
-0.545884
-0.508382
-0.824179
-0.0651271
0.1223
-0.163744
-0.00805052
0.963158
0.0843617
-0.0683353
0.568597
0.319589
0.108533
0.545721
-0.356564
0.0112497
0.914815
-0.511695
-0.275348
-0.496185
0.14069
-0.689999
-1.28167
0.51119
-0.184787
0.7991
-0.1136
0.074353
-0.423058
-1.14484
0.505648
-0.985062
0.69928
-0.347949
-0.509493
0.739485
0.977713
0.203574
0.235566
-0.266941
-0.551073
0.843083
-0.45166
-0.0197151
-0.853285
-0.660875
-0.825913
0.0511363
0.755798
0.0149282
-0.48198
-0.966067
-0.57985
-0.83196
-0.5354
0.314496
0.252532
-1.17355
-0.587786
-0.650912
-0.198172
-0.010358
1.02665
0.686192
-0.245173
-0.869427
0.208225
-0.295084
-0.23993
0.810021
-0.412537
-0.25088
-0.784951
0.6579
0.496583
-0.794654
-0.506213
-0.324828
-0.222839
-0.64858
-0.497622
0.835574
0.4798
0.831648
0.113651
-0.847713
-0.830898
-0.418602
0.255157
1.29255
0.661348
-0.320391
0.612623
-0.263988
0.465009
-0.286146
-0.43396
-0.319826
-0.47642
-0.354076
-0.526265
0.0577507
-0.0626754
0.195827
-0.534955
-0.714113
-1.10921
-0.0530656
0.579198
0.1166
-0.1622
-0.486945
0.0733593
-1.46488
-1.50054
-0.478809
0.755149
1.36353
0.217073
-0.774274
0.893568
-0.437314
0.617824
-0.0740732
-0.026591
-0.863624
0.177029
0.186442
-0.0525546
-0.509605
-0.104385
0.884091
-0.684209
0.713501
-0.125911
-0.754299
-0.147683
-0.7112
0.7944
-0.845693
-1.33894
-0.956315
-0.166535
0.00975713
-0.289207
0.44475
0.890663
0.774545
0.46172
-0.956499
-0.595053
0.264017
0.416741
-0.44439
0.248729
-0.650127
-0.684469
0.968262
-0.0937029
0.414516
0.203877
0.376359
-0.538743
-1.30133
-0.264732
0.289284
0.56
-0.204156
-0.156588
-0.434485
-1.5153
-0.408337
-0.442134
0.352738
-0.0606086
0.51233
-0.353816
-0.100567
0.824359
-0.597716
-0.0109833
-0.376123
0.846141
-0.682973
0.114344
0.270912
0.105365
0.715487
0.727365
-0.778655
-0.738732
0.107437
-0.252624
-0.552
-0.290875
-0.835713
-0.62471
-0.737144
-0.556265
-0.625413
0.39159
0.919909
0.856333
-0.507687
-0.112118
-0.7394
-0.361736
-0.169434
0.0795523
-0.469606
-0.425407
-0.172545
0.655816
-0.730276
0.669915
0.479331
0.865579
-0.418786
-0.283093
-0.474138
-0.669683
0.225214
-0.171332
-0.386191
-0.449186
-1.80406
-0.0366114
-0.281517
0.790243
0.210508
0.0216597
0.584769
0.603801
0.000939663
0.105977
-0.661318
0.411963
-0.247062
-0.693878
0.736747
0.799147
0.786754
0.426572
-0.516393
-0.0896725
-0.0253303
-0.159647
-1.05612
0.772347
-0.564172
-0.590937
0.68222
-1.11657
-1.78932
-0.627384
0.420473
-0.143169
-0.0743377
0.527615
-0.635493
-0.355534
-0.648199
-0.144913
0.28972
-0.231183
0.769469
0.350556
0.56449
-0.337742
0.431691
0.311247
0.156733
-0.0471213
-0.0356514
-0.848652
0.0156437
-1.03335
-0.0433728
0.575782
-0.0656109
-0.914836
-0.0283025
-0.785273
-0.938714
0.425849
0.282957
1.13065
0.532514
0.621901
0.818261
-0.362515
-0.595761
0.188574
-0.0697585
0.351857
-0.37752
0.0709227
-0.82465
-0.055343
0.249548
-0.488442
-0.182659
-0.240801
-0.406927
0.0587678
0.397818
-0.187371
0.199932
-1.09811
-0.379118
-1.1918
0.154207
0.299556
0.490578
0.748125
-0.38733
-0.213354
0.296272
-0.460736
1.05009
-0.276738
0.236677
-0.578086
0.077664
0.776364
-0.818093
0.470624
-0.556407
0.812086
0.726659
-0.887846
-0.733931
0.495296
-0.92
-0.1397
0.683799
-0.548382
-0.728778
0.198801
0.0205939
0.421918
-0.18673
0.826535
0.217432
0.482788
1.28531
1.15695
-0.208895
-0.324317
0.80048
0.42457
-0.823926
0.209458
-0.863814
0.297424
-0.0194261
-0.496385
-0.3529
-0.901928
-0.50527
-0.574866
-0.2728
-0.9344
0.938281
-0.79959
-1.32808
-0.693189
0.307182
-0.0763635
-0.712102
0.262812
0.607798
0.14103
0.0650536
-0.0246659
-0.0919378
0.381957
-0.119939
0.334366
-0.923007
0.0199877
0.393483
0.352052
-0.899662
-0.758202
0.0741298
-0.934298
-0.446661
-0.969325
0.693
0.467799
0.48714
-0.423385
-0.00590062
-0.173976
-0.279675
0.519492
0.187679
1.09783
-0.422669
0.467235
0.774258
0.182171
0.437533
0.309665
0.210421
0.284676
0.0464079
-0.379231
0.291564
-0.978013
0.696095
0.672671
-0.00390566
-0.762016
-0.338382
0.308267
0.9883
-0.871103
-0.030462
-0.636172
-0.314803
-0.551654
-0.395376
0.480878
1.25659
-0.50754
-0.512029
1.10169
0.316095
0.254022
-0.272347
1.08736
0.811235
1.03926
-0.628852
-0.474825
0.0192806
0.802534
-0.640712
-0.733446
-0.75808
-0.169838
0.485736
0.94646
-0.5472
0.971419
-0.899447
-0.943427
-0.680875
0.651479
-0.607593
0.281134
0.512313
1.10653
-0.468634
1.3269
0.166199
-0.210433
0.60774
0.642486
0.735541
-0.744206
1.10428
0.220997
0.646067
0.396322
0.716614
-0.563552
0.0243263
-0.475754
-0.238251
-0.0407854
-0.9136
-0.8285
-0.412736
-0.241491
-0.188415
0.469039
0.747622
-0.255169
-0.804258
0.659353
-0.306471
-0.33435
0.618149
0.929846
0.856651
0.515328
0.364842
-0.0871412
-0.0160626
0.866295
0.624861
-0.761084
-1.30273
0.0314136
0.0421656
0.422441
-0.136038
-0.509481
-0.9671
-0.672829
-0.458982
0.689096
-0.117938
-0.32632
-0.827247
-0.38723
-0.996568
0.137065
-0.67297
0.735585
-0.0842234
0.559704
0.563479
-0.874606
0.847826
-0.542317
0.00740965
0.739529
-0.997909
0.529861
0.299058
0.754531
-0.440726
-0.973967
0.482897
-0.860283
-0.5668
0.28149
0.0326934
-0.202547
-0.134655
-0.879606
-0.242853
-0.600455
-0.954452
-0.865279
0.0572288
0.337526
0.821908
-0.867844
0.46913
0.9577
0.12545
0.819875
0.439343
-0.424842
-1.00037
-0.376771
-0.734118
0.630459
0.77444
0.895189
0.806233
0.733258
0.3652
-0.6007
0.6391
0.677
0.0622715
-0.136734
-0.0965223
-0.0622724
0.248105
0.506891
-0.879593
0.772094
-0.6149
0.7515
-0.566596
0.814904
-0.464497
-0.612199
-0.953599
0.6327
-0.8129
0.2639
0.630534
-0.492094
0.9887
-0.6199
0.8824
0.1734
0.6188
-0.3145
0.1192
0.1699
0.0804008
0.239081
-0.348867
0.994125
-0.600719
-0.711749
0.00471372
-0.353947
0.771661
-0.493367
-0.908413
-0.818179
0.122829
-0.30121
-0.143084
0.472746
0.467605
-0.880768
-0.562513
-0.707555
0.2271
0.0170999
0.292
0.0121
0.6068
0.6918
-0.817078
-0.782798
0.21968
0.613471
-0.583531
0.366911
-0.985885
0.315301
-0.111196
0.474898
-0.0761736
0.817399
0.111876
0.962211
-0.368009
-0.617781
0.372616
0.127032
-0.289674
0.218509
-0.351425
-0.241145
-0.791065
-0.595072
-0.10612
0.389076
-0.4663
-0.7637
0.779817
0.886809
0.397708
-0.150741
0.631389
0.893326
-0.726867
-0.70972
0.116327
1.00392
-0.52467
-0.460787
-0.209922
-0.204887
1.00421
0.84264
-0.800609
-0.5417
-0.141498
0.532432
0.507135
-0.375384
-0.339873
0.656136
-0.176237
-0.0356075
0.00530015
-0.3464
0.513095
-0.663345
-0.0739854
0.424502
-0.963704
-0.673481
0.0587304
-0.676078
0.880284
-0.00741259
-0.441313
-0.188219
0.311859
0.225592
0.73587
0.886816
-0.107774
0.297001
0.0173311
-0.0782721
0.68742
0.188942
0.405066
-0.629838
-0.437785
-0.980817
0.596127
0.07
-0.659546
0.608558
0.114494
0.0430494
0.338757
-0.545008
0.448894
-0.538648
0.994949
0.797005
-0.429904
0.355057
0.556077
0.685345
-0.235494
-0.145995
0.389665
-0.0055798
0.402044
-0.583887
-0.135488
0.0687884
0.437867
-0.354577
-0.468076
-0.604279
-0.276671
-0.4384
0.394077
0.375717
0.52351
-0.0783394
0.0936854
-0.0074488
-0.740297
-0.519567
0.63096
-0.505299
-0.426274
0.680895
0.00629212
-0.724276
-0.24135
0.655543
1.37963
-0.286034
0.67742
-0.0441589
-0.752811
-0.328706
-0.419102
-0.612492
0.643585
-0.584035
-0.719959
0.4394
0.232434
-0.67672
-0.269112
0.628906
-0.586385
-1.10146
0.196437
0.749582
0.593946
-0.685515
0.54952
0.0318581
0.611917
-0.920611
0.14639
-0.176208
0.624752
0.215063
0.226028
-0.295897
0.0355107
-0.142302
0.514209
0.0320265
-0.980063
0.610335
-0.8451
-0.7487
-0.951049
-0.343618
0.74185
-0.00905175
0.855277
-0.0503084
-0.720001
-0.320668
-0.398514
-0.483089
0.641804
0.728304
-0.360881
-0.491225
0.202231
0.394779
-0.338612
0.891793
1.01217
-0.150489
-0.470903
-0.458286
0.806608
0.485365
-0.145512
0.16605
0.9146
-0.44
-0.913738
-0.698616
-0.581371
0.173167
0.973774
0.538718
-0.535197
-0.00882774
0.806924
0.0797384
0.881399
-0.54626
0.433308
-0.506305
0.0765077
0.431524
0.432093
-0.221505
0.211471
0.194547
0.550185
-0.116063
-0.483539
-0.146489
-0.608512
-0.716856
0.814607
-0.8553
-0.964857
0.45794
0.614377
-0.0312678
-0.15496
0.50727
-0.231956
-0.372375
0.420411
-0.372605
-0.085225
-0.423169
0.178056
0.671841
-0.121314
-0.643958
0.268913
-0.054804
-0.0447325
0.984619
-0.741481
0.354025
-0.592263
-0.493986
0.450917
-0.395924
-0.565111
-0.9344
0.208377
0.250962
0.793563
-0.523292
-0.360354
-0.0471037
0.411164
-0.0710378
-0.141987
0.446987
0.637067
0.212674
-0.606919
-0.0214718
-0.588255
0.3813
-0.496738
0.445574
0.72254
-0.0983615
0.412734
-0.159432
0.702321
-0.505611
0.758144
-0.577844
0.4122
0.3022
0.190067
0.11861
-0.851615
0.418839
0.372863
-0.0997372
-0.135916
0.120488
0.311916
-0.710753
0.442076
-0.63423
0.235359
0.204238
0.0595392
0.198751
0.0925096
0.415433
-0.506427
0.043414
0.264191
0.506975
0.182278
-0.73081
0.0873282
-0.445645
-0.8859
-0.7544
0.399691
-0.530362
0.416788
0.127163
-0.583057
0.139469
-0.225872
0.38054
0.697132
-0.158485
0.0618574
0.1187
0.139092
0.690076
0.269
0.254449
0.135662
0.162953
-0.105315
0.829996
0.661677
0.50399
0.0784139
0.896093
0.924087
-0.441557
-0.4224
0.2956
0.731212
-0.714991
-0.428695
-0.357174
0.201367
-0.28494
0.0974062
0.547932
-0.61277
-0.481703
1.04612
-0.540175
0.453889
0.353232
-0.0701999
0.311352
-0.443359
-0.504076
-0.439417
0.0329938
-0.387457
0.564205
0.320133
-0.807654
0.352613
0.273553
0.5818
0.496015
-0.256215
-0.0450685
-0.735284
-0.774253
-0.720547
0.124059
-0.246175
0.745049
-0.225948
-0.436611
0.0795389
0.83659
-0.212612
-0.3013
0.58807
0.411904
0.34568
0.298807
0.730695
0.0698215
-0.283392
1.02842
-0.697763
0.0764165
-0.523816
-0.120186
-0.884836
-0.654444
0.957838
-1.28491
0.0837627
0.318592
-1.01736
-0.94841
0.151983
-1.19425
0.0778452
0.981811
-0.202632
0.777284
0.900012
0.951095
0.108374
0.372501
0.10999
-0.0439897
1.40984
0.444804
0.28668
0.824692
1.07686
0.060711
-0.289912
0.184671
0.418319
0.891785
0.41492
-0.268657
-0.974982
-1.62814
-0.317191
-0.8114
-0.701025
-0.566238
-0.339616
0.273336
0.519525
-0.420177
0.740721
-0.136104
0.227344
0.272865
1.19381
-0.00346971
0.517609
-0.61247
-0.241137
0.276437
0.856925
0.776638
0.150654
-0.885381
-0.775367
0.565908
0.109098
0.403061
-0.531236
0.10462
-0.443079
-1.0486
-1.21282
-1.16023
-1.37277
-0.207562
-1.1957
0.219416
-0.153773
0.843181
0.188365
0.200904
0.0590312
1.7021
0.413495
1.05276
0.149332
1.17203
-0.419692
0.412518
-0.135384
0.942868
0.179325
0.181408
0.697274
0.630861
-0.136989
-0.076569
0.632298
0.402249
0.341756
-1.11605
-1.02535
-0.28255
-1.29989
-0.360987
-0.928833
0.439371
0.794013
0.118733
0.447491
-0.0156525
0.203097
0.819767
-0.0233524
0.0777912
-0.096502
0.0572442
-0.908577
-0.0967742
0.4682
0.5142
0.590191
-0.561766
0.579825
-0.36896
-0.579128
-0.839874
-0.945818
-0.370346
-0.453999
-1.25432
-0.998658
-1.567
-1.47893
0.317485
-0.473294
0.286458
0.367022
0.297431
0.0951231
0.873785
0.183961
1.0553
0.112995
0.513879
-0.770146
-0.601304
-0.0771
0.1493
0.00342781
0.441847
0.659224
-0.995932
0.810548
-0.0675162
-0.190708
0.239767
-0.724563
0.0447547
-1.54126
-0.356385
-0.481123
-1.19986
-0.0970939
0.149644
0.210758
-0.0882894
0.799004
0.481622
0.0829291
-0.0723285
-0.179096
0.944324
1.13514
0.696264
0.6127
-0.327492
-0.628701
-0.783065
0.247484
-0.691639
-0.0420849
-0.168682
-0.200155
-0.565271
-0.343596
-0.885123
-0.452264
-0.264882
-1.34919
-0.0554011
-1.39386
-0.57353
-0.788179
0.866698
0.904766
-0.207491
-0.405449
1.16859
-0.00354568
0.88501
0.6264
-0.167475
0.0163
0.571141
-0.122273
-0.653125
0.248848
0.547584
-0.606545
-0.182928
1.16724
1.00452
0.273956
0.666684
-0.929816
-0.963236
-1.30293
-1.25182
-0.997881
-0.0508682
-0.0367049
-0.187248
1.28815
0.624119
0.314971
-0.257341
0.981885
0.233211
-0.194164
-0.279318
0.7611
0.4052
-0.0631451
-0.123314
-0.212935
0.27377
0.393538
-0.563095
-0.557748
-0.438803
0.0212924
-0.511563
-1.17458
-0.749691
0.232053
-1.11409
-1.27316
-0.799597
-0.484682
-1.04209
-0.332666
-0.0925432
1.22273
0.0922697
0.311266
0.910416
-0.318558
-0.383272
0.822
-0.7346
-0.227333
0.599763
-0.502494
-0.588749
-0.348344
0.282516
-0.23294
0.0527036
0.46039
0.686106
0.622435
-0.998966
-0.129181
-1.42923
-1.09507
-1.11816
0.346124
-0.0825195
-0.352847
-0.327348
-0.115769
0.6309
0.230148
-0.59776
0.0360189
-0.742075
0.5485
0.578
0.329024
0.539571
0.463077
0.293609
-0.994148
-1.09831
0.679218
0.434161
-1.0567
0.363014
-0.469822
0.443372
-0.97964
-1.01086
0.615455
-1.0061
-0.102507
-0.687349
0.158283
-0.34877
0.680154
0.729514
-0.122271
-0.00651099
-0.0367843
0.928247
-0.6997
0.9745
-0.758749
-0.524151
-0.427765
-0.0802761
0.732715
-0.827899
-0.653846
-0.477175
-0.829253
-0.808811
-0.960924
0.722149
0.81827
-1.00428
-0.713167
0.182431
0.25757
0.889618
-0.560237
-0.0829957
0.89098
0.835727
-0.191162
-0.216549
0.0245812
0.468179
0.429
0.3507
0.2086
-0.2412
-0.958662
0.528468
0.548552
-0.761239
-0.0199849
0.997724
-0.51202
0.990106
0.9154
0.2797
0.118983
-0.220069
-0.241002
0.9921
-0.1517
0.3899
-0.9941
0.0475
0.332801
0.0284907
0.9513
-0.3874
0.2936
0.527
-0.4666
0.4079
-0.8981
-0.9905
0.316699
0.150168
-0.494951
0.928923
0.95248
-0.600042
-0.406393
-0.0518305
-0.846594
0.0285821
-0.657884
0.540779
0.834698
0.108859
-0.422672
0.389621
-0.17347
0.787284
0.0773106
0.500777
0.944593
0.754197
0.8315
-0.4438
-0.3946
0.802
0.584674
-0.470217
-0.056618
-0.902756
0.212347
0.568304
0.277986
-0.0346513
-0.628625
-0.77488
-0.00249404
-0.0115801
-0.79113
-0.997812
0.552723
0.356915
0.168849
-0.601048
0.634913
-0.640392
-0.573309
-0.237761
-0.822202
0.109845
-0.897257
0.678454
0.666
0.0814
0.840838
0.815328
-0.14488
0.657005
-0.803998
0.197787
-0.589355
-0.943373
-0.146055
0.738513
-0.0845669
-0.344827
0.732618
0.0735386
0.335251
-0.706454
-0.371954
-0.482011
0.467778
0.65148
-0.67065
0.696177
0.36265
-0.548723
0.611135
0.894526
0.627999
-0.3305
0.914478
0.735684
-0.873888
0.0523577
0.613593
0.83355
-0.346383
-0.949238
-0.491128
-0.227267
-0.158066
0.0275633
0.150691
-0.819167
0.155245
0.347829
-0.348827
0.397101
0.567336
-1.05971
0.147348
0.669956
-0.376089
0.622376
-0.0312267
0.501578
-0.351314
-0.0017
-0.126065
0.767664
-0.48896
0.277023
0.428817
-1.00442
-1.03094
0.68731
0.147552
-0.934026
-1.01354
0.480024
-0.659659
0.65694
0.498206
0.0617207
-0.161751
-0.650122
0.692078
0.503859
-0.739578
0.712317
-0.437228
0.639376
0.801727
0.00309613
-0.379008
0.7381
0.538083
0.387177
0.134684
0.141502
-1.01172
-0.00887942
-0.806185
0.272609
-0.961775
-0.940186
-0.612684
-0.404729
1.11559
-0.145974
0.946645
0.366204
-0.19937
0.414457
0.683443
0.102421
0.61491
0.46098
-0.328469
0.534714
0.58299
0.486006
-0.553972
-0.5513
0.51037
-0.393334
-0.638608
-0.877501
0.153608
-0.0427843
-0.694031
-0.430339
0.0655207
-0.466927
1.27831
1.24793
-0.0413242
0.649743
0.988775
0.38313
-0.828844
0.493443
0.714293
-0.424542
-0.13695
0.140579
-0.649286
-0.19431
-0.570106
-0.87989
0.4532
-0.2148
-0.376523
0.0652396
0.326005
-0.739226
-0.441141
0.143513
-0.258293
-1.15187
-0.566254
-0.269186
-0.221891
-0.17585
0.0943009
-0.557023
-0.362265
-0.166593
0.451107
-0.0356648
-0.421695
-0.375701
0.348333
0.256499
0.953346
-0.576215
0.906124
0.692028
-0.3442
0.6086
0.217299
-0.967437
-0.620632
-1.19211
-0.512273
-1.13863
-1.19639
-1.0158
-0.0280872
0.268028
0.85984
0.143043
0.220772
-0.438152
0.634367
0.079523
0.882808
-0.223119
-0.559768
0.110415
0.428926
0.221331
-0.15759
-0.529091
-1.03043
0.917887
-0.974188
-0.7536
-0.482075
-0.26668
-0.957294
0.244353
-1.30359
0.158923
-0.523603
0.289726
0.536905
0.0306208
0.0107315
0.0113685
-0.480792
0.81842
0.675233
0.276308
-0.851272
-0.0423055
0.594388
-0.672624
0.751811
-0.451679
0.610204
-0.16626
-0.366124
0.117117
-0.839871
-0.1015
-0.232079
0.0953545
-0.445785
0.245908
-0.563003
-0.644441
-1.44391
-0.908982
-0.369303
0.116084
-0.243927
-0.536365
-0.655772
-0.590941
-0.514101
-0.354124
-0.715676
-0.615801
0.00115836
-0.0437624
-0.740039
0.492897
-0.759357
0.476404
-0.226656
-0.680501
-0.4484
0.799
0.254124
-0.28881
0.408257
0.279115
-0.9385
-1.06615
0.438065
-0.893668
-0.266594
0.014582
0.801663
0.0697165
-0.539653
-0.610678
-0.419066
0.184343
-0.0181426
-0.153879
0.431788
-0.68972
0.124967
-0.555802
-0.548489
-0.54534
0.70843
-0.848582
0.1432
0.2957
-0.567016
-0.909453
-1.02382
-1.07495
-0.505282
-0.62784
0.184924
-0.391161
0.431323
-0.247875
0.746432
-0.168624
-0.099394
-1.27907
0.412984
-0.0497221
-0.506164
0.538176
0.645623
0.319876
0.164224
-0.0426705
0.238414
-0.826839
-0.836671
0.94391
0.474701
0.7894
0.7481
-0.642608
-0.0741367
-1.52071
-1.4337
0.150532
-0.239236
-0.0856017
0.513786
-0.601464
-0.498196
0.128432
0.0988064
0.242499
0.072806
0.115849
1.05284
-0.814548
-0.239292
0.0334235
-0.661536
-0.904457
-1.15656
0.541494
-1.03104
-0.675308
-0.623
0.850734
-0.448172
-0.946005
0.386738
-0.861892
0.342552
0.727946
-0.771548
-0.0699998
0.511101
-0.509945
0.548375
-0.0366174
-0.199115
-0.283847
-0.684327
0.228519
-0.637967
0.421913
-0.409524
0.356228
0.254371
-0.215954
-0.774501
-0.257278
-0.041268
0.750963
0.787991
0.15344
-0.45627
0.762324
-0.355593
-0.173151
0.363156
-0.37868
0.239908
0.331978
0.723273
0.463954
-0.618592
0.133523
0.899475
-0.126206
-0.218545
0.842851
0.697974
-0.193988
-1.21615
-0.413354
-1.02514
0.222484
0.215047
-0.636392
-0.670237
0.869829
0.797328
0.283714
0.978422
-0.701076
-0.741766
-0.0177274
-0.320885
0.777952
0.678179
-0.26633
0.25425
0.515435
-0.000802891
0.139687
-0.340907
0.629989
0.256991
-0.139129
-0.885233
-0.401002
-0.819037
-0.685901
-0.597121
0.818094
-1.1101
0.295099
-0.0662672
-0.845223
0.528567
0.0661393
0.97936
0.827533
0.997076
1.03396
-0.563833
0.219662
0.167303
-0.245303
-0.756676
0.425535
0.747126
-0.910412
-0.064141
-0.857575
-0.755475
0.494384
-0.897161
-0.18527
0.532486
-0.282092
0.705375
-1.09416
0.0351321
-0.748974
-0.228546
0.361598
0.5853
0.592012
-0.720923
-0.654287
-0.357809
0.72151
-0.10336
0.085175
0.701747
-0.235718
0.344566
0.495158
-0.414
-0.440736
0.934369
0.0634637
-0.0148301
0.344945
-1.05953
-1.19628
-0.999668
0.354845
-0.867323
-1.09346
0.340238
-0.243012
-0.546792
-0.614877
0.0048
-0.8021
-0.321198
1.21835
0.831111
0.609571
-0.145668
-0.694612
0.804539
0.418718
0.661473
0.654189
0.868854
1.10277
0.865564
0.648788
0.492062
-1.12586
0.453422
-0.272757
-0.289706
0.667662
0.463334
-0.120578
-0.336583
0.298959
0.704941
0.992657
0.8699
-0.2591
-0.263507
1.07363
-0.346295
0.194614
1.29505
0.357262
-0.684353
-0.728771
0.19347
0.623383
-0.516208
0.845912
-0.511239
-0.177292
-0.634816
-0.146654
0.132144
0.50654
-0.718607
-0.84236
0.302996
0.143547
-0.743021
0.279248
0.676572
0.495142
0.0075
0.828106
0.157971
0.476695
0.612798
0.784781
0.921669
0.418918
0.757534
-0.154958
0.961672
-0.340098
-0.226186
-0.272789
-0.107313
-0.00988075
1.14103
-0.409426
-0.770151
-0.714394
0.105978
0.191637
0.00891695
-0.686156
0.43063
-0.86465
0.222954
-0.494945
0.2917
-0.423872
0.743543
0.856193
0.63303
0.216007
-0.110046
0.0778899
-0.356001
0.328615
0.269453
0.875345
-0.620172
0.622198
-0.214958
0.0422163
0.245409
-0.146951
-0.706527
-0.437311
0.448549
-0.724456
0.541732
-0.449944
-0.747137
-0.945604
-0.952003
0.785977
0.0651
0.256199
-0.23323
0.367993
-0.846471
-0.173647
0.734708
-0.0584659
-0.383369
-0.379108
0.777234
0.58191
0.204483
0.359515
0.771652
0.249838
0.60622
-0.0910164
0.477827
-0.302551
-0.775001
-0.0979774
-0.475583
0.465755
0.220252
0.32594
-0.84502
-0.75007
0.3637
0.153899
0.941707
-0.964376
-0.0720032
-0.830658
-0.33033
-0.188618
-0.388189
-0.724462
0.751557
-0.787992
0.337344
0.661936
0.371588
0.298317
0.725823
-0.265707
-0.286357
-0.714346
0.711645
0.340085
-0.108843
-1.05157
-0.393785
0.134343
0.0205058
-0.757886
0.2361
-0.551301
0.487769
-0.178028
-0.867095
0.201092
0.564253
0.237842
0.690174
0.547835
-0.581023
-0.314844
0.824055
0.580099
0.269518
-0.896849
0.30935
-0.729571
-0.514391
-0.576713
-0.00961109
0.177225
-0.898151
0.0954659
-0.870489
0.839123
-0.531162
-0.00229232
0.5932
0.6646
0.854661
0.206692
0.714181
-0.500111
-0.921488
0.0130271
-0.121491
0.0957605
0.666763
0.13782
-0.836488
0.631856
-0.656333
-0.556105
-0.963152
0.340345
-0.535215
-0.696634
-0.339293
-0.519129
-0.469792
-0.918197
0.327366
-0.474364
-0.832932
-0.597186
-0.8027
-0.6217
-0.4364
0.6471
0.365206
0.571618
-0.832345
0.000667551
0.210253
-0.825983
0.69493
-0.973592
-0.9593
-0.466699
-0.672371
-0.36396
-0.0789898
0.514602
-0.7374
0.2659
-0.7971
-0.6917
-0.618671
0.0397
0.5073
-0.2087
-0.6245
0.7277
0.0523
0.7921
-0.9455
-0.553
0.679302
0.225297
-0.265632
0.704126
-0.79993
-0.271159
-0.281451
-0.0861526
-0.727674
-0.526439
-0.617611
0.915167
-0.503604
-0.427528
-0.808223
0.717848
-0.576991
-0.625223
0.898699
0.622341
-0.966856
-0.465528
-0.6043
-0.8298
-0.1374
0.9267
0.000729295
-0.532313
-0.317505
-0.469762
0.903752
0.169253
-0.521956
-0.453306
-1.00997
-0.71175
-0.514134
-0.946679
0.117961
-0.906383
-0.828022
-0.865594
0.423654
0.97103
-0.994775
-0.938315
0.873769
-0.698933
0.777744
0.540757
0.627358
-0.00642644
0.82638
-0.2326
0.61483
0.912213
0.587629
-0.731029
-0.130186
0.150344
0.42153
0.804064
0.233974
-0.515583
0.143957
-0.636527
-0.134193
-0.639328
-0.0336384
0.549538
0.197045
-0.148634
0.517618
0.857338
-0.222646
-0.157663
-0.108376
0.300207
-0.746282
-0.276561
0.373533
-0.0424
-0.212347
-0.130924
-0.344015
-0.529442
0.492847
1.00499
-0.694573
0.513088
0.528682
0.189443
-0.564932
-0.875298
-0.687649
0.25387
-0.195181
0.0241538
-0.361212
0.410723
-0.59883
-0.290127
-0.35289
0.517961
0.528234
-0.884175
0.351926
0.684562
0.823023
0.1943
0.531359
-0.753208
-0.0188882
-0.852788
0.566524
0.0499474
-0.626309
-0.178421
-0.311906
0.473267
-0.943441
-0.0293355
-0.347602
-0.769374
-0.852228
-0.247899
0.154339
-0.116372
0.231968
0.457059
-0.826076
-0.38528
0.818659
-0.817109
0.127253
-0.555234
0.517338
-0.348
0.321447
-0.900633
0.8092
-0.455065
0.0383529
0.371577
-0.0744166
0.221631
-0.393658
-0.493483
0.355401
0.820298
-0.445187
-0.873942
-0.318887
0.51372
0.207536
-0.108499
-0.236615
-0.809906
-0.187478
0.346274
-0.453356
0.326222
0.578689
-0.165483
0.149461
0.7466
-0.436588
0.197534
-0.497175
-1.04733
0.657449
-0.119904
0.755302
-0.122741
0.900046
0.660732
0.301554
-0.257638
0.487348
-0.033592
0.0346407
0.329554
-0.419362
0.342787
0.653343
0.0219015
-0.140415
0.740923
1.22265
-0.473949
-0.690026
-0.853088
-0.708
-0.1701
-0.68818
0.110684
0.189867
0.935382
-0.444476
0.362615
0.912518
0.75276
0.616707
-0.063691
0.912772
-0.692574
0.718943
0.890582
-0.415656
0.684913
0.878603
1.08232
0.536568
-0.434737
0.953084
0.450788
0.918413
0.345666
1.10628
-0.735243
-0.7397
0.3642
0.219852
-0.242494
0.410998
-0.0930184
0.00907499
-0.802431
1.07766
-0.0710992
0.728475
-0.193115
0.561717
-0.833984
-0.457563
1.12457
-0.0429114
-0.0698553
-0.0188047
0.844458
0.924067
0.81464
-0.0360033
0.0610479
1.01746
0.0815688
0.506812
0.383403
-0.712256
-0.58
-0.771156
-0.786987
0.974349
1.09801
-0.593632
0.0457505
1.24882
-0.365656
-0.0733289
0.900887
-0.819609
-0.186292
-0.431027
0.261018
-0.13684
0.110599
-0.416436
0.326665
-0.20353
-0.716448
-0.0909628
0.927816
0.708814
-0.494282
1.01221
0.503052
0.409708
0.9339
-0.798941
0.381364
0.0927562
0.998368
-0.503805
0.916673
-0.514379
0.968163
0.523869
0.073018
-0.149216
-0.157264
-0.89888
-0.22146
0.254189
0.034376
-1.52252
-0.846439
-0.378916
-0.338871
-0.677047
-0.0918563
0.331392
0.209431
0.3542
0.24169
-0.1561
-0.9741
0.754494
0.401247
0.00422774
0.322304
0.33342
-0.374394
0.752662
0.710425
0.428752
-0.652332
0.307513
0.769721
-0.0363949
0.615208
-0.635095
-1.22817
0.0405074
0.135424
-0.781942
-0.8575
0.94029
0.562639
-0.612997
0.0546094
-0.64037
0.689222
0.9516
-0.9614
-0.46276
0.021515
-0.0372022
-0.436157
0.813776
-0.0100356
-0.519787
0.720061
0.418482
0.711196
-0.322963
-0.335923
-0.597001
0.310113
-0.580254
0.0827275
-0.673002
-1.01006
-0.815477
-1.31831
0.0430812
-0.415669
-0.105159
-0.238587
-0.837866
0.955178
-0.832885
-0.0935
-0.73706
-0.402794
-0.65117
0.0707209
-0.0390488
-0.316097
0.972249
0.847437
0.830118
-0.464001
-0.851143
0.74005
1.17116
-0.098118
0.20291
0.607946
-0.632292
0.371057
0.085898
-0.913516
-1.42026
-0.0650098
-0.768258
0.473886
-0.248803
0.599089
-0.591
0.0142992
-0.168478
-0.925078
0.52385
-0.237466
-0.230975
0.137774
-0.609801
0.394216
0.935145
1.02415
-0.980184
-0.460285
-0.297502
0.728828
0.616241
-0.00367029
0.116328
0.604172
-0.0270663
-0.106259
-0.16451
-0.890583
-0.542933
-0.30938
-0.19728
-0.488985
0.309196
-0.441645
0.667265
-0.26653
-0.108324
0.174484
0.205636
0.199021
-0.603183
0.227795
1.03201
-0.306832
0.666308
-0.436628
-0.590241
0.151625
-0.0583792
0.334636
0.817053
0.704155
0.668683
0.575937
-0.509969
-0.739475
0.730248
-0.751564
-0.785962
-0.564919
-0.849901
0.978006
-0.661225
0.588257
0.771396
-0.398934
0.451267
-0.609491
0.986304
-0.00154894
1.03433
-0.766672
-0.530704
0.0581052
-0.0437753
0.420887
-0.102804
0.0174999
0.102293
0.0799018
-0.649674
-0.486683
0.517395
0.840225
-0.020577
0.0143798
0.877988
0.280828
0.926695
-0.0512247
0.0405605
0.189382
-0.214973
0.579591
-0.583042
0.487854
-0.216193
0.68725
1.18047
0.87256
-0.559699
-1.11904
-0.283396
-0.843864
-0.38117
-0.34254
0.173026
0.263492
0.38321
0.417625
0.733841
-0.189594
0.081194
0.177915
0.626496
-0.524447
0.734583
0.412567
-0.111684
-0.257512
0.277972
0.309076
0.846301
-0.481329
-0.240594
1.03175
-0.373532
-0.272466
0.759685
-0.0444857
-0.397993
-1.01085
0.708209
-0.0117734
0.40401
-0.357822
-0.511822
0.433334
0.259169
0.0985791
0.744431
-0.521178
0.72597
0.883631
-0.4177
0.0879
-0.973728
0.600849
-0.0819546
0.820594
-0.86333
-0.262247
-0.277954
-0.254978
0.573435
0.969776
-0.00641812
-0.124998
-0.189609
-0.167582
-0.547344
-0.0390954
-0.38249
-0.481825
-0.36317
0.385677
-0.485126
-0.62834
0.531243
-0.537347
0.538102
0.296829
-0.4829
0.675
0.895592
-0.78153
-0.400342
-0.231472
0.52749
0.618823
-0.0810718
0.619623
0.0548957
-0.136768
-0.381183
-0.0174808
-0.966427
0.28304
0.732385
0.541328
0.540458
0.510304
-0.201467
0.59891
-0.957026
0.490128
0.408472
0.478619
-0.699665
-0.683265
0.4184
-0.90391
-0.818366
0.468116
1.04751
-1.12239
0.460573
0.070333
0.0507963
-0.07143
0.747494
0.729637
0.0721107
-0.135305
-0.0318753
-0.100271
-0.907886
0.901603
0.316295
0.160862
0.324923
0.139706
0.945537
0.333952
-0.631177
0.466651
-0.411097
-0.616817
-0.2097
-0.419839
-0.77912
-0.272694
0.55263
0.661464
-0.469058
-0.3808
0.7493
0.115747
1.29038
-0.501238
-0.544343
-0.438393
0.405759
-0.470745
-0.181162
0.157677
0.868651
-0.694769
0.31754
-0.134518
0.0875646
0.27126
-0.557271
0.1197
-0.861269
-0.599687
-0.0912
-0.182196
0.675991
-0.948809
0.760957
0.508923
-1.00344
0.994199
-0.345235
1.33807
0.140085
-0.00821085
-0.154855
0.412522
-0.655972
-0.115045
0.518895
1.02017
-0.169446
0.583984
0.619329
-0.52025
0.0896253
-0.158784
-0.239507
-0.315057
0.826743
-0.221356
-0.0761
0.738039
0.665702
-0.0770428
-0.343764
0.594375
-0.209137
-0.850414
0.44208
-0.534844
0.758485
-0.463747
0.447107
0.335017
-0.478837
-0.720402
-0.652168
0.196987
-0.239652
0.180807
0.0232284
0.790333
0.370083
0.907102
0.947923
0.338854
-0.464043
0.716007
0.9616
-0.635994
0.304948
0.573462
0.556467
0.467521
0.0688917
-0.690034
-0.330334
-1.05116
-0.164218
-0.894778
-0.629496
-0.036046
-0.894434
-0.050609
0.0626278
-0.550608
0.416805
0.240597
0.315
-0.272815
0.0339459
0.420337
-0.432409
0.952495
0.692903
-0.81066
0.1846
-0.65322
0.540546
-0.754408
0.276027
-0.6082
0.975004
0.47145
-0.393565
0.377224
0.798733
0.220644
0.0770449
0.941036
0.788164
0.174498
0.560646
0.583538
0.141145
0.716059
-0.863274
-0.817896
-0.851248
0.103891
0.466107
0.373643
-0.120555
0.269905
-0.9381
-0.7545
0.5518
0.0182
-0.0413916
0.254538
-0.851856
0.548928
0.033869
-0.917746
0.172165
-0.665019
0.3433
-0.881901
0.161982
0.437582
0.492183
-0.0240042
-0.2629
0.9892
0.0892
0.7666
-0.686707
-0.864842
0.9806
-0.3609
-0.1587
0.6677
0.9377
-0.3493
-0.6922
-0.6496
0.4222
0.497857
0.917574
0.246168
0.785079
-0.327565
0.558792
0.0868672
-0.370428
0.539229
-0.47601
-0.293816
0.857126
0.11579
-0.696878
-0.932546
-0.872546
-0.153621
0.807555
-0.777803
0.467299
0.3642
0.6091
0.7364
-0.7289
-0.4143
-0.807082
-0.0477233
0.100337
-0.475241
0.310464
0.888735
-0.814098
-0.453108
0.308165
0.422996
0.462191
-0.211041
0.00134788
0.3338
-0.0685452
-0.726702
-0.57357
0.75396
-0.54579
0.894635
0.625381
0.528418
-0.777313
-0.449042
0.94702
0.934361
-0.6007
-0.7144
0.447756
0.698641
-0.0410425
-0.78478
-0.375737
0.59167
-0.158312
0.332241
-0.802931
-0.954014
-0.465434
-0.625002
0.711454
0.0132279
0.629686
0.584216
-0.535516
-0.416895
0.45135
-0.377185
-0.490787
0.70531
0.877739
-0.414298
-0.550073
0.976315
-0.667001
0.6205
-0.296454
-0.547432
0.322053
1.19825
0.902757
-0.184809
0.892481
0.159872
-0.801399
-0.376197
0.0557463
0.278096
-0.680055
-0.483831
-0.0334377
-0.199197
-0.0667411
0.286313
1.09606
0.983478
-0.597168
-0.00156828
1.01881
-0.467405
0.892045
0.338295
0.998207
-0.5597
-0.605761
0.28582
0.335129
0.721776
0.00834698
0.0657645
0.0515573
0.0970954
0.0875983
-0.370358
0.0928981
-0.310014
-1.33568
-0.120119
-0.59372
-0.385762
-0.289981
-0.51968
0.135392
-0.0215147
0.759133
-0.22253
-0.372248
-0.499335
0.816949
0.735826
0.434968
0.5429
-0.876527
-0.139659
-0.0820984
0.109914
-0.0547249
0.668899
-0.271293
0.377764
-0.425784
0.798091
-0.346744
-0.626181
-0.381131
-0.304983
-1.29201
-1.12146
0.21772
-0.311415
0.122413
-0.547871
0.997653
0.58087
-0.141491
0.943333
-0.172861
-0.674537
-0.100666
0.4193
-0.797555
0.824832
0.783079
0.127927
-0.400887
0.76832
-0.241839
0.799527
0.609484
1.40398
-0.058003
-0.458342
0.0989993
-1.18553
0.125863
0.335554
-0.847101
-0.238382
0.940238
-0.813087
0.807802
-0.726701
0.437981
-0.828769
0.324587
-0.593126
-0.0276
0.2783
0.0755462
0.562512
0.917448
0.701827
0.413908
-0.183139
0.740899
-0.387219
0.761576
-0.579344
0.801145
0.730933
-0.0699246
-0.387515
-0.520161
-0.978108
-0.975428
0.661347
-0.203424
0.317099
0.0631961
0.655346
-0.730429
-0.554816
0.831734
-0.679745
-0.4828
0.787
-0.839819
0.780302
0.0752266
-0.45283
0.00687866
-0.490961
0.850862
-0.504257
1.13651
0.109428
0.148291
-0.148312
-0.78194
-0.624286
-0.28341
0.188215
-0.83729
0.267269
-0.196206
0.79817
0.333634
-0.0368748
0.667068
0.499224
0.608676
-0.125486
-0.381003
0.1531
0.99319
0.206075
-0.171547
0.579512
0.806917
-0.121143
-0.0390806
0.276151
-0.989509
0.922436
0.479706
-0.539709
0.26523
0.152264
-0.131454
-0.457507
0.544771
-0.902947
0.280188
0.590076
-0.159665
-0.720692
0.0364449
-0.552914
-0.837428
0.223251
0.970167
0.3238
0.355148
-0.258552
0.74145
0.311583
0.216703
0.848129
0.289738
-0.409919
-0.237245
1.14633
0.732654
-0.319462
0.403448
0.293837
-0.0396567
-0.150286
0.418295
0.334678
-0.691405
-0.552788
0.518685
0.646261
-0.15302
-0.690513
-0.619907
-0.161012
-0.1809
-0.685
-0.0575063
0.471445
0.00088185
0.509015
0.590778
0.532817
-0.894877
-0.115632
0.0148936
0.283855
0.881492
0.50544
0.504707
-1.07037
-0.51174
-0.780492
-0.755803
-0.378033
-0.437078
0.559955
-0.970498
0.610378
0.343438
0.501447
0.980553
0.63059
0.9808
0.7488
-0.912008
0.530696
0.344667
-0.657974
0.602737
-0.461128
0.149909
-0.414099
-0.405826
0.763348
1.06165
-0.555247
-0.47528
-0.223205
-0.464102
-0.573549
-0.123589
0.0437999
0.539154
0.155346
-0.404689
0.378694
-0.444444
0.750778
-0.0880601
0.794862
-0.0450048
-0.0645
-0.869518
-0.356437
-0.141472
-0.320877
-0.34963
-0.47374
0.428163
-0.852239
0.56801
0.70575
1.49584
-0.263077
-0.191756
-0.0719424
-0.825919
-0.344219
0.299845
-0.789726
-0.611199
0.661076
0.361471
-0.584561
-0.970346
-0.482909
-0.513993
-0.070155
-0.9284
0.806412
0.987975
0.394909
0.0610279
1.16771
0.767
-0.404712
0.44086
-0.32912
0.119
1.16306
0.36795
0.539394
-0.513493
-0.197395
0.0307515
-0.79219
-0.890578
0.474579
0.416513
-0.20949
-0.0527173
0.151867
-0.386744
0.164874
-0.425676
-0.0730165
0.498547
-0.318879
-0.0332151
0.477715
-0.737689
-0.0527735
0.380703
0.687584
0.361603
-0.816601
0.631086
0.695232
0.393143
-0.571868
-1.12264
-0.645916
-0.298981
0.0843472
0.266584
-1.16806
-0.0482173
0.67675
0.649766
-0.67036
-0.787125
0.302622
-0.262422
-0.509546
0.052016
0.441171
-0.252993
-0.563272
0.719008
-0.470619
-0.779761
-0.510496
0.07835
0.270224
0.13995
1.96432
1.24428
0.358181
0.0379269
-0.844405
-0.287292
-1.15303
-0.424019
-0.349065
-0.384448
0.811139
-1.17884
-0.424685
0.58384
-0.794695
0.131822
-0.0172106
-0.0888894
0.212238
0.308798
-0.816343
-0.0918397
0.111017
0.231755
0.77046
-0.0104531
-0.310884
0.400685
1.28918
0.587897
0.74446
-0.280524
-0.618408
0.628435
0.071341
0.26028
-0.316751
-0.824616
0.688029
-0.323612
0.630794
-0.914826
0.20249
-0.482181
0.987175
-0.503008
-0.788637
-0.0530548
-0.234506
-0.333503
0.417324
0.539466
-0.0547798
0.493683
-0.851563
0.0501623
0.985792
0.399847
0.56459
0.107895
0.21475
-0.879243
-0.508947
-0.359274
0.47883
0.497691
0.882459
0.14181
0.665554
0.842847
0.644253
-0.283158
0.558458
-0.5321
0.7143
-0.436258
0.496393
0.575449
0.45258
-0.101965
0.169853
0.444739
-0.879018
0.866338
1.07058
-0.644905
0.880592
-0.937855
0.31658
0.0669239
0.170031
-0.12282
0.569094
-0.171921
0.639694
0.931523
-0.471177
-0.700751
0.25532
-0.298548
0.212093
0.6701
0.0431
0.0989921
0.0877565
0.309531
0.122817
-0.321867
0.375139
0.0488197
-0.22906
0.227722
1.1288
1.35941
-0.104168
0.278077
-0.386577
0.628085
0.162141
-0.836275
-0.297776
0.115224
-0.373005
-0.117695
-0.68672
0.850314
1.12287
-0.313405
0.64048
0.9792
0.0717597
-0.863355
-0.536996
0.0681914
-0.366596
0.147528
0.173788
-0.661893
0.662077
0.199125
1.0116
-0.35936
0.490307
-0.814805
-0.535615
0.325937
-0.0494659
-0.491445
0.534301
-0.27641
0.905372
0.484565
-0.629601
0.457758
-0.194162
-0.0198698
0.217927
0.6547
-0.418266
0.6976
0.66095
0.338815
0.249842
-0.50486
-0.58309
0.851964
-0.768012
1.35522
1.64266
0.264347
-0.327019
0.409709
-0.42726
-0.0650583
0.0228266
-0.689868
0.3738
0.552516
-0.251021
0.0376952
0.868881
-0.233291
0.148977
0.215924
0.10454
0.1858
-0.778401
0.491256
-0.067939
-0.0774115
-0.631802
-0.13475
-0.230658
0.703394
0.963326
-0.112674
-0.0255264
-0.0524821
0.261095
0.503538
-0.736055
-0.53655
-1.04093
0.229408
-0.280852
0.0584456
-0.691239
0.677883
-0.163503
-0.126549
0.791625
-0.0683762
0.514933
-0.4464
0.207999
0.567247
-0.885248
-0.819464
0.787838
-0.824864
-0.66549
1.04818
0.280886
1.08803
0.354192
-0.0815034
0.403567
0.0237739
0.934935
0.69968
-0.412993
-0.174942
-0.385716
0.347726
0.530894
-0.22408
0.501342
-0.387552
0.888126
0.356331
0.0986638
0.4416
-0.591301
0.406938
-0.495858
-0.7402
-0.82875
-0.292276
0.2738
0.574498
0.0146184
0.464456
0.438306
0.441696
0.261098
0.31584
0.816799
-0.838896
0.622635
-0.510384
0.256337
0.720799
0.941425
-0.552047
-0.620138
0.558417
0.265385
0.474676
-0.197811
-0.2335
-0.2302
-0.559526
0.869331
0.935036
0.608341
0.401952
0.618653
0.214294
0.47717
0.513158
0.937409
-0.633648
-0.815079
0.0772143
0.32348
-0.859891
0.847218
0.0802489
-0.699811
-0.684157
-0.983432
0.942484
0.397772
-0.839991
0.925373
0.0164485
-0.538338
0.7942
-0.5526
0.3318
0.0144
0.904949
-0.334875
0.145033
0.236357
0.957978
-0.679697
-0.196645
0.0884812
0.1326
0.834486
-0.788678
0.0884225
-0.416778
0.0799568
-0.5735
-0.3631
-0.4373
0.7775
0.530303
0.74889
0.4238
0.6316
-0.1683
-0.9709
0.8544
0.9629
-0.0758
-0.2301
0.6277
-0.501123
-0.645643
-0.45372
-0.624593
0.612207
0.417179
-0.629169
0.571692
0.770309
0.351868
-0.755133
-0.648152
0.090006
0.696723
-0.990588
-0.397421
0.311052
0.219636
0.256653
0.954793
-0.761904
-0.2613
-0.4396
0.339
-0.5728
-0.342622
-0.310114
-0.91015
-0.212569
-0.352573
-0.317386
-0.317586
-0.13141
-0.234321
0.802076
0.163037
-0.340857
-0.54582
0.67328
0.649989
-0.105245
0.337741
0.162429
0.514616
-0.412169
-0.0763578
-0.21553
-0.107128
-0.0891703
0.899252
-0.11792
0.998801
-0.0947
-0.11014
0.736974
0.483786
0.194901
0.325621
-0.622818
-0.562433
-0.778245
-0.734251
0.879015
-0.810912
0.317023
-0.394898
0.515597
-1.2697
-0.559163
-1.05794
-0.370487
0.355521
-1.08204
-0.581988
0.841863
0.0705018
-0.648097
0.624088
-0.325623
-0.644403
-0.1519
0.532868
-0.237149
-0.874927
-0.612722
0.611494
0.817161
0.189722
0.857804
-0.0965869
0.359431
0.307358
0.175855
0.00354837
0.387736
-0.16083
-0.425747
-1.23899
-0.778515
-0.66371
0.487714
-0.484895
-0.397028
-0.274485
0.00349672
-0.183493
-0.939236
0.704041
-0.0754
0.361403
0.183804
0.237749
-0.729889
0.00487509
-0.472844
-0.594386
0.108323
0.887027
0.557719
0.916454
-0.765048
-1.01776
-0.659703
-0.654409
-0.413481
-0.473103
-0.611816
0.209945
0.230131
0.366137
-0.829031
0.0165667
-0.128696
0.0731629
0.655306
0.873752
0.8642
0.896619
0.599446
-0.138459
0.958215
0.0957084
0.156064
1.10825
0.24318
-0.101647
0.364681
0.0800062
0.7241
-0.488006
-0.105324
-0.28361
0.0511753
0.201382
-0.491445
0.318864
0.326694
-0.65976
-0.87567
-0.821575
0.190428
-1.08878
0.323191
-0.519652
0.9113
0.735885
-0.675476
1.00406
-0.447673
-0.314673
-0.165541
-0.636623
-0.284343
1.12168
-0.76194
0.629118
0.615689
-0.214712
0.376784
0.0853115
0.677446
0.458822
-0.530157
-0.707911
-0.257341
-0.554716
-0.127575
-0.605941
-0.250901
0.103976
0.892959
-0.0026
0.2052
0.886772
0.0998302
0.615869
0.509434
0.274644
0.774908
0.990737
0.123659
0.026041
0.784498
-0.246907
0.877509
0.990494
0.936897
0.136513
-0.663968
-0.67299
-0.601695
0.330877
-0.515653
0.110727
-0.74376
-0.367986
0.434536
0.260577
-0.487858
-0.7191
0.2682
0.666539
-0.216697
0.865358
-0.00771793
-0.308572
-0.282204
0.393235
-0.528203
0.307998
-0.282955
-0.157946
0.229365
0.727748
0.382193
-0.17599
0.552507
0.732943
0.886885
-0.328055
0.108325
-0.186187
-0.131595
-0.184207
-0.688915
-0.948768
-0.371748
0.534754
-0.6138
0.724222
0.261737
-0.641724
-0.0251498
-0.507631
0.460093
-0.697886
0.46214
0.142916
-0.705158
0.861573
0.734853
-0.630817
-0.427986
0.0819325
-0.163054
0.0247082
-0.298551
0.0426933
0.483625
0.213191
0.47204
0.123463
0.227587
-0.940936
-0.47524
-0.0623893
-0.6931
-0.189953
0.264255
0.556076
0.551377
0.703038
0.938769
-0.508907
0.471047
-0.112186
-0.737737
0.912068
0.0115383
0.797957
-0.430791
-0.698458
-0.199938
0.205447
0.555084
1.15146
0.432745
0.389092
-0.0298816
-0.578111
-0.360531
-0.632985
-0.66803
0.4723
-0.336
0.544553
0.93531
0.200256
-0.259268
0.882911
-0.090315
-0.468137
0.643843
0.568766
0.139873
0.0776587
-0.71452
-1.09097
-0.884538
-0.831081
-1.18148
-0.201916
-0.528771
0.592122
0.339085
-0.776803
0.837162
0.7434
-0.559338
-0.333266
0.698068
0.5144
-0.9073
0.176444
0.409409
0.0488713
0.860196
-0.335726
1.06818
-0.250162
0.291881
0.277032
0.675027
-0.501453
-0.234042
0.619909
0.630525
-0.7565
-0.831687
0.340986
0.33153
0.39114
-0.325635
0.390253
-0.259432
0.81374
0.31427
-0.159257
0.306062
0.418169
0.8736
0.148199
0.520608
-1.09433
0.758983
-0.231139
-0.186986
-0.444848
0.490471
-1.07983
-0.0315081
-0.979124
-0.655387
-0.180675
-0.176947
0.0954072
-1.07763
-0.214702
-1.1023
0.173351
0.28729
0.756935
-0.0880833
-0.125235
0.909812
0.57448
0.74531
-0.41
-0.676276
-0.524066
-0.0433692
0.724236
0.244297
0.125074
1.1145
-0.210031
-0.603838
-0.863315
-0.0356234
-0.997909
-0.0402647
-0.710592
-0.0415599
-0.487006
-0.908751
-0.0249851
0.24355
-1.22741
0.446154
0.713931
1.0304
0.521638
0.656301
0.0576046
0.608038
-0.298978
0.637363
-0.347202
0.14827
-0.443732
0.468529
0.675963
-0.295876
0.593685
0.740416
0.843522
0.503189
0.539558
-0.997301
0.494883
-0.75112
-1.30619
-1.31954
-0.166085
0.650424
-0.243254
-0.311504
-0.357826
1.24286
-0.374993
0.40835
-0.587161
-0.3758
0.889023
-0.403493
-0.900022
0.312968
0.573556
0.568353
-0.209759
-0.805013
0.510148
0.322759
0.427747
-0.344707
0.198654
-0.208202
-0.165157
-0.834184
0.0267026
-0.631285
-0.699241
0.841285
1.10597
-0.242409
0.0090867
0.10778
1.06923
0.501876
-0.620924
0.264788
-0.961597
0.428327
0.271654
0.679301
-0.622804
0.593444
-0.547677
0.984984
-0.620742
0.829829
0.519588
-0.441738
0.362852
0.470064
-0.401079
0.146281
-0.014566
-0.824567
-0.0884555
-0.336619
0.5517
-0.389739
-0.0522039
0.406493
0.210831
-0.228748
-0.224279
-0.501483
-0.378086
-0.592905
0.197281
0.285217
0.0223297
0.0609414
-0.138212
-0.0602448
-0.0677438
0.304909
0.186279
0.885808
0.560379
-0.337419
1.34484
-0.405993
-0.978732
0.985376
0.893252
-0.652533
0.0110957
-0.203255
0.29861
1.00507
0.23348
-0.445531
-0.595197
-0.891516
0.7825
0.3831
-0.220702
-0.12522
-0.408629
-0.435117
-0.15877
1.16607
-0.180534
-0.474777
0.597406
0.65088
0.382039
1.43766
1.21895
0.242447
0.545721
0.993762
0.181215
0.734262
-0.618196
0.387467
1.02797
-0.734776
0.611979
0.0846884
0.26038
0.985998
0.5727
-0.6605
-0.431098
0.568442
-0.465094
0.0232801
0.830823
-0.398629
-0.318462
0.0350089
0.705204
-0.392139
0.12064
0.303861
1.13579
0.706482
0.508156
-0.0980436
0.0677623
-1.02253
0.218178
0.807471
-0.687238
0.230068
-0.452876
-0.710198
0.437643
0.423096
0.5223
-0.417344
-0.351573
0.387011
-0.632991
0.639847
-0.394616
-0.109566
0.0792252
0.0239542
-0.849301
1.02293
1.14808
0.269632
1.02355
1.27346
0.284471
-0.0662055
0.653714
-0.989467
0.221889
0.400015
-0.388104
-0.876401
0.238463
0.70312
0.0541333
0.097025
-0.9792
-0.629452
0.0246071
0.319055
-0.634836
-0.902546
0.483305
0.0218478
0.116433
-0.224177
0.0808326
-0.112838
-0.214236
0.313673
0.987843
0.69737
0.0470734
-0.477654
1.24439
0.963612
0.402444
-0.71735
0.683977
0.228568
-0.741464
0.383984
0.345785
-0.105531
-0.6442
-0.0258204
-0.758735
-0.0923602
0.476515
-0.840164
0.597756
-0.826605
-0.219366
0.91185
0.336358
0.933674
-0.173551
1.32457
1.10783
-0.218708
1.1791
-0.19246
0.864306
-0.138901
-0.147813
0.519563
0.779824
0.396592
-0.531003
-1.11585
0.0419231
0.44476
0.8945
-0.635181
0.372577
0.0547006
-0.430025
0.363123
-0.315076
0.266632
-0.00801543
-0.761973
0.061627
-0.293217
-0.470779
-0.104217
0.941885
-0.771568
0.561701
-0.327276
0.71159
-0.272674
0.987674
0.495571
0.665363
-0.566687
-0.0277876
0.900745
0.168532
0.158448
0.57
0.585187
0.312101
0.308626
0.690232
-0.0602825
0.059721
0.737381
0.357928
0.840175
-0.763517
0.14748
-0.530594
0.827946
-0.636368
-0.0120436
-0.420479
0.940304
-0.354674
0.867112
0.224011
0.371434
0.505594
0.399236
0.0787995
0.284103
0.842234
0.537793
-0.4101
-0.676699
0.162685
-0.371685
-0.819119
0.898288
-0.882989
-0.478514
-0.635555
0.699055
0.293484
-0.604369
-0.929105
-0.907956
0.694607
0.255119
0.563619
0.837339
0.302054
1.00942
-0.0428587
-0.310925
-0.725726
1.00352
-0.718882
-0.86016
0.369789
-0.864839
-0.8215
0.9994
0.9977
-0.6908
0.971528
-0.315623
0.503717
-0.170165
-0.0693909
0.12296
0.682249
-0.6
0.1191
-0.573513
0.551034
0.0692349
-0.983458
0.0527616
0.897804
-0.1671
0.5306
0.0211
0.471895
-0.4323
0.3128
0.327
-0.192
0.5684
-0.5883
0.7719
0.5394
-0.8122
0.291807
-0.224462
-0.698291
-0.345872
-0.727112
0.668416
0.929722
0.534796
-0.155199
-0.305603
0.154256
0.15015
0.113743
-0.621939
-0.87474
-0.386329
-0.507783
-0.337087
0.257734
-0.424698
0.546204
-0.577398
-0.3927
-0.6745
-0.3071
-0.1605
0.0234809
-0.299273
-0.866987
-0.73549
-0.311126
-0.973654
-0.816605
0.241483
-0.0859975
0.637828
0.414008
-0.0412351
0.781548
-0.018742
-0.675421
-0.971171
-0.806424
0.689549
0.297683
-0.246704
0.520964
-0.79139
-0.170846
0.832493
0.270374
0.685835
-0.14189
0.2432
0.40075
-0.0789211
0.396491
0.218002
-0.0799032
0.179111
0.870299
0.26249
-0.563659
-0.175104
-0.904085
0.21067
0.0923674
0.288856
-0.897203
0.241425
0.595629
-0.571349
-0.0459881
-0.704024
-0.989281
-0.00982791
-0.897387
-0.197491
0.800336
0.738679
-0.722882
-0.8466
0.327761
-0.509987
0.224135
0.110678
0.539251
0.284866
-0.795526
0.80111
-0.7165
-0.886702
-0.586113
-0.828598
-0.0398423
0.0358075
0.250877
-0.499333
-0.579811
1.09514
1.01109
-0.407862
-0.65766
0.914389
-0.175966
-0.876522
0.135531
-0.682468
0.262429
-0.2386
0.414596
0.112663
0.14636
0.105144
0.0454563
-0.313353
1.02036
-0.352052
0.464841
0.400602
-0.892079
-0.725592
-0.681797
0.183106
-0.848428
0.54863
0.906363
-0.587892
0.560746
0.76146
-0.1225
-0.339571
-0.12564
-0.399138
-0.829424
-0.329389
0.0309567
0.3431
-0.118601
-0.748358
-0.160801
0.922358
-0.44437
0.0473902
0.500348
0.714504
0.118536
-0.334962
0.486717
-0.934421
-0.756625
0.544859
-0.13509
0.183267
-0.712713
1.2208
0.925742
-0.411422
0.653043
0.297591
0.464917
0.760969
0.496957
0.48876
-0.365688
-0.4909
0.339577
-0.723234
-0.735693
-0.460264
-0.288801
-0.0394346
0.510939
0.687035
-0.0472017
-1.11439
-0.987998
-0.363828
0.713403
-0.687204
-0.193054
0.18745
0.583721
-0.668434
1.11573
-0.499822
-0.737079
0.377616
0.85349
0.142797
-0.581892
-0.173711
-0.2399
0.8326
-0.662901
-0.637002
0.0674993
-0.91704
0.509591
0.110593
0.813706
-0.477394
-0.205582
-0.169984
-0.332839
-0.999062
0.251448
-0.0136609
0.501804
-0.581262
-0.116642
0.149471
0.556269
0.587973
0.374067
-0.670255
0.181204
0.0277092
-0.980563
0.589956
0.837
-0.4986
0.961611
0.639389
0.0142553
-0.232901
0.544768
0.192212
0.0294285
0.589689
-0.335113
-0.522016
-0.703215
-0.73915
0.224824
0.895449
-0.194843
0.125191
0.348736
0.503721
0.119092
-0.616895
-0.000260561
0.95939
1.24823
0.744182
-0.216684
0.90624
-0.241178
-0.2296
0.0603407
0.451586
-0.0655406
-0.301788
-0.694567
-0.0671332
0.578096
-0.634346
0.711774
-0.809404
0.179568
0.668318
-0.590017
-0.359341
-0.404076
0.246038
-0.464119
1.4394
0.361018
-0.754826
-0.513494
-0.195009
-0.639095
-0.371293
-0.146053
0.513133
0.524289
0.7605
0.955563
0.621685
-0.214087
0.230594
-0.446827
0.713512
-0.568825
0.443632
-0.0845615
-0.55878
-0.859437
0.61046
0.786842
-0.17996
-0.352741
-0.467353
0.288839
0.656907
0.105841
0.230458
-0.228344
0.472693
0.199071
1.07854
0.838726
-0.0617604
-0.4921
0.1173
0.1312
-0.55537
0.503939
0.00290564
-0.400657
-0.199732
-0.338788
0.0912552
-0.0886952
-0.132996
-0.767482
-0.676099
-0.17562
0.640294
0.795748
0.94126
0.295177
-0.584955
0.509233
0.717902
0.547684
0.121616
0.618149
-0.74049
-0.0849634
-0.533743
-0.5587
-0.5573
0.445352
-0.341551
-1.12679
0.617097
-0.926675
0.385517
0.411037
-0.784847
-0.373264
-0.248582
-1.00183
-0.173909
0.641185
-0.855327
0.408518
-0.653046
0.220084
-0.67007
0.107267
0.221836
0.829
-0.461489
0.817604
-0.15178
0.101806
-0.312661
0.260202
0.1975
-1.01247
-1.21789
-0.276812
-0.692084
-0.214492
0.0194207
1.01082
-0.505869
-1.2534
-0.819605
-1.54596
-1.24514
0.0760647
-0.900981
-0.870856
-1.04004
-1.15864
0.256773
0.75097
-0.524053
0.606254
-0.481719
-0.81676
-0.403044
-0.839889
0.656026
-0.2079
0.4342
-0.247824
0.583337
0.828922
-0.223941
-0.369145
0.63772
-0.191953
0.72089
-1.12265
-1.63828
-1.4286
-0.8895
-1.52644
-1.0172
-1.07018
-1.68809
-1.13131
0.500221
-0.408593
0.64906
0.349233
-1.01362
-0.0344984
0.844734
-0.206352
0.0233999
0.028799
-0.563695
-0.698716
0.13971
0.854859
-0.319735
0.509148
-0.364611
0.63136
-0.00285679
0.816432
-0.163789
-0.36243
-0.998816
-0.521859
-1.14618
-0.658265
-0.832901
-1.41724
0.455614
1.23068
0.113452
0.421286
0.626125
-0.532758
0.635985
0.115079
0.243292
0.8966
0.390426
-0.567405
-1.26778
-0.882006
0.175943
0.551403
0.28072
1.39882
-0.00424724
-0.00653503
0.422822
-0.923213
-0.83142
-0.996013
0.307186
0.174597
0.289495
0.783597
0.242959
-0.462011
0.417242
-0.354444
0.470094
0.324118
-0.879417
-0.765141
-0.0637127
-0.895132
-0.459681
0.656624
0.0765753
-0.521356
0.881371
-0.51733
0.256156
1.24811
0.195247
1.2178
-0.193344
-0.553555
0.489394
-0.89001
-0.372053
-0.637975
-1.05889
0.00374882
0.721138
-0.0803036
-0.503798
0.522823
0.850955
-0.619843
0.624455
-0.0216068
-0.581684
-0.369344
0.238034
0.557683
-0.358834
-0.517347
0.000702977
-0.357227
-0.745164
0.447919
1.01193
0.204374
-0.225096
0.803792
-1.03642
0.634458
0.38328
-0.826419
-0.0860108
-0.157161
0.314614
-0.688309
0.630228
-0.70549
0.8536
-0.0969209
0.315186
0.912673
0.321025
-0.2979
0.4749
0.773704
0.0867815
-0.946283
0.269355
0.161337
-0.176973
0.0332315
0.885555
0.226225
-0.129118
0.0860813
0.669119
-0.970147
0.0278876
0.168479
-1.18761
0.621792
0.246214
0.18859
0.26616
-0.365606
0.69857
0.692723
-0.660185
0.916815
-0.339501
-0.1209
-0.1529
0.346765
0.171877
-0.0829503
0.381142
0.123868
0.881473
-0.341895
0.669498
0.678001
0.385833
0.476376
-0.101303
0.608018
-0.392961
-0.0865741
0.380388
-0.610812
-0.299659
0.224765
-0.180905
-1.13385
0.636112
-0.290245
0.0245664
0.188208
0.437932
0.4153
-0.259798
-0.555829
-0.212043
-0.0768979
-0.963849
0.710576
0.459027
0.0561809
1.19678
-0.27213
0.142265
-0.144153
-0.495417
0.751932
-0.354323
-0.857788
0.559514
-0.19895
-0.485295
0.229407
0.770676
0.610829
-0.374066
-0.357494
-0.508499
0.498517
-0.60785
0.8282
0.337512
-0.385681
0.382064
-0.699211
-0.492201
0.314082
0.498243
-0.528058
0.021669
-0.741475
-0.0107447
0.201196
-0.219113
0.509073
-0.371111
0.238312
0.321197
-0.810486
-0.204006
0.595688
-0.755778
-0.249749
1.00069
-0.635569
0.892289
0.646661
-0.861929
-0.6411
-0.993621
-0.775521
0.204756
-0.0174353
-0.383912
-1.00334
0.875989
-0.7815
0.500362
1.23572
1.22628
0.906264
-0.302958
0.930659
0.437059
-0.243835
0.201067
-0.434169
-0.653994
-0.0892244
-0.4372
0.864624
0.581831
0.566505
0.472775
-0.0458909
0.858596
0.2961
0.100876
0.851758
-0.786935
-0.953043
-0.628914
0.346692
-0.447247
0.238511
0.766913
-0.570357
-0.303028
-0.399496
-0.603981
0.551015
-0.719258
-0.192725
-0.316635
0.483103
0.373399
0.5758
-0.866635
0.61525
0.667102
0.591769
0.0147471
-0.0126564
0.366679
0.5972
0.295532
0.896123
0.894779
-0.309997
-1.09769
-0.460176
0.295453
0.521798
-0.691607
-0.126804
0.221646
0.06088
-0.80832
-0.195697
0.863705
0.771082
0.684673
-0.83225
0.201939
-0.383027
0.160858
-0.90375
-0.393374
-0.252422
-0.945666
-0.0976081
0.359581
0.9593
0.85011
0.595867
0.144201
-0.513121
0.940133
0.14325
0.423362
0.610561
-0.827099
-0.0698683
-0.584662
0.485996
0.451463
0.94826
-0.444946
-0.184843
0.15439
-0.274571
-0.387085
-0.462424
-0.712735
-0.860927
-0.452891
-0.145574
-0.255243
-0.598689
0.325847
-0.9551
-0.0246
0.8767
-0.1372
0.488376
0.343304
-0.53801
-0.390056
-0.183008
0.500905
0.429431
0.46963
-0.0701
-0.583302
-0.533926
-0.581626
0.703574
0.804194
-0.361599
-0.9873
-0.64
-0.3366
-0.784274
0.325888
0.6216
-0.0476
-0.7179
-0.8628
0.6063
0.5217
0.6569
-0.8411
0.4153
0.306878
0.220772
0.687941
0.407654
-0.47667
0.428476
0.656998
0.672449
0.525727
-0.305391
0.259677
0.798763
-0.133228
-0.368987
-0.705472
-0.449698
-0.953657
-0.202386
0.0688991
-0.690899
0.5879
-0.2146
0.8553
-0.8029
-0.6573
-0.875106
-0.947902
0.382463
-0.789151
0.281394
-0.110956
-0.706328
-0.497451
-0.834581
-0.968719
-0.902373
-0.165005
0.267648
0.606342
0.76505
-0.694186
0.452505
-0.149202
-0.000484813
0.298392
0.694366
-0.898069
0.288368
-0.138258
0.715276
0.342701
-0.4186
0.5156
0.568093
-0.164169
-0.08539
-0.366098
-0.638977
-0.113016
-0.163239
0.437
-0.675104
0.586893
0.950718
0.815766
-0.353978
0.657418
-0.82863
0.848395
0.674069
-0.602314
-0.151928
-0.789596
1.0705
0.412042
-0.199717
-0.886884
-0.00628255
-0.551181
-0.831261
-0.3206
0.0416205
0.97126
0.801449
0.627644
0.836268
0.42234
-0.171397
0.659506
0.928832
-0.0275239
-0.944185
-0.719401
-1.27739
-0.232839
0.589824
-0.620404
-0.150243
0.618645
0.871018
0.90591
0.514171
0.735737
0.357679
0.672466
-0.836253
-0.140851
0.127677
0.1241
0.457629
-0.122199
-0.707027
-0.501254
-0.377646
-0.284314
-0.643534
0.648972
0.987154
0.219867
0.0184095
-0.884395
-0.736395
-0.761174
0.252252
0.107879
0.0749459
0.711875
1.25861
0.798759
0.610944
1.09259
0.692926
-0.907158
0.622512
0.0184238
-0.336308
-0.7273
0.849041
-0.173626
-0.827423
0.522846
0.613301
-0.984268
0.550917
0.609623
-0.888201
0.462961
-1.02268
-0.367566
-0.310581
0.217498
0.34454
0.264621
0.920806
-0.215697
0.478799
-0.375148
0.497342
0.801537
-0.419466
0.334509
-0.672499
0.0774271
0.43123
-0.2888
0.912717
0.901529
-0.551562
0.261572
0.757982
-0.0737057
-0.477522
-0.438624
-0.0506949
-0.730345
0.875087
-0.401643
-0.965432
-1.01574
0.75858
0.172607
-0.381775
1.31174
-0.0390327
0.696418
0.692153
-0.272071
0.285793
-0.657344
-0.36386
-0.263854
0.046
0.7359
-0.170032
0.779954
0.903314
-0.319295
-0.65524
-0.0168349
0.37454
-0.0694279
0.0693687
0.0607987
0.322435
0.693944
-0.682123
-0.754422
0.177832
0.911346
0.0419554
0.0510604
0.565695
-0.106035
-0.212267
0.307649
-0.478261
0.660251
0.176049
-0.918263
0.1652
-0.248
-0.583923
-0.0431073
0.62361
0.497048
0.635228
0.504147
-0.765547
0.575932
0.277556
0.127828
-1.41119
-0.761783
-1.21219
0.786366
0.711706
0.0927487
0.814209
-0.177361
0.526266
1.52659
0.585282
0.231055
-0.415641
0.4251
-0.821434
-0.815799
-0.919481
0.9958
0.969314
-0.515493
-0.690371
-0.0221968
-0.739689
-0.560053
-0.115154
-0.949749
0.275799
-0.408241
-0.0869573
-0.842868
-0.917857
-0.30331
1.21887
0.280359
0.0169129
-0.108783
0.391766
-0.329011
0.53679
0.079314
-0.585301
0.115032
0.556516
0.36504
0.0283248
0.0072
-0.548488
0.675007
0.721618
0.553981
-1.17543
0.322217
0.201085
-0.006101
0.113483
-0.517503
0.340803
-0.697235
0.00752059
-0.00481163
0.73554
-0.37559
0.418656
0.442483
0.443251
0.0211315
-0.465053
0.978526
0.657047
-0.452722
-0.929226
0.624089
-0.5374
0.3991
-0.783988
-0.00342875
0.688334
0.358027
0.349892
-0.259528
0.234588
0.679456
-1.00164
0.381597
-0.945939
-0.157877
-0.629893
-0.0586636
0.0177253
0.313585
0.384003
0.643581
-0.00350321
0.472895
-0.221845
-0.589272
0.0559881
-0.58827
-0.042397
-0.119328
0.5328
-0.3904
-0.0675263
-0.797362
-0.780218
-0.796148
-0.17251
-0.550211
-0.660189
0.463502
0.428279
-0.289425
-1.0296
-0.66735
0.58814
0.248224
-0.246666
0.393814
-0.369612
0.402593
0.581413
0.348913
0.798602
-0.479095
0.0816788
1.06562
-0.253626
-0.194266
-0.33357
0.206
0.599856
-0.404836
0.263499
-0.0901837
0.865051
0.475518
-0.344528
-0.508045
0.315062
0.430236
-0.266071
0.171697
-0.171353
1.07508
-0.558778
0.278772
-0.150509
0.223536
-0.154909
-0.405123
0.167714
-0.42706
0.0143157
-0.205649
-0.0795615
-0.720041
-0.2236
-0.0498832
-0.475033
0.229986
-0.0618564
-0.132649
-0.757449
-0.406684
0.375121
-0.350506
-0.920045
-0.377224
-1.433
-0.673833
-0.311117
-0.423734
0.409783
0.572208
0.647686
-0.232788
0.763655
-0.233534
0.137076
-0.152451
-0.341212
-0.681787
-0.450973
0.396242
0.0895864
-0.877053
0.566047
-0.661162
0.713372
0.461334
0.477715
0.353663
-0.0715546
-0.338277
0.540419
-0.136571
0.241427
-0.287845
0.745626
-0.780986
-0.880493
-0.186301
0.300709
0.848103
0.112226
0.539605
-0.346414
0.775909
0.56564
0.790561
-0.297407
-0.0662107
-0.709584
0.649857
-0.230109
0.842599
-0.863281
-0.566141
0.706666
-0.0280523
-0.279162
0.330528
-0.108234
-1.11559
-0.328671
-0.869593
0.6175
-1.22412
0.0681924
0.849985
0.993936
0.757031
0.430908
0.494712
-0.555278
-0.00607283
0.577692
0.0107631
0.0358391
-0.237223
0.190655
-0.660001
0.42305
-0.651836
0.328936
-0.389723
-0.208784
0.0695366
-0.46477
0.425499
0.173623
-0.693612
-0.2863
0.141585
-1.1556
0.297115
-0.201763
0.756315
1.5527
0.986003
0.149574
-0.290302
-0.825
-0.727446
-0.836443
0.102331
-0.786114
-0.8617
-0.434189
-0.715499
-0.935598
-0.859608
0.493186
0.452485
-0.0389743
0.478489
0.000721202
-0.217717
-0.253927
0.266972
-1.04054
-0.600583
-0.579099
-0.537123
0.256147
1.40751
0.84964
1.2029
0.0998364
0.685887
0.423819
0.531503
0.425598
-0.218774
0.615521
0.265852
0.3973
-0.2661
-0.563828
-0.55861
-0.912046
0.206089
-0.730757
-0.171513
0.34413
0.605553
-0.374957
0.428446
-0.691524
-0.216674
-0.00870322
1.03711
1.63284
1.44637
0.257236
0.206868
-0.0797028
-0.358005
1.18696
-0.339469
-0.305911
-0.142562
-0.657834
0.861485
0.926
0.9311
0.861877
0.101235
0.499434
0.636592
0.0941754
0.250494
-0.843556
1.08318
0.722451
-1.26202
-1.06534
-0.82268
0.085158
-0.0702816
1.0788
0.917203
0.0746453
-0.35652
-0.442762
0.927281
-0.147627
-0.376971
0.401478
-0.559119
0.839138
0.521771
-0.047
0.928886
0.747375
-0.680016
0.0484184
-0.380745
0.671081
0.220509
0.749014
-0.499274
-0.779591
0.0452233
-1.26571
0.301662
-0.584764
1.28967
0.470527
0.993416
1.11592
0.498737
-0.0188912
0.75893
-0.0400943
0.447465
-0.00179791
-0.752799
-0.537322
0.833327
0.4185
-0.48847
0.0282803
-0.421935
0.0649805
0.25064
-0.142721
-0.179869
-0.217486
0.283708
-0.878912
0.142283
-0.693395
0.0551952
0.933331
1.05787
1.28701
0.6354
0.302872
-0.0429993
0.525898
0.460336
-0.0196734
0.517836
0.401437
0.80812
-0.559643
0.248685
0.7
0.344024
0.736306
-0.903174
0.0932211
0.876684
0.271971
1.16011
-0.288105
0.781761
-0.942401
-0.559178
-0.698926
0.908701
0.133012
0.762732
0.223455
0.608371
0.433757
0.855834
-0.583242
-0.284693
0.571585
-0.0128096
0.722531
-0.755584
-0.485436
-0.322175
-0.8515
-0.449458
-0.52955
0.0331516
0.753114
-0.0906677
-0.415528
-0.106321
0.56903
-0.223331
-0.568133
-1.10702
-0.568761
0.442298
0.155684
1.14489
-0.300946
0.914373
-0.273737
0.743812
-0.656463
0.150588
-0.175915
0.376883
-0.938656
0.20332
-0.878464
0.40937
0.9264
-0.428775
-0.924318
-0.165382
0.581664
-0.457021
0.112216
0.803585
-0.151557
0.685654
-0.962043
-0.495106
0.149116
0.618456
0.899852
-0.801155
-0.357646
-0.544873
0.885465
-0.337884
0.49908
-0.133195
-0.499056
0.927797
0.188322
0.0862418
-0.479101
-0.635026
0.1667
-0.6401
0.690271
0.66635
0.499266
-0.884439
0.170289
-0.139097
-0.426759
0.00476767
-0.907899
0.301764
-0.957319
0.914522
0.135049
0.0185495
-0.280213
-0.0563093
0.28496
0.940814
0.322647
0.993451
-0.697662
-0.881957
-0.362595
-0.198296
0.435329
0.100564
0.2131
0.0819
-0.6148
-0.898
-0.740444
0.296834
0.14584
-0.272293
0.909492
-0.907899
-0.244318
-0.407542
0.3649
-0.11309
-0.310769
0.600731
0.472826
0.744831
-0.355401
0.3167
-0.9733
-0.6305
0.992249
-0.9143
0.4885
0.0579
0.578
0.7681
0.9849
-0.9785
-0.3936
0.8019
0.717097
0.0684376
-0.953512
0.0168911
0.371535
-0.452503
0.524308
-0.471276
0.22141
-0.362798
0.292313
-0.304138
-0.492386
-0.534754
-0.88045
0.719545
0.447964
-0.310745
-0.75291
-0.0267339
0.261405
0.510302
0.211
-0.3957
0.9776
0.3551
0.668373
-0.0270999
0.391082
0.29572
0.346427
0.891328
0.272307
0.336225
-0.606397
0.757126
-0.931938
-0.303608
0.12776
-0.963616
0.0321834
0.384125
0.220785
0.299038
-0.202932
0.115067
-0.660524
-0.480651
-0.733819
0.0952298
-0.724401
0.145324
-0.736996
-0.1987
0.967135
-0.446104
-0.788191
-0.372453
-0.147389
-0.684596
-0.753317
-0.344084
-0.126798
0.860284
-0.0791253
-0.403173
-0.126541
0.402333
0.826614
-0.44583
-0.061884
0.550957
-0.540574
0.48297
0.899868
0.706111
0.870853
-0.145859
0.0599745
-0.758066
0.0876517
-0.8885
-0.105534
-0.278815
-0.757125
-0.938393
-0.64912
0.140765
-0.126267
0.143247
0.588856
0.974552
0.382192
-0.635787
0.0515819
0.249582
0.744665
0.399746
0.39524
0.392394
0.691008
0.00292416
-0.30865
-0.340269
-0.469014
0.886602
-0.281797
0.156593
-0.988234
0.5558
0.93844
0.724659
0.762648
-0.0429339
0.867618
-0.720117
0.198014
0.64224
-0.384374
-0.240257
-0.0744518
-0.47594
-0.81758
-0.0127701
0.763044
-0.561133
-0.323734
-0.305908
-0.472931
0.045195
-0.438703
0.118563
0.365973
-0.781327
1.00618
-0.208092
0.160812
-0.5242
-0.919087
0.579704
0.772951
-0.952711
0.271463
0.593593
0.238131
0.557496
0.115214
0.8891
0.255452
0.767919
0.864548
-0.738027
-0.361419
0.681427
-0.340504
0.417887
-0.715639
0.232502
0.846024
-0.108616
-0.500436
-0.532352
0.41711
-0.71828
0.773001
0.9613
0.72321
-0.658938
-0.555202
-0.00642167
0.0251915
0.181406
1.06482
-0.574971
-0.640869
-0.379102
1.00008
-0.520446
-0.520639
0.355674
0.330019
-0.66721
0.18245
0.299664
0.5407
-0.55162
-0.687758
1.08645
-0.443596
0.695165
0.705152
-0.0357918
-0.1412
0.7958
-0.66599
0.873996
0.2519
-0.307179
-0.518098
-0.774631
0.355261
0.597959
0.873414
-0.859211
0.797809
0.0135821
1.00773
-0.137689
0.200857
0.708973
-0.339995
0.704972
-0.235021
0.515071
0.368396
0.00516459
-0.346188
0.0905584
-0.0302295
-0.728056
-0.5737
-0.539
-0.250985
-0.127985
-0.339142
0.365212
0.517758
-0.477117
0.040544
0.961133
-0.168379
0.385083
0.982851
0.439592
0.266279
-0.455141
0.451425
-0.948128
-0.565092
-0.215524
-0.713146
-1.04344
-0.00908135
-0.38219
-0.191506
-0.431063
0.962332
0.201121
0.886806
-0.2935
-0.835935
0.858514
0.060573
-1.0138
-0.289331
-0.853004
0.979239
-0.763357
0.939106
0.431383
0.898743
0.567341
1.13237
0.441347
0.857098
0.0496407
-0.321151
0.404846
0.67037
0.439493
0.686283
-0.830516
0.486024
-0.064082
0.0435674
-0.382712
0.430276
0.6533
-0.643891
-0.238813
-0.702508
-0.572227
-0.961638
-0.669172
-0.265912
0.383607
-1.04775
0.236942
1.27116
0.837902
-0.152666
0.260423
-0.258215
0.388903
0.358975
-1.09774
-0.605432
-0.710753
-0.570348
-0.397125
-0.0959875
-0.0993641
0.47792
0.888363
-0.7341
0.7761
-0.622957
-0.565453
-1.05956
-0.564235
-0.627441
0.28536
-0.816267
0.463077
0.0926648
0.599369
1.09397
0.659248
0.417225
1.23813
0.210049
0.563043
0.842653
0.711892
0.678831
-0.643942
0.164334
-0.103265
-0.116417
0.291447
0.452973
0.610046
0.9808
-0.7799
0.655742
1.01304
-0.770099
-0.1452
-1.09897
-0.703591
-0.278163
-1.33664
-0.397951
-0.786943
0.74645
-0.470197
0.834405
1.51619
-0.342534
1.17012
0.521073
0.909514
0.00213581
-0.43673
0.459045
-0.475947
-0.602155
0.891411
-0.334072
0.917529
0.2249
0.1492
-0.0361695
-0.0166141
0.389991
-0.0788062
-0.262304
-0.429867
-0.383382
-1.2712
-0.304276
-0.937338
-0.507359
0.820759
0.340297
1.43716
1.25482
1.13086
0.182877
0.674224
-0.223641
-0.120727
0.553347
-0.259057
0.224767
-0.819512
-0.664406
-0.167903
-0.1374
0.585031
0.316394
0.471199
-0.341506
-0.791465
0.296785
-1.06991
-0.999834
-0.2248
-0.503945
-1.08744
0.443514
1.11958
0.135429
0.924303
1.085
1.49377
0.197034
1.30054
0.0245027
-0.155994
0.0620005
0.151438
0.300962
0.271772
0.656054
0.0883016
0.827185
-0.840482
-0.682201
-0.0959855
0.395909
0.00253766
0.311885
-1.08177
-0.963112
-1.31998
-1.46511
-1.25223
0.328944
0.846172
-0.224171
0.294277
-0.126854
0.216875
-0.456731
0.867031
0.510625
-0.15578
-0.300365
0.356441
-0.0901501
0.981564
-0.0628722
0.150246
0.21062
0.666557
0.90185
-0.183324
-0.479503
-0.651946
-0.548863
0.428303
-1.11349
0.552453
-1.21786
-1.03489
-0.737831
0.419196
0.838892
-0.0470651
-0.5489
-0.0655345
0.563539
0.518951
-0.424878
-0.346349
-0.369195
0.931048
0.664609
-0.816932
0.933348
-0.426318
-0.500275
0.796037
0.757705
-0.278788
0.738416
-0.812725
-0.115616
0.415793
0.254046
-0.0365125
-0.460849
-0.790061
-0.716281
0.741608
0.820504
-0.400296
0.297123
0.18895
0.136
0.231984
-0.692021
-0.148319
0.260654
0.634433
0.316569
1.03633
-0.823967
0.217248
-0.253841
0.702482
-0.379952
0.348835
-0.584196
0.383233
-0.0942561
-0.261996
-0.484243
-0.334543
-0.923292
-0.627022
0.368532
0.750184
0.127042
-0.149155
0.30555
0.694371
0.377674
-1.1043
0.133007
-0.568407
0.465905
-0.996958
-0.0514702
0.187336
0.249598
0.204125
0.9486
-0.8744
0.377124
0.61121
-0.504864
-0.202394
0.0491118
-0.163255
0.22325
-0.801182
-0.378213
