ODFQMVNQHVIBYT
784 100 26 
-0.4029
-0.0857
-0.8803
0.7212
-0.232243
-0.794949
-0.340873
-0.979471
0.438858
0.202733
0.0483645
0.0482525
0.43704
0.685412
-0.761359
-0.923489
-0.456258
-0.336916
0.163548
0.440559
-0.663038
0.375874
-0.714071
-0.558398
0.0915011
-0.638
-0.4693
0.0995
0.5504
-0.263384
-0.698868
0.125075
0.39693
-0.237019
0.401383
0.362284
-0.325408
0.803138
0.0746754
-0.986027
0.74496
0.273831
-0.640278
0.961516
-0.028447
0.704136
-0.0914634
-0.348352
-0.788985
-0.827875
0.30627
0.227116
-0.292558
-0.363583
0.279846
-0.21908
0.1749
0.57154
-0.555601
-0.912969
-0.51902
-0.771971
0.580281
-0.0867986
-0.426618
0.836025
-0.0993385
0.469492
-0.305803
-0.37523
-0.37109
-0.177003
-0.700391
-0.435278
0.720712
-0.707339
0.306153
-0.036665
0.867671
0.289009
0.0531018
-0.836774
0.450576
-0.774949
-0.2566
0.916662
0.148764
-0.387596
0.148262
0.924178
-0.462571
0.730866
-0.0763138
0.0580361
1.22164
-0.00761119
0.817264
0.341644
-0.116886
0.0307107
1.11857
-0.63992
-0.498569
-0.533024
-0.476637
0.533658
-0.579133
-0.634394
0.0827789
-0.58129
0.14395
0.23718
-0.9419
-0.84141
0.687373
0.265601
0.331305
-0.0674232
-0.852434
-0.492144
0.429155
-0.0248944
0.786899
0.576209
0.585371
1.46645
-0.00880875
0.829334
0.100863
-0.200003
-0.734476
-0.375954
-0.76862
0.291919
0.556965
-0.578305
-0.493891
-0.316179
-0.228466
-0.92985
0.683
-0.199762
0.2989
-0.353887
-0.509423
0.476772
-0.03832
0.502631
0.141689
0.436236
-0.490053
0.62013
0.222912
1.42997
0.827833
0.958427
0.88875
0.347181
0.426965
-0.661567
-0.317025
-0.697502
-0.239595
-0.63493
-0.380814
-0.438794
0.188156
0.626408
0.7934
0.473699
0.287199
-0.605675
-0.341228
0.1832
0.315243
-0.0380432
0.483589
0.173996
0.0618136
-0.623481
-0.120052
1.4626
0.672184
1.06868
1.09082
1.02076
-0.225301
-0.417387
-1.04632
0.481332
0.0283297
-0.775073
-0.683555
-0.967264
-0.0154606
-0.9197
-0.9875
-0.106183
0.557423
0.797933
0.679866
0.398064
-0.315563
0.0380639
0.520083
-0.449102
0.629397
0.918998
-0.563298
-0.445854
0.819081
1.07634
0.46061
1.18098
0.801211
-0.563818
-0.344614
0.146901
0.0852884
-0.992989
0.314425
-0.479587
-0.423913
0.2251
-0.5973
-0.450621
-0.206563
0.218828
-0.0858746
-0.381898
-0.441904
0.308059
-0.511951
0.108625
-0.340479
-0.197918
-0.0479228
0.536639
-0.187567
0.630902
-0.127921
1.18303
0.384231
-1.02348
-0.715522
-0.970944
-0.208214
0.190374
-0.00219072
-0.315095
0.224427
-0.781355
-0.125
-0.188329
-0.561373
-0.847692
1.09906
-0.323521
-0.135517
0.469789
0.989068
0.694298
0.441235
0.103215
-0.365881
0.546204
0.248093
0.63927
0.863199
1.1939
0.925274
0.17869
0.0294296
-0.934891
0.0678202
-0.768834
0.125881
-0.497101
-0.712516
0.670312
0.454
0.444715
0.440552
0.60008
0.268493
-1.04484
0.811029
0.43132
0.362829
0.130226
0.530058
-0.520746
-0.763972
-0.0283632
-0.144971
-0.437692
-0.491874
-0.0940262
-0.512727
0.507661
0.618582
-0.351418
0.211754
-0.184276
-0.637624
-0.993206
0.262025
-0.2254
-0.163
0.262539
0.446064
-0.589402
0.283783
0.744071
-0.609463
0.052994
1.01225
-0.951955
-0.378989
-0.0683572
-0.424673
-0.502752
-0.672194
-0.328971
0.40719
0.94078
0.345609
-0.12488
-0.37057
0.626489
0.558244
-0.254698
-1.0407
-1.6784
0.75658
-0.7093
-0.6337
0.904403
0.192818
-0.372303
0.377397
0.20172
-0.390703
-0.0283543
-0.562162
-0.6655
-0.748603
-0.562184
0.132079
0.361491
-1.061
-0.840063
0.140427
0.0302333
0.469111
0.415894
0.11443
-0.0953721
-0.697406
-1.03248
-0.426086
-0.86855
-0.404316
0.342207
-0.749
0.0715113
0.0803988
0.65523
0.713507
-0.135401
0.803421
-0.0882254
-0.816385
0.340546
0.437053
-0.681605
-0.252059
0.347716
0.204795
-0.138641
0.19688
-0.206641
1.17284
-0.707383
0.203523
0.42018
-0.837599
-0.858577
0.0296278
0.604161
-0.400055
-0.0347
0.517623
0.503703
-0.537628
0.729294
-0.0551978
-0.0909404
-0.0380278
0.460647
-0.125322
-0.0268478
0.363798
-0.355013
-0.54712
-0.735955
-0.264382
-0.528086
0.701314
-0.257916
0.431476
0.825674
0.717817
-0.0275307
1.1226
0.130797
-0.916594
-0.515867
-0.957258
-0.913669
-0.385837
0.82716
1.04425
-0.0550065
0.123949
0.705449
0.10356
-0.0454553
-0.133911
0.221962
0.674518
-0.740857
0.658142
0.651096
-0.215693
-0.562079
0.10012
-0.109095
0.07527
-0.194358
0.313344
-0.265724
0.219123
1.24566
-0.277782
-1.06832
0.163486
0.793917
0.56667
-0.587394
0.166963
0.792959
0.991983
0.62677
0.506192
-0.848956
0.471408
-0.233194
-0.582566
-0.741443
-1.07311
-8.07881e-05
-0.156571
-0.641197
-0.686424
-0.825479
0.164746
-0.273427
0.279823
0.362056
-0.261183
-0.454513
-0.394947
0.036742
-0.737287
0.626989
0.823126
-0.78208
-0.691612
0.0190938
-0.701583
0.234915
-0.552744
0.0493042
0.413826
0.398736
-0.249942
0.121901
0.302966
-0.914357
-0.127921
-1.08433
0.233367
-0.567493
-0.0849988
0.0299691
-0.359522
0.837532
0.350852
-0.10461
0.306333
-0.493944
-0.125052
-0.35045
0.890302
0.702516
-0.0231874
0.290926
1.34138
-0.161883
0.180999
0.0389938
0.457508
0.251584
0.858196
0.264019
-0.528067
0.391333
-0.251495
-1.13057
-0.986927
-0.988237
-1.03792
0.40556
-0.245257
0.31352
-0.358566
1.38675
0.0667975
0.498742
-0.843666
-0.9328
0.4797
0.902592
-0.123403
-0.392307
-0.664227
1.051
-0.382114
0.897952
-0.705926
-0.490033
0.996869
0.93653
0.226305
-0.0403651
1.07218
-0.215089
0.428819
-0.324195
0.0876553
-0.905096
0.236851
-0.139532
0.274473
0.343845
-0.238955
-0.293953
-0.492869
0.0356
-0.6963
0.543053
0.538007
0.940143
-0.650722
0.284944
0.265826
-0.600077
-0.186111
0.939308
0.432111
-0.0911391
-0.650734
0.778008
0.297462
0.137812
-0.307102
0.685438
-0.939371
0.0107029
-0.0891394
-0.386847
1.0532
1.28552
0.144561
0.804643
0.157858
-0.5277
-0.836682
0.605912
0.500132
-0.772279
0.23325
-0.0643606
-0.223034
-0.0889748
-0.591277
0.733088
0.154372
0.147015
0.720082
-0.0467324
0.918038
0.562721
0.549682
0.559898
-0.648173
0.605576
0.658618
0.335819
1.23973
-0.284944
-0.354394
-0.160256
-0.58423
0.7687
-0.155392
-0.984488
0.0401947
-0.24324
-0.473408
-0.113144
-0.803494
1.03975
-0.390623
-0.267761
0.0386151
0.985074
0.587852
0.780508
0.919422
0.742658
0.887038
0.818945
0.993581
0.673952
-0.359125
1.33251
0.871933
0.467606
0.29872
0.0415761
-0.908472
-0.5111
0.888647
-0.264063
-0.498898
0.865278
0.981042
-0.168149
-0.272429
-1.09147
0.825005
0.740683
0.0183694
0.317266
-0.0470394
1.35958
-0.624365
1.20948
-0.528626
0.273515
0.929163
0.166607
-0.373068
0.786383
-0.738765
0.273139
1.03652
-0.297795
0.708355
0.6599
0.788252
-0.507747
0.28361
0.315639
-0.982352
0.154838
-0.43467
0.00838591
-0.150324
-0.446979
0.534216
0.2058
0.108026
0.119089
1.08484
-0.00151607
-0.242014
0.679222
0.584629
1.23948
0.309199
-0.131153
1.06527
-0.218127
-0.187033
-0.421902
0.516221
0.5299
-0.660653
0.8353
-0.258394
-0.276134
-0.731666
-0.373628
0.38147
-0.515589
-0.755161
0.89768
-0.42056
0.464253
-0.139407
-0.207802
-0.453664
1.10196
-0.182226
-0.587421
-0.388701
0.668485
-0.495403
-0.77776
0.054031
0.515283
-0.22676
-0.230455
0.161395
-0.5788
0.91282
-0.966313
0.385362
-0.912921
0.698287
-0.868016
0.867909
0.748664
0.385438
0.384666
0.683094
-0.656523
0.562627
0.563228
0.754461
-0.563805
0.808262
-0.287586
0.918202
0.568858
0.336502
0.16823
-0.895321
0.646774
-0.373244
-0.848923
0.0897191
-0.0761
-0.177
0.0283
-0.4221
0.945181
-0.0631613
0.430238
0.936724
0.192361
0.721435
0.717074
0.497696
-0.2297
-0.0665986
-0.476682
0.704718
0.567818
-0.558896
-0.0330006
0.8709
0.8006
0.9951
-0.258661
-0.934195
0.2035
-0.5481
-0.0752
-0.8567
0.1687
-0.0065
-0.4424
-0.9037
-0.522198
-0.252357
0.272976
-0.166669
-0.201991
0.0579776
-0.598998
-0.067253
-0.359569
-0.0286873
-0.841062
-0.316152
-0.956589
-0.724578
-0.88319
-0.745381
-0.255848
0.638913
0.530604
-0.288801
-0.4596
-0.8239
0.4574
0.5801
-0.8423
0.3512
0.376815
0.338343
0.456453
0.932433
-0.637343
0.299112
0.393233
0.634406
0.365987
-0.887067
0.633855
0.415312
-0.988465
0.0032989
-0.638202
-0.0333753
-0.663981
-0.430309
-0.923908
0.62991
0.981373
-0.857274
-0.75501
-0.941272
0.953037
0.110654
0.3605
-0.3648
-0.937904
-0.151709
-0.508033
0.631563
-0.481281
0.28859
-0.322958
-0.819453
-0.855326
0.229529
0.443654
0.897074
-0.367405
0.724206
-0.67711
0.45448
1.08848
-0.671192
-0.248959
-0.832971
0.298699
0.878473
0.748492
0.533258
0.644558
0.543235
0.328565
0.2781
0.590763
-0.199511
0.0310647
-0.315207
-0.923829
0.598565
0.352993
0.316398
0.200424
0.681857
0.258818
-0.730691
-0.430634
1.06973
0.726441
-0.0748044
0.39198
0.393099
0.793117
0.492967
0.562805
0.00713374
0.13133
0.432809
-0.745825
-0.503969
-0.259626
-0.59
0.397932
-0.434173
-0.29798
-0.46688
0.642286
0.611991
-0.394283
-0.342983
0.941319
-0.12567
-0.348991
1.07242
0.210838
-0.169403
-0.848935
0.732338
1.25766
0.713856
0.418577
-0.368513
0.269159
0.690416
0.0487695
-0.333476
0.987336
0.168036
-0.728684
-0.5404
-0.317268
-0.570525
-0.986105
-0.516328
-0.0930712
0.326242
0.330307
-0.603916
1.09387
-0.798415
-0.13067
-0.477765
0.298857
0.148483
-1.00809
0.395035
-0.616046
-0.0500424
1.05463
0.195896
0.657751
-0.28365
0.619485
0.825116
0.482402
0.856509
0.374938
-0.5749
0.77974
-0.177578
-0.515949
0.332594
0.103835
-0.298198
-0.606281
-0.11243
-0.466675
-0.757869
-0.327663
0.296998
0.179709
-1.00853
0.44825
0.456263
-0.217177
-0.194027
0.0858239
0.995947
-0.431795
-0.349717
0.890942
0.219317
-0.551845
0.0905771
0.8408
-0.2183
-0.259729
0.976468
0.308877
-0.329
0.0770595
0.672583
0.0842802
-0.0536385
0.253905
0.429202
-0.137324
0.776331
-0.419933
0.323117
-0.742229
-0.279804
-0.418228
0.770384
0.188056
-0.00454332
-0.137281
0.833404
1.25268
-0.115818
-0.555546
-0.50808
0.0126
-0.9685
0.234754
0.401977
0.288584
-0.215189
-1.03671
-0.485377
-0.0614759
0.164668
0.597829
0.311364
0.843231
-0.152405
-0.988566
0.546333
-0.0170792
-0.529572
0.210529
0.0907571
0.831343
-0.457334
0.889715
0.51282
0.570053
0.660099
0.912643
-0.874136
-0.508814
-0.6592
0.491308
0.764836
-0.401303
0.744488
0.510756
0.789651
0.310774
-0.870966
0.205351
-0.707366
0.814828
-0.949869
0.625464
-0.431787
0.160139
-0.526474
-0.604072
0.0192327
0.485627
0.387377
0.549347
0.270137
0.685563
-0.0315057
-0.820625
-0.105627
-0.116903
0.0964
0.890731
0.400119
0.501988
-0.527634
0.36323
-0.931248
-0.302156
0.200023
0.189132
0.171399
0.662114
-0.696625
0.353945
-0.0592257
-0.0491222
0.326954
-0.189787
0.82186
0.499565
-1.05353
-0.125873
-0.813821
0.174242
0.702901
0.759599
0.512149
0.287
-0.2561
-0.0627071
0.903284
0.136763
0.269606
-0.368019
0.462621
0.6022
-0.213787
0.390409
-0.19255
0.404702
-0.031762
0.213451
-1.12555
-0.721229
0.604299
-0.524851
-1.35058
0.407638
-0.469822
0.00614383
-0.506031
-0.0402455
-0.137176
0.124428
0.629824
-0.5008
-0.1259
0.235903
0.452347
-0.365984
-0.210733
-0.476173
1.00994
-0.178914
0.257021
0.0376496
-0.984908
-0.850013
0.0804348
-0.156831
0.588573
-0.785971
0.670927
0.0306054
0.476684
-0.0644942
-1.46701
0.212353
0.419122
0.243809
0.17521
-0.252348
-0.668367
0.984045
-0.283
0.897721
0.862502
-0.356588
0.545849
0.0239004
-0.246563
0.677868
-0.196846
0.301167
0.445992
0.438501
0.604664
-0.0999503
0.27127
-0.421847
0.260087
-0.190945
-0.113914
-0.499536
-0.986661
0.241502
-0.9003
0.808288
0.506048
-0.673517
-0.632535
-0.7622
-0.708457
0.172206
-0.403725
1.34328
-0.267662
0.297529
0.761367
-0.232689
-0.731862
0.423878
-0.495535
0.293526
-0.872021
-0.327275
0.149526
0.808999
0.190514
0.664162
-0.992853
-0.4004
0.48895
-0.14678
-1.3415
0.446491
-0.787452
0.197744
-0.792565
-0.98598
-0.521228
0.301892
1.29967
1.25911
0.689618
-0.112137
0.0375331
0.184189
0.429616
-0.19477
0.238702
-0.509561
-0.0201559
-0.439342
-0.286023
-0.395047
-0.998946
-0.480136
-1.0691
-1.17727
-0.943594
-0.443637
0.300909
-0.198281
0.736935
0.681173
-0.265398
-0.954759
0.628149
-0.161157
-0.40427
1.46742
0.410353
0.374684
0.882918
0.392636
-0.873504
0.566891
0.859235
0.727196
1.03907
-0.532356
-0.333878
-1.04103
0.457847
-0.775105
-0.942098
-0.0921788
0.777991
0.532669
0.937886
-0.383952
0.994416
0.9622
0.0190842
0.700198
0.799103
-0.557664
-0.376035
1.32952
-0.162561
0.6195
0.872128
0.0819079
-0.202635
-0.0204682
0.626674
-0.0302301
0.559333
0.654605
-0.208313
-0.42966
-1.08937
0.257214
-0.737474
-0.521193
-0.188343
-0.0433742
-0.154025
0.125147
0.918836
0.427087
0.381186
0.993903
-0.976404
-0.534358
0.402181
0.258468
-0.509312
-0.100742
0.238423
0.873216
0.977426
0.151989
1.26593
-0.398339
0.639946
0.87736
-0.825534
0.213593
-0.0256694
0.366088
0.266796
0.436852
1.18428
1.15499
0.947129
0.378329
-0.644637
-0.883043
-0.31556
0.4737
-0.1397
-0.776278
0.590554
0.743616
0.561942
-0.290906
1.19992
0.851363
0.0415943
0.430893
-0.205277
-0.325041
-0.324455
-0.540908
1.24196
0.779236
-0.542398
0.370542
1.20097
0.441646
0.637801
1.141
0.464561
0.363037
-0.00117555
0.609109
-0.689686
-0.848
0.1366
-0.770711
-0.486348
1.02054
0.704563
-0.679115
0.912411
-0.625776
-0.275128
-0.34292
0.596028
0.875969
0.710643
0.584003
0.413441
1.17812
0.599905
0.213561
0.717844
0.222105
0.453132
0.419158
-0.364594
0.566482
-0.633036
-0.841656
0.0271053
-0.8448
-0.307115
-0.292579
0.841926
0.30155
-0.520105
0.8945
-0.597388
0.125526
0.441537
0.107314
0.486107
-0.287583
-0.231545
-0.400294
0.00687148
0.721496
-0.672817
0.812788
0.699161
-0.362815
0.20535
-0.0167436
1.08069
-0.382422
-0.147429
1.19691
-0.84841
-0.3571
-0.934862
-0.456839
-0.0635373
-0.976986
0.668677
-0.548038
-0.320182
0.198257
-0.137881
0.321808
0.604579
0.0309799
0.208805
0.596745
-0.296491
0.402158
-0.350145
0.737459
-0.625449
-0.32554
0.345869
0.637964
0.602482
-0.438251
-0.360049
0.597148
0.147511
0.1018
-0.731261
0.12326
-0.625076
-0.565887
0.0692522
0.105665
-0.619839
0.480122
-0.335015
0.541556
0.361458
-0.569252
0.944313
-0.627382
0.630915
0.676991
-0.607483
0.680055
0.661901
-0.281432
0.0871205
-0.503352
-0.195667
-0.86644
0.687307
-0.591353
-0.511925
0.6832
0.38547
-0.585122
-0.334594
-0.555553
-0.555568
-0.292193
0.799835
0.723249
-0.338601
0.258928
0.867027
0.710897
0.389053
0.595451
0.182241
-0.844239
0.0387634
-0.0362407
0.104844
0.209417
-0.870155
-0.333798
-0.770276
-0.177445
-0.0393713
0.948275
0.78462
-0.105
-0.529459
-0.50467
0.902808
-0.212699
1.04447
0.0612811
-0.182044
1.09126
-0.185831
0.250374
-0.862761
0.891867
-0.420345
-0.229752
0.935793
0.344924
0.304513
0.758102
0.848812
-0.39474
-0.167742
0.500586
0.322207
-0.245351
0.166945
-0.0452592
0.127152
0.0874
-0.6724
0.784684
-0.498086
0.155784
0.952195
-0.625059
0.877358
-0.130243
0.618705
-0.647894
0.678723
-0.299531
0.707753
0.673981
-0.583052
0.981997
0.0518497
-0.0837051
0.149168
0.408628
-0.151716
0.876154
-0.56211
-0.688255
-0.0399716
-0.0235432
0.979438
-0.1597
0.835
0.6679
-0.7209
0.644663
-0.00351928
0.451245
-0.791599
-0.773874
-0.189318
-0.345861
-0.254671
-0.9624
0.7544
0.246359
0.826555
0.102299
-0.0756003
-0.13
0.1103
0.0469
0.7191
-0.45228
0.0607
0.6847
0.0374
0.2597
0.6199
-0.4723
0.4503
-0.9341
0.3602
0.449714
0.00372861
0.427386
0.294334
0.0749512
0.141664
-0.449092
-0.892184
0.761193
-0.726511
-0.917395
0.296963
0.812517
-0.281319
-0.184797
0.87427
-0.724774
-0.629762
-0.802084
0.876492
-0.0870172
-0.0759086
-0.0747
0.5235
0.0849
0.3624
0.273088
0.0849662
-0.797909
0.501924
-0.0933687
-0.0743077
0.360258
0.14826
-0.0959357
-0.648152
0.480317
-0.0214386
-0.375202
-0.782438
-0.73389
0.305153
-0.767337
0.61827
0.695434
-0.267475
0.989215
0.616156
-0.49763
0.169474
-0.650963
-0.222239
0.552299
0.3879
-0.446588
0.669255
-0.0944189
-0.304865
0.202181
-0.219554
-0.322316
-0.300716
-0.351907
0.460259
-0.207314
-0.400981
-0.146746
0.446675
0.52347
0.0917976
-0.314056
-0.759439
0.453348
0.554568
0.0353305
0.00296132
-0.881616
-0.772839
-0.800692
0.0545624
-0.109492
-0.3235
-0.449881
0.902362
-0.575775
-0.298707
-0.769181
-0.767927
-0.730646
0.957036
-0.835408
-0.353903
0.529173
-0.296035
-0.935716
-0.815311
-0.924307
0.53116
-0.363044
-0.316752
-1.11021
0.253962
-1.47967
-1.01789
0.193079
0.0375437
-0.328589
-0.947994
-0.41649
0.6375
-0.708913
0.0673955
0.816517
-1.10642
-0.195993
-0.844764
0.784785
0.575235
0.0804756
0.782805
-0.666956
-0.514622
-0.485012
0.236984
-0.882338
0.54363
-1.37037
-1.42058
-0.682392
0.438742
-1.42335
-0.311468
-1.12774
-0.52125
-0.932187
-0.762696
0.630869
0.6054
-0.672232
-0.636511
0.0238278
0.457842
0.0388513
0.696724
-0.228173
-0.0353283
0.314445
-0.24833
-0.226597
0.0156128
0.201808
-0.196681
-0.563067
-0.662939
-1.40385
-1.14425
0.405391
-1.3686
-1.4165
-1.0623
0.216559
-0.797098
-0.847552
-0.716665
0.759409
-0.4881
-0.143925
0.750563
-0.404511
0.947714
-0.108285
0.322456
0.0863094
0.578954
0.827958
-0.726728
-0.884061
0.0246855
-0.596022
-0.0929578
-0.946448
-0.000468822
-1.00561
-1.23018
-0.766822
-1.09103
-0.205083
-0.14266
0.228591
0.2696
-0.577728
-0.974587
0.8571
0.1193
-0.273515
0.129877
0.689695
-0.450344
-0.738584
-0.534943
0.741367
-0.404387
-0.824683
-0.00651278
0.312045
-0.718384
0.251479
-0.21912
0.239535
0.046433
-0.411606
-0.929844
-0.479075
-0.394113
-0.581642
-0.934854
-0.35679
0.233
-0.269099
0.0357564
-0.0261
0.7318
-0.0337897
-0.333939
-0.243375
-0.914646
1.00097
-0.219135
0.765623
0.749311
-0.145284
-0.5284
0.53365
0.193908
-0.772159
0.769391
0.087218
-0.805535
-0.0807874
-0.787183
0.570069
-0.830352
-0.708618
-0.306142
0.448151
0.326925
-0.634988
0.0425608
0.731646
0.6046
0.144162
-0.138006
-0.229723
-0.94936
-0.518123
0.0808449
-0.724932
-0.0647295
-0.643132
-0.452296
-0.18812
-0.127732
0.297239
-0.226905
-0.446578
0.451319
0.0360605
-0.605446
-0.869434
0.48712
0.422054
-0.515315
-0.455825
-0.982734
-0.173761
0.690999
0.857148
-0.6648
0.582704
0.113956
0.0251965
0.145037
-0.200268
0.543275
0.664542
0.174028
0.621788
-0.121633
0.110953
-0.78651
-0.500577
0.0761727
0.91904
0.225481
-0.109953
0.76491
0.170009
-0.852387
-0.825828
-0.953523
-0.307428
0.813741
0.983898
-0.00623165
-0.1061
0.9322
-0.922423
0.676134
-0.675942
-0.863883
-0.578434
0.0118905
-0.541142
-0.557327
-0.199217
0.119195
0.402756
-0.295264
0.430058
0.281435
-0.136097
0.712972
1.08579
-0.196151
-0.786954
-0.892541
0.497882
0.33934
0.637801
1.1301
0.370797
-0.633529
-0.0096
0.0625
-1.02875
0.469271
-0.924217
0.149277
-0.125251
-0.699828
0.151172
-0.31498
-0.546573
0.246419
0.371729
-0.754974
-0.822479
-0.666189
1.2273
0.0286801
-0.0592678
0.522396
0.61699
-0.927066
0.314885
-0.888076
0.223899
0.467405
-0.308705
0.934271
-0.722133
-0.9708
0.796506
-1.13811
-0.2068
-0.508641
-0.978142
0.0146962
-1.1768
0.505021
0.942599
-0.458124
0.163269
0.377531
0.343284
-0.345451
-0.556127
0.203623
-0.232427
0.681579
-0.119484
0.0188112
0.53622
0.749293
0.836041
1.52883
0.0885362
-0.320175
0.394
0.122565
-0.974993
0.340292
-0.519226
-0.866022
0.0465982
-0.408247
0.569177
-1.13139
-0.349884
0.0525767
-0.745469
-0.33634
0.346687
-0.315628
0.562103
-0.20495
-0.00651807
0.918895
-0.391097
0.473432
0.593042
1.55617
-0.327093
1.1831
1.09584
0.430352
-0.337365
-0.338615
-0.721078
-1.12288
-0.540486
0.0711177
-0.859433
-0.0490438
0.12663
0.648701
-0.519728
0.321238
-0.459733
0.149477
0.189221
0.562962
-0.0515092
0.596527
0.554083
0.611897
0.392283
0.181039
1.07548
-0.225112
-0.531413
-0.12909
0.961412
0.0900446
-0.597938
-0.55873
-0.760743
-0.557635
-0.89009
-0.215046
-0.354758
-0.750969
-0.590613
-0.751067
-0.495604
-0.703005
-1.04068
0.225333
-0.00308533
-0.184578
0.513262
0.264352
0.202103
-0.302122
-0.0409706
0.459792
-0.415251
-0.188038
0.374317
0.0315468
0.900743
-0.300293
-0.535144
-0.635279
-0.784145
-0.254162
0.209586
0.529794
-0.779891
-0.498302
0.640162
0.166078
-0.717983
-0.303116
0.355705
-0.413667
-0.374306
0.945867
-0.599485
-0.539422
0.332901
0.60101
-0.438434
-0.659132
0.0941985
-0.307605
0.737475
0.358116
-0.700524
0.349834
-0.644084
0.746515
0.531871
-0.355391
0.0961819
0.136793
0.252763
-0.0298649
-0.318067
0.0970129
-0.295036
0.701378
-0.447772
-0.739087
0.675681
0.915522
-0.483149
0.929006
0.0839633
0.891688
-0.469107
0.319187
0.0746527
-0.505885
0.0876681
-0.697709
-0.200821
0.00678492
0.5479
0.5634
0.622896
-0.00914618
-0.590123
-0.309585
-0.488279
-0.464947
-0.0534049
0.418221
0.0473877
0.501391
-0.594496
-0.20794
-0.719658
0.344796
0.0408724
-0.373841
0.701082
0.835404
0.925755
0.607355
-0.531869
-0.636665
0.603777
-0.311981
-0.756848
-0.0764612
0.5954
0.8887
-0.446376
-0.34663
0.753172
-0.389155
-0.37347
0.439664
0.783401
-0.881679
-0.188942
0.968092
0.250757
-0.577038
-0.810596
-0.51152
1.09126
-0.383389
0.991445
0.0938049
0.256707
0.176424
0.644963
0.638664
0.0123824
-0.437841
-0.231978
0.838712
0.8118
-0.264398
-0.997056
0.380584
0.746666
-0.34204
0.373027
-0.172604
-0.331343
-0.435909
0.406504
-0.675633
0.360005
-0.0385273
-0.182344
-0.585064
-0.702898
0.983532
0.593482
-0.135513
0.529714
-0.647623
0.413403
0.513602
-0.867527
-0.696966
-0.159566
-0.498822
-0.4579
0.127509
-0.863178
-0.280861
-0.194111
0.290176
-0.152325
0.180813
-0.182502
1.13048
0.689323
-0.757726
-0.558108
0.0887737
-0.24817
0.201178
0.518
-0.350471
0.796219
0.8182
0.458438
0.468651
-0.100821
0.423506
-0.451429
0.451297
0.89021
0.0695392
-0.2053
-0.300716
0.511738
-0.379431
0.462198
0.106785
0.591209
0.780199
0.974521
-0.539655
0.250007
0.218802
-0.465588
0.398346
-0.305866
-0.903774
-0.680261
-0.0299236
-0.781022
-0.452508
-0.760416
0.18351
0.185996
-0.800232
-0.341909
-0.163262
-0.815196
0.584083
-0.8375
-0.795506
0.592089
-1.05662
-0.947207
0.128865
0.632621
-0.679912
-1.07911
0.772002
0.166822
0.680093
-0.967056
-0.232873
0.778255
0.057754
0.298807
-0.711569
-0.314695
-0.594884
0.405821
0.856976
0.182947
0.803133
0.126153
-0.780949
-0.0956091
0.216517
-0.8594
-0.0245205
0.0666569
0.699114
-0.85974
-0.292593
0.726398
0.586587
-0.716283
0.294525
-0.621788
0.192966
-0.340696
0.657838
-0.519281
-0.294947
-0.33123
1.07853
-0.751016
0.338899
0.473026
0.395891
0.461538
0.576197
0.068676
0.477934
0.917825
0.768991
0.8803
-0.753201
-0.456832
0.67831
0.484506
-0.100371
-0.649624
-0.118656
0.289609
-0.0189298
0.270451
0.486906
-0.852115
0.447566
0.689381
0.29235
0.741422
-0.76292
-0.237119
0.57289
0.0998483
0.914718
0.551771
-0.449268
0.482591
0.498762
0.454075
0.515289
0.207
-0.4059
-0.565
-0.1044
0.865781
-0.476855
0.435282
0.282747
0.608686
-0.302328
0.499672
0.122707
0.2231
0.1721
0.308101
0.247301
-0.542
0.1994
0.643099
-0.7628
-0.9463
0.9455
-0.92874
-0.5089
-0.1593
-0.73
-0.517
-0.9687
-0.2984
0.2743
-0.8387
0.0835
-0.0817001
0.379319
-0.821093
-0.646679
-0.78081
-0.0810438
-0.976751
0.828362
0.127984
0.603683
-0.702499
0.418318
0.774803
-0.147397
-0.842882
-0.836227
-0.521299
-0.71902
0.779859
-0.724563
-0.739811
-0.579805
0.1543
0.2695
-0.0276
-0.2246
0.326156
-0.912307
-0.369113
0.0305222
-0.606001
0.191551
0.583562
-0.0476516
-0.0304444
0.497222
-0.682537
-0.116145
0.105672
-0.667119
-0.504564
0.933994
0.657281
-0.911511
0.0326817
-0.774392
-0.873118
-0.370863
0.441129
0.812537
-0.927814
0.0440301
0.9752
0.5133
0.724521
-0.625961
0.101846
-0.311204
-1.0637
-0.101491
-0.497485
-0.997988
0.385098
0.28745
-0.302172
0.0190845
0.888956
-0.434616
0.484232
0.50781
0.291176
-0.489264
0.285904
-0.5618
-0.205876
-0.899358
-0.910337
-0.2125
0.158894
-0.513212
-0.881503
-0.0926
0.929712
0.914361
-1.06205
0.387589
0.701325
-0.458981
0.276749
0.954786
-1.04785
0.633485
-0.644118
0.314293
0.654973
0.0746736
-0.0451647
-0.126826
-0.51188
0.13063
0.845015
0.596881
-0.136037
-0.405717
0.128395
0.863271
-0.239928
-0.451083
0.804034
-0.7057
0.94879
-0.752838
-0.533025
0.617623
-0.630853
-0.213039
-0.475692
-0.642161
-1.00919
-0.386957
-0.453534
0.181661
0.04128
-0.116117
1.28568
-0.0638411
0.0558575
0.282211
-0.958852
-0.492601
-0.260825
0.46489
-0.787352
-0.311969
0.184516
0.42522
0.259385
0.8521
-0.952355
0.206026
-0.653037
0.64925
0.601693
0.303725
-0.820859
-0.64301
-0.974943
0.435111
-0.64191
0.713817
1.41622
-0.30719
-0.340718
0.119315
-0.549329
0.819685
-0.565444
-0.351047
1.03741
0.223363
-0.581644
0.120375
0.079122
-0.0591631
0.537698
0.4876
-0.808161
-0.131309
0.253981
0.796787
-0.45683
-0.59239
0.391013
-0.612801
-0.153493
-0.772451
0.303541
1.64069
1.35283
-0.446543
-0.174907
0.16055
0.535329
0.00403297
-0.905857
0.104277
1.03718
0.0440582
0.482021
0.148105
-0.808441
-0.236109
0.1928
0.6263
-0.490641
-0.638293
0.303639
-0.612892
0.309987
-0.378082
-0.33017
-0.526764
-1.55659
0.20934
0.393857
0.581511
0.280027
0.883682
0.0518738
0.462005
-1.07644
-0.31227
0.26204
-0.375331
1.05169
-0.479284
0.511427
0.302652
-0.0360214
-0.135378
-0.2588
0.3218
-0.317629
-0.462283
-0.14835
0.319989
0.812933
0.00679544
-0.393797
-0.917398
-0.707747
0.387565
-0.495948
1.63953
1.1075
0.755147
-0.643979
-0.143473
-0.745082
-0.249621
-0.87414
0.17471
0.425705
-0.592402
-0.42995
0.301401
-0.226637
-0.752145
-0.240612
-0.8012
-0.781299
-0.322764
-0.220168
0.520296
-0.332363
-0.497875
-1.20657
0.0586141
-0.735669
-0.116872
0.00710971
1.39478
1.22554
0.320634
0.432987
0.146878
0.354528
-1.3043
0.00296563
0.617642
-0.275062
0.513487
-0.0644956
-0.502584
0.528727
-0.0520757
-0.0927407
0.1715
0.500432
-0.62252
0.354362
0.788185
-0.642237
-0.859208
-0.597886
-0.427291
-0.323036
0.500141
0.805212
0.710266
1.1158
-0.640965
0.760387
0.0549131
-0.121306
-0.52532
0.93303
-0.761884
-0.0525748
-0.422344
0.666718
-0.618206
-0.2183
-0.354967
-0.3715
-0.3197
0.549795
-0.716816
0.816823
0.449959
-0.441903
0.23322
-0.483185
-0.740766
-0.000205036
0.145241
0.13659
1.1511
-0.612908
-0.540634
0.22539
0.488531
0.537919
-1.3092
0.6894
-0.758555
0.716151
0.766681
0.706065
0.445464
-0.238239
-0.4669
-0.2355
0.4879
-0.0804401
0.510763
-0.200392
-0.268479
0.214562
0.440958
-0.76583
-0.636988
-1.07836
-0.716942
1.33809
0.336728
1.20856
0.374264
0.375242
0.0221579
0.0300685
0.0441151
0.182382
0.895282
-0.489743
-0.0588649
-0.260338
0.934941
1.1832
0.446352
0.6037
-0.1522
0.241313
0.250404
0.483834
-0.42606
0.0652509
0.18256
-1.11181
0.137158
-0.181689
0.24812
0.188664
0.498518
-0.906213
0.674923
-0.736656
0.504701
-0.495814
-0.137866
-0.39593
-0.70379
-0.332137
-0.260641
0.641932
0.637137
-0.607491
0.474697
0.881
-0.238676
-0.0845203
0.773595
-0.506044
0.679484
-0.897034
0.616436
-0.771594
0.107829
0.369265
0.422587
0.143902
0.0718589
0.871752
0.419159
0.904054
0.614634
-0.587422
0.968961
-0.669398
0.585759
-0.350836
0.87318
0.190158
-0.249006
-0.337615
-0.260944
-0.64339
0.756936
-0.0927587
-0.237227
0.126632
-0.261395
-0.347115
-1.06297
-0.342484
0.553703
0.0143445
0.935277
0.140826
1.01692
-0.333761
0.152817
0.999521
0.796763
-0.828589
0.255604
-0.205496
0.139969
0.0250867
-0.0849295
-0.416717
0.797973
-0.189836
0.848533
-0.733272
0.0470924
1.04147
-0.835363
0.651532
0.357803
-0.675266
0.230582
-0.491746
0.0728429
-0.156289
0.258671
0.914937
-0.0222907
0.43906
-0.278746
1.29457
-0.519072
0.377904
-1.18335
0.975714
0.098735
-0.418906
-0.37402
0.271931
-0.292892
-0.534958
0.0708344
0.643399
0.866711
0.894444
0.965582
0.178672
0.0254175
0.435907
0.518187
0.294588
-0.500816
-0.0691709
0.842016
0.0491353
0.544534
0.473525
1.37312
-0.167452
1.02651
0.391537
0.224324
-0.641681
0.489527
0.313276
-0.55841
0.0267055
1.06187
0.600408
-0.958269
-0.375999
-0.730499
-0.888153
0.154215
-0.0722813
0.0617237
-0.649439
0.612595
-0.370498
0.447482
0.521012
0.0227705
0.198837
0.463476
0.796131
0.00805685
0.593606
0.605912
-0.799289
-0.630805
-0.936844
0.131602
0.549643
0.479989
1.12495
-0.258763
-0.0244334
0.628156
-0.7733
-0.1865
0.408738
-0.293671
0.668364
-0.381551
0.447406
0.291411
-0.453016
0.598619
-0.648757
-0.807892
0.726617
-0.371646
0.094439
0.203638
-0.0415247
0.682212
0.321853
-1.14836
0.471888
-0.719464
0.17484
-0.0248233
0.811656
0.0955941
-0.111115
-0.440327
0.6951
0.0744
-0.914503
0.997419
0.565014
0.210633
0.328921
-0.204543
-0.501207
-1.03514
0.427228
-0.339947
0.644661
-0.711819
0.210929
0.352023
0.993811
0.7388
0.484291
-0.762694
-0.280957
0.361703
-0.0528183
-0.221615
0.825348
0.738003
0.34768
-0.340743
0.8723
-0.2841
-0.0388787
0.85102
0.145779
-0.532234
0.199704
-0.260078
-0.810319
-0.359534
-0.525766
-0.222476
-0.807291
0.510429
0.94963
-0.0229001
-0.172971
0.202319
-0.77659
-0.420821
-0.656131
-0.200522
-0.273109
0.741073
0.113371
0.205674
0.30089
-0.79223
0.6729
0.515698
-0.320941
0.253728
-0.90296
0.619667
-0.520395
1.11437
-0.0126882
-0.759117
-0.437412
0.2743
0.632198
-0.563894
1.41445
0.113337
1.23068
0.689417
-0.609948
-0.181655
-0.494885
-0.885667
-0.194431
0.810915
0.586107
0.521828
0.881597
0.0289911
0.0093
0.939498
0.295032
0.143
-0.895569
0.0155131
-1.15267
0.423395
0.310707
-0.896469
0.212261
0.636156
0.033987
-0.577111
1.0513
0.0435172
-0.747264
-0.64192
-0.203767
-0.736852
-0.102482
0.162779
-1.01358
-0.546112
-0.491412
0.596003
-0.335925
-0.235203
0.8496
0.586697
0.502292
-0.390647
-0.950058
-0.820746
0.680531
-0.601259
-0.994265
0.541306
-0.708485
-0.481168
0.62503
1.03748
0.187683
1.02477
-0.39937
0.393951
-0.272528
0.101681
-0.182584
-0.148269
0.418907
-0.0464396
-0.692719
1.14238
0.20353
-0.760092
0.2882
0.362798
0.229244
0.602634
0.425687
-0.458586
0.127747
0.419981
0.205023
1.08214
-0.0495334
0.83675
-0.398083
0.0855127
0.635392
-0.0785883
0.561965
0.783556
-0.00212258
-0.452945
-0.188167
0.413657
0.534353
0.304038
0.939968
-0.552555
0.959096
-0.834376
-0.06
0.7483
-0.953513
0.813709
0.914162
0.585402
0.256489
0.0329752
-0.529289
-0.0301347
0.276654
0.461672
-0.751866
-0.99446
-0.630452
0.699051
0.0302593
-0.576002
0.223335
0.684228
0.52478
-0.28314
-0.269713
-0.53242
-0.717588
-0.482423
-0.57413
0.791523
0.8907
0.7605
0.9576
0.5219
-0.669609
0.133308
0.262819
-0.0685682
-0.619354
-0.425802
0.447407
0.561562
-0.009
-0.942985
0.435191
-0.544309
-0.0674109
0.456946
-0.0790966
-0.2926
0.3338
-0.3512
-0.568953
-0.96103
0.3896
-0.4992
-0.4157
0.8506
0.4009
0.1929
-0.1083
-0.334
0.4081
-0.831793
0.381877
0.176012
0.213111
0.270415
0.830279
0.467108
-0.935405
0.0670108
-0.0129335
0.380412
-0.227249
0.814253
-0.696405
0.364488
0.857838
0.847203
0.928246
0.506477
-0.937393
-0.369596
-0.5258
-0.2891
-0.168
-0.7287
0.174192
0.966214
0.38552
0.270327
0.679269
0.63738
-0.856663
0.931381
-0.0764387
-0.938243
0.298771
0.627213
0.802236
0.01887
0.842736
-0.403857
-0.915083
0.525174
-0.856467
-0.535509
0.245134
-0.364104
-0.715576
0.0889726
-0.0354416
-0.552578
-0.6824
0.6479
0.792452
0.614556
-0.844801
0.435913
-0.987324
-0.11932
0.57932
0.165315
-0.0945293
-0.773196
0.0565884
0.426759
0.681137
0.611614
-0.173227
0.484931
-1.07754
-0.859082
-0.250766
0.168244
-0.232951
0.768057
0.337384
0.0733595
0.292496
0.960085
-0.112101
-0.5145
0.145299
-0.40635
-0.319755
0.548684
-0.0487319
0.488764
-0.255309
0.544735
-0.150859
-1.14017
-0.397993
-0.884794
-0.306899
0.508626
-0.876738
0.341733
0.744757
-0.876299
0.934326
0.398025
0.619094
0.732184
0.417339
-0.43085
-0.0522484
-0.510831
0.268106
0.6248
-0.810205
-0.904672
-0.448494
-0.711283
-0.16756
0.359747
-0.332648
-0.0419492
-0.233859
-1.05947
-0.350457
-0.695864
-0.00131089
0.0960201
-0.640004
-0.762865
-0.534478
-0.0150208
-0.912079
0.0822629
-0.187348
0.662858
-0.26174
0.542928
0.180418
-0.506141
-0.298096
-0.2165
0.839165
-0.607639
0.794061
-0.722729
-0.191701
0.267753
0.115318
0.230673
0.469265
-1.10533
-0.0999082
-0.238823
0.28675
-0.469815
-0.735392
-0.121753
-0.227813
0.610696
-0.431125
-0.412925
0.835516
-0.327869
0.608562
0.248177
0.064798
0.381922
-0.899704
-0.5848
0.805332
0.326917
1.10747
-0.42542
0.296817
0.4048
0.0916932
-0.956238
0.316168
0.401265
-1.29413
-0.843554
0.343341
0.806613
-0.696648
0.268793
0.189056
-0.903
0.0495178
0.406802
0.265812
-0.43208
1.04914
-0.159567
-0.146701
-0.180241
0.4941
0.8927
-0.649843
0.712511
0.95301
-0.480152
-0.541915
-0.139563
0.503556
-0.815903
0.125431
-0.295112
-0.294424
-0.411608
0.476984
-0.0280422
-0.367148
-0.783827
-0.996515
0.281187
-0.0239455
-0.524878
-0.818527
1.05685
-0.140905
-0.259116
0.0919364
-0.125407
-0.2013
0.6622
0.842479
0.699697
0.735895
-0.0607956
0.39739
0.147509
0.972239
-0.413942
-0.42498
-0.257473
0.676964
-0.910803
0.631985
-0.386776
1.15759
0.481556
0.296601
0.437578
-0.712013
-0.0971144
-0.157651
0.541667
0.217258
0.585465
-0.63197
-0.175309
-0.941912
0.0579
-0.532185
-0.0729332
-0.226214
-0.102273
0.66006
-1.05204
1.05396
0.0206223
-0.145193
-0.092287
-0.521222
0.102715
0.265164
0.955418
0.168969
-0.050871
-0.640562
-0.123329
0.534726
0.676361
0.638026
-0.313465
1.00782
-0.715515
0.598166
-0.445312
-0.334002
-0.9601
-0.538316
-0.401788
0.635075
0.250654
0.196269
-0.531189
0.293386
-0.617137
-0.955914
-0.0413629
0.483291
-0.526292
0.638795
-0.0862767
-0.363232
0.891697
0.000478794
-0.840531
-0.364384
-0.125703
-0.878405
0.409464
-0.470505
0.0626711
0.215113
0.751299
-0.4549
-0.3315
0.958946
0.300837
-0.313852
-0.864788
-0.0235732
0.706286
0.812594
0.814666
-0.828066
0.313955
-1.08095
0.658565
-0.553376
-0.432712
0.69283
-0.736917
-0.0355444
-0.908194
0.790269
0.571146
-0.150811
-0.369545
0.390043
-0.456386
0.0649589
-0.190969
-0.1241
0.2316
-0.130172
0.0638406
0.470279
-0.00555274
-0.112093
-0.53458
0.106335
0.493893
-0.321563
-0.555669
-0.0890497
0.139237
-1.04811
-1.0439
0.478088
-1.52974
0.203927
-0.226565
-0.525526
-0.785116
-0.607595
0.111124
-0.470519
0.217242
-0.341005
0.525994
0.41859
0.1765
-0.312191
-1.07993
-0.0731333
-0.462586
-0.00278316
-0.280129
-0.436117
-0.950887
-0.762256
0.331498
-0.257583
0.255188
-0.83662
-0.213886
-1.00795
-0.372544
-1.18262
-0.910754
0.198965
-0.746774
0.212675
-0.149576
-0.223962
-0.201591
0.31731
-0.949986
0.5984
-0.691501
0.410513
-1.2135
0.0694823
0.201483
-0.590852
0.584186
0.812823
0.651703
0.30292
-0.833382
-1.06814
0.0931728
-1.61313
-0.108501
-0.361341
-0.909232
0.648982
-0.353849
-0.00231842
-0.202479
0.268351
0.6532
0.7106
-0.722933
0.613553
-0.213092
-0.145805
-0.17111
-0.957139
-0.0667044
-0.205991
-0.904539
-0.846266
-0.345578
-0.847043
0.00302039
0.897409
0.200703
-0.485779
0.143419
-1.37344
-1.64989
-1.5312
0.710542
0.498963
0.609485
-0.257691
0.299319
-0.0945035
-0.245233
0.049871
-0.329579
-1.01951
0.923609
-0.150601
0.813586
-0.489982
-0.786008
0.238633
0.101139
-0.465127
-0.259687
-0.473347
-0.707287
0.471208
1.03856
-0.528932
-0.829209
-0.6628
-0.691722
0.833242
0.943445
0.823476
0.490222
-0.469322
1.19813
1.44607
0.266282
-0.441045
-0.483153
0.225597
-0.944606
-0.148431
0.0439802
-0.2318
-0.0812254
-0.792069
0.454635
-0.635872
0.781282
0.767246
-0.364067
0.377905
0.0947441
0.660557
-0.260363
0.680714
-0.163602
1.08404
0.379552
1.09713
0.758591
0.522245
-0.322882
0.248291
-0.571583
0.676
0.00263793
-0.75364
0.797232
-0.791587
0.851269
-0.0187588
0.0697986
-0.511652
-0.669677
-0.462258
-0.447992
0.515004
-0.593238
-0.18475
0.0786432
0.819923
-0.159181
0.593874
0.540171
0.869045
0.982638
0.755201
0.199377
-0.497689
-0.380744
-0.106219
0.422873
0.691352
0.218508
0.438494
0.252633
-0.0182
-0.5049
-0.223672
0.0875258
-0.096217
-0.279258
-0.628264
0.66561
0.138177
-1.02187
-0.499027
-0.805406
0.589649
-0.394117
0.910118
-0.413052
-0.169096
0.387489
0.309485
0.497529
0.904453
-0.0938807
0.75193
0.244703
-0.368299
-0.67582
0.733656
-0.638906
0.0859
0.4841
-0.349455
0.814769
-0.878148
-0.285828
0.770904
-0.463781
-0.695977
0.193576
0.262752
-0.0704904
0.704231
0.04077
0.795876
1.09189
1.04883
-0.00485053
0.330711
-1.15332
0.0895868
0.448687
0.312347
-0.291431
0.817744
-0.0844011
0.271799
0.924673
0.6859
-0.0384008
-0.0794179
-0.594974
-0.339144
-0.160421
0.0325375
-0.699612
-0.374535
0.161937
-0.393856
0.400311
0.94972
0.507036
0.975551
-0.0457903
0.45172
0.387097
0.298696
0.6705
0.0386325
-0.214261
-0.00625121
-0.0595882
-0.577005
0.332783
0.0928613
0.208557
0.5641
-0.928404
-0.487978
-0.191813
-0.091765
0.236274
-0.960378
-0.227002
-0.109085
-0.34297
-0.142344
-0.049265
0.916868
1.39819
0.124103
0.549038
0.789554
-0.502973
0.728215
-0.0564531
0.264447
-0.738826
0.446089
0.689525
0.0979128
0.849327
0.107493
-0.938775
-0.3874
-0.0263006
0.195019
0.69833
-0.494454
-1.39107
-0.179829
-0.0879717
-0.973495
0.234538
-0.166442
0.374853
1.72396
1.24997
0.650419
0.972681
0.668095
0.891401
0.132293
0.658965
0.139175
0.381327
0.530137
0.159764
-0.0927311
0.975354
0.110198
0.553862
0.6784
-0.360701
0.0921053
-0.249527
0.555794
-0.185277
-1.13804
-0.307301
-0.241023
0.353748
0.890941
0.514279
0.699773
1.15912
0.0994844
0.704228
-0.373842
0.956284
-0.581669
0.756857
0.0172987
0.597909
0.0248859
0.787613
0.0244116
0.528135
0.596116
-0.212581
-0.1742
-0.273801
0.804689
-0.220014
-0.440581
0.339063
-0.526441
-0.930231
0.644568
-0.901142
-0.386911
0.251695
0.92039
0.594691
0.621234
0.309344
-0.653893
-0.0617619
0.144827
-1.14788
0.719337
-0.775226
0.0798755
-0.0212111
-0.639761
-0.383289
0.159992
0.0484661
-0.1743
0.2954
-0.672228
-0.144396
0.732818
-0.405512
0.438839
0.524495
-0.113137
-0.909559
-0.387313
0.129949
-0.382377
-0.821151
0.70729
-0.803067
0.927223
-0.341278
0.0962533
0.641623
-0.412954
0.57524
0.128251
-0.430491
-0.470498
0.169421
0.531979
0.328443
0.3195
-0.2753
0.7502
-0.339
-0.52708
0.440393
-0.943988
0.719623
0.129251
0.751458
-0.348998
-0.388476
0.5378
-0.753634
-0.962115
0.257879
-0.970721
0.283898
-0.445486
-0.9695
0.643
0.0381
0.846819
-0.0989976
-0.1354
0.0083
0.8482
0.1232
-0.713
-0.9779
0.5825
-0.5947
0.361599
0.952881
-0.321831
-0.605206
-0.894388
-0.704817
0.650941
0.948447
0.932266
-0.582174
-0.695676
0.289645
0.463621
0.73241
0.794428
0.168811
-0.259671
-0.142012
0.149095
-0.726577
0.365282
0.554391
0.6922
-0.9102
0.3369
0.19
0.273211
-0.605349
0.3496
-0.324349
0.0442779
-0.86289
-0.601042
-0.990451
-0.858283
-0.326502
0.844528
0.421847
0.442838
-0.848814
-0.903877
0.0841922
0.37573
0.547908
0.264173
0.541562
0.849188
0.853273
0.635019
-0.374936
0.862953
0.181272
-0.117499
-0.0705
0.442042
0.93683
0.624746
0.0251671
0.415496
0.0590561
-0.799208
0.0727371
0.813233
0.35424
-0.544318
-0.359952
-0.566117
-0.671659
-0.672747
-0.602749
-1.21408
-1.09113
-0.155875
-0.0124964
-0.34276
-0.742498
-0.568895
-0.851689
-0.446695
-0.919484
-0.378047
-0.5771
0.430135
0.119858
-0.283123
-0.882093
0.696366
0.404524
-0.658556
-0.322149
-1.11523
-0.909226
0.36324
0.28831
0.191918
-0.00787448
0.5698
0.0580191
-0.45173
0.0621367
0.608654
0.676472
-0.501231
-0.435425
0.833069
0.702702
0.550737
0.209166
0.366795
-0.0344
-0.932787
0.321979
0.57908
0.508004
-0.100632
0.549726
0.560852
0.388633
0.764459
0.369609
-0.138273
0.265827
-0.314424
0.416542
-0.340672
-0.406313
1.11623
0.925965
0.950925
-0.161392
0.777202
0.550726
-0.229954
-0.226711
-0.173521
0.968797
0.372951
0.9106
0.108862
-0.824991
0.586047
0.913902
0.830991
1.133
0.341034
-0.612054
-0.338035
-0.180634
-0.482482
0.64445
0.659325
0.596961
-0.0764876
0.551776
0.765267
-0.586957
0.677239
0.267904
0.601925
0.506345
0.0347886
-0.526429
0.384589
-0.951531
0.111386
0.643
-0.468359
0.653183
0.523267
0.0453929
-0.722441
-0.258557
-0.477767
1.09268
0.668479
0.371046
-0.499479
-0.546496
-0.0372243
0.0838121
-0.0183413
-0.437094
1.02552
0.660503
-0.472876
0.164394
-0.786154
-0.115992
0.499642
0.584729
0.631839
0.786015
0.5204
-0.2632
-0.13024
-0.387219
-0.31423
-0.301617
-0.251364
0.261073
0.830941
0.720468
-0.536178
0.416304
0.747475
0.653563
-0.105617
-0.0622732
1.20388
1.01882
0.654738
0.282282
1.07404
1.18773
0.011985
-0.106125
-0.600458
-0.696022
0.332319
0.504164
-0.5245
0.8494
0.949482
0.39501
0.875468
-0.586175
1.05906
-0.568683
0.115825
-0.908813
0.594511
0.0863546
0.756007
-0.808644
0.47734
0.488118
0.350695
-0.0954657
0.237017
0.726699
-0.157415
-0.0398498
0.2322
-0.742769
-0.0138256
-0.657684
-0.573214
-0.038948
-0.967196
0.7529
0.71827
-0.643524
-0.496226
0.160776
-0.594373
-0.0147617
-0.0583812
0.0852333
0.0376417
0.974891
0.205931
0.496936
0.572621
0.571999
0.253959
0.936269
0.514244
0.357702
0.60356
0.69475
0.515757
0.658732
0.349951
-0.41098
-0.62769
-0.845577
0.139609
0.5049
-0.246642
0.787795
-0.392719
0.495019
0.422541
-0.294647
0.320171
-0.679202
0.80422
0.247271
0.262832
0.0994178
0.681259
0.99912
0.0436707
-0.963934
0.436221
-0.466691
-0.0662168
0.877773
1.0783
0.341608
-0.410393
-0.755617
0.605318
-0.884871
0.9417
0.341
0.681228
0.889503
-0.348857
0.355528
0.612729
-0.01051
-0.364467
-0.619989
1.00835
0.0117296
0.386635
-0.357482
0.693211
-0.52155
-0.907888
-0.504606
0.12143
0.536303
-0.156381
0.300974
1.0358
-0.514416
-0.226214
0.266305
0.0261688
0.644984
0.4106
0.033
0.561791
-0.10546
0.818241
0.480587
-0.688457
0.656139
0.725568
0.933983
0.312271
1.0937
0.443707
-0.467599
0.0228925
0.0312265
0.546185
-1.33984
-0.735573
-1.2117
0.0520735
-0.482239
-0.688273
-0.463539
-0.978877
0.553667
0.139888
-0.0289223
0.698544
-0.9025
0.36809
-0.0774536
0.247109
-0.0632222
0.675207
0.449925
0.621401
0.0650512
0.999802
0.681186
-0.0151893
-1.30052
-0.0229552
-0.494927
-0.0861089
-1.24136
-0.768342
-0.220253
-0.82947
0.101026
0.216105
0.736886
-0.357874
-0.266017
0.25861
0.693037
0.5201
0.342
0.519225
0.110999
0.504467
0.757798
-0.52776
-0.166675
0.334606
0.287711
0.0144053
-0.95732
-0.825589
-0.123663
-0.0585138
-1.10393
-0.501342
-0.910806
0.170323
-0.0846828
-0.627217
-0.742196
-0.630816
-0.653358
-0.0699699
-1.18246
-1.0612
-0.452444
0.787399
-0.0985229
-0.864683
-0.171565
0.416272
-0.285659
-0.0992258
1.32153
1.06666
0.868747
-0.59975
-0.533517
-1.07504
-0.2637
-0.586784
-0.607318
0.298455
-0.495787
-0.000279633
-1.15922
0.379991
0.495495
-0.0557205
-0.0143804
-0.667928
0.0939902
1.02376
0.672997
0.1911
0.620018
0.741854
0.501901
-0.489963
-0.451521
0.803689
0.190358
0.184029
-0.492029
-0.749362
-0.584152
0.581419
-1.10512
-1.15705
-0.165533
-0.341684
-0.621442
0.317364
-0.216558
0.587061
0.0559893
-0.0971012
0.879982
1.13655
-0.533934
-0.133536
-0.642713
-0.281502
0.459562
0.370452
0.669666
0.0152253
0.46813
0.860247
-0.238922
-0.468654
-0.618599
-0.479795
-0.05285
0.454802
-0.416343
-0.473256
0.561816
-0.211661
0.106589
0.920223
-0.168403
0.314275
0.00849756
0.126992
-0.355434
1.15342
0.496146
-0.402965
-0.0406618
0.345391
-0.565242
-0.192052
0.512727
0.306383
0.303391
-0.678376
0.0559278
-0.702142
0.722064
-0.126264
-1.10596
0.182579
0.340666
-0.584376
-0.153559
0.183022
0.62569
0.313153
-0.536082
-0.458818
0.640474
0.355596
-0.803135
-0.261264
0.421229
-1.11136
-0.37229
-0.7237
-0.9336
-0.816884
-0.359977
-0.280307
0.193053
-0.218882
0.752449
0.514156
-0.314597
-0.876138
0.278037
-0.232832
-0.845825
0.677459
-0.650174
0.261209
-0.641515
0.921709
-0.42396
0.980552
-0.0174907
-5.10196e-05
-0.032737
1.09638
-0.707678
-0.772795
-0.869305
0.5236
-0.0735
-0.712055
-0.688698
0.597293
0.39709
0.549585
0.522296
-1.15275
0.205549
0.106949
0.468925
0.328962
-1.0491
0.349924
0.41141
0.490351
0.415395
-0.102113
-0.134749
-0.64146
0.561681
-0.53446
-0.137451
-0.448743
-0.957335
-0.464323
-0.774735
0.393
-0.562581
-0.096165
0.0190955
0.54775
-1.01314
0.58456
-1.03241
0.623394
-1.1856
0.0264008
-0.303102
-1.04875
-1.02209
-0.317685
-0.685224
-0.338773
0.409803
-0.274397
-0.530694
-0.0526413
-0.995961
0.677927
-0.766069
0.750404
-0.387336
-0.57102
-0.213527
-0.7688
-0.955614
-0.546865
0.258409
0.216825
0.496412
-0.0620904
0.601623
-0.94916
0.425904
0.504041
-1.1346
-0.585372
-0.289097
-0.575623
-0.461401
-0.776235
0.174873
-0.21631
0.314684
0.333874
-0.644827
0.777504
-0.629825
-0.640973
-1.09053
-0.675215
-0.264391
-0.6246
-0.344508
0.83789
-0.828153
0.403576
-0.82132
-0.0785979
0.721084
-0.587589
-0.782374
-1.06887
0.459269
0.354449
0.528341
-0.692906
-0.468032
-0.430747
0.197014
0.471692
0.48045
0.216017
-0.499577
-0.814086
0.399849
-1.10749
-0.838861
0.035063
-0.816978
-0.6231
-0.171636
-0.739483
0.737534
-0.806345
-0.327951
0.333105
-0.792094
0.224973
-0.400507
0.627121
0.485975
-1.55522
-0.460641
-0.771096
0.128106
0.183329
0.916321
0.32663
0.0322115
0.639219
0.0522559
-0.0443056
-0.599887
0.587579
-1.24924
-0.0925674
0.862323
0.1304
0.900196
-0.977218
-0.222278
-0.437647
0.69549
-0.523505
0.290865
-0.979728
-0.458021
0.635596
0.0068621
0.307159
-0.260149
-0.0719318
-0.255325
-0.022084
0.113486
0.813173
-0.912528
0.338945
-0.73913
0.388854
-0.995999
0.646577
0.516828
-0.335717
0.748109
-0.5165
-0.898699
-0.312891
0.860112
0.182692
0.0287418
-0.272336
-0.331898
0.870291
-0.0567768
-0.844868
0.533068
0.22003
-0.538773
0.479765
-0.579632
-0.871504
0.589541
-1.00345
-0.859735
-0.748685
0.819237
0.349178
-0.230286
-0.148533
-1.00065
-0.277015
-0.874742
-0.1047
0.5502
-0.1064
-0.2761
0.979625
0.225638
-0.455999
0.43434
-0.191183
0.640781
0.299848
-0.561204
-0.0965
0.733714
-0.752354
0.839622
-0.424055
-0.536257
-0.266702
0.9283
0.1934
0.912
0.0911452
0.2622
0.1902
0.9171
-0.7519
0.8394
-0.9704
0.1733
-0.5805
0.6918
0.627317
0.13634
0.552124
0.734479
-0.784617
0.563255
0.341088
-0.344412
0.255961
0.22574
0.66664
-0.0585634
-0.612374
-0.316892
-0.640035
-0.538182
-0.728678
0.432058
0.909547
0.790502
-0.9525
0.4002
0.0212
0.9279
0.9286
-0.6998
0.683585
0.106598
-0.446065
-0.120673
0.0828617
-0.502006
-0.951169
0.807692
0.729998
0.172025
-0.258749
-0.804919
-0.981189
-0.0593213
0.00940904
-0.144374
0.186267
-0.201808
-0.398426
-0.163132
-0.863384
0.603794
-0.981443
-0.520115
-0.498796
-0.367054
0.924444
0.5874
0.0858304
0.356562
-0.0518242
0.44606
0.566313
0.199114
-0.697638
-0.232365
0.374538
-0.353929
0.911561
0.869536
-0.600976
-0.843782
0.396778
0.555721
0.887965
-0.360216
0.917528
0.540723
0.378818
-0.420292
0.489266
0.156512
-0.199287
-0.145557
-0.791466
-0.289
0.599784
-0.590218
0.158751
0.254678
0.932747
-0.129155
0.289257
0.168024
1.01152
0.913455
0.40745
1.09436
0.12918
0.335058
1.09528
-0.409625
-0.65585
-0.977905
-0.465999
0.112851
-0.493033
0.368447
-0.37566
-0.370358
-0.588128
0.178177
0.41367
-0.4934
0.0219196
0.157636
-0.139737
-0.317138
0.0116458
-0.494521
0.881509
0.639074
0.516108
0.602332
-0.28437
0.288961
-0.0411877
1.61808
0.93033
0.509584
-0.834742
-0.358164
0.090306
0.451842
0.00246463
-0.246374
0.513165
0.432193
-0.381262
0.665394
-0.0344177
0.8258
0.6881
-0.216785
0.118542
0.12403
-0.406421
-1.08878
0.234965
-0.0499866
0.33832
-0.768019
0.779807
-0.310506
0.319441
1.36319
0.419232
1.05276
0.253337
-0.674075
0.55944
0.115504
0.675065
-0.685612
-0.773721
-0.231434
1.00048
-0.715206
-0.565131
-0.1669
0.538954
-1.0054
0.469839
0.422541
-1.18708
0.457167
-0.0396139
-0.647822
-0.00202479
-0.851511
1.14308
-0.386763
-0.0590027
0.224265
1.27144
0.433688
0.777162
-0.0178568
-0.395353
0.811202
-0.157807
0.25394
0.170763
0.447968
0.0796761
0.963393
0.3243
-0.4485
-0.322003
0.667023
0.441498
0.627347
-1.01004
-0.468041
-0.094196
0.242724
-0.809448
0.311539
-0.514185
-0.0903435
1.18296
0.310365
-0.00871824
1.27082
-0.111652
-0.159187
-0.505931
-0.523052
0.177087
-0.215711
-0.763073
-0.268423
-0.834177
0.235065
0.5187
-0.9557
0.300289
-0.897605
0.110997
0.953953
0.281668
0.285132
-0.689896
-0.641177
-0.223459
-0.489787
0.0482563
-0.744488
-0.112422
-0.0685588
1.2412
0.89458
1.23925
0.805277
-0.0417766
-0.53968
-0.857191
-0.268872
0.334902
0.383712
0.0341419
0.582226
-0.710916
0.372
0.289346
-0.423245
-0.760718
0.416122
-0.425382
-0.727788
-0.72765
0.361483
-0.826566
0.52014
-0.36445
-0.265217
0.176295
0.128236
0.559172
0.591336
1.43139
0.339133
0.491261
0.949201
0.487898
-0.252373
0.377973
0.528728
0.0540776
-0.13696
0.284277
0.0786
-0.518469
-0.0559406
0.27823
-0.192627
0.0363143
0.472665
-0.368504
-0.840818
0.469804
-0.518414
0.312013
0.279832
-0.154484
-0.710692
-0.0575787
-0.0307242
-0.0918159
0.471637
1.00588
-0.09578
-0.0410083
-0.570801
-0.806537
-0.280363
0.34999
0.25361
0.8789
-0.0626
-0.567222
-0.607035
-0.0657153
0.933328
-0.446206
0.177345
0.209934
0.415757
0.371175
0.185999
-0.830902
-1.25893
-0.0546862
-0.506419
0.766919
-0.300535
0.486999
0.69479
0.0610244
-0.280158
0.805683
0.86547
-0.861166
0.233798
0.882823
0.694428
0.567
-0.5794
-0.512506
0.529193
0.628212
-0.160743
0.0986579
-0.273264
0.263742
0.608653
-0.427292
-1.17826
-0.0158079
-0.554251
-0.780701
0.452677
-0.789968
0.182724
0.455866
0.661556
-0.742817
0.787405
0.0273534
1.15339
-0.0632603
1.01477
-0.560274
0.363214
0.882957
-0.7416
0.392627
-0.384294
1.20414
-0.0855125
0.167652
0.151733
0.0178608
-1.02192
0.549356
-0.384408
0.0968077
-0.577285
-0.372464
0.308345
-0.0882207
-1.01385
0.0522695
-0.902075
0.438357
-0.263521
-0.225026
1.24486
0.682524
-0.314817
0.315273
-0.00823559
-0.5721
0.896079
0.541994
0.13872
0.49
0.498671
0.673068
1.05708
0.748167
0.43821
0.435845
-0.523179
-0.710395
0.513828
-1.31874
-1.05856
0.601921
-1.19334
-0.785375
-0.962573
0.189806
-0.408157
-0.647454
-0.751865
-0.247149
0.230622
0.147637
-0.796961
0.338808
0.0310526
0.257166
0.581546
0.382939
0.388703
0.610644
0.474719
0.00339796
0.297857
1.00253
-0.303701
-0.72677
0.222613
-0.447509
-0.691682
0.31191
0.0547128
-0.851668
-0.255162
0.0919286
0.151209
0.247318
-0.877438
-0.0684221
0.428733
-0.0405965
-0.684154
-0.946024
0.88815
-0.39078
-0.0925269
-0.78543
0.654046
0.647401
0.554449
1.42224
-0.0168087
0.302089
1.03728
0.545028
0.860311
0.544516
-0.76591
-0.275199
0.201051
0.157515
0.373805
0.518791
-0.826057
-0.0930115
0.577296
-0.0469692
0.280144
0.364281
-1.01046
-0.467903
-0.18017
0.537092
0.485251
0.181459
0.0336976
-0.709144
0.524121
0.985712
0.0574231
0.858921
0.594311
0.676216
0.761137
0.0452127
-0.557738
0.156788
-0.0324474
-0.761496
-0.909342
0.0466797
-0.688018
-0.0861247
-0.0551782
0.277548
-1.05225
-0.735071
0.862696
-0.1849
-0.226436
-0.469242
0.118266
-0.478959
1.11044
-0.572852
-0.631235
-0.8327
-0.0500427
0.493936
-0.115649
1.30671
0.950424
1.33657
-0.720194
0.0766666
-0.407576
-0.20922
-0.0210693
0.503653
-0.706114
-0.599064
-0.368537
-0.940194
0.456176
-0.0587241
0.34104
-0.1954
-0.0229
-0.0995438
0.617499
-0.654503
-0.186858
-0.263673
0.924793
-0.297128
-0.838492
0.361271
-0.118249
0.741222
0.353847
0.904548
0.994213
0.190215
-0.601715
0.534445
-0.513934
-0.999938
-0.0257169
0.664739
-0.282565
0.673507
-0.194874
-0.674699
-0.266277
0.7767
0.4236
-0.521396
0.403831
0.572761
0.692712
0.0924441
-0.618847
-0.38063
-0.347779
0.548445
0.154912
0.979233
0.0644283
0.0170524
0.969429
1.04865
-0.624055
0.0056707
-0.45697
0.249866
-0.220323
0.37689
0.770013
0.309087
-0.512208
-0.759118
0.627492
-0.7007
0.881291
0.176465
0.0174621
0.314783
0.174017
0.167445
-1.0817
-0.0398368
0.242311
0.382607
-0.495834
0.101735
0.691482
0.155649
-0.0568928
0.513938
0.0968041
-0.757891
-0.604225
0.436447
-0.179141
-0.732979
-0.280525
-0.622209
0.30264
0.790426
-0.0744191
-0.4232
0.154369
0.145906
-0.0714756
-1.01845
-0.308039
0.170855
0.787908
-0.46251
-0.635168
0.306509
-0.44171
0.774831
0.773228
0.892105
-0.630346
-0.520143
-0.0435517
-0.47456
0.29402
0.550062
0.142108
0.131453
-0.483763
0.158195
0.677369
-0.112665
-0.0809729
-0.3363
-0.473565
-0.603279
0.0459299
0.480494
-0.945151
-0.719916
-0.281416
0.79927
-0.606017
-0.897547
-0.244566
-0.203846
-1.26463
-0.186173
-0.499205
0.310438
0.799714
0.828616
-0.0815529
0.781757
0.224947
0.725875
-0.00781247
-0.639404
-0.250214
0.476159
-0.327324
0.3895
-0.16481
0.842506
0.216191
-0.550282
-0.506812
0.898732
0.0201805
-0.214316
-0.0734908
-0.155271
-0.216534
-0.607801
0.229057
-1.14483
0.502194
-0.395302
-0.239026
0.751353
0.777556
-0.48699
0.730067
0.116231
0.284232
0.834433
0.834843
0.322208
-0.220454
-0.0894
0.314954
-0.848593
0.440824
0.323061
0.976379
-0.26187
0.0200673
0.885937
0.123581
0.915571
-0.27714
-0.748822
0.68075
-1.01968
0.502666
1.05732
-0.392164
1.01194
0.720971
0.107575
0.315905
0.199998
-0.922808
-0.6963
-0.0198289
0.757868
0.357517
-0.7577
-0.342856
-0.0864356
0.557187
0.876741
0.548186
0.715612
-0.542142
0.358914
-0.547621
0.00280526
0.452044
-0.421911
0.603665
0.584368
0.480413
-0.916654
0.853288
-0.437963
-0.791581
-0.174452
-0.73236
0.894922
0.613831
-0.0141108
-0.90005
0.305262
0.289298
-0.0008
-0.9156
0.2107
-0.7377
-0.941428
0.925902
-0.102054
-0.755968
-0.234448
0.146758
-0.690721
-0.622656
-0.5831
0.18248
0.191296
0.661097
-0.931481
0.27904
0.396999
0.6751
-0.1457
0.6461
-0.305226
0.278312
0.1574
-0.5507
0.7636
0.1566
0.2729
-0.0179
0.6102
0.367
-0.8869
-0.795112
0.875068
0.639915
-0.708303
-0.279276
0.585348
-0.303295
0.731429
-0.0867909
0.707878
-0.124316
-0.46787
0.510678
0.612924
-0.216498
-0.50165
-0.871922
-0.559944
-0.288495
-0.0393998
0.133
-0.936
0.5194
0.1217
0.6371
0.293504
-0.27251
-0.131057
-0.935767
-0.258774
-0.385837
0.412054
-0.371512
-0.183229
0.78227
0.230518
-0.892236
0.608316
-0.619694
0.122661
-0.0325454
-0.013966
0.122941
0.586083
-0.426967
-0.491702
-0.379578
0.222088
-0.22805
-0.729118
-0.869489
0.4876
-0.7609
0.412649
-0.958157
0.63645
-0.823742
0.815327
0.333512
0.0979892
0.287637
0.0514377
-0.953297
-0.70215
-1.00471
0.557578
0.797261
-0.798367
-0.606162
-0.630665
-0.251233
0.0232493
-0.900934
-0.363672
0.11843
-1.09575
-0.516314
-0.215852
0.126035
0.596044
-0.7477
0.315762
0.838641
0.514642
0.68729
0.391754
-0.373896
-0.266437
-0.890192
0.536354
-0.118501
-0.538215
-1.06664
0.625704
0.325248
0.1331
0.322274
0.378669
-0.585308
-0.734379
-0.00807301
0.478352
0.330981
0.545663
0.795641
-0.890895
0.864891
-0.552525
-0.5251
-0.0876692
-0.420672
0.594962
0.336288
0.354561
-0.101771
0.573215
0.496859
0.0383903
0.722539
-0.505695
-0.47094
0.602489
-0.00986944
0.530749
0.364653
-0.657754
-0.00143531
-0.060284
0.802812
-0.374251
-0.669544
-0.234664
0.606609
0.382357
-0.365644
0.930189
-0.4736
0.339929
0.198326
-0.148953
-0.841334
-0.798779
0.426472
0.700211
0.655684
-1.00521
-0.830419
-1.00741
-0.0875483
-0.873159
0.171988
0.232418
-0.232572
0.506711
-0.093172
0.250729
-0.66117
0.744117
0.776387
0.0618125
-0.819272
-0.0258985
0.845376
-0.0218141
-0.2541
0.131133
-0.791579
-0.148092
0.0498441
-0.625562
0.470213
0.632435
-0.625494
0.541997
-0.0666212
-0.135941
0.788383
0.227426
-0.451679
-0.119848
-0.120465
0.403243
-0.453927
0.786048
-0.951876
-0.567976
-0.608326
-0.69398
-0.591084
0.567883
-0.300755
0.0074
-0.4817
-0.808715
0.146693
-0.00272176
0.375491
0.0294013
-0.467012
0.387568
-0.730414
0.379131
-1.04351
0.664715
0.0152918
0.679264
0.0463463
-0.048986
0.235422
0.03273
-0.389444
0.8336
0.616916
-0.749024
-0.100703
-0.546448
-0.167238
-0.81371
0.810193
-0.8065
0.1194
-0.487629
0.639775
-0.853582
0.235629
-0.331865
0.883176
0.00843389
-0.243164
-0.28838
0.00411961
-0.67766
-0.384251
-0.0386342
-0.215935
0.654993
-0.0880567
0.829038
0.0267729
0.653185
-0.533491
-0.379104
0.958147
0.0201269
-0.211088
-0.911243
-0.455086
0.513374
0.2045
-0.890028
-0.535685
0.392932
-0.365005
0.0475912
0.306798
-0.303723
-0.606447
0.817173
-0.448616
0.292215
0.332907
0.69315
-0.0309068
0.0616555
-0.0646535
0.772337
-0.102022
0.320723
-0.883549
0.929209
-0.376736
-0.303724
-0.770609
0.196882
0.436242
0.196803
-0.8958
0.215735
-0.61259
-0.825051
-0.344271
-0.126998
-0.262599
-0.197176
0.896592
-1.00173
0.903191
-0.770814
0.651768
0.849285
-0.356093
0.856141
-0.15207
0.245724
0.623658
0.16504
-0.440728
-0.941214
-0.227377
0.466453
0.6805
-0.822292
-0.370984
-0.5481
-0.5997
-0.362641
-0.184443
0.0705663
-0.472162
-0.331041
0.138329
-0.656756
-0.341072
0.695908
0.535596
0.783837
-0.105517
0.227472
0.885788
0.421792
1.36766
0.00851341
-0.756413
-0.754897
0.394066
-0.26729
0.660902
-0.910115
-0.625369
-0.00258538
-0.408975
-0.5487
0.1589
-0.893057
0.632403
-0.633169
-0.352303
-0.0863165
-0.430959
0.117203
-0.961207
-0.655403
-1.09536
-0.579884
0.973914
0.490299
0.230431
-0.780746
0.925321
0.111216
0.306415
0.493496
-0.466265
0.666553
0.11974
0.231895
-0.676684
0.177126
-0.318887
-0.0485
-0.8311
-0.627714
-0.904074
-0.931166
0.142733
0.0629401
-0.65296
-0.792363
0.269051
0.146152
-0.625667
-0.798989
-0.781097
-1.02441
0.0554879
-0.608199
0.564642
-1.13126
0.542544
-0.181514
0.843108
-0.186451
-0.122761
-0.345308
0.0614654
-0.572753
-0.662009
-0.5052
0.307176
-0.319912
-0.460997
0.60012
-0.201869
0.250705
0.565996
-0.152792
0.324316
0.268281
-0.12162
-0.974954
-0.234081
-1.05843
-0.00895597
-1.31018
-0.765955
-0.995309
-0.799714
-0.933392
-0.317957
-0.766906
-0.306877
0.56782
-0.0576076
0.784317
-0.289035
0.352374
0.619168
0.760169
0.292656
-0.978523
-0.2831
-0.0733732
-0.510012
-1.19894
-0.37216
-0.300813
-0.436781
-0.894474
-0.548702
-0.81986
-1.84628
-1.24544
-1.44527
-0.0129437
-0.213593
0.802817
-0.336963
0.302235
0.291025
0.680243
-1.04648
-0.809956
0.134764
-0.528023
0.654677
0.863875
-0.412423
0.666769
-0.396104
0.0973205
0.910872
0.899215
0.247537
-0.111946
0.447991
-0.612818
-0.546664
-1.54647
-0.264251
-1.37968
-0.975202
-1.04003
-0.971493
-0.186562
-0.329852
0.504376
-0.638127
-0.513298
0.56875
-0.755213
-0.116713
-0.169516
0.818108
0.528665
0.242385
-0.609935
-0.404593
1.18573
-0.583761
0.702813
0.0251393
0.354085
-0.890711
0.179279
-0.348047
-1.46689
-0.277487
-1.2465
-0.105424
-1.05296
-0.734889
-0.577829
-0.109328
-0.104631
0.381784
-0.310958
0.734989
0.0665673
0.803746
-0.7379
-0.414613
-0.511594
-0.71918
0.0354802
0.0132183
1.02369
-0.346096
-0.0572248
0.0363938
0.571971
0.48362
-0.548523
-1.05029
-0.0980816
-0.862473
-0.513239
-0.108604
0.568105
-0.86234
0.038369
-0.0340587
1.00164
-0.496355
-0.0565744
-0.833009
0.608846
0.21811
0.5272
0.2349
-0.287747
-0.472045
-0.239129
0.165554
0.235307
0.0407146
0.80451
-0.296057
-0.284301
0.371227
0.117059
0.800925
-0.32092
1.02516
-0.216599
0.00227292
-0.787754
-0.0784832
-0.40276
0.00821581
-0.44401
1.016
0.0358785
0.273158
-0.299112
0.510669
0.3559
0.6718
-0.519083
-0.513585
0.621713
-0.404188
-0.451337
0.934217
-0.736587
0.39698
0.696092
0.179658
0.948566
0.590468
0.750575
-0.119126
-0.967488
-0.0240119
-0.608487
0.905421
-0.782997
0.224755
-0.415977
0.693246
-0.74891
-0.684667
-0.677294
-0.445567
0.4263
-0.206983
-0.939594
-0.0886607
0.11882
-0.0782285
0.488756
0.352824
0.222827
0.345944
0.260701
0.262099
1.2151
-0.168354
0.0463671
-0.611441
0.486576
-0.898489
-0.804578
0.251878
-0.328825
0.799317
0.302756
0.16287
-0.202942
-0.0732209
0.641233
-0.772871
0.5858
-0.536114
0.805945
-1.21002
0.120895
0.856209
-0.199992
0.195089
-0.539315
1.01844
-0.317686
0.753982
-0.535236
1.19596
0.202577
0.590138
-0.0241966
-0.803108
-0.933701
0.0992352
0.00318377
-0.634999
-0.558426
0.670175
-0.57309
-0.49228
-0.575161
-0.284313
-0.1984
0.524827
0.981543
-0.263992
0.723912
-0.518325
-1.01439
-0.25485
-0.761369
-0.214703
0.800322
1.0046
1.02202
0.270686
0.550058
0.8994
-0.373037
-0.838179
-0.26139
-0.0518623
0.268938
-0.669069
-0.789967
-0.0632762
0.10204
0.459716
-0.573184
-0.458299
0.7126
-0.742553
0.653556
0.0039576
-0.115206
-0.955129
-0.789443
0.161987
0.228934
0.507655
-0.307892
-0.45313
0.880378
-0.445788
-0.398916
-0.6716
0.460268
0.640431
-0.733407
0.651353
0.589388
-0.570843
0.427514
-0.345322
-0.741143
0.0991166
-0.924617
0.364828
-0.9711
0.320228
-0.0413463
0.476715
0.53866
0.577125
0.78396
-1.17049
0.159619
-0.6876
0.207355
-0.949738
-1.02811
0.272372
0.640546
-0.272231
0.744786
-0.860859
-0.607063
0.622935
-0.125092
0.323727
-0.283734
-0.829308
-0.175871
-0.942787
-1.02452
0.814622
0.6094
0.1289
0.756966
-0.153778
-0.0797093
0.724421
-0.896294
-0.663584
0.723632
-0.463471
-0.822551
0.81482
-0.363631
0.463002
0.0123966
-0.164524
0.285263
0.329352
0.606325
0.801091
-0.758435
0.185169
-0.438742
0.0375417
-0.735825
0.765992
-0.227723
0.5429
0.4964
0.2701
-0.5527
0.3853
-0.73989
-0.0354797
0.339651
0.761721
-0.643534
-0.00916755
-0.987568
-0.0477983
-0.3286
-0.125189
0.999936
-0.859582
0.797233
-0.382468
0.7634
0.1139
-0.6933
-0.4802
0.0632948
0.3077
-0.8309
-0.464
-0.6027
-0.1504
0.7538
-0.5671
-0.6342
0.2399
0.373896
0.0955466
0.671963
0.965505
-0.424068
-0.178436
0.0014842
0.650949
-0.81825
0.543577
-0.140624
0.268951
0.343205
-0.572971
0.894794
0.851081
-0.97396
0.6982
-0.388982
0.594928
-0.711404
-0.486802
-0.9301
-0.5364
-0.4401
0.4611
-0.898367
0.518238
0.882005
-0.921906
0.462912
-0.583009
0.700557
0.731261
-0.798377
0.0929155
-0.625147
-0.892832
0.169183
0.0280139
-0.683276
-0.812058
0.839712
0.700269
-0.238832
-0.300923
-0.910705
0.848849
-0.122564
0.0800494
0.995414
0.0728981
-0.154458
-0.8642
0.908021
-0.400188
0.651688
-0.841224
0.708799
-0.629245
-0.116784
-0.0933906
-0.89217
-0.946729
0.475878
0.828597
-0.106741
0.0125411
0.534315
0.816173
1.07976
-0.549715
0.748447
-0.0207076
0.345217
0.527515
-0.730647
-0.158438
0.0396032
-0.663654
-0.101702
0.1582
0.936703
-0.983215
-0.444916
-0.0716504
-0.0782989
-1.14358
0.561746
0.433268
-0.50904
-0.698373
0.646272
-0.692493
-0.598647
-0.303919
-0.154668
-0.0176649
-0.397778
-0.542111
-0.412662
0.844385
-0.360329
-0.541287
0.870439
-0.0899778
0.724166
0.328405
-0.571557
0.1489
0.0973852
0.839455
0.523162
-0.975031
-1.31699
-0.234151
-1.18475
0.242053
-1.18397
-1.04102
-1.00633
-0.556143
-0.992707
-0.970404
-0.484433
-0.451654
0.945636
0.663939
-0.148964
-0.727202
0.0893472
0.84075
-0.567436
-0.760846
0.269725
0.356945
-0.490435
0.6783
-0.273382
0.278992
-0.261705
0.204309
-1.05573
0.0326996
-1.03931
-0.804543
-0.792003
-0.152047
-1.21131
-1.07099
0.103215
-0.510074
0.355242
0.434819
0.310203
0.733108
-0.552994
0.6208
-0.0769895
-0.0950832
0.0467152
-0.341143
0.121703
-0.788486
-0.907549
0.9426
0.971934
-0.861144
-1.08412
0.278028
-0.701248
-0.518126
-1.48364
-0.345646
-0.708196
-0.813216
0.024276
-1.00381
0.368043
-1.11318
-0.846971
0.59079
-0.488069
-0.279403
0.701151
1.04012
0.450057
0.548347
0.452341
0.605717
-0.344196
-0.188107
-0.5082
-0.6251
0.153836
-0.639566
0.159731
-0.290968
-1.35377
-0.63163
-0.956097
-1.44719
-1.45309
-1.20447
-0.990623
-1.68918
-0.833344
-1.38751
-1.10921
-0.382741
-0.233929
1.2246
-0.426044
-0.151973
0.462492
0.91211
-0.685826
-0.370354
-0.269258
-0.0112674
-0.5509
-0.9875
-0.839266
-0.322842
0.925291
-0.950246
0.835507
0.39747
-1.00056
-1.5858
-1.0285
-1.05082
-0.482855
-1.35851
-0.609819
-1.49259
0.350053
-1.06088
0.460986
0.817959
0.11906
-0.201687
-0.45017
-0.236515
0.677595
-0.0810771
-0.121508
0.697673
-0.150167
0.7619
-0.690284
0.0302355
-0.695828
0.88676
-0.656023
0.101517
0.645086
0.405911
-0.945065
-1.36567
-1.19607
-0.839923
-1.1105
-1.06204
-0.366604
-0.677573
-0.403694
0.132183
-0.151112
1.1028
0.51487
0.0394943
0.414398
-0.510688
0.656698
0.675274
-0.0911215
0.9266
-0.331619
0.588612
0.0469009
0.433325
-0.337652
0.808973
0.989227
0.665226
0.0891369
0.458707
-0.703672
-0.357999
0.152918
-0.321357
-0.517002
-1.19711
-0.0533431
0.654721
1.00452
-0.351745
0.690793
-0.412925
-0.0116546
0.505191
-0.682229
0.777592
0.4178
0.2576
-0.563546
-0.775323
0.799608
-0.124725
0.0939518
-0.345284
-0.465641
0.572973
0.944516
0.987712
-0.831959
-0.373502
-0.78073
0.0515268
-1.01877
0.113913
-0.793612
-0.0761674
0.3418
-0.0383427
0.178469
0.185347
-0.398316
0.365599
-0.68907
0.256044
0.0996
-0.7932
-0.600679
0.97054
-0.357371
0.178334
0.191101
0.706031
0.193645
0.538268
-0.440097
0.258188
0.519048
0.165858
0.823216
-0.799614
0.463419
-0.646311
-0.0423484
0.0255751
0.377298
0.432981
0.490079
-0.152418
0.438917
-0.410987
0.198189
-0.0831347
0.63466
-0.3668
0.373494
0.579806
0.697196
0.591811
-0.772112
0.253437
-0.328601
0.625053
1.12719
0.0418097
0.13307
-0.239588
-0.672701
0.55436
-0.358083
-0.633104
0.43997
0.401824
-1.14533
0.471919
-0.245957
0.0982115
-0.744352
0.264161
0.606615
0.541202
-0.2625
0.941856
-0.832877
0.604488
0.693551
-0.696969
0.175266
0.0496834
-0.276578
0.22103
-0.551176
0.30017
-0.0482416
0.682945
0.271589
-0.587582
-0.730258
0.240173
-0.100934
-0.451051
0.515888
-0.503626
0.829547
-0.0460849
0.517494
-1.02654
0.757663
0.416046
0.636417
0.258726
-0.137495
0.0422481
-0.47025
0.637131
0.673001
-0.489582
0.0217853
0.040933
0.135573
0.246682
-0.0821071
0.48397
0.571375
-0.415297
-0.429115
0.0263123
-0.877749
0.710435
0.192201
-0.573695
-0.368307
0.765169
-0.0501357
-0.436384
-0.10677
-0.0335896
-0.151623
-0.468925
-0.585952
0.884484
0.302141
-0.706593
0.410304
0.351359
0.02513
0.717658
0.557732
-0.0429939
0.288682
0.824489
-0.567378
-0.312544
0.303671
0.598595
-0.714776
-0.520508
-0.13045
-0.375626
0.18667
-0.138249
0.214363
0.0513643
0.963294
-0.63921
0.0305537
-0.0845321
-0.331399
0.0503897
-0.49869
-0.756591
-0.405896
-0.255789
0.247312
-0.492078
0.381662
0.180851
0.166071
0.629692
-0.377377
0.183249
0.756377
-0.37741
-0.443517
-0.376629
0.560508
-0.277824
-0.0919865
-0.507989
0.862446
0.288586
0.582774
-0.472627
-0.437129
-0.0229637
0.664756
0.154872
0.535198
-0.102652
-1.23791
0.437279
-0.39381
0.172632
-0.0430622
0.0536985
0.379243
0.338826
-0.638106
-0.691271
0.312627
-0.638927
-0.906297
-0.0493937
0.541646
-0.352277
0.957205
0.854092
0.396795
-0.899924
-0.783129
-0.15143
-0.4908
0.2192
-0.0462229
-0.116085
-0.899682
0.247014
0.469675
-0.423298
-0.239619
1.08059
-0.806082
-0.470066
0.121659
0.103316
0.556961
0.296404
-0.899394
0.274699
0.390347
-0.487609
-0.0370949
0.0466342
-0.367382
-0.399038
0.193577
0.741464
0.388327
-0.660217
-0.034
-0.1618
0.742178
-0.47452
0.119466
-0.58988
-0.179764
-0.571571
0.0300112
-0.221697
-0.868148
0.113069
-0.0876546
-0.0940897
0.70723
0.135829
-0.138469
0.108446
-0.526726
0.868292
-0.252018
-0.618046
0.400767
-0.225466
0.27094
0.210181
-1.04925
0.897232
-0.6448
-0.27279
-0.6324
0.0287399
-0.755585
0.798567
-0.476532
0.551696
0.421423
0.270038
-0.146889
-0.237309
0.641433
-0.389243
-0.100594
-0.101446
0.397368
0.078281
0.675152
0.0279444
0.206491
-0.780101
0.291746
0.219824
-0.238096
0.628133
0.198395
0.824767
0.9289
0.797751
0.843667
0.097136
-0.807714
-0.416589
0.475341
-1.00498
0.0447302
0.276975
0.579272
-0.599233
-0.482213
-0.640366
1.10732
-0.158505
-0.775193
-0.571584
0.871867
0.363595
-0.330778
0.272647
0.933093
-0.875166
-0.784872
-0.757867
-0.76108
0.393064
0.5063
0.874572
-0.107549
0.423985
-0.532526
0.250808
0.574154
-0.068635
-0.838853
-0.680812
0.0253949
-0.140927
-0.600816
0.119614
-0.829635
0.910244
0.130722
0.687799
-0.819515
-0.480203
-0.812224
0.589097
0.703944
-0.0801192
0.151241
-0.0523037
0.796391
0.33011
0.5352
0.909022
0.00513782
0.709509
0.226106
0.310618
-1.12664
0.206005
-0.187631
-0.304943
0.119352
-0.903156
-0.337543
-0.552536
0.737751
-0.0755021
-0.512977
-0.803462
0.336371
-0.131941
0.031845
-0.634082
0.83617
-0.916345
0.0251919
-0.981916
-0.29957
-0.220454
-0.3573
0.87948
-0.881181
-0.94672
0.0737452
0.740929
-0.203621
-0.0328566
-0.57781
-0.575839
-0.906359
-0.470819
-0.177569
-0.51045
-0.090917
0.381445
0.360236
0.403643
0.394361
-0.30863
-0.404093
0.505798
0.662944
-0.722326
0.115019
-0.0419793
0.195364
-0.0606645
-0.3823
-0.975958
-0.145464
0.325999
0.474591
-0.843276
0.518928
0.143469
-0.766827
0.130431
-0.0669217
0.150621
-0.0221563
0.721981
0.160136
-0.266484
-0.405193
0.827838
-0.581109
-0.994447
-0.682917
0.441602
-0.454865
0.310058
-0.120705
-0.842486
-0.203116
0.342895
-0.2375
0.6888
-0.0199
-0.4704
-0.222147
-0.831072
0.854868
0.909338
0.228512
-0.663488
-0.373389
0.972489
0.5484
-0.0933
0.5358
-0.5948
0.5747
-0.4848
0.7845
-0.8353
0.1745
-0.2778
0.895578
-0.596118
-0.9459
-0.9042
0.6976
0.7644
0.7797
0.6834
0.78
-0.1734
0.3041
-0.340416
0.917342
-0.316864
0.994442
-0.888637
-0.936538
0.699696
0.547258
-0.391091
0.97735
-0.480393
0.943654
-0.30146
0.18788
-0.973848
0.987756
-0.188036
0.312356
0.128291
-0.0523066
-0.0718033
0.6252
0.9189
0.3534
-0.7236
0.300265
-0.86349
0.0401108
0.607038
0.0351386
-0.716767
-0.643446
0.861232
-0.55141
-0.0892264
0.177233
-0.895612
0.741335
0.0405243
-0.159562
0.864878
-0.666419
-0.748529
-0.950589
0.598862
0.586965
0.63213
-0.86706
0.0838953
-0.529274
0.616983
-0.112937
0.3201
0.218969
-0.618719
-0.133314
-0.741033
0.12482
0.354179
0.452253
0.532628
-0.258003
0.482909
-0.932366
0.493263
-0.0609693
0.104782
0.315045
-0.433044
0.00239861
-0.407286
0.683641
0.737151
-0.989325
-0.966328
-0.197793
-0.945481
-0.343345
0.849365
-0.989699
-0.1605
0.429273
-0.746925
0.327611
-0.103469
0.253611
0.81023
-0.443091
0.425356
-1.03239
-1.21078
0.0743308
-0.976528
-0.466315
0.833858
-0.00232294
-0.333688
0.933532
0.104637
0.801455
0.226844
-0.0960443
-0.502893
-0.130309
-0.279081
0.129154
0.283865
0.630065
-0.7674
0.627384
-0.075832
-0.900412
-0.695099
-0.149577
1.0533
-0.684147
-0.693548
0.527661
0.389862
-1.10946
-0.213893
-0.0156894
0.808349
0.683819
-0.227617
0.342708
-0.103714
0.386971
-0.388075
0.711774
-0.467408
0.0995693
0.557462
-0.1049
0.719343
0.210438
-0.2046
0.810898
0.450926
0.399192
-0.439191
-0.727932
-0.625206
-0.39285
0.558252
-0.426171
-0.317789
-0.126081
-0.449513
0.65536
0.304501
-0.227079
-0.134934
0.679448
-0.410697
0.0301532
0.557637
-0.59242
0.318473
0.669475
0.968216
-0.57453
0.266133
0.202295
-0.474
0.828896
0.479706
0.42792
-0.428571
0.765794
1.13488
0.793852
0.197872
0.300631
-0.954895
-0.366262
-0.0919049
0.448332
-0.557886
0.724231
0.596936
-0.362866
0.321637
-0.276003
-0.0622533
0.22843
0.497051
0.598834
0.109654
0.129049
-0.807705
0.1243
-0.7232
0.31149
-0.406052
-1.0362
0.342774
-0.504054
0.326608
-0.589817
0.671559
0.568177
-0.190075
-0.769861
-1.06857
-0.194652
0.199738
-0.229882
1.02514
-0.755294
0.877217
0.53234
0.641047
0.880752
0.917458
0.628076
0.430959
0.566413
1.00121
-0.8017
0.3515
-0.429966
-0.874896
-0.574101
0.673691
1.006
-0.267056
0.219161
0.884551
0.226703
0.635809
0.285732
0.145272
-0.108029
0.719096
0.873812
0.627365
0.164027
0.87347
1.18312
-0.168466
0.432983
1.36131
0.942772
0.0261574
0.445005
-1.02001
0.984844
-0.1801
0.152408
0.610684
0.112372
0.300436
-0.198002
-0.633321
0.302693
0.526275
0.0466366
1.13055
0.0400519
-0.799977
-0.499963
0.298976
0.464264
0.62321
-0.420253
0.318853
0.586754
1.31907
-0.254731
-0.629814
0.667739
-0.0169338
0.0789243
-0.105181
0.668465
0.3019
-0.0904161
-0.0756491
-0.840763
-0.821772
-0.435546
0.192382
0.667971
0.116516
0.456047
-0.804898
-0.0799117
-1.01201
0.439724
0.270049
0.396168
0.389505
-0.113704
-0.0498283
0.635883
0.0968016
0.355054
0.280397
-0.22674
-0.251788
-0.105767
1.01142
0.1574
0.2673
0.947812
-0.152131
-1.20616
-0.490484
0.563982
-0.0395949
-0.368299
-0.781745
0.232768
-0.287472
-0.812435
-0.619157
-0.315987
-0.809365
0.760115
-0.981257
-0.232076
-0.0323179
0.358492
-0.269538
0.0740398
-0.374281
0.348768
1.11752
0.0840176
-0.11374
0.5006
0.8624
-0.559749
-0.534396
-0.357738
-0.116531
-0.206312
-1.10029
0.105995
-0.465292
0.32769
0.517616
-0.787191
-0.188121
0.301483
-0.385041
-0.198161
-0.580102
0.231461
-0.459573
-0.808982
0.116328
0.54913
0.0932114
0.976067
-0.102541
-0.878256
0.626933
-0.293632
-0.0974
-0.962628
-0.336926
-0.187899
-0.829863
-0.573964
-0.568465
-0.75616
0.19129
-0.714188
-0.277597
0.707424
-0.541223
-1.18545
-0.240413
-0.706792
-0.227511
0.143895
0.321408
-0.171685
0.306131
-0.470815
-0.233016
-0.0401689
0.213454
0.0494257
0.973056
0.0795
0.296391
-0.124524
0.652062
-0.62838
-0.436184
-0.169136
0.0194348
0.365214
0.192298
0.597359
-0.600102
-0.393385
0.530831
-0.0156633
-0.172613
-0.343864
0.234128
0.340888
-0.408269
-0.912864
-0.657179
0.00715336
0.174443
-0.225855
0.147755
0.0986485
0.0605401
-0.888248
-0.0844192
-0.971416
-0.320751
-1.07705
-0.493639
0.117282
-0.526014
-0.281742
0.64013
0.121777
1.04127
0.440762
-0.441034
-0.327804
-0.775635
-0.916947
-1.02476
-0.173024
0.149693
-0.886426
-1.09706
-0.215375
-0.642283
-0.0484922
-0.174645
-0.247516
0.281265
0.771491
-0.275177
-0.022597
-0.916021
-0.530751
-0.0705264
0.55144
0.631045
0.175331
0.718109
-0.390531
0.61864
1.53974
1.25614
-0.0994484
0.673227
-0.738115
0.680091
-0.202591
0.246117
-0.850659
-0.389509
-0.726003
0.614648
-0.51038
0.671484
-0.2826
0.92001
0.636268
-0.798378
0.0319774
-0.148591
-1.11422
0.519082
-0.257973
-0.215929
-0.384032
0.673837
-0.636634
-0.582432
1.39951
0.881028
0.577282
0.801322
-0.200597
0.962675
0.604176
-0.418779
0.719173
0.693526
-0.548023
0.039043
-0.653434
-0.0548102
0.795427
0.605204
-0.0376457
-0.370625
-0.587992
0.290674
-0.518988
0.622248
0.862117
-0.609199
-0.625024
-0.737167
-0.166227
0.126502
1.1971
1.09795
-0.253071
0.316223
0.110241
-0.63026
0.530721
0.370044
-0.391354
-0.941498
0.0911219
-0.751696
0.331596
-0.00796838
-0.814615
-0.964445
-0.4641
-0.6396
0.436444
0.54655
-1.04951
0.915185
0.403583
-0.123723
-0.884264
0.4594
-0.301481
-0.520192
-0.127068
0.780005
1.0409
0.20653
-0.0621449
0.381989
-0.652791
-0.0487045
0.480512
-0.181208
0.57671
-0.0773291
-0.491639
-0.128354
0.0905279
0.749598
0.0952
-0.9568
-0.433321
0.563565
-0.850908
-0.358018
-0.20577
0.20561
-0.135525
0.660449
0.881172
-0.328432
-0.587481
0.392669
-0.00655491
0.958657
-0.386347
0.302416
-0.246426
0.221777
-0.299405
0.535772
-0.0835578
-0.643291
0.666869
-0.517964
0.37211
-0.51571
-0.9582
0.517233
0.63547
-0.633901
0.105827
0.61382
0.753054
-0.695017
0.580867
-0.347547
-0.778802
0.452831
-0.952284
-0.700098
1.13883
-0.514249
0.88158
1.01754
1.00886
0.871709
0.616229
-0.248043
0.245864
0.0278348
-0.262551
-1.33298
-0.458384
-0.614408
0.7434
0.620995
0.0196587
0.485011
0.509185
0.332381
0.831615
-0.578658
1.28226
-0.0966465
-1.04006
-1.32958
-0.484775
0.314082
-1.03652
-0.0458887
-0.613164
1.21835
0.52066
0.65465
-0.0646703
-0.326021
-0.504434
0.35407
0.214295
-1.24369
-0.181275
-0.952218
0.1637
0.0404712
-0.340884
-0.321554
-0.106778
0.866739
0.946083
-0.919195
0.547615
-0.447616
-1.05429
0.123222
-0.127352
-0.0422638
0.754477
-0.13628
0.365106
0.307642
0.0522298
0.699413
1.11828
-0.0638868
-0.704168
-0.867968
-1.14215
-0.929654
-1.07454
0.155526
-0.1364
0.168445
0.799642
0.605616
-0.142361
0.271191
-0.326805
0.766676
-0.997572
-0.417396
-1.78132
-1.26351
-1.54037
-1.38703
0.887236
-0.648849
0.0577026
0.604472
0.530978
0.250055
0.144302
-0.488044
-0.48147
-0.873091
-0.316921
0.0455138
0.570182
-0.674267
-0.0484
0.523486
0.485481
-0.84477
-0.550676
-0.692931
-0.339644
0.142966
0.209126
-0.755418
-0.879777
-0.275825
-0.766062
-0.643027
-0.679202
-0.683913
0.884522
0.687285
-0.276888
0.294042
0.67492
0.561392
-0.337059
-0.369076
-1.01091
0.246905
0.728814
-0.177871
0.2916
0.927763
-0.539008
-0.303788
0.8358
0.63712
0.973549
-0.217827
-0.082455
0.969615
0.767087
0.0447873
-0.673526
0.886249
-0.574814
0.290596
-0.442955
0.00373532
0.597145
0.483418
0.901474
-0.561255
0.303145
0.552791
-0.596215
-0.328465
0.266587
-0.738438
-0.914
-0.434
-0.6592
-0.6407
0.0611732
-0.649727
-0.301476
-0.262978
0.445394
0.919881
0.129771
-0.57964
0.4089
-0.625125
-0.907203
-0.598003
0.597496
-0.187474
0.278993
-0.9895
-0.5008
0.6935
0.246049
0.782192
-0.4209
0.6709
-0.6626
0.9557
0.6945
0.9158
-0.9146
-0.1693
-0.1524
-0.417756
-0.784214
0.385322
0.880029
0.0322043
0.412364
-0.779782
0.948207
-0.8098
-0.357595
0.115383
0.0832053
-0.0845271
0.690776
-0.120813
-0.116983
-0.0116912
0.916785
-0.417995
0.037276
-0.188312
-0.0451
-0.3999
-0.1454
-0.5079
0.716882
-0.7562
0.445506
0.983172
0.914593
-0.765081
-0.617361
0.234601
-0.520546
0.953552
-0.661558
-0.0584939
0.0377264
0.293898
-0.469375
0.0536057
0.101948
0.757343
-0.711091
0.454088
0.014588
0.973171
0.275541
-0.156194
-0.598998
0.813513
-0.51879
-0.4971
0.670748
-0.0462719
-0.250916
-0.697832
-0.757651
1.10018
-0.0358233
0.434262
-0.208469
0.272323
0.640985
0.793893
0.333981
-0.167881
-0.174037
0.016356
-0.00753311
0.516675
0.452059
-0.854063
0.638579
0.208655
-0.749056
0.159278
-0.705443
0.059844
0.406684
-0.1664
-0.399172
-0.0132368
0.298416
-0.198359
0.249988
0.0322623
0.420507
0.0267175
0.105818
0.346239
-0.119777
0.242126
0.662058
-0.657471
0.796788
0.206995
0.0910712
0.400972
-0.324051
0.175073
0.288321
0.900548
-0.287115
-0.358449
0.376612
0.899524
-0.868154
-0.2383
-0.380827
-0.028002
0.0940256
0.327361
0.356504
0.508437
1.38717
-0.278288
0.776335
0.95007
0.0851572
0.305254
-0.279583
0.155292
-0.0558561
-0.56894
-0.414351
-0.97327
-0.916836
0.445702
-0.72032
0.470646
0.291161
-0.375065
0.856357
-0.946411
-0.0503792
-0.0335
-0.339634
0.561572
0.695158
-0.131267
0.663311
-0.145688
0.401776
1.14985
-0.2119
-0.557342
0.641818
0.168337
0.749854
-0.439992
-0.514998
0.624218
-0.43491
-0.263387
0.565176
0.288095
-0.467055
0.536708
-0.269998
0.431022
-0.142566
0.946513
0.0585
-0.2284
0.310312
-0.165056
0.344567
-0.417921
0.647625
0.547136
0.823946
0.051934
0.220401
0.700511
-0.483071
0.471378
0.397183
-0.455929
0.50878
-0.477573
-0.80313
-0.311984
0.140294
0.73795
-0.764547
0.135148
1.15552
1.08073
0.182421
0.574427
0.9869
0.8958
0.361517
-0.00841671
0.80638
0.0275124
1.37366
-0.457749
0.265585
-0.589228
-0.81525
-0.613807
-0.562828
0.393354
-0.829358
0.115121
-0.51707
0.253509
1.06275
0.425171
-0.552915
0.489471
0.569819
0.0402685
0.386455
1.36105
0.768809
0.77325
0.4733
-0.4115
-0.770714
0.874573
0.304491
0.27348
0.255364
1.07062
0.646472
0.00469834
0.157262
-0.397658
0.581502
-1.36919
-0.621078
0.333066
-0.165158
0.52319
0.343705
-0.186808
0.583772
0.113394
1.31387
1.66401
0.592396
0.464685
-0.0602954
-0.508445
0.868697
-0.9991
0.243924
-0.489283
0.464065
1.13472
0.243181
0.0513091
-0.00482492
0.431586
-0.107024
0.249863
0.58535
0.313569
-0.356266
-0.368524
0.215951
-0.352364
0.0705262
1.4262
1.67513
0.523222
1.12481
0.526825
1.05166
-0.288884
-0.622366
0.135654
0.208615
-0.0726
0.810777
-0.947165
-0.408916
0.199064
-0.680055
-0.640264
-0.0746545
-0.790538
0.395526
0.383542
-0.495551
-1.1591
-0.657663
-0.215287
-1.00353
0.265787
-0.27899
1.28018
0.879199
0.820199
0.640259
-0.647808
0.497024
0.626767
0.873083
-0.222055
-0.5409
0.307
0.816623
0.738441
0.939943
1.13791
-0.280256
-0.33184
-0.903128
-0.23257
0.481447
-1.45897
0.131652
-0.360331
-0.364631
-1.13492
-1.24703
0.943453
0.953351
0.611514
1.08147
-0.490904
0.801541
-0.0249958
-0.443763
0.716771
-0.446198
0.830919
-0.1227
0.9817
-0.738575
0.908046
-0.566622
-0.520174
0.42947
-0.176813
-0.636713
0.301977
-0.455403
0.137982
-0.999721
-0.703837
-0.904694
-0.718512
-0.00278883
0.387624
0.780535
-0.762188
0.0949161
-0.204366
0.560058
-0.0689147
-0.027812
0.0184925
-0.375753
-0.436771
0.661316
0.6979
0.712297
-0.525541
-0.321571
0.929479
-0.240262
-0.73564
-0.434427
0.413119
-1.21713
-0.139112
-0.531626
-0.937672
-1.01978
0.672768
0.24419
0.295868
-0.10262
0.595154
0.344499
-0.24864
-0.0162752
1.14291
0.118782
0.92577
-0.18875
-0.266579
0.1009
-0.0558069
0.876201
1.05008
-0.0221495
0.55437
-0.23663
-0.439985
-0.341344
-0.896234
0.000795924
0.0242797
0.00187226
-0.301059
-0.795529
0.180734
0.531549
-0.651164
0.188846
-0.356943
-0.161485
-0.472526
0.500639
-0.730478
0.689881
0.0794189
0.49681
0.489819
0.371665
-0.650747
-0.224417
0.832442
0.200109
-0.391421
0.15147
-0.870597
-0.433928
-0.278257
0.449389
-0.0574849
0.0201503
0.0691331
-0.477984
-0.674449
-0.377493
-0.715108
0.777799
0.751601
-0.918619
0.895516
0.695135
0.421218
0.459549
0.575449
0.808822
-0.396276
-0.903607
0.665565
0.281142
-0.220029
-0.000710429
-1.08877
0.475731
-0.478414
-0.65326
-0.556075
-0.121413
0.872447
0.554595
-0.79224
0.822876
-0.712948
-0.584999
-0.150037
-0.58017
0.837102
0.450536
0.0450484
0.498319
-0.221517
0.0740408
-0.00702505
-0.0458628
0.0154744
0.82939
-0.618955
0.249199
-0.795607
-0.309881
-0.472759
-0.137094
-0.833603
-0.960315
-0.11595
-0.119029
1.14397
0.346963
-0.289855
0.618188
-0.167637
0.0458286
0.663336
-0.0998734
0.292405
-0.723751
0.589189
-0.123572
0.572156
0.0961744
0.664258
0.939752
-0.91622
-0.11896
0.591563
0.672903
-0.444837
-0.639272
-0.107942
-0.701192
0.617013
-0.59651
0.600585
-0.79591
0.234196
0.65678
-0.124089
0.45378
-0.951701
0.245381
-0.437973
-0.419369
-0.909305
0.189992
0.0599021
0.640616
0.518708
0.633816
-0.528518
-0.395855
0.171827
0.4
-0.2045
-0.430521
-0.512759
0.387721
-0.959038
-0.75322
-0.627454
0.64873
-0.226108
-0.496794
0.625025
0.441052
-0.634181
-0.716107
-1.17885
-1.21782
0.264575
-0.369226
0.408369
0.255023
-0.862036
-0.734025
0.827035
0.114385
0.308924
-0.297133
0.531936
-0.8895
0.391
-0.262216
-0.835285
-0.529049
-0.988429
0.993154
-0.635553
-0.269685
0.87589
0.116348
0.790433
-0.0771212
-0.385925
-0.140331
0.385755
-0.397297
-1.07634
-0.9756
-0.0774247
-0.538625
-0.817012
-0.0631955
0.315847
1.02857
-0.315295
0.127275
-0.487674
-0.1074
0.6111
-0.715221
0.637094
0.055992
0.316204
-0.00422189
-0.908707
0.0982164
0.0679612
0.0732156
1.05578
-0.572052
-0.277819
0.409104
-0.237248
0.325026
-0.0826366
-0.358855
-0.789526
-0.253968
0.108564
0.35756
-0.467883
-0.17133
-0.343447
0.628882
1.00854
-0.691
0.4313
-0.104291
-0.559058
-0.404716
-0.123173
0.543212
-0.386892
0.539241
-0.535474
1.23289
-0.639221
0.4891
0.316787
-0.112208
-1.18601
-1.13312
-0.162993
-0.586161
-0.141573
-0.760331
0.583455
0.104085
-0.0359466
-0.643882
0.136206
0.474917
-0.0397986
-0.9625
0.792359
-0.714001
0.312435
-0.427682
0.831753
-0.687436
-0.174743
0.674987
1.30489
0.130457
0.543079
0.226869
-0.794232
0.180271
-1.1269
-0.431681
-0.568071
-0.453982
-1.26204
0.381817
0.191661
-0.471858
-0.709632
1.07615
0.606919
0.115304
-0.37601
-0.1092
-0.669361
0.591542
0.512313
0.272435
-0.252099
0.129015
1.03698
0.303324
1.05609
-0.57227
0.287914
0.403963
0.53247
-0.500809
0.177741
-0.312173
0.344772
0.0643497
0.811439
-0.19058
0.425249
0.00951022
0.326161
-0.188177
0.305315
-0.900683
-0.797281
-0.2072
-0.51949
0.222509
-0.554099
0.793122
-0.279889
-0.0178476
0.431421
0.137391
-0.430065
-0.254958
0.171119
0.278796
0.161521
-0.557078
-0.453952
-0.239221
0.308966
1.0259
0.631287
0.367605
0.614167
-0.359507
-0.478327
-0.4817
-0.283735
-0.493434
0.155645
-0.3854
0.0603103
-0.563013
-0.0063047
0.0842895
0.782902
0.686654
-0.07746
-0.699264
0.0268278
-0.782097
-0.82326
-0.608936
0.326556
0.0436489
0.00563205
-0.740238
-0.279349
0.372502
-0.289184
0.271647
0.382825
-0.147691
-0.946553
-0.486659
0.897749
-0.755508
-0.717217
0.4356
0.6749
-0.639
0.0042
-0.627184
-0.846182
0.215961
0.253694
0.892326
-0.287291
0.861086
-0.0302912
-0.7237
0.582801
-0.213686
0.823814
0.0959083
0.448102
0.0171978
0.7518
0.0735
-0.5535
0.877243
0.505504
0.0587
0.1169
0.3407
0.0502
-0.7312
0.4493
0.0544
0.1804
-0.342791
0.783944
-0.795978
0.675217
-0.0402407
0.883184
-0.287569
0.635203
0.929413
0.972673
-0.530908
0.748186
0.869173
0.0676236
-0.0111146
0.391065
-0.908819
-0.751586
-0.123811
-0.696634
0.525967
0.814084
-0.2289
0.637
-0.2422
-0.7616
-0.601999
0.883512
-0.0458042
0.9054
0.969362
-0.900213
0.0224587
0.913794
-0.565336
0.500126
-0.493398
0.287245
0.698397
-0.568618
-0.179784
0.909262
0.592682
-0.864248
-0.171398
0.265658
-0.536528
-0.0415736
-1.00833
0.0906901
-0.728217
-0.259486
0.403805
0.1163
0.0674168
0.791863
-0.40285
-0.513493
-0.766646
-0.132156
-0.459837
-0.454087
-0.242889
-0.625007
0.267581
-0.548783
0.906446
-0.764039
0.0353476
-0.457952
-0.788778
-0.207122
0.960998
0.391546
-0.487942
0.801046
0.203019
-0.935783
0.69074
0.053378
-0.634368
0.9159
-0.257067
-0.652043
0.642675
-0.238915
0.699211
-0.0700927
0.819763
0.127971
-0.766787
0.130905
0.143211
-0.139692
0.512022
0.66436
-0.629164
-0.803216
0.774377
0.502572
-0.528705
-0.433274
-0.144163
-0.880967
0.469325
0.637201
0.115559
-0.296162
0.190818
0.2225
-0.345526
0.825391
-0.177265
-0.340935
0.230041
1.32501
0.31345
-0.0956982
0.556956
-0.468618
-0.328523
1.50067
0.0264823
-0.631417
0.523047
0.372751
-0.258132
1.08022
-0.0255126
0.574815
-0.0982792
-0.103745
0.454249
0.662937
-0.360199
-0.292109
-0.437042
-0.0665
-0.676688
-0.272574
0.264466
0.381495
1.28918
0.351166
-0.523901
0.280209
-0.0570798
-0.0457609
1.04132
0.406526
-0.0306672
0.747006
-0.816943
-0.343371
-0.0263516
0.187489
0.7475
0.585624
0.841685
0.637978
0.202631
-0.49873
-0.200356
-0.535311
-0.297204
0.4141
0.168524
0.545714
-0.728238
-0.00359411
-0.706291
0.156019
0.453967
1.1602
1.05608
-0.197922
0.383248
0.516072
0.552532
-0.166068
0.0222905
0.817233
-0.485918
0.133397
0.67194
-0.970384
-0.32485
0.244694
0.9331
0.98828
0.706857
0.615703
0.3582
-0.8115
0.34437
0.0726648
0.405202
0.233737
0.795414
0.650899
-0.79717
-0.660677
-0.739238
0.565542
0.278462
-0.207841
0.421879
0.819134
0.868237
-0.489225
-0.738492
0.499164
-0.16079
-0.117103
0.68474
-0.410552
-0.155472
0.391419
-0.608986
-0.130627
0.3623
-0.4607
-0.8249
0.622319
0.442919
0.798742
-0.0888379
0.237917
-0.527678
0.756701
0.305511
0.285287
0.526971
0.379547
0.536306
-0.474469
0.524123
-0.0255951
-0.228087
0.0684103
0.9314
-0.0272623
-0.467195
0.662158
0.0225762
1.086
-0.534372
0.550456
-0.0575771
0.4168
-0.539655
-0.154383
-0.431387
0.29402
0.169392
-0.223937
-0.0572352
-0.00370566
0.168575
-0.508914
1.03277
-0.514239
0.391751
-0.291721
0.887877
-0.866323
-0.778401
-0.933777
0.619661
0.574491
0.825613
-0.493703
1.29221
0.275764
-0.350654
0.979622
-0.453731
-0.2897
0.229882
-0.300814
-0.223465
-0.0965348
-0.337544
1.10809
-0.958573
0.790624
1.03113
0.760121
0.499688
-0.417679
-0.6149
-0.599913
0.470651
0.523113
0.586367
-1.08899
-0.681321
-0.119118
0.547198
-0.505335
0.378304
0.571215
0.565865
0.402856
-0.2511
-0.4948
0.829757
0.679808
0.404951
0.826642
0.696412
-0.43606
0.762982
0.0249447
-0.17434
0.362017
-0.499131
0.0880198
0.175412
0.372931
0.591559
0.739852
0.0543843
0.891366
1.12849
-0.209836
-0.290352
0.559128
-0.394294
-0.722027
0.525249
0.696405
0.7346
-0.3362
0.983691
-0.666405
0.386897
-0.73169
0.303499
1.07901
-0.42414
0.821695
0.399571
0.644627
-0.21441
-0.0643594
1.12344
0.472608
0.190987
0.0973207
0.728175
0.606314
0.126949
0.454374
-0.0487156
-0.193645
0.941203
0.456552
-0.222419
-0.497064
0.8503
0.7311
0.267464
0.0435191
-0.584201
0.0191388
0.685371
-0.526284
-0.111729
1.28381
1.24749
0.745647
0.53107
0.740528
-0.650437
-0.646245
-0.329823
0.785481
0.327194
0.626301
0.908776
1.10164
0.47738
-0.290668
0.0515117
-0.13072
0.12763
0.95109
-0.3904
-0.151799
0.44014
0.336164
0.611221
0.795711
0.193927
0.187098
1.1002
-0.612923
0.97695
0.0669675
-0.294498
-0.787025
0.0140463
0.226261
0.58927
0.374145
0.18665
0.372696
0.266403
-0.820362
0.433023
-0.186124
-0.104701
-0.719313
0.167968
-0.711806
0.0130057
-0.421347
0.996594
0.678307
-0.481658
1.08861
-0.511474
-0.203248
0.711334
0.20194
0.586813
1.01059
0.204935
1.26699
0.0618674
-1.13496
-0.0542598
0.423212
-0.358284
-0.851325
0.551103
0.0285901
-0.538625
0.0944492
0.191512
0.556084
0.106688
-0.392132
0.380001
0.408905
-0.808086
0.708486
-0.0557233
0.895698
0.0877312
-0.640243
0.470088
-0.400324
0.24079
-0.157638
-0.360745
1.06391
-0.237609
0.131825
-0.358647
0.427045
-1.19645
0.343728
0.0853611
-0.6686
-0.646038
-0.4834
-0.968142
0.229496
-0.971705
-0.844339
0.0607078
-0.039017
-0.76165
0.37152
0.0593334
0.49994
-0.725148
0.122118
-0.271299
0.272108
-0.571622
0.591619
-0.527907
0.357341
-0.372911
-0.764741
0.0440097
-0.22432
-1.10614
-0.473225
-0.31884
-0.445764
0.620714
-0.208232
0.048311
0.295048
-1.00095
-0.298173
0.479436
-0.974625
-0.123169
1.05909
-0.586877
-0.664477
0.518864
0.64654
-0.52349
1.02086
-0.197912
-1.37946
-0.0688021
-1.02175
-0.161304
0.194967
-0.580542
-0.263925
0.475848
-1.32212
0.177107
0.455394
-1.08026
-0.253185
-1.23044
0.236487
0.628779
-0.333012
-0.8377
-0.3313
-0.0974849
-0.840116
0.523378
-0.291721
0.295185
-0.277936
-0.71171
-0.291336
0.377909
-0.0809844
0.0179396
0.0928578
-1.19817
0.213118
0.571892
0.437721
-0.452863
0.199945
-0.388341
-1.21858
-0.111754
0.472986
0.200699
-1.39242
-0.814907
-0.989901
-0.0913
-0.1245
0.744593
0.802822
-0.434435
-0.133266
0.244195
0.673252
-0.430449
-0.565354
0.271257
-0.625692
-1.02568
-1.08343
0.326565
0.580317
0.0032414
0.398068
-0.403616
0.278866
-0.212987
-0.457642
-0.062327
0.813632
-0.378268
-1.25034
0.013058
0.836062
0.2974
-0.90432
0.543875
-0.717225
0.186909
-0.657568
-0.404134
1.11638
-0.416135
0.898651
0.279683
0.547668
0.537084
-1.05026
-0.553946
-0.546839
-0.951803
-0.287147
-0.781715
0.0158113
-0.31984
0.627757
-0.0472639
-0.244058
-0.190798
0.29932
-0.0211422
0.0860469
-0.129
0.615896
0.444078
-0.325951
0.266123
-0.164636
0.578341
-0.0762037
-0.404184
-0.264951
0.817083
0.31063
0.440595
0.221376
0.634345
-0.202947
0.76922
-0.584014
0.0417462
-0.361265
-0.911563
0.361804
-0.326026
-0.547299
-0.686511
0.33773
-0.0434951
0.522113
0.4461
-0.131937
-0.182813
-1.0454
-0.205618
0.480773
0.415493
-0.141832
0.894742
0.650551
0.212838
0.47897
-0.964294
0.403329
0.703376
-0.0778745
0.846019
-0.899582
-0.130024
0.375031
0.896457
-0.259715
-0.0171449
0.0837219
0.414707
-0.485206
-0.739844
-0.690577
0.1403
0.0275014
0.530281
0.720999
0.48814
-0.218624
0.89863
-0.218306
0.868668
0.0267141
-0.581506
-0.0113329
0.285771
-0.698292
0.743779
-0.615833
0.57377
0.302078
-0.722363
0.469697
0.448522
-0.150724
-0.281305
-0.233878
-0.811344
0.744097
0.914517
-0.258469
-0.5743
-0.345114
-0.945539
-0.376589
0.966582
0.21999
-0.0712526
-0.414046
-0.0536907
-0.721987
0.287198
-0.927455
-1.10612
0.400134
-0.821002
-0.766998
-0.568735
-0.300426
-0.569752
0.113227
0.325803
-0.221228
-0.170908
0.495646
-0.44582
-0.629157
-0.374066
0.945103
0.147
-0.550195
0.383071
-0.911094
-0.585291
-0.184834
-0.954305
-0.966601
0.385617
-0.296001
0.771269
-0.174416
-0.358176
0.0137889
0.301969
0.0774636
-0.840213
-0.110625
0.849547
-0.487742
-0.265873
0.654629
0.13713
0.933916
0.328139
0.984245
0.19533
0.518009
0.7317
0.8068
-0.8044
-0.4866
-0.147846
-0.49536
-0.8467
-0.37439
0.0672227
0.62062
-0.24088
0.819399
0.9988
-0.3577
-0.186787
0.690212
-0.459705
0.597299
-0.167095
-0.98
0.8113
-0.984
-0.510597
0.705197
0.2507
0.3384
-0.5274
-0.3116
0.2703
-0.9998
0.4174
0.2584
0.2728
0.80541
-0.118614
0.584348
-0.954802
-0.197948
-0.30485
-0.933016
0.0104111
-0.452961
-0.990555
-0.702333
0.760326
0.772551
-0.0493507
0.376567
0.558881
-0.0288187
-0.292976
-0.729288
-0.1922
-0.3825
0.9837
0.3582
0.8968
-0.3665
-0.696599
-0.747763
-0.366385
-0.0914636
-0.171704
0.244167
-0.529467
-0.799095
-0.59219
0.434886
0.36779
0.781391
-0.243065
-0.646096
-0.0251543
0.157696
-0.653926
-0.445369
-0.0306714
-0.977267
-0.198619
-0.566279
0.229274
-0.0615334
0.413243
0.166477
-0.979
0.8778
0.813628
-0.746318
-0.1202
-0.241782
-0.615868
-0.577463
0.889282
-0.237358
1.01189
-0.0329084
0.694638
0.194403
0.444144
-0.508519
-0.622346
-0.532112
1.03669
0.596278
-0.560375
0.707908
-0.537283
0.156628
0.696338
0.807495
0.527148
-0.860162
-0.50081
0.9028
-0.83061
-0.876631
-0.0168062
0.0485212
-0.456458
-0.271916
-0.0816801
0.108371
-0.211949
-0.222025
-0.931575
0.675098
0.58272
-0.386313
0.0367235
-0.61094
0.622385
-0.723296
-0.103679
-0.336908
0.591189
-0.576794
0.0223033
0.423567
-0.0854736
-0.228891
-0.807827
0.1202
0.0662645
-0.609875
-0.545583
-0.371216
-0.162844
-0.632219
-0.288306
0.260488
0.371603
0.623191
-0.607844
-0.737644
0.193875
-0.802025
-0.356043
-0.419346
0.187568
0.0939688
0.422282
0.740674
0.61528
-0.678171
-0.447037
0.545148
0.0625898
0.732952
0.790888
-0.7336
0.701732
0.619388
-0.67282
0.193612
0.469097
0.416678
0.782112
0.0641701
-0.330716
-0.289899
-0.122521
-0.0250415
1.1138
0.492205
-0.158635
0.151128
0.558752
-0.387998
-0.0172379
-0.608561
0.133734
-0.304256
-0.569548
-0.277716
-0.532179
-0.0568927
-0.0443647
0.049
0.492859
-0.672281
0.878819
0.20607
0.743128
-0.664355
0.253886
0.230599
-0.675714
-0.373761
0.150076
0.973338
-0.711396
-0.109494
0.419737
-0.278264
0.323108
0.670451
-0.314892
0.113372
0.510085
0.782721
0.0277415
0.585398
-0.596071
-0.54277
-0.3444
-0.5707
-0.205568
-0.67905
-0.8702
0.884115
-0.367706
-0.913328
0.462551
0.133469
-0.159389
-0.514545
-0.699831
0.380948
0.404863
-0.996122
0.0820622
0.180389
-0.778032
0.430458
0.3863
0.263071
-0.226926
0.156906
1.11336
-0.851529
0.0582207
-0.783992
0.1215
-0.8829
0.811171
-0.685064
0.327283
-0.379795
-0.889139
-0.232939
-0.119043
0.110007
0.0380771
-0.898484
-0.901289
0.760945
0.154939
-0.09427
0.80142
0.291199
-0.162348
0.867298
-0.652278
0.353412
0.501737
-0.719872
-0.366674
-0.12437
-0.730562
-0.974682
0.633159
-0.1248
-0.92002
-1.10436
0.153299
-0.64435
0.644235
-1.23072
-1.19777
-0.544759
-1.28456
-1.09874
-0.583798
-0.235263
-0.785526
-0.536425
-0.574373
0.587593
-0.526195
-0.557795
-0.609092
0.106845
-0.352265
0.799098
-1.19895
0.463352
-0.0165867
-0.916392
0.353532
-0.6271
-0.896721
0.724608
-0.749967
-0.818907
-0.791076
0.0324977
0.181221
-0.744445
-0.774201
-0.240677
-1.08374
0.141399
-0.552363
0.15867
0.340766
-0.501217
0.02618
0.246987
1.02591
-0.426285
0.746899
-0.297807
0.376488
0.504177
-0.849838
0.376006
-0.9707
-0.3204
-0.0887688
0.810008
-0.161556
-0.573056
0.414568
-0.0189943
-0.541797
-1.06059
-0.771813
-0.676244
-0.728287
-0.840552
-0.489211
-0.562374
-0.662581
0.876203
-0.523553
-0.818709
-0.170709
0.439722
0.0012441
-0.482315
-1.0695
0.589452
0.659812
-0.388403
-0.6613
0.3391
0.237119
-0.518135
-0.271966
-0.854039
-0.65816
-1.67459
-1.20201
-0.637897
0.00699779
-0.82261
-0.00960885
0.538375
0.657706
-0.689543
0.220931
-0.086268
-0.368602
0.613209
-0.861611
-0.0724365
-0.7215
-0.246829
-0.507631
-0.945346
-0.0867357
0.291679
-0.2712
-0.1257
0.241985
-0.672741
-0.781711
-0.29712
-0.888589
0.367315
-0.360497
-0.954749
-0.726547
0.791145
0.244935
0.886478
0.262927
0.0764969
-0.514185
0.842695
-0.178373
-0.0660435
-0.263686
-0.172931
0.0512467
-0.507149
-0.201148
0.0166199
0.231271
-0.215281
-0.9053
-0.628435
-0.202577
0.0296698
0.0410855
0.826361
-0.0823941
-0.258543
0.863901
0.0146524
0.727512
-0.612609
0.00623432
0.459353
0.609493
0.471751
0.633374
-0.264096
-0.375948
-0.0970963
-1.17522
0.594566
0.165147
0.823112
-0.520315
0.603705
0.315929
0.576065
0.542291
0.850303
0.86603
0.294008
1.03429
0.26353
0.578876
0.131769
-0.432268
0.625211
0.521294
0.54838
0.05029
1.00277
0.100577
-0.390267
0.367563
0.934534
-0.577591
0.474381
0.299386
-0.736824
-0.731879
0.62375
0.417623
0.226234
0.226904
-0.200424
0.660776
-0.891377
-0.57979
0.206714
0.379517
0.878317
-0.550854
-0.213725
0.373059
0.461018
0.915042
0.360133
-0.151557
0.571528
0.543408
-0.016869
-0.494751
0.802679
-0.406638
-0.202984
0.0428057
0.340451
0.705082
-0.577643
-0.189946
0.359192
0.206499
-0.120507
-0.385914
-0.874761
0.823846
0.0668595
0.175619
0.557079
-0.433051
0.39435
0.599718
-0.628718
-0.664714
0.4896
-0.376675
0.477388
-0.659532
0.137516
-0.61221
-0.0430982
-0.559502
0.82127
0.740321
-0.342263
-0.117851
0.387974
-0.635152
0.943179
0.59071
-0.714169
0.677364
0.0771541
-0.306742
-0.590296
0.0343878
-0.203473
0.356333
-0.39956
-0.531419
-0.00791012
0.520507
-0.714499
0.338592
0.629212
-0.825056
-0.490809
0.125597
0.667184
-0.0479942
0.536258
-0.62922
-0.0449007
-0.0598302
0.699336
0.470371
-0.113778
-0.76532
0.172609
0.2121
0.6244
0.514895
0.105157
0.256549
-0.639186
-0.435428
-0.180999
-0.941044
-0.998291
-0.854461
0.0958154
-0.717557
0.731174
-0.769507
0.623921
0.506442
-0.946038
0.110443
0.731059
0.420008
-0.448749
-0.509299
0.448287
-0.473637
0.29602
0.259678
0.184439
0.2167
-0.8421
-0.895276
0.0643424
0.364138
0.433978
-0.0697274
-0.605548
-0.621022
0.211915
-0.309779
-0.953505
-0.600888
-0.393733
-0.325636
-0.34306
0.418833
-0.621578
-0.621532
0.766296
0.213352
-0.762182
0.0359073
-0.354344
0.514419
0.516288
-0.720996
-0.976534
-0.1931
0.558787
-1.00058
-0.817297
-0.396462
-0.984493
-0.553357
-0.679257
-1.08084
-0.0203209
-0.682566
-1.0911
-0.122268
0.432147
0.843285
-0.822471
-0.869135
0.664955
-1.11208
0.113011
0.089455
0.323932
0.19278
-0.724705
0.925359
-0.111378
-0.705819
0.763491
0.5321
-0.190765
-0.638199
0.972414
0.762616
0.198684
-0.744158
-0.141026
-0.596596
-0.993204
-0.597583
0.42922
-1.09039
0.513955
-0.691862
-0.0384382
-0.197423
0.247257
-0.824347
0.0305183
0.830988
-0.357522
-0.649837
-0.292215
0.559433
0.0972012
-0.895453
0.125604
0.8879
-0.607006
0.614884
-0.11802
-0.0599519
-0.423329
-0.664039
-1.20393
-1.14124
0.535932
-0.197332
-0.168313
-0.677109
-0.684197
-0.107545
0.871197
0.0978867
0.47045
-0.260605
-0.304117
-0.292244
0.644611
0.416885
-0.707273
-0.584163
0.975377
-0.233163
0.514854
-0.4381
0.608589
0.995336
-0.52005
-0.121878
-0.0215557
-0.711188
-0.211816
-0.774992
-0.55216
-0.259934
0.0492169
-1.23321
-0.353764
-0.00703055
-0.314233
-0.832907
-0.268579
0.715343
-0.632353
-0.239659
-0.824664
0.659463
0.493365
-0.0790569
0.757063
-0.805144
-0.451629
-0.0435
0.232294
-0.857537
-0.653619
0.674884
0.851711
-0.457273
0.512635
-0.602323
0.753577
-0.300875
-1.01215
-0.94527
0.648369
-0.728328
-0.481354
-0.417237
0.796966
0.268597
-0.0546742
0.0789864
-0.129579
0.12219
-0.617962
-0.0418332
0.16167
-0.165479
-0.982789
0.5544
0.1216
-0.731134
0.0986401
-0.164485
0.170536
-0.675564
0.30538
0.768588
0.639463
-0.425373
0.658602
-0.168987
0.0945393
-0.0795161
-0.549824
0.373645
0.927303
-0.767528
0.269684
-0.318713
-0.496282
0.573932
0.541435
-0.269806
-0.271436
-0.25398
0.743799
-0.212
0.753
0.9886
0.8534
-0.813699
-0.00578042
-0.273378
-0.24927
-0.157848
0.624854
0.720272
0.028605
0.5367
-0.6341
0.361836
0.528634
-0.1527
-0.8565
0.0726
-0.0409
-0.0386
0.0583
0.95176
-0.551299
0.5203
0.9266
0.4641
-0.4194
0.7565
-0.686
-0.5221
0.65
-0.21186
-0.0136406
-0.754489
0.750899
0.597218
-0.0128436
-0.867926
-0.912181
-0.514412
0.180025
0.553429
-0.554109
0.290638
0.0396557
-0.0289887
0.272594
-0.21019
0.988951
0.249196
-0.278761
0.679615
0.743007
0.1694
-0.4917
0.7666
0.6495
0.621163
-0.744996
-0.368108
-0.856998
-0.878662
0.951868
0.0988672
-0.111021
-0.615001
0.427813
0.0415724
-0.916333
-0.019368
0.881473
-0.900753
0.413946
0.728573
0.202584
0.175558
-0.501796
-0.75443
0.192416
-0.00598196
-0.787553
-0.273951
-0.408648
-0.1498
0.6491
0.228937
0.965402
0.598219
-0.639784
0.435634
-0.23686
0.295885
0.505078
-0.52034
-0.613848
0.222635
-0.964485
-0.819941
0.769632
0.299003
0.590747
1.06823
-0.433918
-0.0945675
-0.398915
-0.134408
-0.0880314
0.318356
-0.904185
-0.256279
0.310016
-0.288045
-0.0836
0.207397
-0.936734
0.635237
0.200381
0.0799186
-0.507375
0.940195
-0.385141
0.681693
1.22594
-0.827312
-0.661774
-0.606153
0.424922
-0.343023
-0.0727929
0.223745
-0.0955805
0.956765
0.589378
0.0252179
0.312187
-1.14352
0.747241
0.289689
-0.557294
0.670567
-0.0427
-0.41513
-0.0232167
-0.34373
-0.414526
0.778874
0.01547
-0.707805
0.579969
-0.328244
0.251402
-0.333429
-1.51377
-0.188101
-1.35632
-0.52203
0.547431
0.848249
0.537161
0.568193
0.247199
0.674422
0.277155
-0.754716
-0.775679
0.325722
-0.604099
-0.665484
0.5361
0.819253
-0.74527
-0.592936
0.734011
-0.216296
0.622873
0.889173
0.330342
0.563294
-0.482967
0.0409476
-1.88561
-0.41875
-0.764647
-0.719026
0.56964
1.22655
0.506653
0.795775
-0.362079
-0.184774
-0.245523
-0.258121
-0.890621
0.308704
-0.693569
-0.386678
0.4608
-0.157752
-0.270302
0.0765851
0.463692
1.00685
-0.129937
-0.349714
0.0908978
0.985069
-0.418014
0.0189346
-1.26797
-1.47296
-1.36225
-0.70403
0.965734
0.321978
0.34185
-0.180173
0.740387
0.356894
0.0945523
-0.818067
0.749486
0.0893579
0.613285
0.7299
-0.5789
-0.760715
-0.413133
-0.0569559
1.25791
-0.419121
-0.820576
0.724537
0.73508
0.83513
0.644789
-1.03494
-1.02144
-1.7937
-0.390254
-0.464431
-0.13886
0.650387
0.957549
0.85919
-0.0519153
-0.528681
-0.199039
0.28001
0.0746097
-0.743624
0.532468
0.7965
-0.6654
0.78538
0.170546
0.640221
1.04737
-0.0608051
-0.237822
0.0441775
-0.0492656
0.496811
-0.119007
-1.55541
-1.99659
-0.789218
-0.223164
-0.757068
0.882769
0.197465
-0.188546
-0.321026
1.17265
-0.428095
-0.539219
-0.345414
-0.762945
0.422564
-0.473169
0.539441
-0.5567
0.380462
-0.0444701
0.360291
-0.0341094
0.301168
-0.606793
0.776856
0.921141
1.14213
-0.118325
-1.31109
-0.618427
-0.391164
-1.23437
0.228892
-0.110789
1.03233
1.26611
-0.383315
0.396226
-0.379426
0.675091
0.135946
0.114029
0.344203
0.558543
-0.347808
0.7595
0.516416
0.271543
0.413894
-0.258033
-0.541865
0.685334
0.34071
1.38787
-0.0950524
-0.676742
-1.18995
-1.41672
-0.743635
-0.383414
-0.308628
0.573257
0.0921005
0.147342
0.374632
0.57298
-0.800529
0.230702
-0.338996
-0.6219
-0.0136281
-0.197056
-0.2347
-0.6182
0.706806
-0.670828
-0.371141
0.666887
0.686993
0.625027
0.413949
-0.120605
0.532955
-0.477474
0.341256
-1.00355
-0.731189
0.156501
-1.03555
0.17511
0.696061
-0.0915579
0.0330645
-0.342996
0.513728
0.127135
0.634259
0.293832
-0.450305
0.357212
-0.3866
-0.5832
-0.311807
0.825539
-0.242339
-0.273137
0.0437911
-0.330275
-0.621906
0.605456
-0.587262
0.947937
-0.755888
-0.995152
-0.3897
0.703488
-0.923675
0.111065
0.159564
-0.286397
0.372141
-0.250962
-0.52758
0.0130635
-0.085134
0.714532
-0.255891
-0.89786
-0.279578
-0.917
-0.406603
0.941354
0.434213
-0.00675904
0.888008
0.889339
-0.47196
0.489729
-0.666775
-0.418859
-0.459493
0.285987
-1.42957
0.167266
0.163198
0.208638
0.399012
0.723201
-0.824192
0.197072
-0.0269219
0.386043
-0.840062
-0.0583251
-0.262773
0.899017
0.3405
0.569075
0.374003
-0.521491
-0.462109
0.217877
-0.408495
0.587263
-0.408037
-0.204103
0.415526
-0.130019
-0.938049
-0.379823
0.308872
-0.670593
-0.870693
0.757097
0.375198
-0.148394
-0.25599
-0.0620531
-0.648911
0.147926
-0.523532
0.137085
0.325252
-0.455038
0.756398
0.254772
-0.896687
-0.908237
0.499355
0.170213
0.312828
0.343889
0.0498879
0.486041
-0.24072
-0.673609
-0.621292
-0.738965
-0.501254
-0.307974
-0.290497
0.438696
1.03282
-0.139831
0.46219
0.344618
-0.109629
-0.0247336
0.126328
0.345882
-0.169695
0.337044
0.391766
-0.763565
0.938384
0.227721
0.545446
0.451484
-0.564445
-0.558282
0.712489
0.393489
0.861369
-0.610444
-0.668979
0.44063
-0.680851
-0.635706
0.535647
0.077512
0.016413
1.09629
-0.189871
0.335631
-0.456001
-0.722235
-0.095347
-0.249505
0.443435
0.76904
0.946403
-0.806416
0.418331
0.167797
-0.12691
-0.260487
-0.78508
0.272842
-0.576545
0.511672
0.469206
0.281437
-0.659354
-0.766464
-1.0649
-0.595291
0.789364
-0.0377959
1.10178
0.250739
-0.630132
0.348977
-0.808557
0.998317
-0.372306
0.0890521
-0.553376
0.0316923
0.0919819
-0.172472
-0.26483
0.391189
0.0331373
0.754732
-0.078312
0.086038
-0.09561
-0.0724966
0.143387
-0.513238
-0.812111
-0.285937
-1.65459
0.596103
-0.697493
0.844122
1.13043
0.367348
-0.629797
0.542996
0.0899354
0.462749
-0.632441
