ODFQMVNQHVIBYT
784 100 26 
-0.8901
0.326
0.7712
-0.290812
0.888447
0.173247
-0.559047
0.335332
0.687694
-0.205636
-0.692877
-0.727058
-0.505605
0.314587
0.0167045
0.882816
0.477146
0.678156
0.425622
-0.724919
0.473604
-0.859199
-0.158906
-0.2562
-0.9001
-0.617
0.4622
0.1599
-0.0566
0.380429
-0.765016
-0.784753
-0.754662
0.167048
-0.983147
0.00659798
0.785467
0.627883
0.647702
0.779161
-0.94948
-0.0893904
0.824071
0.940269
-0.332331
0.254553
-0.301808
-0.0847251
0.489247
0.271302
-0.532788
0.463792
-0.527604
0.879215
0.291731
-0.555
-0.5576
0.713821
0.152187
-0.828233
0.765539
0.337317
0.456409
0.382129
-0.208035
-0.231903
0.162163
-0.507121
0.540422
-0.153935
0.694397
-0.276618
1.00822
0.723009
0.14009
-0.0108469
-0.286879
0.117899
0.616735
0.299547
-0.174192
-0.820695
0.90413
0.528968
-0.4551
-0.786548
0.438336
-0.087289
-0.704085
-0.755869
-0.543524
0.898181
0.598623
0.245822
0.60467
-0.557752
0.827607
0.171531
0.23616
-0.200259
-0.43568
0.185299
-0.337545
0.897055
0.406267
0.646337
0.280317
1.02733
-0.0439971
1.07547
0.565389
0.620995
-0.2857
-0.666301
0.298768
0.242254
-0.1052
-0.242725
1.31274
0.179044
-0.389569
-0.205699
-0.342622
-0.00788029
0.670389
0.229625
0.297885
-0.159033
-0.0384368
-0.187749
0.89278
-0.434782
0.000477293
1.03847
-0.659889
1.16807
0.514581
-0.71636
-0.710676
-0.0447883
-0.7281
0.268626
0.859799
0.881056
-0.0375285
0.165862
0.192523
-0.10582
0.00246666
0.826383
0.0542581
0.820925
0.210837
1.00648
-0.461399
0.158225
0.790373
-0.837547
-0.0575412
0.101089
0.422351
0.641969
-0.875182
0.517928
1.12965
0.323774
-0.594988
0.92301
-0.5078
0.388253
0.0818159
-0.472373
0.822392
-0.0614926
0.365259
-0.676191
0.0164213
-0.401205
-0.283695
0.24684
0.504378
0.89618
-0.269268
0.0708641
-0.620005
0.264185
0.00154483
-0.0794477
0.129711
0.0719785
0.654046
0.672907
0.71939
-0.41302
0.515749
-0.1676
-0.9385
0.181906
-0.191371
1.21939
0.675503
0.574568
0.721886
-0.261557
0.552051
-1.02191
-0.493092
-0.281575
1.29057
0.314546
-0.908233
0.809064
-0.141892
-0.766439
0.422205
-0.53807
0.802079
-0.24149
-0.563021
-0.482227
0.781344
1.15058
-0.024015
0.6008
-0.716
-0.197613
0.737024
0.946594
0.0411023
0.0491543
-0.135799
0.185191
0.107859
-0.833242
0.767893
0.303221
0.627773
0.196414
-0.575382
-0.291962
0.389414
0.599637
-0.246065
0.51425
-0.0157603
0.425478
-0.158308
0.508165
0.841724
0.732836
-0.674925
-0.755817
-0.5907
-0.625221
0.20855
0.684331
-0.434223
0.0407114
0.0566716
0.288227
-0.86446
-0.111477
-0.742982
-0.531661
0.906222
-0.418057
0.502872
-0.31565
0.405709
-0.0591368
0.12131
0.858651
0.59941
-0.193688
0.599536
0.608884
1.23198
-0.0319442
-0.0575319
-0.994817
-0.5941
0.502553
0.463785
1.55929
1.29404
0.823836
-1.01062
-0.0599183
-0.531874
0.503247
0.70364
0.40107
-0.26855
1.11649
-0.0758998
0.0221096
-0.228978
-0.152203
-0.818522
0.308569
-1.29599
0.648553
0.539165
0.902391
0.737924
0.419012
-0.220896
-0.592
-0.495
-0.605164
0.878631
1.4413
0.371869
0.25112
-0.439705
-0.228965
-0.719567
0.758444
-0.627917
0.630901
-1.04701
-0.142011
-0.53817
-0.00425079
-0.304073
0.485887
-0.461083
-0.157878
-0.290499
-0.13837
-0.440028
1.31037
1.03009
-0.00757126
-0.317116
-0.4167
-0.9265
0.00778035
-0.327851
1.27028
0.772498
0.340039
-0.77701
0.818231
-0.622675
-1.03483
0.0471292
0.544246
0.71868
1.03875
0.558531
-0.486252
-0.0122583
0.414909
-0.583996
-0.273449
-1.18399
0.257721
-0.561756
-0.337054
1.21446
0.63133
-0.332188
0.250887
-0.7148
0.154254
0.942521
0.381139
1.16829
-0.352719
-0.109744
-0.33467
0.0846762
-0.779357
0.404255
-0.138439
-0.392421
0.0534423
-0.38905
0.812737
0.350474
0.024516
0.542849
0.0812167
-0.848141
-0.18999
-0.54654
0.97312
1.44635
0.356224
0.746749
-0.4448
0.4066
0.544766
-0.432593
0.635099
1.20325
-0.046889
0.367281
-0.280024
-0.108939
-0.570758
-0.401843
0.645532
-0.138422
0.601115
-0.196054
0.854261
0.779588
0.544407
-0.643101
-0.711581
-0.110698
0.432739
-0.657044
0.0803342
1.45945
-0.375457
-0.766516
0.304401
-0.531232
0.592708
-0.276478
0.820407
-0.366428
0.233739
0.292701
-0.210029
0.338777
-0.0263374
-0.13823
0.242954
-0.284549
0.24829
0.388758
-0.180341
0.0886798
0.164277
-0.72004
0.128076
-0.952563
-0.912883
-0.179763
-0.570486
0.556638
1.4461
-0.498961
0.9528
0.201585
0.0833369
1.03045
0.615563
0.787305
-0.272332
-0.112977
-0.484196
-0.550885
-0.587509
-0.536159
0.0185418
0.0666099
0.0385532
-1.03816
0.497766
0.901835
-0.491523
-0.347527
0.456513
-0.998118
-0.441823
0.0197743
0.118948
1.07695
1.05418
-0.174537
0.949615
-0.0690875
0.863374
0.645174
1.02055
1.31775
0.529989
-0.353718
0.25562
-0.046771
-0.52053
1.31385
-0.455268
-1.07897
0.306211
0.387902
0.797238
0.59345
-1.34043
0.106548
-0.751951
0.585237
-0.61511
0.437971
-0.73917
0.409472
0.990055
-0.19141
-0.130136
0.0638476
-0.391646
0.222302
0.155051
1.04895
0.0316035
0.000719127
-0.0641418
0.155455
0.92598
0.0636279
0.234679
-0.17131
-0.778097
0.0539874
0.286736
0.0844134
-0.700022
-0.668245
-0.584195
0.297059
1.01513
0.61974
1.02542
0.29931
0.686198
0.886058
-0.2604
0.9401
0.535926
0.764638
0.215443
0.855155
0.289055
0.269882
-0.681772
-0.26576
-0.0459711
1.00287
-0.916569
-0.0604867
-1.00721
0.256269
0.768115
-0.617598
-1.07905
1.02131
-0.470875
-0.695857
0.364388
-0.597611
0.0921444
0.135066
0.802734
-0.53267
0.0886
0.8006
0.0227506
0.400439
1.22646
0.168605
0.515861
0.252566
0.282503
-0.525486
0.177001
0.432556
0.855194
-0.251458
-0.848876
0.256084
0.856663
0.212325
-0.162709
0.19925
-0.180091
0.262094
-0.169871
0.736444
0.317555
1.04376
0.424389
0.887745
-0.9582
-0.857959
-0.965893
0.135182
0.151579
-0.0413115
1.00181
-1.08921
0.327641
0.0622893
-0.12097
0.363504
0.844517
-0.522259
0.751605
0.638462
-0.831807
-0.628685
-0.47729
-0.783491
0.703575
-0.373886
-0.0887934
-0.105088
-0.265098
0.8195
-0.063146
0.331091
0.691
0.83781
-0.0803899
-0.125104
1.25158
0.166699
-1.0459
-0.958658
-0.897313
0.12573
0.0427797
-0.0200525
0.387579
-0.0952896
0.615553
0.759661
0.391304
0.0306017
-0.210269
0.887453
-0.468374
0.287297
0.233781
0.577931
0.475856
0.781847
-0.0598002
0.0751476
-0.1855
-0.230619
-0.242445
-0.605886
0.638559
0.213442
0.984425
0.388159
0.0272827
0.0963229
-0.343661
-0.0746995
0.90094
0.0191456
0.645341
0.578956
-0.227281
0.764571
-0.90578
-0.185375
1.00691
-0.576216
0.509081
-0.734609
-0.695745
0.635097
-0.581273
-0.197669
-0.4871
0.645966
0.978112
0.680204
0.622642
-0.306116
-0.316066
-0.369609
0.621973
0.0489581
1.1917
0.958573
-0.0691162
-0.467262
1.19761
0.328713
-0.708963
-0.00976727
0.532063
-0.1948
0.589843
0.834881
1.06371
-0.384581
1.0614
0.368991
0.694508
-0.193867
-0.0165
0.76748
0.701668
0.0281731
-0.307214
-0.0414015
-0.168042
-0.432253
0.0578063
-0.292512
1.09594
0.59026
-0.585871
0.27637
0.975466
0.272675
-0.394726
0.760738
0.778739
0.928854
0.159154
-0.41763
-0.265499
-0.654299
0.702563
0.683702
-0.0931869
-0.720486
-0.6711
0.3227
-0.287459
-0.843634
0.500855
-0.850755
0.859292
-0.946524
0.763637
-0.796449
-0.557795
0.181219
0.884334
0.733314
0.24308
-0.890786
0.987297
0.145109
-0.60803
0.445676
-0.605364
-0.378447
-0.346307
0.076559
-0.355738
-0.0856453
0.329746
0.704239
-0.4805
0.9613
-0.6263
-0.8896
-0.792248
-0.696853
-0.436366
0.622934
0.698893
0.806359
-0.88067
0.474096
0.3465
0.2255
0.0446029
0.450803
-0.746597
0.143301
0.817329
-0.1016
-0.4568
-0.3774
-0.0457612
-0.270909
0.1926
-0.3653
-0.7098
0.5713
-0.9639
0.4271
0.1219
0.4959
-0.99
0.454803
-0.920445
0.543946
-0.667374
0.018182
0.18454
0.153137
-0.0560187
-0.481575
-0.291275
-0.454509
0.0917786
0.388483
0.652145
0.104877
0.704784
0.793883
-0.887886
-0.6211
-0.8713
0.1117
-0.7001
-0.3377
0.7748
-0.0416
-0.1941
0.495851
-0.739725
-0.92735
-0.541529
-0.193643
-0.875385
0.289032
-0.266172
-0.503039
0.708258
0.770613
0.437759
-0.532309
0.0415157
-0.945604
-0.851432
-0.334696
-0.678835
0.919828
-0.924166
-0.377846
0.596268
-0.819592
0.0267486
0.437416
-0.0840998
0.3683
-0.0229746
-0.0239633
-0.13267
-0.633264
-0.808407
0.510451
0.398202
-0.601574
1.00391
-0.192311
0.0139512
-0.508257
1.04286
-0.884784
0.706178
0.233167
-0.706102
-0.115026
-0.844182
-0.779544
0.326201
-0.66331
-0.578642
-0.27954
-0.473166
0.958374
0.310734
0.3018
-0.101714
0.861906
0.860918
0.201455
0.156275
-0.19578
0.165839
-0.526924
0.966542
-0.829987
0.621377
0.332292
0.567117
0.762983
-0.16295
0.809127
0.68778
0.640578
0.566733
0.403427
-0.555299
-0.479819
-0.85145
-0.471758
0.574342
0.913514
0.082046
-0.2364
0.735082
0.710037
0.958624
0.187213
0.308959
-0.556355
0.085133
0.268886
-0.283571
0.788514
0.404537
-0.539002
0.00725839
0.240098
0.0364502
0.613363
0.718319
0.096163
-0.0705995
0.210932
1.06307
0.402514
1.16944
-0.712036
0.0784553
-0.373641
-0.925687
0.9003
-0.797595
0.693681
-0.634289
-0.372042
-0.0346338
-0.336923
-0.882633
0.0469094
0.10371
-0.355829
-0.878502
0.513115
0.798237
-0.360755
0.0074948
-0.622511
-0.19604
0.558294
0.750004
-0.666983
-0.459338
0.520993
0.349315
0.430587
0.942826
0.549461
0.97548
-0.9144
-0.0352627
0.429614
-0.205497
0.33484
0.913382
0.464322
-0.611604
-0.321936
-0.66215
0.99286
0.634377
0.717586
-0.120643
-0.54998
0.747089
-0.726946
0.890227
0.434716
-0.935251
1.04191
-0.209855
0.290326
-0.762278
0.50901
0.472656
-0.415957
0.9997
-0.5595
0.741075
-0.836393
-0.743106
-0.545305
0.750737
-0.462982
0.424862
0.340327
0.276307
0.811608
-0.535684
0.102367
-0.0939213
-0.274295
-0.858768
-0.83147
0.921886
-0.112208
0.608745
0.22374
0.233893
0.128426
-0.888733
-0.501957
-0.811554
0.715543
0.5822
0.3019
0.982982
0.682066
-0.481344
0.101739
-0.125575
-0.365207
0.8199
-0.620463
0.603511
-0.880738
0.92891
0.690738
-0.569919
0.985711
0.680254
0.195986
0.0268525
0.0714097
0.633505
0.421713
0.33318
-0.104256
1.09978
0.912772
-0.0296459
0.2424
0.191956
0.3215
0.289775
0.573343
-0.442716
0.146437
-0.100672
0.443707
-0.612494
0.97964
-0.551851
-0.170258
0.353742
0.191575
-0.517642
0.864015
0.787212
0.0589363
0.438451
-0.0800714
0.537181
-0.139155
-0.828011
-0.118441
-0.799923
-0.0730735
-0.476967
-0.346165
-0.646566
-0.2582
-0.328451
0.171008
0.756066
-0.0563305
0.446364
-0.0013735
-0.96226
0.457541
0.820885
0.0289726
-1.04877
-0.284783
0.732947
-0.473482
-0.369798
0.542106
-0.571215
-0.69892
-0.881301
0.739332
-0.0638704
-0.64504
0.363248
-0.372514
-0.716052
-0.798953
-0.0605
-0.4797
-0.999759
0.515906
0.680809
-1.03004
0.717007
-0.0617797
0.492315
0.352998
-0.271892
-0.989788
0.472457
0.0806637
0.709136
0.0382518
-0.495698
0.00339938
0.827597
0.0607694
0.0527995
0.206971
0.0100563
-0.385075
0.946393
0.440351
0.976852
-0.492362
0.1513
-0.7997
0.476242
-0.145506
0.547883
-0.932201
0.759227
0.391546
-0.182613
-0.905615
0.581883
0.444949
-0.648915
-0.783144
0.323981
0.349481
0.741591
-0.70138
-0.402237
-0.658731
1.1569
0.592697
0.276187
0.485045
-0.803015
-0.339586
0.918453
-0.753124
-0.568198
0.6086
0.015667
-0.545569
-0.997
0.42419
-0.756057
-0.998663
0.700779
-0.0439712
0.0652064
-0.841026
-0.0763225
0.579893
0.691491
-0.616325
-0.0211514
-0.514374
1.01325
0.921473
-0.140893
0.312849
-0.65289
-0.741753
0.739162
-0.258498
-0.630435
-0.937438
-0.1211
0.371706
0.252559
0.0354761
-0.684362
0.17596
-0.678447
0.888397
-0.65813
-0.012136
-0.781674
-0.577952
0.974705
0.0496423
0.737754
-0.535258
0.589864
0.876484
0.16515
1.01191
-0.245815
-0.16655
0.315134
0.276481
-0.692516
0.761876
-0.800055
0.16092
-0.610984
0.475343
-0.482369
-0.463201
-0.573105
-0.0829534
0.676711
0.406764
0.410824
-0.61193
0.515682
-0.808601
1.10535
0.467451
-0.885596
0.550283
0.370811
-0.0018642
-0.51291
-0.104364
-0.581188
0.235794
0.9601
-0.108094
-0.107246
0.998411
0.624408
0.443059
-0.47519
-0.677049
0.293103
1.12576
0.627699
0.765956
0.76922
0.11458
-0.398239
-0.735067
0.923548
-0.505921
0.231817
0.00636456
-0.236465
0.263424
0.312016
0.767626
-0.427846
0.634479
0.331625
-0.13075
0.753817
0.184879
-0.951395
0.805909
0.540886
0.627098
-0.472
0.678467
0.864304
-0.13097
-0.0654958
-0.130273
-0.047894
0.459747
0.280116
-0.775696
0.288137
0.776947
0.0377927
-0.12307
0.994863
0.140112
-0.817408
0.790388
0.0839258
-0.228485
-0.300593
-0.590153
-0.348226
0.295328
-0.123676
0.119673
-0.151323
-0.705607
0.2266
-0.877356
0.0654401
0.226514
0.344699
0.464912
-0.298808
0.8803
0.129698
-0.317135
0.495142
0.730323
0.65127
0.0642471
-0.740815
0.120029
0.81607
0.726418
-0.529076
0.934898
0.187152
0.888208
1.01261
-0.39705
0.329619
0.40433
-0.33169
-0.717787
-0.0547
0.2405
-0.0450914
0.247564
0.918211
0.550111
-0.593201
-1.00382
-1.05894
-0.335775
0.442686
0.437618
-0.841115
-0.414047
0.07037
0.859672
0.61181
0.0683044
0.291096
-0.389708
-0.531156
0.992368
0.172236
-0.656561
0.678459
-0.904197
-0.0344096
-0.553305
-0.738
-0.4551
-0.350894
-0.357661
-0.354835
-0.828187
-0.707078
-0.604898
-0.539351
0.349016
0.648662
0.121889
-0.858243
1.12972
-0.250052
0.453903
0.669681
-0.179247
-0.173551
0.531002
0.65708
0.162062
0.352842
-0.507716
0.0772534
-0.527925
-0.298767
0.809185
0.3857
-0.85657
-0.44537
-0.897897
-0.561068
0.765187
0.564185
-0.816235
0.569857
0.898185
0.129612
0.535104
-0.767
-0.328073
0.12722
0.574824
0.159332
0.595325
0.556757
0.243258
-0.364403
0.650157
0.739608
0.927896
0.684062
0.639379
0.576499
0.931959
-0.2142
-0.38332
-0.584357
0.603294
0.504312
-0.450996
0.178888
0.953097
-0.260753
0.953537
-0.496885
-0.098589
0.605757
-0.186847
-0.50618
-0.799812
-0.182299
0.495288
-0.2536
-0.15737
0.470324
-0.134777
-0.66082
-0.0566202
0.653458
0.188388
-0.142708
-0.215504
0.6123
-0.273179
-0.759251
0.655049
-1.00581
-0.660613
0.230493
0.897395
0.288283
0.832128
-0.293837
0.427962
0.173381
-0.208669
-0.52275
-0.218387
0.0418578
-0.323107
1.01295
0.238473
-0.354214
1.00711
0.846678
-0.293155
-0.54241
0.541285
0.587175
-0.915857
-0.6346
0.141137
-0.816665
-0.547879
0.15948
0.311056
0.334373
0.122668
-0.312868
0.682066
-0.0306024
-0.544261
0.699488
0.841943
-0.646412
0.866757
0.394847
0.62504
0.923537
0.0447505
0.922825
0.368377
-0.46702
-0.918495
-0.44221
0.321708
-0.236171
-0.384783
0.8882
-0.0385785
-0.211688
0.214802
-0.0729019
0.920239
0.62486
-0.242573
0.00626942
-0.991894
0.693716
-0.353647
0.243488
0.124663
-0.39026
0.397827
0.275578
-0.48221
0.781859
-0.850457
-0.321529
-0.252959
0.58662
-0.562863
0.598139
0.718308
-0.718045
-0.130576
0.6268
-0.6647
0.348226
-0.769461
0.139241
0.542211
0.533733
1.01036
0.211306
0.88186
0.918723
0.236445
-0.473233
0.143143
0.210713
-0.945842
-0.0399054
-0.518217
0.749582
0.899107
0.805008
0.800615
-0.0495421
0.218352
-0.387525
0.676082
0.675228
0.956093
0.6234
0.2566
0.3193
0.082
0.391504
-0.474183
-0.319072
-0.944518
-0.803936
0.703856
-0.88994
-0.11908
-0.5378
0.664101
-0.33469
0.79671
-0.84049
-0.962898
0.561
0.0253
0.007
0.687
-0.162295
-0.0836
-0.8184
0.742
-0.1021
0.4936
-0.1618
0.51
0.3217
0.0164
0.430099
-0.346268
-0.510376
-0.781283
0.187402
-0.258737
-0.548294
-0.289082
0.650498
-0.36584
-0.0901156
0.0348809
0.445186
0.170004
0.146386
0.0867933
-0.609874
0.619021
-0.574967
0.626514
0.287206
-0.0464972
0.6532
0.0084
-0.2397
-0.2524
0.0949071
0.477663
0.884157
0.665771
0.575286
0.78423
-0.063176
0.947572
-0.279578
0.733654
0.085048
-0.369763
-0.806197
0.563121
0.295981
0.714425
-0.159271
0.842333
-0.595187
-0.948167
0.741339
-0.426653
0.429713
-0.05024
-0.330697
0.621865
0.8748
-0.4042
-0.682578
0.791869
0.939667
0.446002
-0.0503792
-0.617661
0.219067
-0.125619
0.443682
0.753645
0.204717
0.429882
0.825438
0.96008
0.216194
-0.638561
-0.00582453
-0.617261
-0.780282
0.507338
-1.09608
0.541261
0.034493
-0.750203
-0.833744
-0.492379
0.4939
-0.975
-0.191908
-0.350725
-0.550539
0.0152444
0.550196
-0.66256
0.572651
0.516352
-0.460168
0.770254
0.676721
1.16382
1.33964
0.713209
0.693837
0.80543
-0.044532
0.151015
-0.755671
-0.328743
-0.470663
0.832874
-0.382746
0.595715
0.742621
-0.717974
-0.339022
0.7608
0.954274
-0.054935
-0.433295
-0.665674
-1.33063
0.328684
-0.821357
0.564417
0.18056
-0.496201
0.614996
0.629562
1.4632
-0.219433
0.960076
-0.720627
-0.155278
-0.320455
-0.0749465
-0.225501
0.0770563
-0.972228
-0.672658
-0.0945044
0.0941358
-0.14578
0.414486
0.9306
-0.317667
-0.69661
-0.701805
-0.0181994
0.287292
0.201894
-0.187228
-0.481082
1.12444
0.957047
1.05751
0.830276
0.806885
-0.709697
0.304144
-0.297961
-0.846876
-0.744416
-0.132607
0.193268
0.733715
0.392299
-0.0862312
-0.0430382
0.550618
0.734279
0.163187
-0.4486
0.0390001
0.530323
-1.12104
-0.44511
0.367878
-0.914625
0.591747
0.0998039
1.25966
-0.169698
0.59326
0.58458
0.360256
0.0719214
0.397533
-0.322822
0.177597
0.598852
0.509272
-0.109362
-0.192375
-0.191874
-0.652667
0.000939796
1.01466
-0.228116
-0.2683
0.9622
0.367747
0.5174
-0.660327
0.152408
-0.0979367
0.680985
-0.517883
0.668168
0.590993
0.253942
0.546392
1.25521
-0.00523207
-0.597042
-0.848245
0.168651
-0.136443
0.149234
-0.343982
-0.275864
-0.63715
0.683676
-0.30131
0.0309983
0.41663
0.0404212
-0.4768
-0.1364
-0.499653
-0.536954
-0.323511
-0.647733
-1.22649
0.0727428
0.821778
0.852943
0.588055
2.08076
0.978233
0.455398
-0.0408221
-0.463902
-0.498757
-0.773111
0.773956
0.459766
-0.0785764
0.674731
-0.121917
-0.156582
0.516077
-0.623575
0.853334
0.888655
-0.366402
0.1348
0.525896
-0.828465
0.325009
-1.31908
-0.0888093
0.495274
0.770636
1.27568
0.234756
0.630421
1.33823
0.3008
-0.757927
-0.588531
0.615149
-0.514069
-0.379548
0.0549708
0.431981
0.58351
-0.528742
-0.112725
-0.476566
-0.551588
0.424787
-0.388345
0.491273
-0.7081
-0.805607
0.524588
0.33646
0.0677045
-0.613163
-1.0051
0.167342
-0.255687
1.19572
1.20856
0.963222
0.132615
0.0469225
-0.859506
0.241782
-1.01207
0.0641387
-0.0203745
-0.340108
-0.880327
-0.741941
0.532208
-0.315374
-0.18367
-0.408951
0.716246
0.7915
-0.0068
-0.154479
0.579536
0.0381181
0.0550455
-0.117061
-0.561768
0.519507
1.30433
1.38282
-0.119563
0.0714947
-0.500899
-0.217776
-1.24213
-1.10011
0.206553
-1.06032
0.631411
0.374974
0.105252
0.196402
-0.321378
0.320559
0.51144
-0.438184
-0.373209
0.0823
0.212
0.985499
0.227894
0.287324
-0.583532
0.527466
-0.514752
-0.254957
0.437976
0.57264
1.29598
1.27616
0.0301099
-0.288875
-0.0440611
-0.198953
-1.16258
0.0828627
-0.143937
-0.289348
-0.913375
0.296428
-0.575393
0.00825446
0.318753
-0.544917
0.262854
0.601974
-0.1393
-0.359775
-1.1933
-0.927426
0.602506
-0.843221
-0.384725
0.695318
0.802923
0.872792
0.541748
1.04953
-0.46613
0.502809
0.125515
-0.404645
0.156902
-0.860128
0.531389
-1.42117
-0.0899454
0.682968
-0.322781
0.271254
-1.09049
0.588375
-0.199771
0.1867
0.913767
0.114589
0.425758
0.0551806
-0.754932
0.316306
-0.238355
0.0892282
0.789123
0.136887
0.855766
1.13938
0.32627
-0.776282
-0.795453
0.203479
0.116089
-0.265376
0.342394
-0.390178
0.0609369
-0.754128
0.467788
0.779359
-0.0299536
-0.362856
0.245169
-0.740371
0.0563472
0.14948
0.240635
-0.502602
-0.698163
0.273388
-0.720875
1.29753
0.328994
-0.271891
1.62731
0.155053
1.03324
-0.603607
-0.926407
0.139526
-0.782796
0.0605369
-1.12942
0.542106
-0.479126
0.37794
0.822114
-0.79632
0.281056
-0.350493
0.250402
0.373868
0.0814072
0.144464
-0.586396
-0.0421164
-0.536445
0.112151
-0.342808
1.08902
0.260071
0.898033
-0.0294482
1.70567
0.500879
0.251251
0.0803075
-0.577976
-0.512129
-1.1795
-0.663125
-0.516768
0.0904489
0.0992618
-0.834072
1.03577
-1.02784
0.423574
-0.734878
0.615208
-0.623258
-0.382934
0.181191
0.236165
-0.597212
-0.0904085
0.0105299
0.101455
-0.0293638
0.593749
1.25824
0.788933
0.154202
-0.075594
-0.440309
0.222956
-0.454738
0.651608
-0.541414
0.831233
-0.278113
0.451596
0.283996
-0.322952
0.528343
-0.075807
0.4452
0.161249
0.168891
-0.381457
0.356227
0.343132
0.0610789
-0.0336915
0.400904
-0.0777084
-0.229633
0.891127
1.51694
0.500939
0.558311
-0.541653
-0.403287
-0.483854
-0.445227
0.855558
-0.426942
0.528209
1.18754
0.79348
-1.30289
-0.292539
0.933106
0.786046
0.50401
-0.2931
-0.3745
-0.395326
-0.220854
-0.619218
-1.43496
-0.0813263
0.483482
0.484157
0.669586
0.802581
1.44922
2.07167
1.94642
0.490449
-0.688401
-0.279091
-0.627812
-0.169622
-0.599307
-0.399102
-0.124863
-0.0510363
0.536211
-0.231882
-0.257279
-0.544821
-0.818248
-0.8114
-0.337
0.588917
0.243953
-0.290032
0.0249117
-0.734684
0.0555873
-0.533011
0.112472
-0.0459148
0.343483
1.12119
1.58793
0.759129
0.344207
0.689472
-0.0200697
0.0490457
-0.849838
0.564226
0.467417
-0.203662
-0.217215
-0.16018
-0.474272
0.206873
0.623581
0.9551
0.031409
0.426364
-0.170152
-0.00833151
-0.866661
-0.402008
0.531542
-0.860705
0.569837
0.407683
1.16272
0.110757
1.62741
0.458443
0.531799
-0.155822
-0.236091
0.325586
0.221938
-0.877313
-0.435134
0.0592339
0.225386
0.202989
0.480751
-0.201674
-0.46663
-0.2992
-0.521313
-0.602728
0.379387
-0.30643
-0.160482
-0.781862
0.282778
-0.460608
0.332868
-0.810074
1.06293
1.12321
1.08705
1.06502
0.563096
0.423221
0.328954
0.105092
0.747237
1.04032
-0.35902
0.558803
-0.0415327
0.166888
-0.693611
0.851073
-0.0639404
0.6037
0.9688
0.0292878
-0.862686
0.167897
-0.756982
-0.215589
0.397996
-0.236637
0.244688
0.634988
0.393271
0.168918
1.59055
0.0562714
0.374764
-0.727898
0.112306
0.98039
-0.720416
-0.556538
-0.549887
-0.81452
-0.877126
0.727833
-0.0950243
-0.539093
-0.256025
0.9414
-0.7116
0.0982641
-0.211062
-1.02666
0.299628
-0.999702
-0.389198
0.22892
0.694831
-0.657419
0.202689
1.4268
0.167522
0.650438
-0.589126
0.122432
0.730258
1.09236
-0.621433
-0.683826
0.478997
0.587735
0.837055
0.80949
0.942591
-0.693555
0.204052
0.9838
0.5997
0.0208913
0.85766
0.559394
0.1139
0.760741
0.384979
-0.741909
0.87234
-0.436002
-0.461934
0.997951
-0.538729
0.395937
0.32233
0.345103
0.418887
-0.195377
0.240308
0.732771
0.65162
-0.704129
-0.561966
-0.689779
0.226448
0.959248
0.759035
-0.8805
-0.5803
0.820615
-0.0651376
-0.624445
0.103095
-0.843708
-0.306823
0.09409
-0.143702
0.501064
0.87206
0.413686
0.47266
0.340951
-0.932978
0.615131
-0.691784
-0.420401
-0.189063
0.0662734
-0.243538
-0.226055
-0.850488
0.094524
0.276796
-0.226857
0.12635
-0.5229
0.0582
0.0206
0.5497
0.69342
-0.814994
-0.66489
-0.954902
0.888575
-0.879505
-0.705459
-0.743461
-0.9057
-0.232778
0.995139
0.495671
-0.836023
-0.467733
-0.3782
0.6792
0.5754
0.0479
-0.283439
0.615192
0.3027
-0.7649
-0.2747
0.6835
-0.0477
0.1638
0.4321
0.1804
-0.72
-0.962687
-0.374875
0.556476
0.720268
0.929185
0.408389
-0.635329
0.899228
-0.382267
-0.310713
0.433592
0.0141678
0.96996
-0.5845
0.798102
-0.923574
0.616487
-0.886211
0.442349
-0.2249
-0.2071
0.526
-0.6069
-0.3472
0.9627
0.633562
-0.936418
0.281434
0.478764
0.131065
-0.114076
-0.371531
0.816519
-0.821665
-0.113237
0.422537
0.136885
-0.461363
-0.371647
0.441424
0.0285547
-0.130318
-0.139692
-0.884109
-0.425484
0.550914
-0.486761
0.747977
0.234085
0.00375091
-0.575769
-0.132199
-0.7268
0.639282
0.628896
-0.520296
-1.02775
0.628332
0.463535
0.247374
-0.884496
-0.844027
-0.206224
-0.655786
-0.347438
0.484248
0.617883
-0.0395291
0.485942
0.306552
0.280995
0.329846
-0.161255
-1.10193
0.529664
-0.078166
0.00821479
0.893174
-0.478068
-0.646286
0.0265
-0.186156
-0.779123
-0.460635
0.565637
0.370293
-0.737767
0.223261
-0.323249
-1.22939
-0.257009
-0.68009
-0.897242
0.0280278
0.187174
0.178069
0.656139
0.173684
0.458075
-0.352543
-0.999203
-0.0038202
-0.663555
0.590811
-0.569587
0.387832
0.630911
0.0847587
-0.9885
0.341611
0.500542
0.859793
0.129138
-0.181698
-0.540974
0.645121
-0.26252
-1.06584
-0.0332972
-0.452784
-0.0234658
-0.207594
-0.843953
-1.41839
0.376285
0.6001
0.83596
-0.496849
0.266046
0.114503
0.307938
0.0563052
-0.483403
-0.0383172
-0.502508
0.652751
-0.2572
0.961552
0.34263
-0.519611
-0.0595922
-0.807925
-0.666279
-0.685653
0.543099
-1.16244
-1.34151
-0.482287
-0.657734
0.469746
0.0147979
0.137732
0.583622
0.136506
-0.75021
-0.495119
0.843927
-0.997116
-0.715363
0.591064
0.89098
1.03491
0.21229
0.974996
-0.9243
-0.487535
0.438247
0.612423
0.542153
-0.17372
0.353376
-0.475072
-0.363392
-1.65412
-0.867965
-0.0964904
0.522594
-0.282296
-0.835208
0.80094
-0.255422
-0.57801
-0.918496
-0.280136
-0.000862918
-0.843496
1.09998
0.123435
0.17727
-0.233408
0.731167
0.7416
-0.2653
0.152246
0.661156
0.404446
0.841666
0.223213
0.926366
-0.707932
-0.350591
0.00144588
-0.870974
-0.471064
-0.559269
0.103485
-0.342473
-0.603497
1.06334
0.256813
0.264782
0.155248
0.692545
-0.616391
0.261697
1.30022
0.704453
-0.356448
0.0391769
-0.8566
-0.65
-0.830363
-0.759725
0.586961
-0.00400624
-0.828648
-1.08071
0.354403
-0.906839
-0.97366
-0.266073
0.00727534
-0.717554
-0.206067
0.201822
-0.785337
-0.0117838
-0.704594
-0.693859
0.731118
-0.0956713
0.741268
0.613036
0.957394
-0.385511
0.300965
-0.680126
-0.333549
0.2356
-0.604682
0.926638
-0.482601
-0.292418
0.769224
-0.314798
-0.293594
-0.376583
-0.868613
-1.06443
-0.44145
-0.0167704
0.15286
0.126846
-0.414545
-0.829637
-0.93474
0.662791
0.718715
0.00944075
-0.461701
0.780103
-0.0475147
0.545767
0.290258
0.708577
-0.971053
-0.7296
0.0191645
0.225347
0.558076
-0.555248
0.245178
0.665885
-0.506058
0.0395596
-0.449537
-0.858687
-0.181827
-1.18661
-0.544161
-1.18785
-0.744573
-0.549997
0.279585
0.897519
-0.563472
0.135981
1.051
0.583742
0.00323236
0.319884
0.0263506
0.914524
0.9035
0.8181
-0.970276
0.809374
-0.243938
-0.0355002
0.585043
-0.353809
1.15445
-0.188794
-1.06682
-0.533704
-0.0691306
-1.07895
-0.375581
-0.358705
-1.79052
-1.07253
0.61744
-0.0484763
0.18748
0.728584
-0.0295428
0.489225
0.116282
0.546539
-0.380932
0.987691
0.7318
0.9567
0.446275
-0.0314599
-0.0282648
-0.0634392
0.794947
1.02457
-0.224771
0.757914
-0.68081
0.231789
-1.57987
-1.24428
-0.575975
-1.52761
-0.632444
0.177102
-0.361692
1.57996
1.01887
0.982411
0.697824
0.221791
0.72639
0.394222
0.0202471
0.0301929
-0.8633
0.4187
-0.629478
0.180455
-0.0517419
0.223675
-0.869894
0.707402
0.934166
-0.384462
-0.201423
-0.480756
-1.08375
-0.97139
0.287532
0.0304823
-1.41515
-0.042231
-0.264301
0.222386
0.427182
0.966487
0.441424
0.31504
0.156933
0.270741
1.40849
-0.675005
0.0462
-0.709929
0.0273571
-0.677269
0.419175
0.306984
-0.112576
0.461758
0.098713
1.78215
0.257324
-0.325079
-1.59924
-1.30363
-0.679407
0.494825
-0.899367
0.0904008
1.15195
1.78823
0.434651
0.293476
0.0872432
0.404877
0.329272
1.25918
-0.209086
0.224874
-0.887651
-0.023688
-0.624567
0.459809
-0.813461
0.0978013
-0.459642
0.415805
0.644824
0.388062
0.8805
0.261099
-1.11061
-1.03213
-0.670547
-0.808
-0.581206
0.320847
1.19083
1.36848
-0.113442
-0.152137
0.272256
-0.350353
-0.164624
-0.127919
0.940326
0.0747603
-0.821728
-0.103983
-0.0106025
0.628933
0.0690986
0.394501
1.3116
0.27993
-0.285924
1.30728
0.927703
0.51105
-0.115437
0.174107
-0.629076
-0.139712
-1.00116
-1.28444
0.936808
0.728779
0.340532
-0.125535
1.23396
-0.451821
-0.320595
0.567036
-0.244883
0.925808
0.595506
-0.822102
0.0890977
0.338402
-0.456279
0.475655
-0.0828143
-0.292479
0.0478538
0.6375
0.461514
-0.567894
0.320005
-0.471396
-1.22458
0.000619834
-1.45377
-0.678314
-0.31107
0.286568
-0.777973
0.509946
0.647241
0.733674
0.919116
0.90966
-0.0380186
0.364288
0.522953
0.836038
-0.100634
-0.301361
0.261927
-0.971099
-0.213694
-0.41427
0.731477
-0.147243
0.0813614
0.243795
0.397337
-0.428151
-0.402841
0.192714
-1.41294
-0.112424
0.466666
1.05622
0.462133
-0.91184
0.124347
-0.463408
-0.945147
0.209063
0.804798
0.601324
-0.0216
0.1246
0.0764525
-0.843833
0.697816
0.279221
-0.153501
-0.552431
1.14518
-0.509139
0.826758
-0.229603
0.531796
-0.876003
-0.0580219
-0.776493
-0.00367469
-1.0969
-0.567415
-1.05336
0.798423
0.464802
-0.291036
0.860955
-0.323696
0.326797
0.128502
0.427006
0.2947
-0.4572
-0.68618
0.754007
0.0986306
0.223805
-0.170742
0.732139
-0.406337
0.618402
-0.343633
0.51188
0.751135
-0.584584
-0.352091
-0.266498
0.154664
0.109317
-0.765365
-0.225975
-0.304213
0.965759
-0.605343
0.373297
0.405589
-0.409572
0.226903
-0.101149
0.7568
0.56296
-0.706354
0.828073
-0.95986
-0.529069
0.216614
0.629855
-0.695266
-1.4062
0.540897
-0.344416
-0.397396
0.408474
-0.631814
-0.0551713
-0.0333112
-0.61874
-0.626597
0.327949
-0.339425
0.369417
-0.0282634
-0.541639
1.06627
0.571424
0.247789
0.721881
-0.9441
0.583096
0.338679
-0.593655
-0.213478
0.198908
0.556865
0.441649
0.507067
0.545741
0.0787955
-0.0286327
0.610001
-0.541738
-0.33467
0.62422
-0.656669
-0.185969
1.36607
-0.00075109
-1.09046
0.609931
-0.413645
0.497258
-0.644899
-0.76298
-0.683177
-0.0941073
-0.493
0.96823
-0.84045
0.533194
0.809719
-0.045022
-0.26968
-0.421051
-0.683075
-1.044
0.377141
0.704116
0.610066
0.103991
0.0707428
0.708253
0.121708
-0.631837
0.216447
-0.954416
0.251946
-0.32282
0.570099
1.14893
0.403236
0.78086
-0.447619
-0.333746
0.5541
0.81303
0.423417
0.317618
-0.0502329
-0.427287
-0.0777368
-0.528364
0.0699736
-0.0373563
0.582486
-1.03059
-1.07687
0.300455
-0.171175
-0.344023
-0.955264
0.872294
-0.115295
-0.445755
0.562279
0.394152
-0.833959
-0.271242
-0.735402
0.746003
0.439511
0.920426
-0.3856
0.240435
-0.214893
-0.172952
-0.256019
0.408112
0.476589
0.293754
-0.799696
-0.998262
0.81116
0.137988
-1.02126
0.378261
0.644143
0.45048
-0.946136
-0.32447
-0.0858698
-0.847913
-0.799326
0.0322509
-0.728325
0.253754
0.219722
0.55737
0.634508
-0.414051
-0.867
-0.839499
-0.335361
-0.750756
0.753615
0.588665
0.56176
0.676576
-0.616806
0.516765
0.417673
-0.275219
-0.575759
-0.749263
0.00724539
-0.22148
-0.48085
-0.736988
-0.0431468
0.848303
0.226744
-0.816704
0.523289
-0.126938
0.47149
-0.0336569
-0.331185
0.260919
-0.2608
0.7113
-0.2641
0.0557
-0.706942
0.412139
-0.481192
-0.683414
0.35734
0.604898
0.665346
0.514898
0.0147
-0.618
0.808499
-0.593101
0.522499
-0.8741
0.459302
0.8673
-0.1872
0.1839
-0.217444
-0.0311734
0.7503
0.4992
0.1582
-0.9034
0.2495
0.1713
-0.7759
0.3319
-0.528202
-0.952195
0.781051
0.866275
0.0385216
0.269842
-0.410407
-0.634758
0.115499
0.685015
0.914328
-0.43468
-0.740313
0.000506485
-0.830398
0.365828
0.972105
-0.356871
0.133116
0.349401
-0.5999
-0.9079
0.1292
-0.2961
0.2981
0.0352
0.934702
-0.148562
0.242442
-0.400589
-0.778582
0.403559
0.0884647
-0.599776
-0.830065
0.704875
0.789387
-0.760857
0.765349
-0.435747
0.0106126
-0.936427
0.431792
0.0625172
0.12379
0.171236
0.207644
0.75282
-0.841082
-0.74154
-0.661008
0.109775
-0.183802
-0.3347
0.16373
-0.0225961
0.631906
0.948121
-0.815644
0.667386
-0.754123
-0.0525857
0.626805
0.744245
-0.399303
-0.0916795
0.390016
0.00870773
0.591495
0.887895
-0.272453
-0.262061
-0.294312
-0.726692
-0.250503
0.109376
-0.193073
0.944413
-0.474843
0.875625
0.269104
0.8882
0.200379
-0.898293
1.02203
-0.494308
0.431222
0.675726
0.181916
0.335882
0.176854
0.668629
0.327365
1.0367
-0.306021
0.91761
-0.537307
-0.735713
1.00604
0.624388
-0.571469
0.662632
-0.962785
-0.3403
0.435976
-0.906277
0.584964
-0.289349
-0.765306
0.4879
-0.742878
-0.0352976
-0.645924
0.71202
-0.447365
-0.785499
0.648432
0.0630011
-0.285602
-0.151308
-0.348402
-0.762641
0.0864008
-0.798998
0.802011
0.271062
0.898605
-0.834088
0.825149
-0.978019
0.0930342
0.997718
0.17059
0.756828
-0.445694
-0.817579
-0.667413
0.1342
0.591132
0.747076
-0.645793
0.965267
0.0510839
-0.0198333
-0.0936685
0.19797
0.607227
-0.562772
0.106954
-0.0800885
1.01879
0.628269
-0.118921
0.435177
0.895834
0.655703
0.710558
0.713713
-0.409897
0.467373
0.12728
-0.542383
-0.181809
0.506359
0.800486
-0.1363
-0.783642
-0.116985
0.647041
0.929421
0.707777
0.580877
0.226901
0.683167
0.457641
0.273078
-0.624987
1.18237
0.346102
0.146764
0.045334
0.620433
-0.0614148
-0.174006
-0.696192
1.01707
0.971926
0.515448
0.135447
0.685297
0.564898
-0.868448
-0.5724
0.3034
0.961038
0.440058
0.893402
-0.470102
0.365423
0.330654
-0.722989
0.522251
0.0358849
-0.0186156
1.21587
0.561948
-0.605172
-0.636417
-0.0014846
0.12501
0.630938
-0.514694
-0.851636
0.741803
-1.12464
-0.0529165
-0.962312
-0.880247
-0.287317
0.796449
-0.4215
0.4822
-0.94896
0.407572
0.460178
-0.635842
-0.38606
0.307258
0.786574
0.884578
-0.420464
0.416381
-0.506412
0.540937
1.04503
-0.298074
0.288668
-0.570025
-0.351745
0.396306
0.3167
0.593415
0.00144918
0.0360829
0.104165
-0.199822
-0.214415
0.201139
0.741584
-0.4048
0.449445
-0.320338
1.10403
-0.229954
0.654451
1.12246
-0.353736
0.646371
0.0386023
-0.386688
0.617752
-0.369456
0.931836
-0.115954
1.00985
-0.215862
1.0118
0.713865
0.597772
0.613622
0.518601
0.727484
0.898235
-0.518732
0.431153
-0.142736
-0.482026
-0.6949
0.167767
-0.725676
-0.500939
1.03572
0.11884
-0.671662
-0.184701
-0.478216
0.209385
0.169285
0.614576
-0.851915
-0.561614
0.237966
0.268021
-0.642371
1.05541
-0.529767
0.942046
-0.624669
0.986978
0.719186
0.854911
0.358638
-0.657335
-0.889414
0.9868
-0.3383
-0.669355
0.495686
0.615814
-0.43534
-0.476235
-0.648499
-0.0922067
0.437279
-0.407261
-1.35492
-0.287245
-0.592872
-0.542765
-0.104871
0.654832
-0.306446
0.975916
-0.413497
0.0972254
-0.149036
-0.216729
0.320025
0.716726
0.860478
0.49226
0.882029
-0.108
0.5875
0.647307
-0.0363394
0.423253
-0.45958
0.387838
0.517485
0.313506
-0.873023
-1.32541
-0.177845
0.588084
-0.613492
-0.43485
-0.40068
1.11706
-0.0315948
0.801901
0.759667
-0.128364
0.201365
0.602867
-0.627449
0.659531
0.248885
0.725774
0.904995
0.143619
0.7828
-0.638915
-0.612747
-0.196102
-0.722708
0.777693
-0.741386
0.171176
-0.659945
-0.494333
-0.70352
0.565176
-0.450845
0.281629
0.726386
-0.210889
0.855559
-0.617207
0.214872
0.827607
0.221266
0.17721
0.544449
-0.258282
0.444251
0.115444
0.106705
0.8926
-0.398986
0.721069
0.142815
-0.395514
-0.527961
1.14985
-0.747266
-0.808418
-0.0114666
-0.0103868
-0.103642
-0.776909
0.485427
0.308511
-0.0362749
0.0857843
-0.0824956
-0.202452
0.097843
-0.977497
-0.865382
0.255047
0.3269
0.344367
-0.397821
1.0974
0.995146
0.343373
-0.308482
-0.772507
0.693845
-0.470894
-0.760002
-0.986013
0.412464
0.666876
0.32134
0.413319
-0.389732
-0.55185
1.1744
0.315058
0.448733
0.880194
-0.874074
-0.930682
0.303689
0.775775
-0.47763
0.00166749
0.763435
0.899838
0.0934416
-0.348641
-0.662035
-0.0132866
-0.530527
0.966971
0.104076
0.342399
-0.461591
0.337514
0.675566
-0.768675
-0.058616
0.551686
-0.227424
-0.122207
0.412251
-0.118861
-0.282584
0.405802
0.867513
0.485351
0.328695
0.0976373
-0.0408723
-0.744148
-0.365015
-0.256393
0.570122
0.184621
0.574689
-0.321218
0.642001
-0.797823
-0.455735
0.23023
-0.22694
1.07475
0.992179
1.00612
0.229386
-0.0397408
-1.0466
-0.346262
0.888501
-0.267724
-0.577094
-0.079507
0.565292
-0.447202
-0.396208
-0.52341
0.272073
0.162928
-1.176
-0.388927
1.07807
-0.336947
0.0803464
0.0518904
0.757944
-0.360267
0.461759
0.353682
0.498408
-0.50058
0.763836
0.187969
0.626817
-0.421049
-0.014467
-0.70744
0.818284
-0.217034
0.53693
0.338192
-0.585661
0.612854
-0.566957
-0.393774
0.0289491
-0.565884
0.795218
0.577166
-0.255173
0.067096
0.0212719
0.1877
-0.7547
-0.297681
-0.264322
-0.601451
0.331025
0.230393
0.314945
-0.121127
0.480072
-0.643813
-0.00272221
0.727518
0.837695
0.906329
-0.0554329
0.890938
0.438572
-0.110461
0.828838
-0.96011
-1.12289
-0.299816
-0.553476
0.493803
0.567099
0.256407
0.842693
-0.5437
0.584
-0.36024
-0.0391699
1.13158
0.8151
-0.681289
0.193471
-0.246821
-1.29069
0.562628
0.164297
-0.209594
-0.64846
0.677389
0.0452013
0.0506675
0.25276
-0.186173
0.281414
0.752223
0.473603
-0.869934
-0.0795823
0.530261
-0.699969
0.0340451
0.602025
0.4572
-0.37908
0.169536
0.104935
-0.58703
-0.431688
1.11427
-0.960354
0.530571
0.639177
0.746249
-0.223094
-0.54109
0.283922
0.126365
1.21749
-0.166748
-0.233684
-0.632178
-0.593629
1.0506
-0.927804
0.746167
-0.727114
1.1082
-0.0230933
0.226403
-0.594415
0.1471
0.988686
0.917653
-0.265548
0.215873
0.810731
0.706973
0.242975
-1.05561
0.0783147
-0.670919
0.400153
0.568045
0.736887
0.59278
0.520515
-0.648171
0.577523
0.910109
1.08002
-0.198303
0.215647
-0.208469
0.145199
-0.410617
-0.450753
0.784247
-0.968246
-0.125
0.0842004
-0.0237844
-0.0680362
0.209778
0.62682
-0.18013
0.206961
-0.584793
0.206947
0.973978
-0.394502
1.07308
0.754888
0.206548
-0.575075
0.887199
-0.220287
-0.500754
0.480232
-0.33447
-0.00801808
-0.274424
-0.813754
0.507007
-0.367943
-0.144148
0.76655
-0.844
0.901867
-0.712205
0.698426
-0.220924
-0.706705
-0.465957
-0.66991
0.00356657
0.849119
-0.491746
1.21916
-0.512521
0.895613
0.623404
-0.771968
0.671278
-0.00195442
0.484191
-0.192111
0.0060112
0.860284
0.868107
-0.475302
-0.00518878
0.267078
-0.414273
-0.0662067
0.2572
0.180588
-0.216183
-0.408176
0.171832
0.821973
0.680158
0.479697
-0.814682
-0.747799
-0.79481
-0.411953
0.922154
-0.287292
-0.562065
0.668607
0.655525
-0.659878
-0.161594
-0.785489
0.691637
-0.261918
-0.181103
-0.854628
-0.634256
0.57706
0.182203
0.314764
0.2316
0.506098
-0.263919
-0.0458784
0.0135788
-0.384528
0.661385
-0.839479
-0.634045
-0.840281
0.573544
-0.395856
-0.314595
-0.615042
-0.599946
-0.745493
0.837974
0.59616
-0.775377
0.984062
0.659492
0.0631065
0.276177
-0.319852
0.314429
0.540711
-0.469777
-0.168327
-0.173
-0.5777
-0.2662
0.354
-0.978845
-0.0174107
0.108184
-0.586231
0.647831
0.0836365
0.264038
0.746457
-0.7128
0.405675
0.54989
0.42199
-0.596212
-0.922576
-0.747499
0.1882
-0.1935
0.3543
-0.423663
-0.6667
-0.6536
-0.8743
-0.3759
0.9121
0.6383
-0.3726
0.3745
0.5818
-0.0338054
0.0121103
0.887529
-0.192801
-0.758678
0.710657
-0.844009
0.48403
-0.772565
0.269482
-0.635825
-0.377075
-0.766479
0.689956
0.438435
0.0194116
-0.877079
0.979959
-0.530434
0.593815
-0.130979
-0.92649
-0.4062
0.4631
0.8451
-0.6024
0.105907
0.132339
0.607975
-0.752994
-0.524294
-0.084978
-0.00534352
-0.166988
0.955333
0.83552
0.641498
-0.547656
0.785535
0.260966
-0.0762703
0.711425
-0.283191
0.335163
0.645032
-0.794996
0.372425
0.102959
0.22335
-0.542016
-0.831657
0.385396
0.481478
0.5864
-0.781379
0.0642227
-0.337032
0.3584
0.613991
-1.0571
-0.734293
-0.71072
0.228918
-0.457504
-0.319404
-1.15268
0.0990357
0.268372
-0.70578
-1.23307
-0.528077
-1.13883
-1.06341
0.187501
-0.389459
-0.876478
0.223207
0.900356
0.0643162
-0.303314
0.83651
0.4872
-0.478652
-0.672675
-0.617827
-0.595948
-0.383533
-0.280398
-0.0526778
-0.979919
-1.19973
-0.658153
-0.80411
0.119543
-0.588232
-1.09223
-0.980519
-0.195579
0.307833
-1.17729
-0.223934
0.460119
0.603626
0.372376
0.452549
0.809042
0.381817
0.613491
-0.25605
-0.3434
0.878303
-0.126241
0.282436
-0.615978
-1.04983
0.244476
-0.660576
0.151911
-0.814723
-1.6832
-0.828956
-0.912425
-0.462969
-1.12439
-0.606271
-0.517068
-0.586832
-0.389446
-1.34782
-0.632195
-0.732571
1.18377
0.524363
0.0696652
0.150965
0.383342
0.388421
0.5142
0.658649
0.542263
-0.709232
0.59368
-0.717716
-0.212286
-0.542665
-1.06471
-0.00756017
-0.808876
-0.0930732
-0.905763
0.224008
0.338333
-0.453244
0.211896
-1.10169
-0.534982
-0.823812
-0.121951
0.601998
-0.146899
-0.482966
-0.613448
0.18016
-0.208923
-0.953313
0.1436
-0.55776
0.145853
-0.72521
-0.213498
0.284002
-0.696615
-0.925619
0.050164
-0.042505
0.0564132
-0.407295
0.439387
-0.375354
-0.106191
0.313907
-0.796443
0.149242
-1.41347
-0.449655
0.582459
-0.737114
-0.346461
0.187905
0.574097
-0.441623
0.659659
0.8212
0.4685
-0.214319
-0.660584
-0.633522
-0.372881
-0.231151
-0.281663
-0.0297166
0.361445
-0.0495192
-1.21474
-0.339089
-0.242148
0.172443
-0.868525
0.564926
0.136007
-0.150215
0.239861
-1.14372
0.109174
-0.488288
0.883292
1.15155
-0.317137
0.356556
0.556771
-0.3733
0.0342
-0.208728
-0.0223299
0.347373
-0.82214
-0.602693
0.49053
0.871504
0.0207313
0.324744
0.48135
0.753478
0.0630502
0.0396878
1.10064
-0.193751
0.441182
0.0221244
-0.693497
0.453596
-0.696415
0.641767
-0.465391
-0.654106
0.118423
-0.403883
-0.408735
-0.596527
0.7813
-0.596441
0.305646
-1.15775
0.397945
0.0289451
0.345405
0.948749
1.12276
0.499104
-0.256342
0.80315
0.646978
1.01731
1.37618
0.993706
0.020951
0.483248
-0.200984
-0.711104
-0.54364
-0.442336
0.455731
0.847555
-0.322643
0.545752
0.45846
0.406256
0.4083
0.78857
-0.983362
-1.07067
0.0774698
0.195602
0.0525056
0.585555
1.26365
-0.0643062
0.814305
0.960784
0.841368
0.0781922
0.299568
0.59792
0.424821
0.488402
0.661309
-0.397682
0.616384
-0.815897
-0.249954
-0.120709
0.105937
0.71811
-0.498129
-0.846
0.8454
0.321052
-0.771543
-0.373031
0.706641
0.978382
0.251681
0.703028
-0.190126
0.307094
-0.168306
0.696553
-0.188793
-0.259176
-0.654017
0.230288
-0.209782
0.551127
0.450918
1.2172
-0.148012
0.303891
0.793396
-0.733493
-0.243762
-0.891811
0.36928
0.6945
0.9724
-0.443813
-0.826443
-0.419521
0.413608
-0.205248
0.684945
0.339743
0.0608276
0.538136
0.0950729
-0.275734
0.555123
-0.346435
-0.816611
-0.316568
0.0259487
-0.392524
0.105776
0.61627
0.0299636
-0.0648455
0.716703
0.296908
-0.486493
-0.211071
0.404484
0.244734
-0.1877
-0.394921
0.231237
-0.414447
1.11015
0.912393
0.775098
0.353144
0.754555
0.26426
-1.12769
1.04094
-0.747136
0.198228
0.0927907
-0.790607
0.476687
1.07612
0.464309
0.117667
-0.0327409
-0.554737
0.555703
0.135177
-0.699688
-0.730851
-0.322649
0.695
0.745791
0.50212
-0.363862
-0.759094
0.141757
0.236711
-0.387119
-0.157485
-0.373882
-0.519267
0.755658
0.0694999
0.463358
0.0547794
-0.795603
0.442085
0.225396
-0.112927
-0.40528
0.657646
0.0150442
0.0680581
-0.903106
0.497638
0.293986
-0.480602
-0.735582
0.608052
-0.760547
-0.0400396
-0.104833
0.871849
0.172277
0.600392
0.530184
-1.25169
-0.515548
0.557501
-0.127726
0.679735
0.175099
-0.148478
-0.21146
-0.814756
0.631782
0.388826
0.683127
0.970405
-0.336845
0.147617
0.340396
0.0363095
0.172739
-0.866832
0.37587
0.835691
-0.328152
0.634749
1.12985
0.00172416
0.900969
-0.841154
-0.722603
-0.249558
0.370495
-0.2675
-0.16481
0.970632
-0.463326
-0.666405
-0.339651
-0.433212
-0.452955
0.363785
-0.579155
-0.0160542
0.178571
-0.264949
-0.859136
-0.880157
0.88678
0.841886
0.399057
0.164812
0.404447
-0.302335
0.118964
0.0726742
1.09881
-0.279106
-0.496928
-0.483722
0.517447
0.681759
-0.222531
-0.283781
-0.704384
0.248209
-0.680516
-0.523863
0.339398
-0.459137
-0.819309
-0.905251
-0.652048
0.957946
0.999975
0.670021
-0.883133
-0.801241
-0.0716175
0.329756
-0.00211265
-0.932874
0.605687
1.35646
0.72486
-0.464048
0.241216
0.218704
-1.15503
0.7082
1.15773
-0.633504
-0.0779902
0.165456
-0.568249
0.539481
-0.571641
0.171106
0.255703
-0.325571
-0.602207
0.608427
-0.139256
-0.293112
0.457734
0.742922
0.730381
-0.5448
0.1543
-0.918212
0.567462
-0.317899
0.553298
-0.358348
-0.85552
0.791268
0.567131
0.151582
0.0288881
-0.274918
0.189102
-0.696242
-0.613108
0.279553
0.0454119
-0.591622
-0.310719
-0.446184
-0.883127
-1.31483
-0.718354
-0.706809
-0.93637
0.537395
0.304508
-0.4437
0.6373
-0.005001
-0.00958689
-0.129962
-0.625357
-0.828696
0.217419
-0.75066
-0.763092
0.559926
0.283665
0.710563
-0.62304
0.203921
0.507691
0.198388
0.394922
-0.0307256
-0.444569
0.809432
-0.0899283
-0.702435
0.654391
0.016989
-0.752492
0.427019
0.376278
0.9848
0.610142
0.380709
0.723071
-0.428668
0.0648067
0.145871
0.616927
0.66387
0.415555
0.135832
-0.45669
0.442102
-0.0560951
-0.465373
-0.0582259
0.865479
0.875839
-0.862306
-0.917869
0.125094
-0.19021
-0.266382
-0.523751
-1.07101
0.380459
-0.918655
0.514036
-0.7003
0.605387
-0.671412
-0.935678
0.95003
-0.509512
0.529497
0.0701183
0.10922
-0.0483206
-0.699493
-0.222238
0.229915
-0.24744
-0.573203
-0.54147
0.52404
-0.190915
0.575977
0.687855
-0.211406
0.283483
-0.841338
-0.18254
-0.0763008
-0.71686
-0.0618874
-0.664959
0.0051
-0.592912
0.00747801
-0.307833
-0.0126016
0.885183
-0.283903
0.0613309
0.35666
0.806509
0.922441
0.517332
0.544137
1.04405
-0.481417
-0.269503
0.454271
-0.586896
-1.03303
-1.13363
0.570845
-0.485803
-0.735856
-0.332533
-0.0843993
-0.645147
-0.978991
0.874511
0.1351
-0.579824
-0.0349094
0.45909
-0.723802
-0.474383
-0.411388
0.819602
-0.446965
0.505017
-0.273013
-1.00424
-0.459783
0.863862
-0.797009
0.283966
-0.196272
0.446321
-0.707215
-0.52043
-0.54806
0.20918
-0.492471
-0.60029
0.017891
-0.0863518
0.872077
-0.791071
0.1883
-0.211723
-0.121571
0.496063
0.437348
-0.424855
-0.484971
0.600817
-0.519167
-0.788607
0.245911
-0.125269
-0.297707
0.518356
0.362905
0.160447
-0.413986
-0.647016
-0.494156
-0.96708
-0.982564
-0.79288
-0.0892973
-0.508249
-0.632248
0.367502
-0.63171
-0.727441
0.565
0.553178
0.918323
-0.843783
-0.553657
0.229709
0.0821282
0.10949
-0.56344
0.773797
0.618752
-0.861469
0.298794
-0.589729
-0.350622
0.396029
-0.674129
-0.292672
0.914089
0.699617
-0.139408
0.314521
-0.0965034
-0.0383728
-0.569201
0.458342
0.413544
0.344597
0.6195
0.4168
-0.1128
0.842
-0.848781
-0.611491
-0.77848
-0.979911
-0.947667
-0.803324
-0.302106
0.0891072
0.9141
-0.145606
-0.869426
-0.0300404
0.374826
0.873882
-0.2253
0.5556
-0.6483
0.1748
0.249435
-0.34393
0.329
-0.5895
0.2297
0.9422
-0.6229
0.0972
0.3266
0.5849
-0.885722
0.576348
-0.692336
-0.588563
0.639793
-0.149161
-0.206233
0.735473
0.80604
0.41801
-0.11911
-0.614479
0.539069
0.886997
-0.24372
0.0260714
-0.520486
-0.804771
-0.141451
0.356387
-0.341204
0.528798
-0.4526
-0.7844
0.5101
0.8446
-0.899512
-0.0230355
0.146156
-0.370456
-0.50303
0.262585
0.188984
0.511473
0.234348
-0.727382
0.102197
-0.499688
0.404079
0.33725
-0.00877695
0.435615
0.477947
-0.291633
0.150992
-0.720717
-0.85983
0.780194
0.347609
-0.471729
0.936101
-0.547214
0.699599
-0.01
-0.432006
-0.362042
-0.461884
-0.588271
0.317164
0.785832
-0.716455
0.328299
0.889812
-0.699714
0.748109
0.706328
-0.824758
-0.457626
0.322225
-0.639967
0.414956
-0.541258
0.153566
-0.457109
0.316592
-0.170863
-0.220157
0.988334
-0.218549
-0.0521841
0.347655
-0.7457
0.262307
-0.41499
-0.344298
0.55666
-0.580237
0.345123
1.05555
-0.980313
0.423349
0.433281
-0.963456
-0.558885
0.704538
-0.435012
-0.203115
0.0356201
0.334242
0.570866
0.926893
-0.56811
-0.48486
-0.218831
-0.445912
0.206068
1.20354
0.973659
0.0461596
-0.0535
-0.254697
0.742713
-0.493509
-0.371055
-0.459128
0.153656
0.111498
0.196166
-0.818127
-0.673851
-0.374133
-0.097395
-0.866674
0.535757
-0.295299
0.810624
1.25223
0.794925
0.480076
0.113777
0.775457
0.0932345
-0.6052
1.05053
0.904441
-0.89788
-0.321438
0.0205
0.907897
1.0139
0.906657
-0.0635133
-0.683611
0.747724
0.36432
-0.685206
0.0720222
-0.920838
-0.779255
-0.811661
0.45034
-0.0730437
0.0844576
1.09417
0.555647
-0.122071
-0.185957
0.800883
-0.274495
0.857703
-0.418195
-0.336929
-0.0340292
-0.72866
0.253899
0.1009
0.0424907
-0.353316
-0.083767
-0.0329475
0.557871
-0.54345
-1.00392
-0.643137
0.449737
-0.183561
-0.630754
-0.281611
0.0882247
-0.356766
-0.235033
0.83599
-0.0923252
-1.06323
0.733524
-0.378229
-0.174614
-0.168244
0.461668
0.269282
1.16028
-0.652109
0.3377
-0.3061
1.00751
0.40228
0.0520374
0.99504
0.644066
-0.350355
0.751271
-0.863024
0.388329
-0.816004
-1.06559
-0.203313
0.344175
-0.264545
-0.167434
-0.896193
0.922409
-0.6568
0.622374
-0.160231
-0.197215
-0.36388
-0.534441
0.610313
0.281846
-0.756796
0.3347
0.6236
-0.51834
0.710117
0.0777459
0.177861
0.106554
-0.253456
-0.567282
-0.391185
0.703778
0.398688
0.28725
-0.579313
-0.255264
-0.24116
-0.0427475
0.722741
-0.568779
-1.05834
0.709129
0.985396
-0.125907
0.757327
0.344495
1.11991
0.660707
0.896086
-0.980852
-0.4222
-0.566527
0.784421
-0.305311
0.6932
0.842675
-1.04861
0.241682
-0.570672
-1.02911
-1.28412
-0.169397
0.796853
-0.402783
0.606953
-0.730359
0.484612
-1.41352
-0.0575889
0.692096
1.0269
0.613344
-0.66044
0.0263531
1.24417
0.414903
-0.890838
0.983621
-0.2336
-0.82954
-0.447318
-0.423999
0.338794
0.183504
0.514384
0.731948
0.278498
0.250846
-0.0662235
0.729465
-0.429568
0.323104
-0.403929
0.381086
0.38677
-0.237024
-0.772136
0.780911
1.04733
0.714558
0.211238
1.16511
1.45588
-0.0928031
0.83211
0.0365
0.8724
0.382981
1.07048
0.299693
-0.660685
-0.913571
0.513962
-0.819351
-0.462077
0.653872
-0.854334
-0.51756
-1.00244
-0.673537
-0.515197
0.126642
0.290113
-0.493904
0.231737
-0.0325128
-0.557188
-0.589956
0.854815
1.13965
1.32664
1.13
-0.901706
0.5908
0.0224
0.410301
-0.0601683
-0.575701
0.815486
0.187552
0.222789
-0.0186364
0.022793
-0.51148
-1.03175
-0.126051
0.24204
-0.715689
-0.58378
0.287894
-0.360548
-0.528843
0.676531
-0.984593
0.743822
0.74626
0.406701
-0.311228
0.526763
0.963398
0.696606
-0.495681
-0.436
-1.00876
-0.0854085
-0.512914
-0.393913
0.285185
0.0483868
-0.97324
0.170407
-1.3781
-0.550615
0.763342
-0.0969168
-0.785779
0.679285
0.690593
0.751425
-0.764402
-0.0435594
0.0617212
-1.32915
0.564648
-0.147881
0.468958
-0.030332
0.990611
-0.165886
-0.4908
0.609776
-0.68622
-0.367198
0.487326
-0.956388
-0.616757
-0.432784
-1.24735
-1.50602
-0.397907
0.732688
-0.619189
-0.495731
0.638667
0.417353
-0.384684
0.695402
-0.280515
-1.3126
-0.721585
-0.759813
-0.318979
1.15859
0.703059
0.640819
-0.935659
-0.438897
0.765779
0.417437
-0.299388
0.422682
-0.941252
-1.29959
-1.40902
-0.14567
0.600876
-0.544766
0.734581
0.024683
0.57213
-0.213551
0.166306
0.357187
0.651472
-0.0497883
-0.0241361
-0.101437
0.0189386
0.133478
0.169228
-0.574756
-0.146118
1.1137
0.423016
-0.499901
0.284178
0.428026
0.335869
-1.29255
-0.549819
-0.899613
-0.225817
0.092912
-0.0671391
-0.835589
0.711925
1.52945
-0.249173
0.906255
1.16999
0.843476
-0.0984218
0.691376
-1.01301
0.155647
-0.410152
-0.599516
0.187519
0.685322
0.0850802
-0.376875
1.07615
0.49788
-0.968386
0.363574
-0.321396
0.101169
0.232368
-0.477683
0.392473
-0.277177
0.23076
-0.485172
0.629347
0.556134
0.808505
0.288043
-0.472002
0.136214
1.18102
-0.173594
-0.202421
-1.23405
-0.607624
0.100106
0.644785
-0.203265
-0.61067
0.106091
0.716853
-0.40532
0.5465
0.43839
-0.551457
0.848497
-0.0346865
0.659959
-0.0212517
-0.505171
0.263999
-0.488837
0.682029
-0.440333
0.120637
-0.572497
0.136643
0.4403
0.21043
-0.607226
0.741794
0.226181
0.20781
0.280005
-0.522684
-0.209034
-0.352759
0.756173
0.53868
-0.690786
-0.5693
-0.5025
0.750085
0.389238
0.750996
-0.496043
-0.198508
-0.104603
0.599097
0.0520841
0.370575
-0.734316
-1.21157
0.260181
0.826769
-0.378574
-0.582282
0.403488
0.374157
0.347545
-0.63663
-1.08852
-0.820986
0.691861
1.1321
1.42815
-0.581874
-0.543988
0.1691
0.6852
-0.867233
-0.479313
0.484105
0.0450479
-0.79268
1.1255
0.670463
0.551124
-0.00771277
0.0401212
-0.471716
0.418485
-0.361143
-0.43814
0.565817
-0.0798756
0.866627
0.577584
0.58852
-0.810218
-0.623876
0.193223
0.645536
0.643758
0.701426
0.901259
-0.0864
0.5795
0.341747
0.72977
0.62906
0.61009
-0.357394
-0.134699
0.382702
-0.122775
-0.421826
0.185308
-0.231491
-0.856244
0.452419
-0.209361
0.344513
0.659934
0.231927
0.128463
0.32366
-0.280143
0.112843
0.468447
0.0663096
0.49365
0.933333
-0.00153401
0.106
-0.488501
-0.935357
0.654853
-0.137052
1.05614
0.381352
0.743477
0.577311
-0.549707
-0.586105
-1.00038
-0.505964
0.555257
0.376246
0.679483
-0.580302
0.592979
-0.615358
-0.595516
-0.0357498
0.656025
-0.223441
-0.21501
-0.295443
-0.109889
0.329316
-0.175681
0.8005
0.328452
0.467511
0.00638454
-0.163351
-0.328824
0.85721
-0.33005
-0.274045
-0.0673982
-0.348087
-1.0252
-0.211877
-1.39926
-0.783711
-0.113878
0.674364
-0.434178
0.64445
0.495465
-0.857992
-0.938678
0.132274
-0.268187
0.0640764
0.135362
-0.112187
-0.414885
-0.6797
0.915737
-0.656228
0.902124
-0.373415
1.6069
-0.0153229
1.14453
0.305075
-1.25049
-0.110349
-0.365056
-0.820952
-0.921706
-0.574001
-0.593278
-0.36605
1.23059
0.220417
-0.187333
-0.583455
-0.387428
-0.856736
0.543692
-0.58066
0.00942622
-0.826825
0.109984
0.6905
-0.868354
-0.858298
1.01209
0.539143
-0.0201553
-0.292774
-0.433592
0.302714
-0.628646
-0.591942
0.358895
-1.07597
-0.278564
-1.31553
0.253157
0.831369
0.0560024
0.390481
-0.275053
0.212389
0.435542
-0.597564
0.445524
-0.68833
0.790283
0.00101123
-0.0694363
0.4644
0.434599
-0.792986
0.542856
-0.440792
-0.646531
0.682637
0.14019
-0.0705241
0.315559
-0.42955
0.188367
0.0703587
-0.746259
0.583037
0.0580262
-0.23133
0.461429
-0.450003
-0.189209
0.460702
-0.408045
-0.196838
-0.166427
-0.621926
-0.749816
-0.817052
0.107058
0.0027
-0.0233
-0.2121
-0.6675
-0.897989
-0.341662
0.569747
-0.863087
-0.0600474
0.177281
0.274028
0.465664
0.8142
-0.3462
0.780884
0.691603
-0.182902
0.701099
-0.4893
-0.9902
0.4372
-0.8296
0.533071
-0.825349
-0.5577
0.4808
-0.0984
0.4485
0.5019
-0.4191
-0.3397
0.3498
0.148212
0.502141
-0.543679
-0.636409
0.805826
0.565963
0.6031
-0.345629
0.572196
0.33603
-0.0743254
0.160683
-0.817316
-0.934474
-0.103382
0.428104
-0.985549
0.191685
-0.912627
0.749062
0.7258
0.5695
0.1897
0.7612
0.1901
0.5767
-0.0454004
0.72245
0.470719
0.699627
-0.576415
-0.65561
-0.288778
0.973286
0.0582696
-0.27466
0.161884
0.677289
0.261564
0.274113
-0.854442
-1.00227
-0.759426
-0.308025
-0.125308
-0.768025
0.978541
0.78489
-0.116669
-0.452468
-0.824585
-0.91159
-0.720992
-0.674
0.591021
-0.769789
-0.351369
-0.801922
0.648009
0.546925
-0.23297
0.216297
-0.214513
-0.0379504
0.412909
-1.26064
0.31119
-0.815236
-1.27529
-0.141828
-1.18357
-0.831741
0.745334
-0.0382369
-0.390901
0.989577
-0.592221
0.771795
0.0501424
0.748455
-0.983938
0.3317
0.709396
-0.828959
-0.546503
-0.0316987
0.988607
0.0992213
1.18967
0.271008
-0.629328
-0.702564
-1.48635
-1.24823
-1.09074
-0.395522
-0.0802031
-0.336689
0.430211
0.0368561
0.380013
0.0872447
0.0495275
1.48663
1.37261
0.483624
0.02845
0.187262
-0.576876
-0.932
-0.60217
0.983285
-0.0220113
0.87987
0.61113
-0.0663323
0.820122
-0.203289
0.173959
-0.689683
-0.944
-1.50768
-0.301607
-0.795089
-1.13074
-1.17969
-0.661992
-0.0898763
0.886166
-0.130486
0.250431
0.866522
0.812951
0.901268
-0.107059
-0.391079
0.79831
0.744
-0.691772
0.117889
0.0437204
1.09613
-0.0376371
0.975306
0.751282
0.412087
-0.915019
-1.29521
-1.22054
-0.118639
-0.651163
-0.137817
-0.499284
-0.482854
-0.233499
0.963305
0.354314
0.78721
-0.0918101
1.3448
0.77796
-0.132972
-0.492852
0.623101
-0.757422
-0.2061
0.907184
0.400652
-0.135973
0.62666
0.760853
-0.169947
0.0379822
0.3289
-0.103063
-0.355084
0.40745
-0.702974
-0.0880811
-0.220963
-0.508535
0.558151
0.540934
0.205864
1.15165
0.00339201
0.918174
0.790193
0.641708
-0.00256422
1.10805
0.565827
-0.1795
-0.0841
0.36714
-0.6124
0.28928
1.12631
0.324036
0.48589
-0.372848
0.446832
-0.251451
-0.487829
-1.09838
-0.671731
-0.78109
-0.932581
0.720861
-0.637475
-0.67152
0.240498
0.682794
-0.340867
0.130245
-0.72685
0.968842
-0.749068
0.173741
-0.737211
-0.1019
0.6043
-0.0392608
0.454412
1.05715
0.665567
-0.400847
0.0845217
1.30173
0.435944
0.527426
-0.738327
-0.573054
-0.563149
-0.504854
-0.791846
0.920836
-0.634954
0.370582
0.419962
0.706473
0.197321
0.686735
0.814944
-1.00368
-0.533583
-1.21735
0.515573
0.394351
-0.8547
0.947474
0.775654
0.811988
0.192229
0.83952
-0.0464057
-0.353718
0.995033
0.974185
-1.10556
-0.544713
-0.457783
0.837274
0.677053
-0.541955
1.25329
0.100381
0.891466
0.539872
0.811325
-0.259976
0.163748
-0.0322335
-0.19353
-1.0813
0.40892
0.16072
0.6839
-0.178063
0.153838
0.280322
0.137651
0.929202
-0.607476
0.815238
0.449972
0.889675
-0.943669
-0.556087
-0.665334
0.0953583
0.762248
0.398793
1.00527
0.63452
0.867449
0.735398
-0.504355
-0.0798583
-0.31648
-0.609313
-0.530402
-0.6391
-0.283824
0.6167
-0.0329
0.727309
0.201801
-0.26753
0.934372
0.338163
0.454829
0.575599
0.346845
0.466577
0.00908169
-0.385876
-0.0167862
-0.699646
1.16891
-0.0332712
0.0712201
0.602199
1.33674
-0.401525
-0.0957267
-0.753534
-1.07151
0.00129681
-0.604135
0.00319984
-0.714043
-0.9342
0.5597
0.472751
0.320154
-0.318119
0.186927
-1.01051
-0.366338
0.549647
0.369484
0.457218
-0.942084
0.374891
0.39646
0.533229
0.576264
0.909543
1.30259
0.756161
0.521528
-0.305469
-1.02543
-0.340893
-0.464545
-0.907739
-0.0494448
-0.928707
0.500887
0.449088
-0.154
-0.468158
0.583756
0.508461
0.53455
0.200147
0.292256
-0.400636
0.498875
0.0399838
0.815686
-0.0676008
0.0634636
0.0670093
0.0498751
0.638166
0.700543
0.517378
0.383684
0.463626
-0.403411
-0.621424
-0.99245
0.172676
-0.788847
-1.36848
0.219686
-0.7098
0.433302
0.567773
0.4468
0.564458
-0.513904
0.291869
-0.106823
-0.087822
0.0465951
-0.218346
-0.591439
0.406301
1.06486
-0.0743247
0.917825
-0.167423
0.161465
-0.898959
-0.543459
-0.623794
-1.16545
0.768293
-0.888073
-0.107258
-0.179201
0.167823
-0.959573
0.400912
-0.45427
-0.0605124
-0.0824136
-0.14616
-0.0482695
-0.412206
0.0827802
-0.0577485
-1.12111
-0.832851
-0.592439
-0.0475668
-0.364696
1.12379
-0.390322
-1.16364
-0.681386
-0.086332
-0.223516
-0.205933
0.0578824
0.835759
-0.675604
0.199873
-0.0680516
-0.085833
-0.113227
-0.751098
0.794293
-0.0306681
-0.626444
0.894397
0.11519
-0.527786
-0.946626
-0.00393777
0.421122
-0.171079
-0.224317
-0.791734
0.206031
-0.652309
-0.614918
-0.405629
-1.04426
0.170241
-0.715324
-0.965773
-0.237466
0.183387
-0.428128
-0.163257
-1.03162
-0.607107
-0.976537
-0.108227
0.729001
-0.0691676
0.363553
-0.521107
-0.441406
0.384606
0.154496
0.107289
0.356119
-0.905121
0.52207
0.250685
-0.410276
-0.189092
-1.09414
-0.378113
0.0944768
-0.412887
-0.0879278
0.813009
-0.93414
0.710315
0.529033
-0.835905
-0.240836
-0.437506
0.644001
-0.8102
-0.527334
-0.658827
0.139834
0.727282
0.614757
-1.19332
0.0205714
-0.0809384
0.0324836
-0.222997
0.349362
-0.604844
0.253935
-0.230981
-0.813213
0.435575
-1.11133
0.28021
-0.724653
-0.00669745
0.616186
-0.306135
-0.0512762
0.0481584
-0.846097
-0.491431
-0.352375
-0.9102
-0.8016
0.413291
0.425496
-0.588712
-0.335665
-0.526477
0.230012
0.483961
0.151064
-0.548906
-1.35022
0.311292
0.764666
-0.406832
-0.164567
-0.218119
0.460133
-0.839765
-0.161278
-0.00655047
-0.725245
0.237125
-0.765071
0.594752
-0.715173
-0.106915
0.397547
0.5298
-0.2705
0.863043
0.000967691
0.21253
0.453975
-0.785874
0.167709
-0.814599
0.439101
-0.967616
-0.795453
0.567575
0.500327
-0.0230194
0.663051
0.377443
-0.921592
-0.365636
0.23764
-0.141393
-0.788338
0.443611
-0.139144
0.0564724
-0.543779
0.85135
0.902012
-0.2684
-0.432965
-0.605434
0.212668
0.615923
-1.10303
0.248016
0.997722
-0.0220522
0.0166124
0.652376
-0.291441
-0.351068
-0.925456
0.655862
0.631705
0.0702278
0.924611
-0.522577
-0.313541
0.632318
0.0304453
-0.240379
-0.713984
0.556342
0.547978
-0.659137
-0.172217
0.8029
0.380278
0.439129
-0.498037
-0.663243
0.188213
-0.893871
0.0377811
-1.0849
0.632056
-1.03946
-1.11344
-0.945412
-0.0223104
-0.773605
0.663395
0.176278
0.166437
-0.424344
0.634771
-0.0572303
-1.18113
-0.898665
-0.505315
-0.870995
-1.23717
-0.529352
-0.450996
0.8891
0.317643
-0.200047
-0.684081
-0.620854
-0.212577
0.252744
0.676428
-0.468141
0.27525
0.224786
0.33783
-0.11619
0.130403
0.888687
0.131766
0.898831
0.143168
-0.355642
0.835909
1.26315
0.401194
0.857763
0.874713
0.195495
-1.39343
-0.467092
0.697959
-0.7284
-0.325222
-0.470046
0.182483
-0.635795
0.0855336
0.560738
0.622302
0.537301
-0.228186
-0.534048
-1.00427
0.863329
0.910156
-0.259948
0.708377
-0.433936
0.398277
0.947873
-0.15288
-0.212095
0.0353172
0.317721
0.336782
0.292708
0.445928
0.725199
-0.886269
-0.9893
0.918282
-0.758482
0.73853
-0.219403
-0.642107
0.784412
0.58073
-0.296281
0.0398047
0.661537
0.918577
-0.66115
-0.775556
0.806904
-0.515914
-0.369028
0.0432789
0.198469
-0.0654001
-0.0757256
0.0468895
-0.851447
0.291014
-0.242346
0.0524766
-0.409275
-0.581596
0.1599
-0.727692
-0.756914
0.569946
0.0446418
-0.315512
0.139239
-0.312917
-0.72037
-0.902351
0.327232
0.317309
-0.157715
-0.0405626
0.462954
-0.423035
-0.957096
0.0963249
0.364098
0.102325
-0.871846
0.506813
0.478873
-0.680115
0.778615
-0.461975
-0.120859
-0.620095
-0.1729
0.4407
-0.0308
-0.157
0.237394
-0.362027
0.789459
0.884634
0.897645
0.119752
-0.475759
-0.277198
-0.7038
-0.967978
0.679077
0.904176
0.568466
-0.510935
0.2714
0.163
-0.0558
0.9652
0.0547897
-0.635201
-0.6143
-0.9558
-0.7697
-0.5965
-0.5179
0.5333
-0.1918
-0.2235
-0.0304245
-0.738498
0.927065
-0.374917
0.0548438
-0.693789
-0.825333
0.118119
-0.93866
0.199026
-0.801665
0.121366
0.615841
0.389722
0.0526193
-0.125281
-0.94132
0.0138629
0.865038
0.871048
-0.947399
-0.955499
0.0556
-0.175
0.7703
0.8495
-0.684704
0.523854
-0.0590287
0.0953511
-0.826301
-0.532254
0.421848
-0.291189
-0.181635
0.21602
0.562841
-0.598034
-0.948085
0.735622
-0.877431
-0.06185
0.807189
-0.0265014
0.28317
0.631604
0.920552
0.614208
-0.3364
0.0950975
0.693956
0.367881
-0.8805
0.6183
-0.911213
0.153173
-0.136707
0.732975
-0.790237
-0.171639
0.595261
0.696643
0.535888
-0.841768
0.352533
0.892967
-0.575025
0.0491276
-0.227324
0.192505
0.25206
0.747039
-0.793923
-0.809215
-0.734958
0.251748
-0.748146
0.198702
-0.234043
-0.305108
0.840777
-0.9726
0.685344
0.45457
-0.35723
0.272206
-0.0969814
0.0262232
0.58113
-0.207964
0.398277
-0.510055
0.560489
-0.344849
0.026928
0.648446
0.366382
-0.324017
-0.187305
0.0954358
0.249298
-0.637444
0.429192
-0.172557
0.0683775
-0.272471
-0.0898943
0.113023
0.227539
0.9856
0.989056
-0.167822
0.261588
0.222858
0.531917
-0.119829
-0.266271
0.247231
0.124429
0.79171
1.20761
0.523094
0.29625
-0.528241
0.121368
0.900176
0.586695
0.585916
-1.1912
-0.0223947
0.621802
0.156189
-0.156399
-0.212206
0.58234
-0.918455
0.325048
-0.1211
0.274476
-1.04785
-0.880537
0.392142
-1.09413
0.114921
0.280592
0.97413
0.473236
0.841472
1.4497
-0.313641
-0.552035
-0.600155
-0.231795
-0.199514
0.416711
-0.332445
0.385123
-0.585276
-0.528704
-0.0497574
0.760812
-0.166461
-0.737623
0.537408
-0.0143124
-0.2534
-0.223994
-0.581275
0.0393993
0.41849
0.247214
0.504193
-0.563072
-0.343802
1.10419
1.57969
0.632981
0.576524
0.548193
-0.310114
0.500723
-0.895352
-0.856113
0.273307
-0.5965
-0.233745
0.258733
-0.250425
0.71681
0.21178
-0.556302
0.501095
0.8859
0.8939
0.943312
-0.619243
0.918688
0.843666
-0.0631366
0.316064
0.113765
0.456786
1.00072
0.533535
0.681189
0.0889254
-0.925147
0.230283
0.502147
-0.188353
-0.272621
0.261913
0.133579
-0.519447
-0.422372
0.500966
-0.00424966
0.0955068
-0.0387488
-0.062873
-0.9659
0.3409
-0.523051
-0.0929027
-0.0535441
-0.734665
-0.753757
0.620686
-0.130835
-0.0188466
0.411211
0.914762
-0.451135
0.349841
-0.153889
0.797887
-0.179964
0.248184
-0.510695
-0.390622
-0.322595
0.221623
-0.787029
-1.02005
0.25162
-0.225007
-0.403096
-0.328467
-0.105385
0.7966
0.967801
0.931802
0.331148
-0.0855886
-0.305806
-0.107764
0.453193
0.690451
1.2475
0.24086
0.910547
-0.196264
-1.08354
0.125759
-0.386437
-0.203851
-0.969696
-0.0163013
-0.232553
0.424593
-0.327776
0.345276
0.679065
-0.720423
-0.200497
0.768096
0.1283
-0.5374
-0.356998
0.299395
0.0457124
-0.321155
-0.799179
0.487609
-0.187761
-0.478236
0.957754
1.0956
0.423449
0.294357
0.372554
0.113792
-0.531572
-0.487859
0.403486
-1.50858
-0.552752
0.577523
0.41383
-0.104159
0.850421
-0.00891826
0.735656
0.75892
0.6574
-0.7373
0.242616
0.799687
0.00408015
0.332523
-0.469835
0.139769
0.725856
0.335197
0.606444
0.628164
0.323627
-0.154393
-0.804927
0.583336
0.846479
1.45369
0.750915
-0.324164
0.468546
0.293254
0.77428
-0.0481524
-0.455574
0.32083
-0.615114
0.431473
-0.5569
0.782
-0.444968
-0.680711
-0.25502
0.640692
0.758487
-0.595028
0.608452
0.49541
0.819783
-0.23242
0.722059
0.204222
0.896504
0.960622
0.898498
1.33105
0.50632
0.131405
0.370838
0.774543
-0.625318
0.172315
0.858535
0.633656
0.77824
-0.0409807
-0.7199
-0.0286
0.629491
-0.418485
0.492266
0.00725611
-0.596899
0.276021
-0.647193
-0.103224
-0.0644878
1.53771
1.53339
-0.135711
-0.206435
0.294807
1.42126
0.875925
0.644775
0.631797
-0.673486
-0.748134
0.231929
-0.613699
0.631201
1.39591
0.494444
0.0426799
0.3558
0.0129605
0.423639
-0.139521
-0.19857
-0.549144
-0.0386907
-0.148794
-0.305459
0.74928
1.41629
0.607587
1.31973
0.635845
1.54309
0.475102
-0.0771988
0.73032
0.298786
0.0936216
0.771562
0.456197
-0.97465
-0.507797
-0.180179
-0.448579
-0.690345
0.157007
0.946011
0.296057
0.202915
-0.0796051
-1.07502
0.242499
0.373779
-0.573648
-0.225651
-0.0430291
-0.51631
0.546241
1.13396
-0.0387608
0.516429
1.08475
0.841297
0.749395
0.614723
-1.28692
-1.09926
-0.914734
0.0714801
-0.0425212
-0.784702
0.345485
0.289232
-0.139695
0.667158
0.531364
0.682377
-0.60672
0.463211
-0.222831
0.318432
-0.463731
0.199948
0.396394
-0.563736
1.20021
1.1384
1.50546
1.17795
-0.000186825
0.549825
-0.323155
-0.0735116
-0.0203702
0.54989
-0.0897426
0.746525
0.0673061
-0.34281
0.67126
-0.682349
0.640927
0.0688529
0.55057
0.292928
-1.55369
-0.594519
-1.00679
-0.723301
-1.31048
-0.57495
-0.173213
-0.960733
-0.710166
0.267827
-0.158532
0.410583
-0.293447
-0.0746499
0.00351834
0.22423
0.656054
-0.347007
0.304466
0.381656
-0.481921
-0.409296
-0.625862
0.19016
0.0011575
-0.831179
-0.950937
-0.37981
-0.781697
-1.11182
-0.749996
-0.0669014
-0.671396
-0.666338
-1.70684
-1.33819
0.0325853
-0.602227
0.593679
-0.648079
-0.0986107
-0.284648
-1.4073
-1.14007
-0.778712
0.92527
-0.716176
0.369486
0.522223
0.158232
0.653602
-0.796448
0.0973433
-0.56
-0.6698
-0.642498
-0.344926
-0.350563
-0.948363
-0.52075
0.587646
-0.617853
-0.871402
-1.07444
-0.447406
-0.587507
-0.89186
-0.828162
-0.0211937
0.471658
-0.642251
1.0659
0.0374234
0.41018
0.831623
0.305005
-0.562802
-0.0968786
0.900748
0.433353
0.241654
0.941
-0.0977
0.493573
0.117228
-1.01759
0.194735
0.317994
0.181581
-0.448843
-0.830363
0.219932
0.0942084
-1.1635
-0.284621
-0.399823
0.172115
-0.213974
0.0832282
-0.513833
-0.271299
0.159773
-0.0862403
-0.2597
0.907801
-0.695896
0.542206
-0.286951
0.673521
-0.9892
0.49637
-0.547575
-0.0340045
0.244718
-1.19144
-0.808482
-0.431355
-0.35579
-0.269433
0.850274
-0.882506
0.196686
0.482706
-0.999608
-1.41064
-0.127879
-0.945431
0.190718
0.806232
-0.511085
0.662552
-0.307468
-0.549867
-0.0176728
-0.017173
-0.55268
-0.854131
0.7898
-0.00351241
-0.723006
-0.186451
0.877738
0.0132133
-0.197778
0.567317
-0.300783
-0.118462
0.148823
-0.10244
-0.335064
-0.554267
0.057325
0.304345
-1.45482
-0.431557
-0.0670145
-0.558519
-0.131028
0.570803
-0.199512
0.452468
0.0864153
-0.136102
0.0664728
-0.761959
-0.7392
-0.303614
-0.568661
-0.857773
-0.454226
-0.252295
0.65198
-0.249999
-0.261239
-0.897375
-0.994388
-0.137342
-0.935588
-0.472149
-0.951861
-0.223751
0.545468
-0.681058
-0.329398
1.06396
-0.427569
-0.329145
0.11645
0.171671
-0.613526
0.231963
0.10402
-0.753411
-0.8624
-0.484225
-0.0665346
0.395585
0.192007
-0.382623
0.894083
0.366264
-0.986718
-0.00512936
-0.0146053
-0.477352
0.457819
-0.497482
0.659241
-0.60631
0.0515708
0.224224
1.1199
0.788569
-0.560933
0.612098
-0.302366
0.840309
0.497401
-0.553245
-0.110903
-0.54446
-0.6452
0.895185
0.695784
0.625141
-0.499071
1.11516
-0.277069
-0.835732
0.250077
-0.719916
-0.360381
0.690289
0.162792
0.386447
-0.242407
-0.628948
0.0367856
-0.513583
0.230584
-0.621439
1.20947
0.646584
0.374389
0.521079
-0.90958
0.707439
-0.00374869
-0.515679
-0.2028
-0.7898
-0.49827
0.338344
-0.528432
0.058993
-0.559655
-0.201899
-0.19456
0.964806
-0.561296
-0.919313
-0.304457
-0.151402
0.679431
0.471004
-0.720841
-0.480882
0.980248
0.852077
-0.247682
-0.707611
0.0731692
-0.840657
-0.254972
0.94499
0.0543713
0.764082
0.2238
0.7447
-0.322
-0.5624
-0.636641
0.344906
-0.178062
0.22004
0.782381
-0.679882
0.150415
0.196164
-0.2826
0.5099
0.890093
-0.700807
0.478597
0.512099
-0.5569
0.9676
-0.777
-0.4243
-0.26072
-0.535694
0.3454
-0.0211
0.0122
0.72
-0.496
-0.8819
0.84
0.3126
-0.679607
0.140593
-0.348595
-0.387961
0.657083
0.233
0.42076
0.781718
0.0116455
0.688119
0.636183
0.657106
-0.850362
0.505564
-0.223792
-0.870401
0.747145
-0.0761633
-0.0522839
0.456344
-0.5977
0.3267
0.666
0.4753
-0.4138
-0.0111
0.0155039
0.907284
-0.663917
0.497091
0.810033
0.0335904
-0.835281
0.60023
0.492192
0.940313
0.926679
-0.759654
-0.590016
-0.544346
0.207877
-0.860798
0.642006
-0.49993
0.938057
0.514475
0.866955
-0.551602
-0.533452
-0.489051
-0.815095
-0.599172
-0.9511
0.2418
0.164004
-0.888738
-1.00054
-0.257384
0.109705
0.434451
-0.343787
-0.294654
-0.102242
-0.270438
-0.748512
0.419811
0.164578
-0.344987
-1.168
-0.727136
0.555034
-0.503312
-0.278454
0.315318
0.499186
-0.030085
0.0118623
0.262222
0.753975
-0.362868
-0.515402
-0.371
0.997251
-0.155726
-0.784992
0.837701
-0.241617
0.187079
-0.568755
0.323823
-1.11105
0.0765717
0.213474
0.051002
-0.372059
-0.00846455
-0.908241
-0.742886
1.1354
0.855917
-0.838967
-0.313582
0.30657
0.26611
-0.720768
-0.238842
-0.246586
0.622708
0.0100654
-0.5739
0.915818
-0.675092
-1.0234
0.216316
-0.0990811
0.65482
-0.627761
-0.165822
-0.235186
-0.0375477
-1.10979
0.524612
-0.862872
-0.261033
0.476973
-0.186439
0.557164
0.0988674
-0.576692
-0.949468
-1.05475
0.280602
-0.634749
-0.458887
0.189258
0.371896
-0.0371957
0.9879
-0.667964
0.609811
-0.90681
-0.63686
-0.447264
0.397042
-1.02928
-0.0441982
0.190986
-1.18467
-0.615939
-0.937284
-1.06006
-0.468237
0.668567
0.747306
0.841697
-0.151378
-0.396297
-0.406122
-0.327664
-0.00916526
0.1089
-0.0214091
0.69514
0.648706
-0.0584
0.0506
-0.477752
-0.801897
0.513329
0.972196
-0.475078
-0.233566
-0.216468
0.355841
0.164156
-1.32523
-0.520467
-0.161832
-0.287199
-0.13424
0.393773
-0.295096
1.02492
-0.299028
1.24516
-0.723745
-0.533285
0.145388
0.0860809
-0.650503
0.223114
0.625345
-0.94
0.8129
0.361045
0.870116
-0.439986
-0.0643813
-0.523597
-0.41155
0.0961375
-0.895932
0.345595
-1.5206
-0.729576
-0.858081
0.399815
-0.665957
-0.330573
0.407164
0.543953
-0.13154
-0.25777
-0.521338
0.90521
-0.781947
-0.194092
-0.987107
-0.250388
-0.633294
-0.0959
0.8272
-0.556521
0.333409
-0.619093
-0.183114
-0.565882
-0.663014
-0.366163
-0.755024
-0.121778
-1.30428
-1.74619
-0.808117
0.144489
-0.943033
0.224967
0.87549
0.0795485
1.00467
-0.390194
-0.284231
0.502679
0.545804
-1.18524
-0.167921
0.172503
-0.241754
-0.314268
-0.017
0.647746
-0.203391
-0.323195
-0.739293
0.612899
0.0809885
-0.258086
-0.339388
-0.254374
-0.322641
-1.36957
-0.881132
-0.673146
0.0474448
-0.718483
-0.611906
-0.63356
0.742138
0.446978
-0.421755
0.468637
0.482315
-0.481889
-0.0665424
0.193475
-0.558812
-0.219231
0.9905
0.629778
-0.184093
0.190216
0.110564
-0.111629
-0.294515
0.418053
-0.906699
-0.54871
-0.433686
-0.353263
-1.10431
0.0934269
-0.081674
-0.48705
-0.909109
0.218478
0.249801
0.246432
0.203953
-0.404466
-0.399162
0.515631
-0.0273501
0.318712
-0.658693
0.8719
0.3776
0.906248
-0.149787
-0.348384
0.247124
0.28981
0.192188
0.607121
0.154954
-1.13968
-1.38131
-0.764433
-0.254068
-1.44673
-0.185902
-0.320736
-1.04165
0.0491259
-1.13494
-0.678605
0.499694
0.45762
0.919433
-0.384671
0.364294
-0.0673819
-0.884269
0.7291
0.8231
-0.771593
-0.96623
-0.345271
0.874
0.39105
-0.107235
0.772653
0.920206
-0.559208
0.203678
-0.118255
-0.599094
-1.01987
0.0886684
-0.050565
0.279218
-0.421537
-1.04567
-0.880936
-0.366772
-0.451297
-0.660149
-0.287816
-0.956997
-0.872905
0.69635
-0.310596
0.6315
0.816474
-0.679846
-0.688441
0.00547559
0.537471
-0.233333
0.540823
0.137263
0.793398
-0.327099
0.455847
0.0206371
-0.585032
-0.00760173
-0.148235
-1.15579
0.101821
-1.18155
-1.22826
0.0618358
-0.578542
0.485899
-0.129067
0.40027
-0.00108424
0.962878
0.7531
0.948699
-0.557217
0.762428
0.778329
-0.796073
-0.406529
0.0845827
-0.137928
-1.01448
0.594553
-0.198975
-0.192116
0.737769
-0.628482
-0.60632
0.0271717
-0.87031
-0.783671
0.386143
-0.720181
-0.867478
0.146609
-0.104982
-0.486739
-0.742844
-0.745967
-0.241698
0.234997
-0.279125
-0.996598
0.0221534
-0.482173
0.326527
-0.200738
-0.368954
0.866825
0.439947
0.621151
0.174421
-0.00432939
-0.764159
-0.23197
-0.426352
0.673234
-0.344197
0.782734
0.23931
0.655725
0.0296447
0.96137
-0.227059
0.588879
0.818435
1.09118
-0.317648
0.968699
0.55322
-0.0584753
-0.437616
-0.0155972
-0.403684
0.692378
0.578733
0.297433
0.823468
0.24714
-0.43415
1.2468
1.14957
-1.0431
-0.00142389
-0.150965
-0.35573
1.37614
0.263415
0.109465
0.215818
-0.525661
0.65924
-0.443758
0.138521
0.649439
-0.668686
-0.523189
0.776559
0.565182
-0.494359
-0.618492
0.356541
-1.11422
-0.032333
0.508347
-0.237313
0.609119
-0.0262645
0.205148
-0.0460787
0.683671
0.253984
0.606475
1.05965
-0.140303
0.718756
0.411775
0.752608
0.459011
-0.493793
0.230779
0.473237
-0.0134483
0.720599
0.472892
-0.371582
-0.43977
0.515966
-0.564674
-0.0432567
-0.262608
0.599128
-0.474479
0.508854
1.09501
0.282398
0.407191
1.04151
0.668566
-0.707456
0.505696
0.334388
-0.715302
0.572963
0.243263
0.133682
0.126099
-0.525455
0.385873
-0.355187
0.827943
-0.258849
-0.6119
0.6194
-0.375865
-0.0658012
0.170684
-0.549123
0.489323
-0.560272
-0.218054
-0.209003
-0.449335
-0.321772
0.915807
0.462499
-0.469963
-0.545516
0.493018
0.759311
0.0348147
0.437808
0.20509
-0.552912
-0.597178
0.825929
0.717822
-0.973434
0.359983
-0.960343
0.1176
-0.2805
-0.652519
-1.33775
0.148013
-0.473148
0.74571
-0.283926
-0.280608
0.810824
-0.606828
-0.143886
-0.19835
-0.475838
0.217336
0.984073
0.275751
0.0485679
0.224506
-0.592156
0.76932
0.476814
-0.341084
-0.411872
0.435539
0.639989
0.619627
0.48636
0.3284
0.0499
0.156499
-0.0115121
-0.0994371
-0.506313
-0.625285
-0.517437
-0.126214
0.546803
-0.642506
0.438875
0.549768
-0.693723
0.769516
0.935178
0.629837
-0.311343
0.371016
0.688581
0.355187
-0.526661
0.636364
-0.453241
0.967073
-0.770095
0.0267772
-0.986871
0.2386
-0.8871
-0.153232
0.865244
-0.615621
1.06655
-0.293924
0.357621
-0.127933
0.400287
0.443969
-0.70968
0.231539
0.621694
0.873584
-0.359934
0.3186
-0.0221213
-0.741049
0.492433
-0.663783
0.798622
-0.421998
0.967465
-0.857056
-0.863054
-0.986397
0.800022
-0.133
0.584099
-0.969448
-0.177553
0.800232
-0.608198
0.422927
0.890855
0.511457
0.245807
-0.756528
-0.296116
0.589628
0.244479
-0.693838
-0.221238
-0.608967
-0.477305
-0.442183
0.121266
0.167245
-0.354791
-0.796942
-0.560542
0.353763
0.0450491
0.567611
0.366543
-0.5517
-0.660702
-0.549777
-0.0229512
0.153706
-0.71596
0.373207
0.217167
-0.232009
1.07345
-0.769139
0.299362
-0.928981
0.0826533
-0.569195
-0.786213
0.64694
0.404819
-1.23064
0.203571
-0.917835
0.0290846
0.410077
-0.672349
-0.0730828
-0.697352
-0.479086
-0.291405
0.3268
-0.945901
-0.820838
-0.428178
-0.276237
0.0696896
0.459692
-0.150626
0.144326
0.00752041
1.08775
-0.691662
-0.497498
-0.602844
0.829756
0.832904
0.318247
0.856331
-1.10228
0.315179
-0.0303827
0.642914
0.261829
0.594322
-1.04847
0.664227
-0.0308668
0.664689
0.86
-0.0464
-0.604202
-0.304237
0.385374
0.421745
0.610736
0.823338
-0.553231
0.381637
0.038654
0.89026
0.8791
-0.26656
-0.793231
0.24299
0.0016924
0.488042
0.207742
0.763023
-0.602271
-0.404807
0.335846
-0.599381
-0.559235
0.774237
0.301304
-0.350009
0.3083
0.7789
0.1001
0.7695
0.225408
-0.625163
0.154395
0.92653
-0.0833602
0.577697
0.6436
-0.856195
-0.9895
0.9568
-0.884203
0.201591
0.9949
-0.3474
0.4579
-0.4062
-0.9039
0.0856
0.36723
-0.387707
0.5737
0.8606
0.4993
0.3394
0.483
-0.6468
0.8617
0.1204
-0.981618
0.549924
0.317804
-0.0693631
-0.470025
-0.847042
-0.64031
-0.139136
0.771322
-0.954108
-0.463038
0.691309
-0.778535
0.450999
-0.801735
0.687959
-0.922655
-0.816165
0.139035
-0.411541
0.238972
0.600086
0.4848
-0.223
0.5017
-0.1931
-0.165734
-0.0972001
-0.147294
-0.139361
-0.445516
0.334602
0.87656
-0.319236
-0.993886
0.573892
0.872876
0.0213428
-0.845494
0.552417
-0.484911
0.00388572
-0.263376
0.00914947
0.21238
-0.76584
-0.0307795
0.216287
-0.477134
-0.0357445
-0.245067
-0.0480227
-0.00920003
-0.2956
0.177499
-0.512119
-0.649044
-0.237095
-0.639807
-0.776181
0.0316865
-0.922078
0.0716589
0.708861
0.768321
0.632228
-0.445874
0.534363
1.0408
-0.221197
-0.231133
0.246873
-0.284419
-0.719188
-0.808076
0.657687
-0.843561
-0.633143
-0.626957
-0.654093
0.721895
-0.9136
0.281146
-0.672406
0.551839
0.923137
0.815571
0.27808
-0.77942
-0.59485
-0.301456
0.666911
0.896699
1.07155
0.648764
-0.486221
0.112219
-0.411475
0.296404
0.224823
-1.21757
-0.592213
-0.446649
0.23732
0.548733
-0.198995
-0.194143
1.00589
0.150722
0.6764
-0.733808
0.196087
-0.832714
0.909055
-0.645779
-0.712141
0.675252
-0.631269
-1.12842
-0.729223
0.711204
-0.421221
0.425624
0.307083
-0.0147918
-0.340285
0.661112
-0.709068
0.539758
-1.24493
-0.67303
-0.244804
0.0528972
0.698161
-0.241787
0.220207
-0.606571
-0.4969
0.826626
0.0720164
-0.357322
-0.706585
-0.230907
-0.925732
-0.679258
0.547406
-0.841555
-0.398782
1.02992
0.980706
1.1449
1.35983
0.356777
0.598323
-0.654673
-0.584223
-0.890726
-1.29832
0.556699
-0.727714
0.542055
-0.0352098
-0.568785
0.816185
0.0347917
0.6043
-0.965345
-0.182058
0.473989
-0.905968
-1.08173
0.205488
0.268291
0.111122
-1.21527
0.491456
0.484028
0.739159
0.268591
-0.350398
0.270114
-0.0103598
0.732406
0.58699
0.350289
-0.831872
-0.776204
0.232196
-0.372347
-0.27614
0.392646
-0.708901
-0.47
0.1433
0.843656
0.292859
-0.511774
-0.124071
-0.881298
-0.845157
0.58451
-0.5207
-0.816765
0.497167
1.05137
0.228095
0.408704
0.328565
-0.882738
0.036173
0.150783
0.276536
-0.0596621
-0.786252
-0.191613
0.214296
-0.681231
-0.837515
0.280497
-0.130166
0.474
-0.1109
-0.477614
0.638687
0.243207
0.332434
-0.22413
0.369685
-0.485037
0.382689
-0.291055
-0.204251
-0.534162
0.168521
-0.0958676
-0.225583
0.591667
0.00217837
0.404849
-0.285198
-0.476372
-0.765029
-0.869444
-0.809195
-0.0495277
0.65092
0.479153
-0.73596
-0.370808
-0.6542
0.389122
0.570777
-0.350332
0.166495
-0.764097
0.419356
-0.780526
-0.566833
0.326722
0.442829
0.579779
0.219875
-1.13224
0.40663
-0.659545
-0.0446989
-0.638328
-0.0398036
0.568504
-1.05485
0.499046
-0.173176
-1.01839
0.481199
0.112327
0.302117
-0.939419
-0.41
-0.730458
-0.513176
-0.387229
0.038951
0.0956517
-0.552828
-0.258054
0.0883506
0.0750121
-0.204478
-0.0794128
0.740156
-0.417796
0.175702
-0.51375
0.292156
0.122915
-0.47722
-0.298516
-1.17166
0.492185
-0.214165
0.0492216
0.748721
-0.0999313
0.618329
0.596
0.7147
0.93793
-0.938395
-1.24934
-0.308638
-0.424686
0.247558
-0.869214
0.38596
-0.566862
0.182067
0.340088
-0.342849
0.315091
-0.0428751
-0.0921046
0.430996
0.57851
-0.314881
0.429474
-1.23315
-0.606974
0.630894
-0.636649
-0.0533616
-0.225145
0.797531
0.0899
-0.315
0.314265
0.51088
0.683338
-0.998713
-0.0992234
-1.21512
0.197424
-0.0414586
0.286584
0.28659
-0.145369
-0.395966
0.462361
-0.197275
0.161945
0.363935
0.664067
1.18223
0.80865
-1.30542
-0.173603
-1.67914
-1.34976
0.665397
0.0220823
0.0850433
0.947265
-0.1039
0.767485
-0.311185
-0.613983
-0.993051
-0.67038
0.513351
-1.03132
-0.30028
0.0637075
0.857154
0.346062
0.793712
-0.48507
0.793506
0.693581
1.31033
0.836601
0.765113
0.22634
-0.0895428
-0.389955
-0.77085
-0.742126
-0.3276
-0.245743
-0.689265
0.7017
-0.201434
-0.972575
-0.0613719
0.214103
-0.980752
-0.949708
-0.375185
-0.483841
-0.320486
0.699376
0.286788
-0.0821352
1.64719
-0.0416224
1.55177
1.36224
1.20631
0.443792
-0.0573918
0.927215
0.32506
0.99298
0.487369
0.209748
-0.925837
0.428114
0.151157
-0.109873
-0.897021
0.646326
-0.938685
0.0177573
-0.687024
-1.32371
-0.155046
0.155455
-0.506543
0.904162
0.115531
-0.259968
0.894764
0.458224
-0.419812
1.08757
-0.519442
-0.270486
0.402549
0.919117
0.241811
-0.37756
-0.314647
0.275733
0.209134
0.0136776
-0.836721
-0.939232
-0.475518
-0.151614
-0.650105
-0.693522
0.364729
-0.874671
-0.66764
-0.509115
0.319106
0.850686
0.534138
0.0807425
0.409146
-0.744727
0.535823
-0.556747
0.382994
0.444269
-0.0977537
0.225333
1.59174
0.30272
0.555887
-0.969657
0.666506
0.124103
-0.594481
0.346599
-0.0143724
-0.990422
-0.428045
0.473794
-0.849007
-0.383968
-0.961212
0.162253
0.310429
1.33807
0.259182
-0.356657
-0.263673
0.311046
-0.977345
-0.38865
-0.302319
0.706218
0.763867
0.659469
-0.020545
1.43262
-0.134331
-0.552299
0.00758734
-0.399428
0.822906
-0.0564015
-0.660223
0.242153
-0.185069
0.527853
-1.01399
-0.585471
-0.572769
1.42001
0.330523
1.16887
0.25703
-0.0652362
0.377566
-0.451207
-0.0630043
-0.282128
-0.141427
-0.999885
0.894694
-0.0533439
0.855266
0.348622
0.837676
0.525622
-0.336182
0.792157
0.978865
-0.5975
-0.2524
-0.908344
-0.0891012
-0.296514
-0.601534
-0.648094
-1.17497
1.21817
1.09003
-0.0967005
0.693457
-0.916301
-0.574174
0.150776
-0.39773
-0.545702
-0.399835
-0.486981
-0.392165
0.955218
1.0764
1.00108
-0.607831
0.203138
0.557469
0.826895
-0.177161
-0.1446
0.4129
-0.0916685
0.346268
0.228653
-0.44766
-0.766919
0.231592
1.03993
0.779325
0.514123
1.06397
0.853867
-1.07399
0.190628
0.0468523
-1.18197
0.834309
-0.64136
0.663797
0.797398
-0.105814
0.412821
-0.298478
0.598438
0.64095
0.878969
0.956125
-0.3076
-0.309885
0.533028
0.363742
0.0263199
-0.909069
0.953241
0.258051
0.321225
-0.504763
1.01167
0.518208
1.01559
0.158835
-0.788467
-0.568253
-0.319103
0.283899
0.269431
-0.35131
0.650981
0.438045
-0.4315
0.0459924
1.26988
1.19275
0.79781
0.865911
0.9859
0.298892
0.716755
-0.817364
-0.0643784
-0.31135
-0.123787
-0.729341
0.492825
0.427408
-0.484408
1.26963
-0.228884
0.735244
-0.227411
0.802244
-0.449815
-0.709596
-0.253147
0.519268
-0.933473
0.173093
0.274799
-0.150945
-0.167457
0.282824
0.94348
0.24919
-0.0733
0.345897
-0.339769
-0.20993
-0.253378
-0.109713
-0.400935
0.71139
-0.250665
0.104398
0.868269
0.424251
-0.321692
0.59662
-0.204146
-0.241468
0.539407
0.31021
-0.295714
0.397129
-0.522008
-0.655211
0.072778
-0.159156
0.464379
1.62809
0.37706
-0.52208
-0.7461
-0.325106
-0.806003
0.434766
-0.128083
1.26426
0.543647
0.467027
-1.297
-0.763788
0.0892053
-0.122326
-0.12742
0.36243
1.13361
0.875224
-0.864282
0.0533511
-0.727438
-0.291883
-0.169203
0.153822
-0.331154
0.30614
1.41028
0.530969
-0.571516
0.361763
0.8009
0.548897
0.152188
0.993488
0.17931
0.838552
0.854637
0.733466
0.247003
-1.19579
0.222325
0.605496
-0.876321
-0.485535
0.333264
0.28515
0.302328
-0.800113
0.397639
-0.344929
-0.905322
0.369254
0.554314
0.981072
-0.261183
0.120939
0.357679
-0.0375557
-0.0817
-0.2108
-0.377512
0.720421
-0.317836
0.870694
0.571407
-0.362019
-0.806596
-0.199951
-0.984037
-0.0367526
0.269978
-0.594154
0.945245
-0.218208
-0.25642
0.0102465
-0.498129
-0.439688
-0.81132
0.715173
-0.274337
0.111096
-0.422162
0.59715
-0.0402067
-0.904122
-0.593
-0.8472
0.0682
-0.4006
0.710684
0.304971
0.748103
-0.543118
0.90513
0.0179904
-0.888755
0.577254
0.5493
0.0616095
0.18163
0.131029
0.229317
0.796828
0.111198
0.5464
0.3486
0.3728
-0.797462
0.83219
0.7588
0.2396
0.5214
-0.571
0.3006
0.5905
-0.5627
0.1187
-0.6532
0.942986
0.105358
0.633937
-0.389112
-0.849153
0.344938
0.883056
-0.618662
0.650543
0.449778
0.365
-0.0485208
0.361806
-0.0509668
-0.137244
-0.657876
-0.961924
-0.649005
-0.543322
0.59619
-0.890005
0.8513
-0.3312
0.077
-0.2647
-0.342459
0.232993
-0.35661
0.303955
-0.00123358
0.229205
-0.324899
0.692632
-0.550326
-0.384142
0.930547
-0.0557395
-0.219955
0.855327
-0.636113
-0.811434
-0.675765
0.690894
1.02771
-0.854414
-0.194267
0.566289
0.439058
-0.482523
-0.241387
0.541863
0.177191
-0.9067
-0.0218017
0.067953
-0.656548
0.519835
0.807613
0.486291
0.564335
0.906934
0.883231
0.986402
0.794291
0.382267
-0.952387
-0.578608
0.415246
0.349828
-0.294468
-0.182468
0.556858
1.21796
0.931933
0.113763
0.242549
1.19078
-0.458084
-0.64735
0.314184
-0.4729
-0.260433
0.179559
-0.0838578
0.67944
0.245082
0.424257
0.559791
0.925837
1.43155
-0.171416
-0.450777
-0.450846
-1.3433
-1.14133
-0.496157
0.498491
-1.03156
-0.250515
0.635857
0.14501
0.657541
0.736461
-0.387037
0.773587
0.75003
-0.722379
-0.69193
0.5323
0.780678
-0.27694
0.936347
-0.324441
-0.0829349
1.57775
1.85559
0.930544
0.876144
-0.548501
-0.522921
-0.869486
-0.537401
-1.05718
-0.613274
-0.89318
-0.40546
0.258015
-0.728801
0.765836
-0.147409
-0.161331
1.2327
-0.119117
-0.700351
-0.990563
-0.276771
0.0169
0.879769
0.349084
0.401974
1.51035
0.97314
1.31607
0.0222481
0.526246
0.27619
0.62229
0.961564
0.888317
-0.41923
-0.0773771
-0.83511
-0.0713963
-1.38583
0.14818
0.388815
-0.533808
0.179695
0.337943
0.818378
0.296083
-0.580548
0.676543
-0.418328
-0.1389
0.782794
-0.804951
0.606255
1.16519
-0.372728
0.455488
-0.283373
0.597911
-0.527326
-0.237267
-0.145056
-0.243494
-0.195227
-0.449775
-0.188217
0.665241
-0.0126116
-0.698873
0.579623
0.393549
0.0411461
-0.38941
-0.333128
0.50354
0.105886
0.0540556
0.0659
-0.84
-0.381842
0.947402
1.02023
0.0488558
0.0829916
-0.577432
-0.191092
0.481407
0.640372
-0.0515191
0.590534
-0.10951
-0.29579
0.220742
0.0639486
0.504827
0.0400308
-0.258602
0.570978
0.669713
-0.249612
0.84852
0.160381
0.532344
0.0221556
-0.760315
-0.692
-0.7114
-0.704902
-0.906822
0.801444
0.816498
0.288919
0.469231
-0.166465
-0.158143
0.544599
-0.788668
0.401088
-0.453328
-0.319583
0.86945
0.498281
-0.32356
0.0159522
0.0138697
-0.858904
-0.170155
-0.713776
0.903691
-0.00160647
-0.162764
0.682338
-0.686772
0.464897
-0.2927
-0.0520218
0.876213
-0.539183
-0.02057
-0.129862
0.0100844
-0.616477
0.520491
0.362637
0.668442
-0.882386
0.175583
0.201654
-1.0739
0.971904
-0.114942
0.737685
-0.0778386
0.250992
0.591565
0.234801
-0.771198
0.627743
0.821574
0.180339
-0.286472
-0.10202
0.4659
0.494246
-0.094451
-0.718943
-0.564041
-0.227278
-0.871903
-0.670168
0.774189
-1.13696
0.454251
0.311219
-0.633808
0.497938
-0.58177
-0.343958
-0.250131
-0.363612
0.34845
0.43673
0.566043
0.243106
-0.571121
0.91227
0.912581
0.797577
-0.318711
0.8536
-0.2362
-0.551277
0.618686
0.432847
-0.0028118
-1.02896
0.694095
-0.313379
0.476364
-0.726281
0.739494
0.756984
-0.169139
0.136704
-0.39773
0.332561
0.278773
0.336692
-0.449936
0.143806
0.597176
0.0341562
1.27127
-0.305812
0.443531
0.146393
-0.59403
0.1451
0.059
-0.809587
-0.173293
-0.619917
-0.672759
0.0474764
-0.753161
-0.478338
-0.460221
-0.0569932
0.105747
-0.816217
0.483361
0.019184
0.0919061
0.104254
-0.43742
-0.0111674
-0.582934
0.550361
-0.481834
-0.434074
-0.273077
-0.747859
0.205613
-0.502152
0.849542
-0.271024
0.618
0.222966
-0.329728
-0.629011
-0.932564
-1.31845
-0.20171
-0.556786
-0.0265479
-0.377297
0.344129
-0.53176
-0.49604
0.321146
0.118598
0.865779
-0.157957
0.49837
0.732213
-0.158379
-0.00630611
0.979433
-0.32171
-0.0238857
0.402539
-0.21525
0.138034
0.7232
-0.269877
-0.129408
0.216943
-0.0191429
0.435073
0.0218603
-0.361492
-1.22258
0.286148
-0.930133
-0.620504
-1.0696
-0.226386
-0.0495697
0.232738
0.53823
0.869902
0.370671
0.887066
-0.410666
-0.00255035
-0.188745
-0.475747
-0.231324
0.0907422
-0.439903
-0.0641835
0.741905
0.546464
0.159022
-0.791462
-1.18413
-0.743109
-1.17768
-0.700375
0.200174
-0.518682
-1.83636
-1.18606
0.425549
0.977078
-0.536292
0.924447
0.440611
-0.505899
0.731517
-0.173105
0.0237154
0.0629027
1.0861
0.350142
0.0487614
0.511588
0.0194269
0.49759
-0.570473
-0.79465
-0.209287
0.111742
0.164573
-1.11608
-0.590214
-0.589365
-0.563116
-0.868444
-1.71595
0.137357
-0.229671
0.729529
1.05473
-0.488062
-0.301586
-0.00915508
-0.746161
1.15773
-0.314582
0.755553
0.0590792
0.902017
-1.11447
0.307143
0.394936
-0.609461
0.961434
0.804042
0.557014
-0.947736
-0.325652
-0.0318031
0.331258
-0.72799
-1.38308
-1.51835
-1.11754
0.85643
0.454206
0.795913
1.24018
0.104231
0.657483
0.1943
-0.629384
-0.455127
-0.0792014
-0.298681
0.771604
-0.66438
0.518437
-0.0310634
0.582059
0.0817074
0.378499
-0.627587
-0.881441
-0.530744
0.231642
-0.393251
0.025253
-0.165401
-0.866905
-0.198968
-0.769113
0.28656
1.02402
0.811249
0.322665
-0.312936
0.0883591
-0.0705655
0.147358
0.511209
-0.213213
1.0307
-0.72751
0.149935
-0.056576
0.580347
0.995772
0.701825
0.5993
0.8984
0.291484
0.398684
-0.139226
-0.0387869
-0.6499
-0.84351
-1.10738
-0.153025
1.03904
0.768715
0.0235873
0.980294
0.576225
-0.0918539
-1.00533
-0.334886
-0.281861
0.677339
-0.439776
0.982531
-0.109657
0.48899
-0.466801
-0.498252
0.125188
0.769603
-0.206
0.2284
-0.462205
-0.869627
-0.648089
-0.786453
0.278389
-0.745621
-0.762229
0.0472775
1.65539
0.614204
0.954652
-0.718099
-1.10236
-0.254327
0.248376
0.334145
-0.442066
0.171891
-0.553569
0.149643
0.4401
-0.335883
0.323071
0.909525
-0.39804
0.746951
-0.0401
-0.473725
-0.881979
0.120024
-0.266468
-0.597246
-0.631772
-0.0583573
0.900545
-0.171947
0.330905
-0.172354
0.617065
-0.610388
0.115051
-0.50072
0.747221
0.092257
0.895977
0.00784978
-0.600255
0.286974
0.298408
0.550089
0.956189
-0.0412729
0.24619
0.29559
-0.1674
0.0939717
0.687623
-0.0572077
-0.244069
0.291458
-0.29814
0.331179
0.6107
-0.42061
-0.0687013
0.863367
0.408329
-0.383295
-0.492269
-0.0256944
0.963253
0.465915
-0.216292
-0.950408
-0.829675
-0.959771
0.0731059
0.350904
-0.596901
0.184861
0.386879
0.189695
-0.7657
0.045203
0.355002
0.299943
-1.18045
0.468879
0.0196198
0.0945994
0.837956
0.842784
-0.348555
0.932257
0.832266
0.702056
1.19689
-0.108387
-0.265085
-0.426054
-0.311804
0.684338
0.299469
-0.198569
0.295355
-0.412139
0.705356
0.3535
0.33488
0.992884
-0.7733
-0.909551
-0.669831
0.211637
0.732702
0.201607
-0.252511
0.93512
0.0113007
1.33738
0.827624
0.449717
-0.618
0.596821
0.624061
1.34002
-0.10654
-0.0663885
0.208639
0.455797
0.603719
0.207508
-0.147402
0.924743
0.453755
0.990372
-0.430662
-0.216314
-0.0787
0.557758
0.58311
-0.0620666
-0.687548
0.00678827
0.782784
0.660596
-0.0158629
-0.264611
0.964004
1.06239
-0.727948
-0.894827
0.273659
-0.275364
0.767858
-0.266135
-0.00603537
0.209035
-0.266347
-0.628114
-0.448373
0.440094
0.585362
1.01859
0.883662
-0.422786
-0.3582
0.127091
-0.882233
0.886397
-0.136112
0.638882
0.419351
-0.398309
0.681771
-0.546029
-0.00404099
-0.0395402
0.625064
-0.132498
-0.765692
0.417599
0.056426
0.0658849
0.357069
0.719474
-0.877031
0.391924
0.174379
-0.846342
-0.0988206
-0.569648
0.913703
0.653758
-0.8236
0.7982
-0.3466
0.0868
0.488378
0.788305
-0.493404
0.0820618
0.888592
-0.865791
-0.672258
0.962991
0.4557
-0.8382
-0.339013
-0.521618
0.297095
-0.678101
-0.918799
-0.3172
-0.0307
0.3847
-0.0408415
0.975515
-0.8545
-0.9053
-0.6346
-0.0049
-0.2383
0.6309
0.1998
0.7895
0.285095
0.335605
-0.483948
0.000658543
-0.807527
0.232305
-0.373908
-0.366383
0.286088
0.844733
0.973648
0.533228
0.698912
0.0313924
0.794469
0.421669
-0.510567
0.145672
0.0152476
0.605034
-0.998868
-0.359084
0.0813
-0.236
-0.8186
-0.1876
0.376198
0.81741
0.156881
-0.779257
-0.629535
0.354817
0.218449
0.449234
0.0681737
0.41198
0.0680323
-0.415392
-0.592923
-0.79645
-0.879565
-0.0242879
0.509607
-0.594545
-0.915859
-0.92091
0.57685
-0.0661966
-0.304185
-0.780184
-0.888399
0.437461
0.9766
0.7487
0.0452695
0.794742
0.194898
-0.0249588
-0.216209
0.438011
-1.01269
0.385388
-0.719219
-0.260692
0.904807
-0.319277
-0.758687
-0.814898
0.749345
0.423436
-1.19147
0.540172
0.622686
-0.317928
-0.755781
-0.533229
-0.0153855
0.421232
-0.27199
0.562869
0.856787
-0.4884
0.592212
0.578777
0.269873
0.585461
-1.21645
-0.885604
0.541648
-0.151664
0.257263
-0.166179
-0.670481
-0.539629
0.257497
-0.167318
0.518524
-0.376581
-0.82456
-0.381592
0.0600286
-0.0722248
-1.09286
0.0582686
-0.0770555
0.69243
-0.301703
-0.324723
0.0853014
-0.4153
-0.194368
-0.620222
0.182763
-0.880567
-0.446841
-0.638862
-0.390562
-1.21329
-0.591715
0.943309
0.101365
-0.210267
-0.453817
0.381587
-0.630652
-1.34852
0.182427
-1.42843
-0.596805
-1.01425
-0.0901447
0.0311767
0.404205
0.362235
-0.772317
0.599499
-0.596743
-0.5313
-0.100527
-1.06947
-0.825318
0.382015
-1.04697
-0.181468
0.00792347
0.607665
-0.310008
-0.0349787
0.329316
0.0377531
-0.837507
-0.0867283
0.0462289
-0.433978
-1.79233
-1.89994
-1.5179
-0.869781
0.407251
-0.425525
-0.328143
0.37418
-0.187025
-0.657518
0.728082
0.8325
-0.856791
-1.03952
0.0303061
-0.363082
-0.337833
-0.0273571
0.578318
-0.502642
1.06186
0.498057
0.893794
-0.311437
-0.425201
-0.562735
-0.376727
-0.282825
-1.48109
-1.39374
-0.187347
0.201886
-0.639924
0.567432
0.0987671
0.0406075
0.39539
0.328836
-0.8787
-0.8722
-0.692716
0.247179
-1.27284
-0.815208
-0.382235
-0.397791
-0.501299
0.61642
0.047227
0.937745
0.326625
0.565703
-0.37145
0.230235
-0.340251
-0.419203
-1.11946
-0.85206
-0.40121
-0.681899
-0.20319
-0.100258
-0.0588052
-0.799062
0.569916
0.269526
-0.0975
0.8896
-0.808035
0.505273
0.399714
-0.86406
0.380635
-1.14374
-0.583408
0.584073
0.446538
1.57721
-0.151828
-0.690936
0.620877
-1.16802
0.172346
-0.101798
-1.03498
-0.0143014
-0.955143
-0.669499
-0.963333
0.451134
-0.992626
0.361606
-0.58004
0.0480684
0.677239
0.1301
-0.892723
0.954413
0.143351
0.0648852
-0.985822
0.288646
0.137523
-0.284232
1.03107
-0.111117
-0.430971
0.0271665
0.32148
-1.18371
-0.0298469
-0.833839
-0.407402
0.0655603
-0.107902
-0.629907
-1.02159
0.265533
0.0219955
-0.64884
-0.662301
0.707413
-0.610166
-0.2792
0.48977
0.788543
-0.121841
0.775357
0.0848314
-0.101903
0.0974701
-0.261895
-0.657942
0.504971
0.0775794
-0.280983
0.837925
-0.564803
0.262489
-0.830337
0.536777
-1.32202
-0.328355
0.229106
-0.335103
-1.19333
-0.275051
-0.146642
-1.13809
0.3599
0.8066
0.5912
0.611934
-0.687096
0.272186
0.414566
0.31639
-0.412102
0.667086
-0.319571
1.10799
0.681229
0.522455
-0.598218
0.0238512
-0.647954
0.340424
0.951532
-0.514336
-0.141435
-0.315965
-0.849857
0.366812
-0.0918309
0.414553
-0.787766
0.509926
0.282982
0.0158
0.7566
-0.0328962
0.875891
0.375778
0.492421
-0.951803
0.000269822
0.585664
0.0150142
0.453268
0.653916
-0.220854
0.0138602
0.161449
0.975488
0.787775
-0.252488
-0.611685
0.245602
0.0287719
-0.750327
-0.98732
-0.0687485
-0.743018
-0.260028
0.293485
-0.19981
-0.646699
0.1268
0.895958
-0.950624
-0.243662
0.380443
0.300108
0.191434
0.161288
0.325165
0.0869729
0.701345
0.38067
0.845127
-0.069741
0.0613851
0.0818114
-0.0557271
1.02644
-0.341257
-0.366798
-1.07552
-0.195474
-0.487573
-0.262911
0.311933
-0.201293
0.70363
-0.7841
-0.9682
0.514694
0.0521624
0.579233
-0.30792
0.229587
-0.565449
-0.00900863
0.739206
0.764479
1.00918
0.352699
0.159018
0.360907
0.523093
-0.706817
1.06881
0.632446
-0.494443
-0.371568
-0.392307
0.252027
0.304566
0.495572
-0.485749
-0.265286
0.780977
0.980584
0.579221
-0.523106
0.108419
-0.665597
0.621344
-1.27155
-0.0378096
0.609642
0.179021
1.26487
0.564526
0.176957
0.183385
-0.33762
0.397937
0.231665
-0.381339
-0.520553
-0.219367
-0.464006
-0.485959
-0.202103
-0.246116
-0.186377
-0.424276
-0.457666
-0.790544
-0.795396
-0.813578
-0.733789
0.0514364
-0.576072
-0.119063
0.0958109
-0.816807
-0.207909
0.259013
0.260419
1.96058
0.12996
0.187337
-0.00872931
0.537419
0.195113
-0.200803
0.3809
-1.18491
0.357567
-0.142413
-0.664962
-0.99418
0.147867
0.665719
-0.614133
0.867474
0.929954
-0.203628
-0.178257
0.160515
0.541444
0.521525
-0.045835
0.132031
1.48725
0.0895996
0.553375
0.52121
1.46316
-0.237664
0.593
-0.940211
-0.399519
-0.32825
-1.179
-0.208034
0.0270146
-0.112394
0.417256
-0.960507
0.260481
-0.270376
-0.29295
-0.136994
-0.645184
0.224436
0.217824
1.09396
-0.352343
-0.0913876
-0.178632
-0.786254
-0.441674
1.17571
0.482779
1.63841
0.730239
-0.449166
0.128691
0.621413
0.444488
0.633321
-0.123996
-0.651664
-0.119941
-0.130378
-1.11843
-0.101219
-0.806659
-0.419002
0.430889
0.442524
0.654
-0.0142
0.933205
0.785273
-0.845317
-0.184487
0.257632
-0.0583096
-0.257371
0.663773
0.649061
1.16304
-0.388623
0.318578
0.472957
0.236997
-0.208686
0.961567
-0.952663
-0.214751
-0.259771
-0.0122516
0.928264
-0.805613
0.360038
-0.000412001
0.347557
0.1212
-0.379
-0.6158
0.779909
-1.06933
0.393014
0.634985
0.0602354
-1.02947
-0.0899812
0.293466
0.90183
1.38992
-0.209171
0.47299
-0.126053
-0.0791563
-0.222486
-0.236074
-0.475039
-0.707795
-0.598255
-0.57497
0.411754
-0.213033
-0.390966
0.762978
-0.343174
-0.916249
0.7793
-0.155931
0.0141231
0.641062
-0.798017
-0.670711
-0.845592
-0.127365
-0.0887568
1.02848
1.4104
1.47469
0.0919477
0.86567
-0.972897
-0.786677
0.874497
0.513984
-1.0127
-0.0958401
0.925428
-0.699302
-0.966545
0.000573115
-0.110721
-0.348418
-0.865577
0.0433873
0.0815
0.479582
-0.935622
-0.780861
0.344307
0.570329
-1.01758
-1.26169
-0.390533
1.40245
0.0327825
1.53291
-0.31393
0.783626
-0.653533
0.367012
-0.874657
0.191266
-0.209795
-0.831804
-0.926268
0.265879
0.914689
-1.04928
0.437151
0.225802
0.754813
-0.31159
0.9503
0.586992
0.984856
0.524269
0.257272
0.583718
-0.403335
-0.4777
-0.307944
1.07726
-0.192325
0.403766
0.652891
0.846314
0.810402
0.343322
0.0399896
-0.872885
-0.522669
-1.01248
0.628527
0.159243
0.634287
-1.38418
-0.546429
0.733485
-0.643117
-0.787598
-0.8156
0.375986
-0.625272
0.475265
-0.826786
-0.527988
-0.132891
-0.0855466
0.44789
0.238917
-0.831577
0.17203
-0.573049
0.264168
0.959422
0.0191438
0.144125
-0.147851
-0.579608
-0.550586
-1.25732
-0.577682
0.378528
-0.0384492
-1.07528
0.733915
0.893805
0.0381964
0.5865
-0.249208
-0.358001
0.489718
0.330044
-0.38267
-0.907215
-0.69972
-0.130555
0.828838
0.653507
-0.851037
-0.705133
0.815186
-0.138844
-0.415353
-0.702261
0.805909
-0.710922
0.344872
0.334895
0.457765
0.713886
0.754138
-0.486808
-0.325319
0.608233
-0.0202346
-0.1628
-0.8953
-0.931237
-0.761768
-0.54265
-0.488127
0.218267
-0.102147
0.189138
-0.150742
0.145044
-0.811215
0.854764
0.400232
-0.84526
-0.121469
-0.605904
0.857685
-0.2289
0.0288378
-0.789655
-0.875174
0.23251
0.449599
-0.666935
0.321832
-0.527997
-0.947149
0.4139
-0.6258
0.2572
0.8588
0.718924
-0.445123
-0.26941
-0.249627
0.301426
0.63882
0.699811
-0.238088
-0.6321
-0.7714
-0.9512
0.3851
0.8211
-0.5084
-0.0267
-0.7554
0.7282
0.9383
-0.516925
0.162
0.8891
-0.8203
0.2427
0.4799
0.8104
-0.4025
0.538
0.5082
0.0815004
0.904352
0.880636
0.84546
-0.375683
-0.0725567
-0.646338
0.784351
-0.0680426
0.139801
-0.751637
0.87983
-0.825032
-0.920221
-0.531379
-0.974393
-0.701417
0.0994476
-0.246871
-0.804601
-0.2606
-0.9643
0.5003
0.043
0.3267
-0.5974
-0.359
0.274122
-0.401591
0.110269
-0.154714
0.467273
-0.57947
-0.842504
0.873548
-0.375003
0.00319648
0.766567
-0.0335118
-0.343635
0.875148
-0.264771
-0.314084
0.73316
-0.934695
-0.0951247
-0.244829
-0.11916
0.764414
-0.642671
-0.97511
0.329005
-0.145498
0.2467
0.198745
-0.0349262
0.772194
0.0508042
0.556839
-0.74156
0.959265
-0.606625
0.501154
-0.605851
0.416079
0.0462145
-0.684179
-0.559978
-0.309012
-0.332383
0.24746
-0.734978
-0.808605
-0.424571
0.36869
-0.188282
-0.152667
0.660986
-0.806751
-0.565086
-0.636648
-0.4266
0.133342
-0.0828787
0.259453
0.613386
-0.065322
0.893846
-0.774919
0.845124
-0.0414539
-0.985857
0.0600869
-0.219378
0.337759
0.610631
-0.257007
-0.236911
0.679818
0.9444
-1.01609
0.756033
-0.387318
-0.591411
0.866878
-0.663781
0.284688
-0.250467
-0.64104
0.0981
0.0279193
-0.294132
0.0630256
0.752323
-0.517527
0.20179
0.59085
-0.170296
-0.204386
0.333797
-1.07336
0.322403
-0.827786
0.687739
-0.479035
0.449382
-0.635371
-0.719769
-0.465592
0.333179
0.310195
-0.709132
0.277753
0.666487
-0.53799
-0.230268
0.14358
0.6184
-0.725002
-0.462305
-0.3558
-0.046703
-0.31152
-0.74888
0.832396
-1.36646
-1.13841
-0.166907
-0.433131
-0.558616
-0.699122
-0.145334
-0.272049
0.136305
-0.323615
-0.163034
-0.0175998
0.0827596
-1.12063
-0.377885
-0.661103
-0.400149
-0.0267606
-0.933685
-0.0549752
-0.6495
0.474396
0.634785
-0.691034
0.398645
0.342473
0.838451
0.0588236
-0.802099
-0.131103
0.323061
0.114144
0.202794
0.193106
0.319377
-0.343
0.538581
0.186921
0.339984
-0.729384
-0.546368
0.138784
0.0422227
0.032108
-0.543626
-0.304964
0.790243
0.0415
-0.5026
0.923319
0.797085
-1.08991
-0.641851
0.00842039
-0.266969
-1.50178
0.317629
-0.587289
0.613603
1.05028
-0.0293557
-0.683327
0.703891
1.21219
-0.440755
-0.254025
-0.972083
-0.0582517
-0.371744
-0.285779
-1.07768
0.385664
0.239428
-0.579819
-0.12176
0.7612
-0.8871
-0.348152
0.327764
0.565707
0.173016
-0.108125
-0.980162
-0.883665
-1.24294
-0.859702
0.575179
-0.0554526
0.00606703
0.308665
0.65614
-0.101015
-0.370181
0.201536
0.75316
-0.111851
0.10747
-0.199706
-0.417291
-0.593477
0.291399
-0.324773
0.636461
0.45917
0.9883
0.0174183
0.551951
-0.490901
-0.386971
-0.839662
0.460438
0.549088
-0.480406
0.565801
-0.357256
0.437852
0.557899
0.0032221
-0.00254608
0.298404
-0.567599
-0.470332
0.884131
1.11498
-1.03049
-0.805274
0.247203
-0.511211
-1.04131
0.0208041
0.858846
0.296813
-0.4571
0.307638
-1.10694
0.208887
0.111323
-0.680439
-0.668483
-0.694643
0.358702
0.0379937
-0.363874
-0.0203629
0.551583
1.00055
0.265164
1.0914
-0.761021
0.854602
0.491462
0.359903
1.00457
0.235353
-0.60527
0.139831
-0.567671
-0.999686
0.864968
-0.5538
0.3851
-0.432386
0.632866
-0.782857
0.0866046
-1.14672
0.256208
0.0718495
-0.64078
-0.266623
-0.0129898
0.110874
0.613516
-0.38137
-0.873943
0.553618
0.972145
-0.620683
0.172418
1.05968
0.367758
0.81111
0.443944
0.13374
-0.647267
-0.311447
0.53017
0.9778
-0.488
0.351784
0.705419
-0.576548
-0.433934
-0.480932
-1.12828
-0.103555
-0.36311
-0.695214
-0.0190152
0.842339
0.624084
1.16647
0.74266
-0.450087
-0.316703
0.37925
-0.260199
-0.0521893
1.16756
-0.145889
0.314751
0.11738
-0.0330268
-0.647373
0.0278372
0.926974
-0.6321
0.656519
-0.464259
0.829379
0.853344
0.779554
-0.842132
-0.882931
0.292875
-0.838137
-1.12503
-0.0270615
0.16743
0.806363
0.0952495
0.976866
-0.362174
0.951184
0.759095
-0.257822
1.12031
0.428344
1.35479
1.37616
0.058319
0.224645
0.543326
-0.0032
0.812807
-0.32432
-0.319524
-0.641925
0.00691278
0.970243
0.246164
-0.0867652
-0.62777
-0.614286
-0.289022
-0.68133
-0.0810054
-1.1399
0.0599894
-1.24095
0.216651
-0.832173
0.564689
1.19782
0.638284
0.425684
0.376759
-0.381298
-0.48308
1.45001
0.67687
0.535994
0.692522
0.848977
-0.412496
1.12862
-0.143609
0.0559162
-0.177124
0.839616
0.134163
-0.591213
0.41599
0.589886
-0.737729
0.636338
-0.481086
-0.0317317
-0.674222
0.205361
-0.462393
-0.188397
0.287487
0.683057
1.08554
0.427097
0.551533
-0.604582
0.500564
0.727521
0.156132
-0.569392
0.573729
-0.0379793
-0.296292
-0.192146
-0.0542877
0.82961
-0.472542
-0.193877
-0.811889
-0.572472
-0.152732
-0.969951
-0.754163
-1.34357
0.529418
0.773267
-0.86831
1.06111
1.08385
0.187782
0.310154
0.0794749
0.462133
0.953762
-0.12173
-0.689806
-0.10677
-0.584582
-0.548939
-0.425319
-0.689993
0.622232
-0.490016
0.798102
0.129218
-0.135582
0.104862
0.226235
-0.377419
0.418688
-0.429835
-0.340631
1.04481
0.279064
0.952647
0.26412
0.337874
0.857211
1.65449
1.35536
0.0844861
0.903686
0.671499
-0.334999
0.0565063
0.524202
0.782665
-0.521626
-0.00327677
0.395547
-0.266359
-0.295001
-0.121287
0.0339458
-0.416972
-0.477017
-0.894057
0.0884648
0.332557
0.875236
0.977563
0.67345
0.521047
0.85847
0.510176
0.363997
0.585934
0.879699
1.05996
0.324978
0.414308
0.0211
0.9301
-0.0736947
-1.12139
-0.199286
0.949994
-0.813326
0.311816
-0.336757
0.611568
-0.255437
-0.378847
0.552251
-0.500336
0.608036
0.466285
0.0230545
0.923151
1.94567
0.312782
0.587717
-0.034626
0.780881
0.480336
0.645608
1.35088
0.460143
0.221668
-0.1295
0.6542
-0.0538258
-0.819462
0.445608
0.482804
-0.369112
